{"layers":[{"numNeurons":18,"numInputs":784,"activation":"relu","weights":[[0.024573974209311324,0.021930085647612334,0.04746746599050439,0.0479052003898541,0.018974453305404308,0.019933899722118016,0.024735350000909675,0.0154204200234655,0.013913195271679266,0.0012702280910304173,0.0407138409538828,0.026712391464943152,0.007346895503788617,0.014847417091641436,0.00017926359244042247,0.014302689134165193,0.014963206814215748,0.03302581833967516,0.027462852798262754,0.006437232981414778,0.026193864056860496,0.023882504874796533,0.0024081923215228426,0.026812734916755752,0.001876874480937792,0.04747636263368853,0.035062404514903646,0.03781927630474252,0.0025209475776258945,0.04503229606454885,0.002516840552397188,0.03219801445087481,0.03320645256848275,0.00621762855002497,0.03815995658502996,0.008936767225577286,0.04115084433501656,0.06494004016583596,0.055846602715149816,0.04413156251733623,0.017229618011737804,0.021714811117192385,0.022485216140369427,0.026809721890876357,0.03895637859611974,0.0412935937362321,0.02598325422727675,0.03850770224699822,0.0234735610911863,0.03252647531558237,0.0294486196982064,0.019483565011959154,0.016935920139496314,0.04691298186507801,0.017441966752406796,0.043020380698675045,0.02651424531823101,0.03192476857246824,0.045557950376757764,0.02234310437925394,0.04028024727415204,0.042392341906728165,0.02912048712913161,0.07506320482582453,0.0701616057309369,0.056363681455414226,0.014694242468154883,-0.039877225433810046,0.001418314794386823,0.1340145942472024,0.06037326685636147,0.08152179318778748,0.04858295798149472,0.1281693384041324,0.027346091379194176,0.02675646588595722,0.04050279355794557,0.08237371681442114,0.053612104959388916,0.0041479628319928226,0.04142299445651439,0.028440815637051656,0.0013972363349793932,0.006199552695102406,0.03645086828111889,0.02705383436033141,0.03524688857657173,0.005649723877995007,0.014403697946384662,-0.003614507959844461,0.04954962558891293,0.07038947654057576,0.1402657838134889,0.22858624633058958,0.24976917134623572,0.15431882785850215,0.05622011506478121,0.22536217846121234,0.08485578348890853,0.011378772118066253,-0.09905641856425419,-0.046623769897925015,0.14518137619477636,0.12880509083519626,0.1643538717908111,0.25003687802736463,0.0814910942262345,-0.007033661832106858,0.0028543574999853154,0.022884383391168574,0.019218557753309797,0.004364299990726179,0.010901904038466415,0.04026019256562902,0.001129935236374864,0.042392570123326506,0.04725886872177698,-0.17382225215992747,-0.1256633746165411,0.0469686385452511,-0.10058466814684734,-0.012500055434155286,0.11725102800298365,0.11659478927412358,-0.059957371637411536,-0.27679150274332004,-0.03770175033627035,0.5222111780304115,0.2906556493860671,0.17092409781736523,0.2532567645121857,-0.05470560795296146,-0.0932002031047543,0.13067043397746644,0.12842358950731234,0.09490140920254378,0.10833709528736657,0.05466139660339427,0.011240294294621726,0.046512642268621014,0.04210184196239906,0.02234445466610666,0.04500438385542244,-0.026597180970146565,-0.10521090390253021,-0.19767704273358291,-0.07534381518429986,-0.10857662782854438,0.08752122786630606,0.2764627587968288,0.18898903133326592,0.7559298109187716,0.1954757564979589,-0.044343689958687524,-0.23269176501768438,0.04950937878567516,-0.10687012762100769,0.11099949911457575,0.42091574822357214,-0.03872668442204435,-0.09083900522364122,0.1116309612176821,-0.002310183550050124,0.14674336266214222,0.21811381821439874,0.06761375507684379,0.08037382072188524,0.015735280540545828,0.04348467007928716,0.024812264745074485,0.010958906343347953,-0.04286000174261399,-0.09673140986254851,0.2772185339369237,0.09693398111394043,0.07404091827170076,0.3643698578007056,-0.0799543038786802,0.351566592264501,-0.05351549895174817,-0.2525616025217321,0.19982664584890944,-0.2580886733288317,-0.01268904363951914,0.29492517989525996,0.10988437343501352,-0.14602400088616482,-0.07084865697881855,-0.3552544833186662,-0.1749790583778612,-0.1069391163165618,0.11743797084105263,0.16836398482865558,0.14327969439785376,0.14156826816970633,0.021626608803813212,0.003338003301991333,0.02210882177378634,0.032036503954723045,-0.10668763002574766,-0.25671125949000806,0.16336208213445405,0.14117071275451723,0.6366801028430925,0.4085340837650827,0.016326991810120997,0.6381896988826625,0.5944205815054941,-0.23785104879657493,-0.40143778508051176,-0.0006436516326172989,-0.26789879355294866,-0.0931310893354879,-0.10452401686288379,-0.1366859632870048,-0.25917886210940455,-0.43251831865504115,-0.13387340967477054,-0.266238508293572,0.0094845795994517,0.12886051431051992,0.13869262214485487,0.11273289519045739,0.02669940295104329,0.039061036913019966,0.03863234725492157,0.03419725448718826,0.013535901384651647,-0.2011529711150031,0.04334019481831212,0.25411615065447607,0.28136195737148223,0.287241777399647,0.14012455432864482,0.31951909741782286,0.3367562763809465,0.16720972178553536,-0.6621937311540474,-0.15469490690031726,-0.01278900037561366,-0.25481257502319415,-0.11160223372213361,0.3013912515365253,0.20946805388689224,-0.0058958984534818355,0.03374481839989103,-0.21527179970760382,-0.06892464641277841,0.22362923497181822,0.16948321087879664,0.06476581531680742,0.019198449429487802,0.007328283707345802,0.06711305606241229,0.09941453937818726,0.09995284556715862,-0.11099389260580093,-0.19190430711411435,-0.0719678783788298,0.12925480517497948,0.09105568194814932,0.30762855652641385,0.8123750465438571,0.8014690022069998,-0.20103480529675707,-1.1769993080025924,-0.8211623384961442,-0.05225176442195265,-0.23786256465548555,-0.4046546822852447,-0.06980074963380092,0.1451707715163749,0.02161114631725852,0.2799307915871526,-0.1532638370030787,0.16018524361922873,0.4322542806546859,0.3519746314432185,0.11736834190054521,0.03795504893840652,0.045217968934329604,0.052380744624757676,0.12436891522584889,0.15481775149253169,-0.24991300884140502,0.08593910995271616,0.07966067928329469,0.18620366239764746,0.34478344703058084,0.47835562619756106,0.29861550672777165,0.3632853557699656,-0.3928553921868079,-1.1653384530694906,-0.3854639457628847,0.28942944276266896,0.13179384084790977,0.23788753961033574,-0.03466307647992039,-0.5128355117315638,0.06344956016606881,0.2059922752013644,0.226300549462223,0.12374740541898675,0.3053454946542002,0.33843329509261383,0.12181935084557972,0.039515285260299425,0.03823290274109813,0.0748021578059887,0.2501102309793954,0.29702814674394634,-0.143134327996783,0.10234928492128867,0.4874350810439823,0.26295586176695057,0.36390030418528646,0.25082080463555123,0.18389907774716016,0.5157846543561202,-0.6973816383600095,-0.5081646099219576,-0.11591972640884224,-0.043298126968817255,0.23375668387317222,0.5325082017069152,0.41593674020828697,-0.24622552376529858,0.18893022282940028,0.3089816772752808,0.08206732887235847,0.20797062323230903,0.2679841166288397,0.08702427004789318,-0.034304525107318115,0.03884183871078233,0.012113844194723772,0.039797722788329055,0.174172734959267,0.527934956340363,0.378204879483349,0.1826868390512187,0.48808526309814654,0.008251828525793623,0.6593766214662001,0.4546670630547322,0.6079364950031447,0.36175099825088386,-0.6805120991624323,-0.7023622176541124,-0.3022047563234873,-0.20244352412196104,0.10849098954769262,-0.10945496101099045,0.2742194326445501,-0.006846051510009506,0.4744348235231821,-0.050038801399026646,-0.047217194872000504,0.17011193733524815,0.27295299176560395,-0.07874965734901035,0.01707493118743212,0.03512568205576499,0.04609950898501666,0.03239161412726633,0.12433234250805549,0.43886748568205336,0.4821370471250704,0.3589788878578735,-0.04116182079382718,0.11983532859348535,0.27588391824448993,0.5846969223056937,0.6718784806283384,-0.011694138415751131,-0.7968643384467892,-0.6606432597468727,-0.8966478928111498,-0.27458804179614305,-0.5171238478148584,-0.00979652825179974,-0.4012367300687419,-0.07319487487061185,-0.08149559016971324,0.05320590683328906,0.11561604034922829,0.2686135744982969,0.5471006555022887,0.03949905247924592,0.047381625509434075,0.02053400481857002,0.002328103111823251,0.05488522068640445,0.0749717906018817,0.2934074688952547,0.49269490963995666,0.3182783833388999,-0.09777607455635934,0.17293002447090292,0.2278782344145642,0.08924230902411662,0.19724372413675734,-0.47152600882284673,-0.9396236941348985,-0.5384713513310939,-0.6355066774533059,-0.4683736070647342,-0.2702346032819745,0.008792311801695821,0.28443009987064954,-0.4737437659644718,0.27684276075975395,0.07312684617918681,0.46139208293374606,0.5614146345711332,0.5456215119638606,-0.0065198781215410635,0.033175155524205996,0.031927861694649805,0.0009817914791954334,0.004544531992677165,0.035022738689716906,0.22340459438446175,0.22555996884021362,0.513596021544127,0.12927423526598303,0.21531964636235984,-0.047618446631886864,0.2210744171284092,0.16352699324787817,-0.07461449932148567,-0.6816608078283738,-0.22325632368883858,-0.6911716570158101,-0.8247294188737507,-0.27284617019054863,0.04612297017094622,0.34266434462302653,-0.11609197304406749,0.08407156905668274,0.16494068668547157,-0.05034975032785997,-0.024249390547388523,0.05100940672174866,-0.018525964401725728,0.014324615494672465,0.0262507818651815,0.013113068138802605,0.008581953194474665,0.0007122138764327744,0.08935106420293117,0.12326205696995718,0.306600852214901,0.3287738551441461,0.19494137142182147,0.22319162111170085,0.09625342872374221,-0.09032287226703457,-0.54904072665762,-0.4399508576871282,-0.2628555313703912,-0.48742363163591984,-0.5927559355233354,-0.1729936746889315,-0.21407146186912435,0.0478962212880449,-0.09046668321720101,0.00939757663478168,-0.08140352446659871,-0.056208525073778236,0.045770635249911804,0.37916805509250784,0.015423608947039447,0.012622487298478745,0.002071385039641505,0.008243942194169617,0.023078507089255237,0.02775927467211097,0.0655936541575616,0.00884198984803986,-0.09613206712961972,-0.03720863743778005,0.5118432685587391,0.08647082279966241,0.03150067236133377,0.38159816004420716,0.132949385375977,0.13570816530938612,-0.422550647879807,-0.5384827960107299,-0.737090044397299,-0.18915586324514627,-0.03190208685509777,0.1059423234127606,0.5633280892129238,0.35037665899346004,0.060446253642092815,0.12880950665172877,0.15333372512223975,0.4775766349099241,0.04227600213221393,-0.02535134712072757,-0.05614074406193714,0.03118698745903615,0.02435543721293169,0.05861482489789308,0.06754661807788531,0.032116300881430436,-0.7771249994465305,-0.3596780350007951,-0.018578325075377444,-0.22686082481000927,-0.07275833513334642,0.19367261307172015,0.022199033289744725,-0.08148246358130563,-0.32311198164131927,-0.7953748603905109,-0.7240545658537485,-0.27129506141692983,0.7600372666204246,0.45657675890230376,0.40863845547079386,0.4639273055626554,0.34184502315222276,0.5226696818197815,0.1509310625404182,0.30187224633905596,-0.16482267374449153,-0.11357735510735073,-0.06308428055157156,0.011155333776747234,0.008165029164106302,0.16113443895624685,0.1392486802611571,0.2808382354365245,-0.31146415407138534,-0.061470612194575225,0.3824607968530043,0.09043976796386793,0.24242195477717787,0.12561126661967945,0.4382443364613756,0.5416806237087388,-0.500688744811244,-0.961190543621909,-0.10044667765895096,0.5788612586313544,0.47372847283773895,0.5266177071726322,-0.13072136613700008,0.2834281394342869,0.4474680652469413,0.26382161763871403,0.11740795574161655,0.22084314558732485,-0.1096634275151569,-0.015720320175976583,0.035963836758510205,0.02559212502239785,0.023703384771830274,0.07255631293204354,-0.02699631104682168,0.20771066621734235,0.38646933762097485,0.08298928318504138,-0.46815844375793925,-0.14093405070778206,-0.050087754290945516,-0.40403227745473286,-0.24029028115171103,-0.20921370628911437,-0.9357562913474176,-0.6792950638990835,0.25350800654204736,0.303301981097838,0.32572286702287795,0.04344093698283754,0.10358647373092592,-0.1954416339694114,-0.1394133783647945,0.01547662557194868,0.22095166916020054,0.1352749689287516,0.0013087266638733867,0.011371418578782964,0.04882141849512257,0.02600163694410807,0.03145862490102863,-0.00012101167785566946,-0.1736795775344927,-0.2300592678119951,0.17947290954336517,0.329870634544531,0.011797715100416559,-0.24320232865832467,-0.10268476618683758,0.15577186706819407,-0.24347827412667336,-0.05595472980582414,-0.7451977376990101,-0.29065828152909495,0.09849272272734622,0.11910431238251512,0.036254703463969064,0.1143057589785848,-0.14818239855923482,0.06951576052507596,0.08395128790077949,0.005239838167036049,0.24628625574338517,0.10915871831832337,0.06894136160942757,0.00977671354703706,0.020272380822017225,0.003278128502890813,0.0399821424458519,-0.0008859059249114098,-0.12463059507919941,-0.2858257673541733,-0.1030945569992549,-0.22448648219967335,-0.37806097182882203,-0.21572974313397553,-0.5020431045887406,-0.6187275772120614,-0.5189281381356442,-0.6487429940474723,-0.3205321398843011,0.5127505840897028,0.6422961631509769,0.47686806434403206,0.24286298290841798,0.09728871360644273,0.32707993214859,-0.09171939740869546,-0.26802665704080275,-0.0505020320964719,0.06936085808662942,-0.12955911185754956,-0.006529639052936506,0.01182440799819409,0.01749923767932435,0.032395963928712856,0.04917381206867709,0.017079009916540083,-0.004208461428605361,-0.1199269935238814,-0.21098769638487289,-0.08128345938123498,-0.317171050562837,-0.38582746302600596,-0.2643856159602476,-0.05420691697845566,-0.4331546075973717,-0.30946066638609343,-0.11334482410690616,0.3876155005882812,0.23908121036490027,0.3016221006707489,0.1502258654345861,-0.05363293218450477,-0.16031130922787779,-0.1432274155958575,0.10307074411001546,0.026839574578790177,-0.22201444515575913,-0.07846790573085478,-0.023061637086267985,0.016217664589022105,0.04021050297623926,0.004168437157220519,0.01211265437603027,0.018093023307508022,0.016753672896764868,-0.023939768474228518,-0.029694383836215744,-0.0531525161049849,-0.045804938978612486,0.06144814549526785,0.10275602360803862,-0.23487247849155213,-0.23584116523700524,0.09048565436688663,-0.1293992169606823,0.3763906314033599,0.6000815885177426,0.6669870550942516,0.22210777595907072,-0.2370040945724456,0.2780710109435721,0.4876971014923188,0.40389144321904163,0.29868128423696994,-0.03969819394584524,-0.019969855950382302,0.010187552990601789,0.018330337784863697,0.004325386454804433,0.03636610082288579,0.05018715660606208,0.024414166939412136,0.03172845265371926,0.015909242128953303,0.03557827202336216,-0.002856251185330613,-0.13271387369238408,-0.30270847409959584,-0.2981542263665696,-0.5006402741362213,-0.3826679998159427,-0.262916025255958,-0.1264781980306452,0.08106530905536075,0.10205268995245588,0.528745240515838,0.45106623310014105,0.3216027659649776,0.2577027867392291,0.3099967958162612,0.4116572318189064,0.2846487415069564,0.08172861443791932,0.05970477223014152,0.021901305742390693,0.015073180242754704,0.010458608551738621,0.041201360207270284,0.02277652173732183,0.045950783988392,0.03556309043011366,0.006297671167949115,0.0015736064258724729,0.012019071426462124,0.0027986427124108777,-0.002269299668233525,-0.01834320578808574,-0.09338041004538523,-0.07604870393194414,0.033161495737406406,0.10268016380884532,0.09495987762468222,0.030973609358138202,0.06344353442038243,0.055941698295925824,0.08289566804842462,0.16837305078674128,0.19967693978327417,0.22338352717076518,0.12525196161656707,0.04103521251163824,0.03445584612278423,0.03346782473785261,0.03810960680534435,0.02222971157041922,0.006149494229335567,0.00286945606477584,0.00535501023175964,0.01401119790663606,0.007529705944180983,0.037973820582710927,0.02459885533615375,0.015558670578235926,0.033110689259400305,0.0222524433670512,0.0246943688434,0.02623370797400232,0.03766874847080186,0.022322751755207933,0.04321769868445934,0.025115458486283722,0.010241063560456213,0.021516713530890574,0.045196227549965134,0.07631931476014692,0.0956416729995734,0.08824972768543535,0.08435974110228495,0.016587010819353026,0.035029471379607796,0.005385804773981923,0.042376292850485144,0.007387390687374856],[0.013226437376397742,0.015932664736615164,0.019350505913132726,0.03584329076115072,0.023439967575862204,0.0017555655308703097,0.02914877806000526,0.02802126048333012,0.041357635510911,0.04228622535902235,0.0327870186838127,0.02869929968867111,0.02855485233437432,0.045949302768752816,0.04737425533960066,0.031869249875808206,0.04355272017334419,0.0333878593138277,0.03245516754897723,0.0254946319689194,0.02359050823268424,0.002779379775474877,0.00329190013916965,0.01198250637701277,0.02370596054062518,0.04924901839887483,0.03225073919440552,0.01256810831613737,0.001080444098372123,0.03414652525596713,0.027492396132560347,0.0281747748083643,0.04472922146002714,0.008507815575423508,0.013516055474717228,0.028407441201762775,0.03595223080488346,0.016590992486122825,-0.031132592664343442,-0.134512727486186,-0.06876305327793504,0.0299627250172315,-0.10634206318833127,-0.14775115099381608,0.007877290304985265,0.016227037952217825,-0.0024766195785218673,0.009231524148781887,0.017015799090878872,0.036633822619020505,0.049641277052653775,0.0371965482446423,0.017068588976757785,0.02377934569137865,0.03230013781483117,0.008366751182582502,0.015766954039298665,0.04979401847064615,0.024443835045600836,0.021944967860249767,0.05230019162675665,0.034815085234103475,0.03552212861537186,0.0019074998625525825,-0.009602671859780643,-0.08439569108985202,-0.23532071204960214,-0.1829617656989504,-0.098719891871738,0.09084599153198934,-0.10410103238016215,-0.12228892511506513,-0.2338410061830321,-0.13224436330422626,-0.13713050171123328,0.020972346362689704,-0.18289201846648742,-0.17915088085426936,-0.09203027480359152,-0.0409925085784963,0.008768938591802139,0.03331942214843639,0.02027662302583555,0.028513325249570277,0.04135846856346387,0.001108812949109799,0.02630996051059068,0.0195815888462344,-0.002097847646442351,0.050451728158808676,0.09026050837869341,0.04477390604011482,0.018986248884299606,0.09329261000275715,0.12812757776859363,0.020564438225478085,0.16991019675287208,0.02152300128421596,-0.011782211275703336,0.272976247548458,0.17472194156600834,-0.07262772258525431,0.4927687866837744,-0.02092026134258576,-0.07908568806624254,-0.5774502549667964,-0.320985352579841,-0.041844992534853374,-0.13010899598821526,0.008024114583569641,0.02755749438760006,0.026822439369700607,0.001480666667559938,0.010346900239481205,0.01212206828432316,0.034384343429685826,0.015694356597276915,0.05426922466228584,0.07747150306908021,0.15142960919326262,0.23107817995470098,0.34137533899896727,0.2797177203226651,-0.029627947998304417,-0.10187857983593772,0.4435298407290796,-0.059101918820047755,0.21468749484863078,-0.06316756092053623,-0.06358980248575372,0.14951298426647014,0.06971794224577327,0.25266799070672413,0.23311657480899084,-0.2149790790305034,0.026046384770304458,0.248944971487439,0.1593622200445563,-0.002054336650817381,0.015619494562484614,0.02980591678774615,0.04970142988946661,0.042512456864835096,0.08499151305417858,0.11872670961908838,0.13346026550247153,-0.0035467602935337827,-0.00474153056120892,0.07904784458539935,0.06114068412197654,0.0899015508553444,0.034042972691436635,-0.35078253007406596,0.2318611771447976,0.164919646899243,-0.11849585653948783,0.10408744562235886,0.15888020131762032,0.2760907105719706,0.29647721814283134,-0.05842235808159783,-0.028527527003762338,0.1605175098926289,-0.39399534283736165,-0.1921963125427274,0.04281060426302569,0.06486391201816812,0.047916952185906726,0.01009492720123212,0.044110780964555125,0.0198878470376258,0.1318691175099806,0.17358775182668393,-0.030280049237547534,-0.20603331916495712,-0.24134584493810046,-0.056691076218518814,-0.07436037519002921,-0.07169591077611688,-0.3280063812485807,-0.26412074117149986,-0.23551273798005015,-0.34869279178057616,-0.6160635066770704,-0.3325569027528826,0.4060610964422372,-0.11177880681021267,0.29711881653817546,-0.020046061872880976,-0.16375090046855093,0.06689770273087345,-0.14459241812722876,-0.16407145688974997,-0.4333223693924265,0.14165767572170881,0.05155581556232203,0.005249007468248676,0.04521752873617274,0.026548617376048068,0.11747196198816522,0.04841915868959209,-0.05735220111950698,-0.14545431363999053,-0.1667063649856146,-0.06626780741201575,-0.35137282042947177,-0.17170770111281305,0.2658779981633993,0.16046791886402487,-0.14747839887425068,0.3659365692733391,-0.20070610885717177,-0.04253229069764215,0.2167838627105397,-0.20235551172129976,-0.12601276864497643,-0.15223719109355796,-0.5146210439300755,0.14589516032855432,0.1756385721666129,0.2498367282455255,0.03046642176832939,0.13391603100606023,0.0186244738494511,0.009009749742249752,0.06167759222323844,0.008070245481495274,0.023426342641531633,-0.04455939371561356,-0.11354537339494494,-0.0659639675634264,-0.2534203239498878,-0.020227118806899435,-0.23020514175869675,0.310329019354578,0.28866500626139036,-0.2602529637284729,0.0064307029986961604,-0.4108159816976965,-0.21618528221191494,-0.5726431637955367,-0.507571478751967,0.11570136640402083,0.2687387563226889,0.6855819568164461,0.4198198891262493,0.4165900812118948,0.33904966954941057,0.7124977622862863,0.4063601441368366,0.15816473094321756,0.05790294836205245,0.03296483054428909,0.10321220113593517,0.018149015059540075,0.11724878749114237,-0.016017257710391055,-0.02125511506537883,0.0009170801576939757,-0.0029161577719988498,0.07271184453712158,-0.3750359291898596,-0.09237767554027969,-0.014774262352936067,-0.1299754609482702,-0.4675209073856205,-0.30117105255322635,-0.02564183094044637,-0.34010399184381174,-0.0078044192238458775,-0.7091155305046649,0.07310082577089452,0.10653947800169981,-0.10949906234117575,0.42475293121784546,0.3292089869951536,0.862562865727868,0.7176547356445335,0.2961044301766007,0.05277868489469087,0.04551281654709285,0.040025564630357634,0.09339984573899339,0.23034152499184304,-0.10950451633931857,-0.13287588440073803,-0.1283760054914521,-0.03273280065673927,0.2519394507719065,0.29264138226424224,-0.15818730878031126,-0.005309126410142724,0.15887347795986395,0.6770819142001573,0.33145208527719905,0.4793037089150659,0.3878812423230146,-0.04824994180740308,0.0522572259214351,0.33558073511055064,0.3596749367282867,0.12683560123612492,0.6475819097964577,0.9114120634340135,1.2880882562231224,1.1501997647084221,0.3597507429269455,0.041744272488801276,0.03926463620923623,-0.035398001034810424,0.10021490433147645,0.20545533066927463,-0.08723358208852681,-0.26859071269685675,-0.2884700776726566,0.07057517076324485,0.38149034349364797,-0.4786309476282393,0.01020325119141226,0.22808555482427553,0.11458719491259726,0.7613073133747379,0.6913284117362083,0.5460750488352567,0.3307008419660502,0.5781730500659757,0.2660518259978435,0.3411732049828629,-0.020099669372881098,0.20234001412410155,0.13539418931933922,0.389205595149727,0.6221354933420729,0.6837661022837815,0.2148345744813235,0.04011478934293573,0.0274241999198491,-0.017078170352075473,0.024617905645694205,0.1517071728556266,-0.03815324147261872,-0.11929435606759939,-0.44832248250554146,0.10156833680504304,-0.08142447006872111,0.24731939999227368,-0.15098469650981716,0.08615073765668772,0.1379041460195892,0.22524131443885623,0.2216612678060194,0.31789088002397287,-0.09966007013959151,-0.3168356500660812,-0.1402804558339921,-0.28515684946158804,-0.3484540493008201,-0.5668011399449913,-0.5769817537103313,-0.6356892759510978,-0.3901011784250232,0.0683219539092292,0.21318580406694054,0.013503708237378741,0.007817115398301365,0.01347509704257229,-0.05056402948613752,-0.05179088749353795,-0.23408408553471907,-0.3755075293025732,-0.6487676036261967,-0.590948510576746,0.07847524758008903,0.5005322865228075,-0.2791172031872609,-0.29206025848940464,0.32007979156352956,-0.045779924054841034,-0.13383592598522645,-0.4085240787538818,0.09462292021818342,-0.24456517259221613,-0.6004690343173663,-0.21835279669007854,-0.2028552996220431,-0.4887871374089728,-0.7196374918544091,-0.9695495212922237,-0.47778388176208775,-0.13087919403437856,-0.004095196734755963,-0.083594539479753,0.009365286191732406,0.0347409062079537,-0.05653193388123527,-0.05696062367392464,-0.2319197164303666,-0.4877492693447801,-0.4459843813777628,-1.1115793123672695,-0.8712675841909575,-0.38088556036328697,-0.16413807554627355,0.5450922024162609,0.5903812860487204,0.08483738513089088,-0.48668337832822806,-0.0219029771658333,0.02596952981106727,-0.17135923790039967,-0.07151990743925025,-0.019039097331377736,-0.04858276198069744,-0.22145963119612616,-0.11626924444115481,-0.5100256336643706,-0.33230556873402645,-0.1335635575522438,-0.0009333710617880486,0.027962064038483628,0.0417464981138519,0.007843345685747783,0.03152740655207356,0.15663725709598883,-0.036195573135396994,-0.14617063751548853,-0.03321082551860571,-1.1424883590530495,-1.4782711833314692,-1.603247750015348,-1.36815689448981,-0.6679358875828811,0.18412592542559744,-0.1735167802685944,-0.21688469641888553,-0.016163001303738152,0.10354276267943949,0.17885160013856768,0.15711362565100634,0.23508290024891892,0.21108441621867916,-0.2111623594686923,-0.1667005646956924,-0.27691656028336786,-0.23790520307881358,-0.07036124229073827,-0.02524634947468095,0.0167567901294293,0.045435214030123634,0.02782723529173056,0.05147093102887548,0.26488748319535843,0.05163001523049918,0.46360995685007156,-0.08185120786430757,-0.7190926197793567,-1.0994650890464879,-1.7884548508822307,-2.0839757458019554,-2.0794950100994907,-1.0751116662168867,-0.5413225487101591,-0.5997124995832288,-0.47994858026496395,-0.44158417009511175,0.1676927335158086,-0.11336984503078865,0.2239504280118805,0.15338855615570912,-0.023669726922858927,-0.1422971971548077,-0.21910787722950398,-0.1154377150454906,-0.153824852738922,-0.06461265086785106,0.02791448597415545,0.008542797154938471,0.02640680585875773,0.0660838606201661,0.28062371536927494,0.31851490032899804,0.27744446257448785,0.03847408114018916,0.04542708484525583,0.08824092633003365,-0.3619346525398259,-0.37226828994651684,-1.0114136575089103,-1.0891267015675479,-0.7030875330876222,-0.11450896699392515,0.08174851079027545,0.11048732565480965,-0.038594868911004554,-0.06790227549838841,0.0228903691883107,-0.25293964704159105,-0.2992969118447488,-0.6337191501292704,-0.13437001276500066,0.04247691579905549,-0.17212886052987234,0.005518883351923511,0.056931855282390746,0.014835657314255646,0.0245610630586727,0.03240803358650811,0.4213175125120344,0.3777394987306658,0.37174355748087895,0.3240613566895995,0.5118557538709043,1.4248724374553725,0.4786890327496693,0.4983800670476078,0.44022912925297364,-0.46586315894595515,-0.20325944725382503,0.36023517220306933,-0.05990877654158771,0.08162683145099471,0.2986893587767208,0.0730023270551661,0.10041377095252839,-0.18190249916884285,-0.19063013832387982,-0.04961615426600146,0.07214556675990941,0.1610371228497305,-0.11042483593061711,-0.01762166900710465,0.030851705941747232,0.03533738345183361,0.08687400474633755,0.1097939171061037,0.3479994320935673,0.28988275947277736,0.45448948760830743,0.4736891561319372,0.35573420616154416,0.6365804377966533,0.5183676749902816,0.7898840599249977,0.6446336838206186,0.2937870137412985,0.3298321556956285,0.2810976855147164,-0.33509803178170405,-0.36845462087467556,0.0182199796145302,0.2285865531130813,-0.039788651659931736,0.006480597430848659,-0.01811255605460399,0.2642794370374664,0.3006290034399475,0.06814770949427204,-0.08563373507996146,-0.012012283489244716,0.006516733982043139,0.04538473978757659,0.051739326477029696,0.07138894487728757,0.12377284353511088,0.04649154740183712,0.5567148891472391,0.5328642173558467,0.1698459189561541,0.46937268957512923,0.5174150350312502,0.8138492533425375,0.5823430793294614,-0.18082230648277214,0.5289883285151523,0.2965245919925556,0.011556690260138275,-0.1257458469994506,-0.09112891767867258,0.15112443448348087,-0.10616925777623465,0.24118896239475207,-0.1526491927959496,-0.1067539498875392,-0.06261575840997198,-0.08285509162203256,-0.04377508016967908,-0.007500541761763654,0.009660333808321493,0.050425724806941505,0.03814502710902914,-0.09481246208384649,-0.07396007513671758,-0.2733789782003434,-0.07503163293749528,-0.318978251188573,0.29633285163251477,0.6310378381255536,0.04442942967722208,-0.22536125436738721,0.21303284418654067,0.04720631437951098,0.32606950368928017,0.20835798071192224,-0.13372749032254755,-0.7375071011404968,-0.005104647865131307,-0.201465404636782,-0.271789858494856,0.1827444503080745,-0.11310587617126751,-0.30068159426665464,-0.22181398035729336,-0.1593381484928675,-0.01078006654311176,0.03431103021743112,0.045170082544238675,0.03897895640333532,0.014393113670948348,-0.08347131383344676,-0.15077692108049676,-0.2159897111537665,-0.5638316953129656,-0.5061300621610456,-0.22278006215861107,0.15516402954851005,0.030764472975876294,-0.4860323777080739,0.19133183422467695,-0.15674832428039323,-0.112586396676932,0.17293286061427868,0.28724292307959753,0.23678685775131209,0.06688345761945179,-0.1771806626998815,-0.21190178042277524,-0.36981895438119083,-0.4006227564703388,-0.24420496514914541,-0.05104442925178935,-0.06334914509461272,0.007992395225928322,0.010265752872037386,0.016299521779873108,0.034719867705307106,0.03223902664819244,0.04655514642802575,0.051532039419687085,-0.03938057174816105,-0.14050117141585974,-0.368418364715042,-0.34524650751430974,-0.08560346234315104,-0.11668033277202204,0.29289963323185625,0.5152264063183413,-0.24662184322397074,0.0029969075651223066,0.019197963493958147,0.038259234221986516,0.15559565052240076,0.13183334881004513,0.008612039907690168,-0.03129277187481898,-0.09613011935052759,-0.08984286384022451,-0.05203766062560504,0.00965884372980809,0.02412820675184242,0.031165809179400067,-0.0036057569976732317,0.017362459938757045,0.03399978414404287,0.04957086570627404,0.0461948019970348,0.04799958627922733,-0.1326325715401153,-0.02129422490145316,-0.14714711737206732,-0.1773233812733297,0.1124982312059159,-0.06329176548541154,-0.2123995231092567,0.05603524759150574,-0.2321697871125732,-0.05165630438647926,0.004888400617811722,-0.19291904598040407,0.11486615765721608,0.24917516791559005,-0.08559221201939797,-0.027657169748460553,0.004234100862642656,-0.17624185544296134,-0.007218597799059028,0.00333150505770629,0.019585026873505874,0.026824494784332506,0.02455874515980796,0.03492671615434961,0.015077520315903151,0.018795691956264085,0.025913363692326434,0.018658564900814207,-0.06666015219008796,-0.10391993516515166,-0.0801375332727708,0.04146790437158866,0.036124935704880824,-0.09236691114443078,-0.15696553109333172,0.0031528129638395035,-0.050414543536060945,0.11540688488991455,0.5205344258834318,0.35123784482368287,0.3803383324187202,0.23352363907748333,0.0658663066666777,0.09916139512427333,0.01606888500144876,-0.04773257781767547,-0.017583757864029857,-0.002527068107651013,0.0458351074416033,0.0030973114619152055,0.039993970183704146,0.027546122343280417,0.00372733077067199,0.00992827220617955,0.04431782515352509,0.004241934469042556,0.003877562117040231,0.009271812938220833,-0.04481778366609118,-0.07570089639209537,-0.13956753580399126,-0.0868874530388293,-0.047595659696861525,0.0508380773426374,0.04865417826787801,0.11644541482696572,0.17675258397000418,0.16546756434575802,0.10579978702728852,0.10232187178320243,0.04467092644545934,0.021440876932883428,0.004905740292913423,0.013635877792884414,0.03068704703417744,0.04144136370518966,0.03099467152376805,0.039603298956819105,0.045315645403058866,0.023048337372355128,0.005123175424080637,0.03862641066165838,0.04968944329708144,0.008806512232553033,0.016876197300317204,0.03694002248903491,0.0201159155332123,0.01172783477562185,-0.005670112226327213,0.021571840486211812,-0.0013334992291512216,0.012719084437944016,0.0285170766763938,0.028987848889268832,0.024921016428233307,0.0412218314375325,0.03554488803679017,0.005533598010951826,0.011572593573741647,0.018855299469257878,0.03189519505086091,0.026527237618637893,0.0239770209557655,0.03123610362654961,0.039126281084165104,0.03247246684427198,0.043274064317716215,0.04971570911718288],[0.04503086564260393,0.005341402686807371,0.008781993278199335,0.020893549748828875,0.046240774720365564,0.047882224419672215,0.03776934228170218,0.04313809176185648,0.048580496163894676,0.04260673073016302,0.012475070502807729,0.01715168855720688,0.04084002317365841,0.04477902444756736,0.04808901752430903,0.012403656069464123,0.01805546056949702,0.048707773620608574,0.03850863880606229,0.022988108951069168,0.00015547199535591348,0.04313756848770511,0.005328793173057735,0.007435269391535947,0.004767471780422097,0.034358818832943866,0.014111878422389871,0.03368846529870364,0.03226569031823729,0.03234456729689113,0.014628938049149224,0.032464364507018645,0.010050390846196359,0.034583742394716115,0.028143115170785375,-0.010544097518173643,-0.0058847159446380375,0.0016415203954569422,0.012537650689464523,0.016604355843170625,0.02997146941217357,0.028046247365079192,0.006894641362073137,-0.028159477662336292,0.023122172590814737,0.038109118775126655,0.00909364079211586,0.04564645181242835,0.030450097456609152,0.005678352988515106,0.050163832342436675,0.01559068931812107,0.008563851879114718,0.0033047913237262533,0.03924435755702886,0.03336093752594082,0.012757346395498454,0.0003603790843157446,0.028858301360455675,0.007105808080546577,0.03334311579929723,0.031958009113056234,0.004145235097141106,-0.06895718868712471,-0.07672043650875088,0.002524771864880071,0.13447772298328456,0.05192442803598175,0.03210779368634432,0.043445785566737255,-0.11732379966757545,-0.12283411229464403,-0.13349831722540023,-0.11338089077104303,-0.1069588282458727,-0.008344218419489314,0.018395175191310436,0.0287187104851475,0.014189552760338951,0.03459048870653006,0.06657476574824268,0.022336723169610214,0.0035893871294891393,0.006353215991014663,0.024345821698822177,0.04823069602384138,0.02984778370903057,0.03611608679022611,0.013252462116423188,0.09525336419078505,-0.002096350551305901,0.02711884290838332,0.1594102169246306,0.023902228298232325,0.4391284396721622,0.4945114191253232,0.7499025963881175,0.5283989420047212,0.1478669031563452,-0.15142757827176004,-0.18242582347251685,-0.10621702168748591,-0.3344804254284935,-0.3309733238715618,-0.07472018316674045,-0.063065484549514,-0.0927180495577516,-0.08183771427013505,-0.00392116020743713,0.038883342339594895,0.01733737639660297,0.00008849989399809625,0.00909448861140155,0.021124697848200535,0.049900112956405555,0.03496654160311147,0.06958244380283828,0.12602288015550903,0.18195134996907222,0.09367389811543281,0.421017414739539,0.3915352293998038,0.6023723564883179,0.6560271136363087,0.555147662465161,0.5581552319835509,0.4460612531462476,0.20669293016773746,0.02562636897657814,0.37405876766356216,-0.3330799206272388,-0.5019883116428887,-0.42316571159919314,-0.31290522650141667,-0.303279557243887,-0.23997882935182888,-0.05943524866684402,0.01852597608951002,0.04563152265659649,0.000059108923924662665,0.0055860649184775076,0.035813414263116204,0.011815335133091071,0.09055352270042051,0.3319719092592763,0.33217510060632816,0.4024105193156649,0.30400273628293234,-0.14293837230426487,-0.10169893574159278,0.5528050696262609,0.48520487207728896,0.17300021473552654,0.05880964554894676,0.22392944350988078,0.5035867425869341,0.4757206824444566,-0.10745685438389757,0.18994364183787188,-0.07310037913996333,-0.22237627663763646,-0.6142484139080434,-0.4506026155413836,-0.21851173017662257,-0.09993337685947185,0.019516456682598885,0.05220044479913722,0.014685846007257808,0.049121431078337253,0.006254915398455637,0.007379364408349268,0.28470800853356376,0.5589000649221978,0.32013800349824095,0.5983051380473796,0.3977657958946851,0.24058071385183102,0.538507461198381,0.4260409999580614,0.44488317994787707,0.5923884467467113,0.42696553216891314,0.09328667981832997,0.19240709649621918,-0.13681413728914482,0.35428995845846384,0.26254995482896104,0.18374785567811347,-0.04458018029346564,-0.221949221900986,-0.5826683894534131,-0.33674181126416375,-0.08891554638746199,0.0016135323171546552,0.02828748746568342,0.017771130831381515,0.028310401399639477,0.038329743612306885,0.011955270390183724,0.3971335622360153,0.9219732357648643,0.8131983757084112,0.42556868461290565,0.2815578331828964,0.4962999921129405,0.4608366192063737,0.17987353323437263,0.047489837432298565,0.38986807005628926,0.13951174347340375,-0.10884429630702827,-0.5126985562501988,-0.42248053733172775,-0.18517618273970787,0.24700832331375558,-0.1690365919689091,-0.3328436026352924,-0.3658234450643254,-0.5729882862812613,-0.4202422955310598,-0.19647330806821575,0.042655136076613094,0.026979716823089202,0.039675964405663657,0.022130871019468704,-0.020992123106304914,0.042008869035775054,0.3592231672642922,0.6692231013880181,0.3865136338682769,-0.007476336483083575,0.4031297069139049,0.31515657635123695,0.47907690382152657,0.17240747856153638,-0.4348142252233134,-0.35684053970757745,-0.08139184267083563,-0.43373740593035587,-0.23869795267363791,-0.16083761129244653,0.11656862254716652,0.14541109980363023,0.016021615063694494,-0.27685426151000997,-0.35213246430555,-0.4220851935148955,-0.48199768681815935,-0.1927567185571048,-0.07378347367055761,0.037755060115710705,0.0233774661163484,0.0015273303777241026,-0.04143400503092609,-0.032457741728858076,0.17256069217270603,0.7678595996897696,0.506134894820924,0.2623733204721208,0.6476975014505891,0.23754552418773078,-0.4180197945890553,-0.37334853341878094,-1.129627908221955,-0.8950429120068021,-0.3569954225163784,0.23702758805906396,0.538348549495158,0.2793607411884754,0.05565196912721653,-0.02501652266990768,-0.30100363603138036,-0.24049618264899483,-0.5570543538642913,-0.5344929286325544,-0.40703564092074274,-0.1341580070105593,-0.07122916984701935,0.04158140333413613,0.009978990184912426,0.010207182151455036,-0.03862924240411743,-0.02446066627370963,0.2886905280931024,0.37870694489651885,0.004723815313955227,-0.1776574988383414,-0.39962289216062497,-0.9408057518949423,-1.2075001918969264,-0.6227570933485427,-0.8622151736456777,-0.37309592205997877,0.23806206922182133,0.38508097877030584,-0.05025634861049287,0.7061515171949879,0.4512828248689159,0.00023376579480800398,0.1740446425886456,-0.3837472041019095,-0.44237078611222214,-0.6817339210106953,-0.5151825808869469,-0.18246418828515448,-0.10310624805742825,0.007122870225629597,0.015393957350462114,0.02835736679709204,-0.03115509944846767,-0.04151386465230977,0.1543371375752626,-0.07658342552232685,-0.4324566505437371,-0.7246304904605072,-0.7865355067043633,-0.7751776651515029,-0.8080512366883595,0.00849853609274329,0.15740030575768368,0.7802968221135695,0.33265341411900246,0.38773683210616383,0.14436813596096515,-0.046124495802337885,-0.027014739400025044,-0.06988402165735827,-0.2556004719881315,-0.604009065336103,-0.7057740262215815,-0.7389238493874241,-0.599461124179357,-0.25629230778513873,-0.1251313978736972,0.004756604877787769,0.0024198456157199138,0.04402131060009947,0.0115513406853184,-0.04912844480876564,-0.08700461653305651,-0.4377117686407204,-0.17832386756955915,-0.5659135388502996,-0.1605164815009927,-0.1471513169404358,0.5959231803322282,0.7057276264309736,0.4039563647347908,0.3763026142809594,-0.15318678765312202,-0.04863001756705689,0.02642426156732554,-0.0020552791792229526,-0.2724572590602901,0.15944345256039755,-0.39905312391389464,-0.5281280014839589,-0.31999187794724676,-0.40789354352839996,-0.2233770632853609,-0.2361881627715768,-0.08630214879295171,0.007555061483311712,0.0074855094877147,0.0483346005405146,-0.014805486274993047,-0.10625329615122395,-0.20493795199822248,-0.6474554787936633,-0.4276443712754297,-0.2653580234182321,0.062433660636121845,0.3274804031285277,0.5170989702186594,0.3942200041873318,-0.11032574960469371,0.035611990822742905,0.5340094383454035,-0.015472215699856861,-0.3626735632110286,0.15973041652304393,-0.19387385298433282,0.10052585233177401,-0.3748247373389299,-0.10500963310795026,0.2934148717626907,0.051107440679873765,0.08116739164833459,-0.062024720890161374,-0.1063119119007439,0.049177345025491946,0.006140780773478861,0.018641761115391127,-0.02038631656732824,-0.08148201936760599,-0.15961732482579225,-0.5901480219085611,-0.7888769633624656,-0.4592754952873194,0.22654441474520107,0.13976110503128517,-0.07360927815607915,-0.43046406245127106,-0.3470526244969898,0.12489291638561456,0.11353002658681079,0.22431430249488885,-0.4774695832188008,-0.42729415582778335,-0.270248758687171,-0.12062393715915676,-0.027650470586186582,-0.30353369579026274,0.2532796632515082,-0.037531847816038875,0.006337575282278615,0.2843253665156457,0.20304536035555565,0.16858970991019517,0.008225751907830025,0.00221368769812082,0.01950754561430395,0.04845625752185438,-0.015233425177061409,-0.4139503459986571,-0.7024136673564361,-0.298916201314206,-0.7234370154790581,-0.7281885484940074,-0.2986471581739798,-0.08849400602956453,-0.025809375493113854,-0.1299508917524923,-0.01211260535513205,0.0025192935017851912,0.07964964083951906,-0.19721009820174498,0.11175397252089005,-0.3057413379722948,0.10340359159428801,-0.016696347414886074,-0.25939482103375994,0.3226240867685057,0.6717374399321124,0.7462272229561427,0.32218991822823845,0.15709200875085857,0.0363116365959007,0.049817387103176264,0.045232547170011905,0.055432995892106166,0.06664504931912371,-0.23940296303863018,-0.4512213793574337,-0.2564152632509708,-0.5226724303045565,-1.1887018761787254,-0.07524194197992827,0.014422619614905508,-0.09802018665808802,-0.15356479269363846,-0.016138850707035496,-0.2104631691792276,-0.00343916506590801,0.016414744045558146,0.09449888917722131,0.4240152453914286,0.3378237611439848,-0.14578569094410143,0.38971635333505916,0.802132068966823,0.9287383179364618,0.898797976687791,0.3245512604808038,0.28933936865746807,0.1724457363413166,0.010752306961441737,0.049198708559268584,0.07344031010636391,0.14850926193240455,-0.2663434837196818,-0.2596870154630441,-0.18398728520361216,-0.058453942739452945,-0.3194467379661609,-0.2769422648539908,-0.9008009028380403,-0.9909707189880386,-0.574201336879274,-0.5880418768087441,-0.7938922992321348,-0.5330327858450273,0.0007670232300455867,0.48790874881421453,0.34204113662471114,0.38468534268176474,0.1975241650802358,0.5497591845284577,0.3154583328414767,0.5512226418097873,0.3638526367656186,0.24358566211305116,0.17817692751871042,0.1726606880036612,0.00847355313945222,0.039520443848627976,0.03693540951568519,0.2815181511489608,-0.11992592241966371,0.31707976251911524,0.33917675434202893,0.19119576250236622,0.33061238326274844,-0.0966314780443058,-0.08930087024724731,-0.13402051643818502,-0.24955806279236872,-0.8296682713037371,-0.7436609280576253,-0.5949654442201185,0.45027420605141183,0.0723377680280372,-0.1446069606231329,0.3435949161353428,0.47642458228442974,0.880078563314545,0.2992592027473256,0.261101513207734,0.5907362893480215,0.33193364982308043,0.10259108379369279,0.12245431244065014,0.02524432408895314,0.011106364890394616,-0.012865350096169334,0.28292096571474434,-0.13169312858975088,0.4077835291983752,-0.08031383620154459,-0.09181604235577141,-0.13026272975696312,-0.2358315527219196,0.5229942934829256,0.04840788767815274,0.1696210737695853,-0.40701203373868045,-0.29371051309998514,-0.3819783647497273,-0.18820606967238893,0.16571778183207167,-0.07014584807768309,0.22804909435192056,0.24505303525999714,0.49461723128710056,0.47031486711741205,0.21113628280967614,0.16722679967290865,0.17447328275396562,0.019981078361026354,0.04147400938593206,0.013504288046155614,0.031008762425953264,0.01978633451848128,0.1554472255850385,-0.20228404335130257,-0.08644996878325881,-0.35379093499236564,0.22128938355966463,0.338565797707348,0.23945439809941854,0.22759382860085955,-0.04858782253845535,-0.3422513983095464,0.4691532840976961,0.18110525213480816,0.06905212454391718,-0.26460310820833854,-0.26789990406841574,0.05064185731509535,-0.08334950969662437,0.22575869100352108,0.31011487742874927,0.4796202315911138,-0.12390921418037018,-0.009406013513389495,0.0853353412588656,-0.009422526899211813,0.03192747255768261,0.021621420827698995,0.011047462263987584,0.03137162549267543,0.10067726656118471,0.06714384298710811,-0.30818159537226775,-0.2331056630426203,0.017904824910817446,-0.21960823650932776,-0.13974694464916299,-0.22194743561980224,0.22380617208203674,0.09925668069520145,-0.08536626792586319,-0.1901552213420965,0.1691523509344805,0.17285539646433504,-0.10507079125012406,-0.19658153775959147,0.0907503242357653,-0.22679497386821076,-0.25361956856732015,0.17766734058579278,-0.1179350397759764,-0.1299897772576058,-0.008562361044522685,0.025236870007455038,0.025326978820925272,0.03280585760495031,0.04611079300414212,0.009475764960370463,0.10362190060555428,0.26102633780563145,-0.028640972284827596,0.18090370762789476,0.11988049733794942,-0.4114493455905997,-0.18178279228890412,-0.21599010153288878,-0.03497047512224176,0.02311039165568162,0.06421056746129099,0.12150162198451343,0.17463752274177968,0.1203073604768229,-0.31538585911311406,0.20088881404574443,-0.3066188357704355,-0.34174137388728454,-0.19106905754784828,-0.19607121417950663,-0.13622065241187958,0.042435609441363764,-0.012187400146322016,0.033921055838091525,0.02369549727566609,0.011895839344128373,0.005904334848899695,0.06099249102980299,0.15901816567816085,0.28586510755204736,0.46560015572143926,0.34251658084535497,0.5466784509552409,-0.03389176874372671,-0.013052986970396606,0.27687748685799557,0.16338898248189937,0.030063829911817278,0.33111082982557083,-0.13406730805823694,0.3235612848083122,0.2790207515243187,0.02284121853816001,-0.2060466030768806,0.027579668568641,-0.2554023207288447,-0.46163799332762245,-0.37557598930348557,0.008861414343391855,0.09974066196626107,0.006439941247880497,0.05136440659455501,0.011828949739865226,0.004023036030717664,0.007639387452061547,0.03278253994965926,0.06436999631444586,0.1992003976994238,0.3243642276554196,0.4782332813460321,0.6414255863969731,0.5174246976580134,0.1938619928361294,0.1034341030927617,0.02403028992182067,0.058763672109297484,0.32384139204475515,0.4302176543446054,-0.03521069440947537,0.052922114712293855,0.5338842242496666,0.11583499777138952,-0.3719784849386151,-0.4206907761521447,-0.2896625423748255,-0.18804011847843094,0.006029256220907243,0.023672146491367858,0.031569018274450245,0.021306597969684003,0.04373625471304352,0.024913290013027677,0.02671008442490834,0.011702525150658503,0.029377413026039235,0.11101892881689493,0.2203413086945732,0.23588632481902366,0.34743350276368845,0.4129089200136759,0.13284853802170982,0.1251878428600087,0.2394039091184894,0.062116165947287416,0.02824515228591661,0.22084107990332602,0.6961229585450385,0.47355154087531415,0.1925459571463334,0.011513647566101334,0.14710746780866604,-0.04522081092641791,-0.14854926495300114,-0.13579131203433636,-0.06843922297712672,0.018092860789858455,0.004901981126708594,0.01608514058555406,0.048492428269394615,0.00465849539526096,0.012198007670734501,0.009517385197552804,0.002517449352121331,0.012647918706178114,0.01469217748979622,0.06798497971579968,0.06726385917631529,0.05483263950737794,0.03632049200561109,0.007307633166657961,-0.028125490894331088,-0.06790939146307218,-0.04048965887784124,-0.023196296461668188,0.04091481303795602,-0.029813735632568283,0.07974889412858051,0.10865819081948143,0.045332480611626126,0.051564124615384205,0.03457761165660356,0.012036904562730988,0.0037957251083027064,0.02012886891253899,0.03967290246510221,0.010089315044152848,0.04462505366522951,0.028652633323585086,0.04944064084486451,0.011300125966049434,0.025627332584435787,0.00257108245142637,0.01902956656996121,0.04116997934140897,0.024075394129522348,0.02172801107029703,0.03920770823789127,0.035143016168030186,0.050914303317854674,0.02256540407022031,0.028324811784319462,0.0173382334905567,0.02751549781159583,0.005373522052742234,-0.006264265001302188,0.014588845335092632,0.045741558800514365,0.038943162140746196,0.04752549976855164,0.04695029223642052,0.04174070841456658,0.03471141929426218,0.02392279217738433,0.039365831262275455,0.008220535629272387],[0.03113007446247615,0.02175039207194379,0.04076598673649791,0.03834930538417528,0.027915131241237005,0.034088111511679564,0.039064721160283394,0.0036796093565645495,0.006856593593492851,0.0096276106419945,0.008434181797449855,0.045787215999899475,0.0066517714977683065,0.04095008287153361,0.02751643343305144,0.043957775777645154,0.034476374845772956,0.02626068351279609,0.02841601779804278,0.02766605596429453,0.010249223577226383,0.024377675564027868,0.02468441696684149,0.022775401064564788,0.006236168547735514,0.005368704508356963,0.01901706382454462,0.013317526403307401,0.03520029265598298,0.04019031490312677,0.043855594068697226,0.044921477677508245,0.03430659966689285,0.019691433577179774,0.016433806537742342,0.04019998311023329,0.03876430720173643,0.011749579236318442,0.02998955035631677,0.03273738643780406,0.07565038292029408,0.03892516635695423,0.03513462419584869,0.039721466639620666,0.01579628137822065,0.020917546079418065,0.01399268383711169,0.02409965168679,0.006669806600536419,0.01127376869970834,0.004751081108636615,0.011682884132387087,0.03087435324463087,0.011781992626991785,0.03237961148657109,0.014213963501162306,0.0069308012298477505,0.006075452922387547,0.013574557461252834,0.022549354943098295,0.00301895669052068,0.022017262521979723,0.01977761576978034,0.006134471390117652,-0.0014535295077515652,-0.020310731680942645,-0.07591938622115892,-0.07096678372272824,-0.09793660364614058,-0.16850217880772336,-0.29573049077511765,-0.08749740099421492,0.06580402688764532,-0.0019927580422466396,0.031135138919075458,0.031114449138547214,0.039644305289392716,0.018710644528431405,0.020767605176847264,0.03602710572975844,0.018577302195887956,0.0019661329208483353,0.04770634150734187,0.020420549119107092,0.022365080072894165,0.017579133277953286,0.0009201570741955136,0.04257860797117841,0.03438307549176541,-0.010420056764829983,-0.052745799243365844,-0.024272050006530384,0.003916585727952553,-0.2512522417802146,-0.344863117811199,-0.2511761317380273,-0.18350551746822183,0.019623388494821387,-0.14103474587136242,-0.29669361929999466,-0.26328004349349504,-0.23850582320565666,-0.19233496922764265,-0.1534556623580552,0.2340009657102202,0.14896300330119985,0.12221931390107064,-0.008059564860168948,-0.021956174605868607,0.03208718148000305,0.02344054351340001,0.011306588137374592,0.03569503863412988,0.014311189825448037,0.03613114027839529,0.04869670303474267,0.020336751735927104,-0.0469806565748851,-0.09765884936639606,-0.08264825179980068,-0.0861856987276668,-0.13279618921977096,-0.5011335016096078,-0.1823924540393214,-0.23408321136875682,-0.16547232128712824,-0.08512769214254275,0.08914157840303993,-0.6245422920287044,-0.16954354010130737,0.3317040184658672,0.1369747257877006,-0.06881141176644713,-0.05816907514553206,0.004102026116523579,-0.13790161245015092,-0.5099536257217279,-0.18713805161206282,-0.03632213664108547,0.02088634670634356,0.02500685921372993,0.04434485701790033,0.01968762187137826,0.0165275425850388,0.07568969192112039,-0.05893816247405504,-0.14397912634933022,-0.08725739392302306,0.06254409925775722,-0.0779370402524597,-0.5006348545074377,-0.27851813300432365,-0.20888919822727242,0.4438950116629397,0.47859411922913003,-0.02688189279404942,-0.09595728547948136,0.3124091472029501,0.21029467350949801,0.12817710696717838,-0.15150783563511877,-0.2588985368358596,-0.12805679780897808,-0.08874506488327134,-0.3728544802386152,-0.11860062209228339,0.05124421370793983,0.03353910863047036,0.0236001226726578,0.02912690382280532,0.03110241721354626,0.03303939776109302,0.04765420022802223,0.06302540289060807,0.0171270433232704,0.09458255873849898,0.18745640068335906,-0.42578479093659544,-0.10067909481850591,-0.15422815898598174,-0.04441889812967882,-0.010532821218992482,-0.12298798063636922,-0.3181889952934357,-0.25030565994309056,-0.036084379282521,-0.30845276245418746,-0.1570898759045135,-0.1250196837813281,0.13849972229036825,0.2998765960267539,0.20771858713921312,-0.12010486007166078,-0.15312496243930745,0.02117733091045408,0.007665538311339258,0.03625317340234734,0.039044512708712495,0.0015042790085660542,0.05965608857009853,0.023645642042359014,0.13761292962279617,0.18917399448350883,0.3821446185349487,0.053103765809070023,0.17214571603502918,0.46358835392543135,0.6369793362227243,0.46346514151751234,0.40870844652842797,-0.15677802357551202,-0.1854049582685363,0.3354109317440387,0.157440746441952,0.334436086710076,0.28517989466757077,-0.29528221784263287,-0.1388846480383856,0.13292353869306245,0.44698401328838877,0.055813341841079646,-0.004929483698600531,-0.03946490062713496,0.036837216504374506,0.05807854087050904,0.0250491944113144,0.05496744220973485,0.0888602019509238,-0.03329469856994727,0.05278855118883004,0.22500952503640761,0.024056714802641335,0.29095449670987383,0.04355179700382714,-0.23923661777954003,-0.1941946201930478,0.8204624685982127,0.22659403543587261,0.18350012089321857,0.12966101310436087,0.7316446961617193,0.46710666107906607,0.5379901734666873,0.17859839826262183,0.6143413783480601,0.17845111511669431,0.12766258653684726,0.3051178936840871,0.1349992446897689,-0.016540816724823274,-0.016074043069153256,0.05752834158240339,0.018161627521403996,0.030786471502248693,0.039941802984648014,0.08878433986008556,0.0038864239723205365,-0.04804736394283171,-0.21127533370667895,-0.31591340222232617,-0.2798275538600723,0.17274944653954957,0.013457679843693433,-0.11948730850993965,0.034346999485785186,0.25686620032088114,-0.07945954732571495,0.19897738279828892,0.1884132090005842,0.44493705170738507,0.19243253182865472,0.3833363139787768,0.1710186023956102,0.24749987409315527,0.1851280037579654,0.33311522986875575,0.7030015568868323,0.3410270798588315,0.11076759141890223,0.12341087816351641,0.03973259593972035,0.02753399965970204,0.015468482400829247,0.031695115956639784,-0.09357503090083924,-0.10404700719266435,-0.3935568136409989,-0.30133262475413986,-0.1619007108271154,-0.11572355058288412,0.09200794294095155,0.22444304873299037,0.17042053714853808,0.21655608289651884,0.08436529085411823,0.2994743679493863,0.11975903849173969,1.1831912139583787,0.9945447360171952,0.060981067033094485,0.16016461394009004,0.20927622478134755,0.6928940528914932,0.48222551603393116,0.45040089126448807,0.1950467161381988,0.28374804330491277,0.06253509476197007,0.02223335694936306,0.029272176408496033,0.014127698471016331,0.03640407053761829,-0.21921742474816588,-0.4210316380232904,-0.40077636057128413,0.06710017424821985,-0.4757554026739308,-0.2806193406076354,-0.2593199061893757,0.07385585594624518,0.09483457221865625,-0.0347429948593778,-0.8835341542012299,-0.8624308164633617,-0.6132512199612874,-0.08417885139090975,-0.016539452528559182,0.012189650110591617,-0.21047428364837018,0.2406060436130758,0.14550191304459204,0.2085518723013222,0.07736302646154612,0.0668528366840872,0.2448680728923842,0.015057105242220876,0.039187494080916756,0.019221413118553955,0.03609111559329144,0.055526793963227655,0.024387198869791557,-0.33056919983192806,0.0762654712638214,0.07416112150686914,-0.06572153960072084,0.4003407024795585,0.17466211815710567,0.46896884650634635,0.5019129660171644,-0.02987365971070203,-0.7927069278077697,-1.5252838468038215,-0.9449654921216545,-0.23263291950923265,-0.021482146849629444,-0.2818797930411624,-0.26065511610278846,-0.01799155859003242,0.1520651682633548,0.02569235165554751,-0.0008388471404987355,-0.05666328521287599,0.05304933403033545,0.008339056749999173,0.036704280226430255,0.021586615420773895,0.06338286711638691,0.1626797128382213,0.1589293448281157,0.12590277907836914,0.5288304271811347,0.7836448676779045,-0.03198473141375275,0.7070185741391797,0.3924194076721644,0.2627155352216125,0.669598594308538,-0.5363386930397789,-0.5848103814105544,-1.329096415068845,-0.7989868154208799,-0.5227602609486894,-0.3053635626994156,-0.331497002082155,-0.3781397271807452,-0.05080411153494439,-0.2618352464708998,0.09893696556196416,0.24708018928460496,-0.03127691913594226,-0.003675980135846254,0.018353880856454934,0.037671518105584174,0.0274159616325093,0.037487935331944736,0.20575483867032754,0.04722717363955981,0.37333545784635963,0.1869597637661568,0.6400659913662125,0.06957868171535254,0.35707869145443777,0.42059130992189137,0.18962916818134107,0.10051010324212423,-0.3307886686278751,-1.1683898386217995,-0.7297699550711372,-0.9199653726848356,-0.8692463201842503,-0.10207708017920733,-0.28692206536791015,0.13877504913925828,0.09743768773127305,0.04300805810413186,0.3488231306345157,0.5048738051552816,-0.18676826302942284,-0.002435748810282711,0.023470354021313537,0.0010285783856740234,0.028610273769705635,0.011696108995736415,0.0045490389604741985,0.11854207966316531,0.03604302367350286,-0.0658302879905783,0.42134533198262325,-0.32330261002912664,0.1776107970232873,0.46888531247973314,0.14910340735590866,0.4766893938548079,-0.8962885479929712,-1.5697981297219636,-0.5010981362022453,-0.566155417573684,-0.5515569672983942,-0.44370998588613564,-0.43118145180745177,-0.03954353678832607,0.46469173655706797,-0.022367275949433905,0.5408518038761378,0.26149315140085333,-0.29987031882895954,-0.11378172660136111,0.022585176820343323,0.01197052368258011,0.03756030926052422,0.03960738734481511,-0.07897987859737836,0.3514911012579971,0.2871806163656569,0.004695732939427971,0.28313075523510195,0.25676941502919626,0.013074236237828628,0.18093908522855529,0.5888426513222697,-0.36272824980207263,-1.5606502555543653,-0.9837645767956618,-0.3502373694260032,-0.2932420009283615,0.07452945624054544,-0.2625125428689147,-0.2830096005329524,-0.09092010107538374,0.19729471006419472,-0.18498627859645092,0.02266822599323768,-0.035171244437460655,-0.2896444758305687,-0.13799564684215482,-0.025557254447407245,0.01385243075567532,0.01564216504353762,0.027185591803400397,-0.220256938976838,0.3110712519052889,0.5142827624590918,-0.03626767741619729,0.1970263381529006,-0.09349387895616894,-0.22175117466524516,0.2203551926596011,-0.11127738176920601,-1.0247841974919287,-1.0192923243267906,-0.22855267091448295,-0.05541057643242493,-0.23914391292075723,0.6529995320499745,0.19663270597499283,-0.03237213674361191,-0.49364157111706564,-0.15971942867132333,-0.04977886324699103,0.12763705050037857,-0.03170927301435197,-0.18496212769560935,-0.07461552253593251,0.015601820476401233,0.01720047435196442,0.03243787982778613,0.06998250524007385,-0.3984414288295587,0.31977806135997977,0.0825253254212863,-0.05395784416960102,0.12544798840130203,0.42487550954801745,0.3387389752800109,0.11545364640577925,0.0015518491475524081,-1.1748060965149636,-0.9729473482745837,-0.4527255951157481,-0.05062215037088791,0.026695673805315536,0.17618432441122564,0.32710187996563905,-0.1792774594396317,-0.29388617307621406,0.022115746863362883,0.3268724229601848,0.04792126511008031,-0.4110803720791808,-0.1771067020357243,-0.05016204878714877,-0.012658895283651599,0.037652380703162916,0.035593787621442066,0.15391685646186443,-0.2831819287627233,0.45175037166232646,0.1770406286694713,0.44710074709907144,-0.06798203140606959,0.1985924476062779,0.3942656674536924,-0.4328897485905389,-0.1848320027013602,-0.2165792035722397,-0.30827549460177683,-0.04878005597267472,-0.2792975804891307,-0.021122841499607175,-0.14102809180058415,-0.06257057985284696,0.03931238539416354,-0.10727336387899784,-0.08134343507195223,0.023166707309748093,-0.35611615783098816,-0.28259313032462463,-0.11728325747336432,-0.02510030026005476,0.020340498040235876,0.033021208759877345,0.11000251366343966,0.09672687938513386,-0.1836159316886746,0.11099435469367046,0.30947574064881256,0.3192558242593833,-0.07494499714676774,0.10870037574393705,0.27126983627311235,0.7333120279364438,0.5194122162583934,0.5920063014836406,0.319942523713652,-0.22033196604296545,-0.4138649920800235,-0.6537562957591823,-0.2873382986703663,-0.3575500516453613,-0.33622355963420003,-0.3182946064672362,-0.25872024054750375,0.012668071117716156,-0.5693241881795488,-0.24728984608491314,-0.028588493259997374,0.026733859579073774,0.037199593786939676,0.017080692773762018,0.033313928012207124,0.00816951812643912,-0.1733806014059507,-0.3696194177501907,-0.2540947884597508,-0.17112805012097518,-0.25401537408791247,0.27137289257065017,-0.12642509790065853,0.23727977897850502,0.24652751916136537,0.3422465642464978,-0.016689426407536012,-0.08992633635452968,0.08197008887838637,-0.008373355126691328,-0.6779949598106251,-0.3902859865067082,-0.7010813008293063,-0.41338497110231626,-0.14153141084549395,-0.05778207475590139,-0.4413475940206824,-0.19429885227515958,0.022207452885799877,0.01494838603196799,0.04088479309830101,0.03014545669105567,0.017847022694609672,0.011596810456916087,-0.028989072397531016,-0.33151400786036694,-0.1547943739148105,-0.07826033736273105,-0.20118294462848646,0.44985721545721796,-0.06803487867206419,-0.19481434373225698,0.1348524043526242,0.19929371095368814,0.6399961174249822,0.47270812051426286,0.10377408337941149,-0.04956420044724243,-0.4584865773314903,-0.09277221033389133,-0.07489645770620107,-0.6020386297974808,-0.24142850457363046,-0.12196470855286352,-0.24636893781383098,-0.1659822127179525,-0.01748939903758232,0.04919088658054852,0.020210058284162665,0.002265776110432514,0.03772234153519235,0.03317788611666423,-0.0070295822798248355,-0.05720822539083316,0.07518071141885613,0.34438879733896804,0.06040290298277279,0.18382939523894987,-0.19717309786711057,0.3846074194838354,0.42721932952080266,0.4511890638374024,-0.07313365542850835,0.4385532344058881,0.3843964063757494,0.25071187379786936,0.27289015138813166,0.07244966677067172,-0.6708625383504441,-0.8704213696414759,-0.49937526524140574,-0.44150687229224,-0.3019555435925413,-0.06401378728140683,-0.05690218279774309,0.04048888561614328,0.01818850628632978,0.03947236079918216,0.02581072875478689,0.024731097637127164,0.026370701935900298,0.03676600473132435,0.061087708868192314,0.12311284129629384,0.26114038374857235,0.1744905418240627,0.04138164109036226,-0.3068660576337089,-0.0620586222564384,0.04094155276324222,0.040712653913021896,0.05854368430054392,0.10641745516066044,-0.19347679098500806,0.1184229038678377,0.156556881264387,-0.44577521498052686,-0.6050887027491546,-0.25270020863507126,-0.10032110934956094,-0.14433505751885067,0.03819429725168126,-0.004791113301110869,0.019177128300699044,0.03278584631186549,0.04380492418449188,0.015324757943949616,0.05028494810124572,0.0024680487585213807,0.00739798178105179,-0.07844879094573294,-0.045855298800413925,0.15774418737046594,-0.08651109761074793,-0.18095214928215328,-0.189332421559245,-0.06180609544175377,-0.2020849203158539,-0.10282415401229045,-0.6080732625125146,-0.611762118184725,-0.25112671776611906,-0.16642655043833693,-0.15755174624338952,-0.23692126915581166,-0.2984861542452358,0.011117724516744138,0.08456991294401392,-0.03231694951764166,0.08436078141743382,0.003372890284352499,0.025592520439627568,0.048614754468620805,0.04134332877771945,0.02527577607235446,0.021945588528613846,0.04450675928234572,-0.005207803412726798,-0.03895108583612927,-0.08925406762283691,-0.14344521235991958,-0.13226820963629463,-0.2628406122401904,-0.20996100006146476,-0.08349951101170701,0.05712615051871727,-0.11745489760580177,-0.079116925568194,0.09024000391108285,-0.05890560776015937,0.011998372794708093,0.06931439725606937,0.10574932230734538,-0.02788542466958961,0.08741992954064395,0.09945427280799816,0.030329749775555158,0.041590747724248485,0.03156964650534734,0.046708008265719234,0.014566649406068647,0.04928774306699004,0.03768145047308714,0.035790206307295035,0.014834963658413377,0.0271213733780818,0.013208212044133777,0.027212891429701295,0.04676674086760491,0.05689318056729928,0.04570808231826759,0.011537037916605934,0.04965053271519504,0.026741009492833794,0.05863269597823786,0.017444403641401256,-0.003981042003447251,0.007675499089194869,0.06293466439926386,0.05938113048583712,0.03952597641143222,0.05113998579160172,0.03695314036913134,0.0637908773514866,0.051065505343865066,0.04959483476622589,0.0030146804260875537,0.017200391618007183,0.005367896462416143],[0.04935811836691838,0.03661875554341752,0.01727054469542657,0.0037763575604579753,0.010861486420540991,0.01650180055613298,0.041851451423181626,0.042400303509896195,0.0031649216945172417,0.020856901955361634,0.029090862203819876,0.01253892086928465,0.009153191873278002,0.02231029762213152,0.02126993223787221,0.025869818017858974,0.041526809027461115,0.04069148802092436,0.03998161943253326,0.014779318100430048,0.02141632454140665,0.026575440209314235,0.0453642489834637,0.04099633392038923,0.03154302481243412,0.032187397378902305,0.03097458373907301,0.013296003002872757,0.03042708200419373,0.03393247859988293,0.015258860006801397,0.024443164829424706,0.032009201742836495,0.0075305264085233125,0.00041023045698163925,0.030635911266630723,0.039897152749484695,0.08815022630649925,0.12226083984189037,0.13967289276114012,0.2274474136116129,0.25612556399369485,0.20075280131082607,0.14714932492475105,0.08372059286703372,0.13504713597509568,0.13415197045201646,0.21600641652083155,0.12443300970975163,0.11043093447468867,0.08680337632270549,0.0355460985276356,0.031071600478375653,0.015144021140419985,0.04908495531016157,0.007867658046918524,0.03693079903849651,0.028987043304936674,0.019905214884165866,0.015003117667796556,0.03655901508722989,0.03000172856598312,0.01999670218118315,0.12485560975783726,0.13049869387035673,-0.08138241161662749,0.06223681916844664,0.36404076813615377,0.20216866156894797,0.04646568282468029,0.23963013402424446,0.29533252293028023,0.4169669290100038,0.5801161858567562,0.6258797635984024,0.5825172038659643,0.37051665370812253,0.3602073044740451,0.33308640484249274,0.17822915879914647,0.020353833913996304,0.0019876467826812085,0.037208913525149996,0.026547741546399616,0.015062166537121075,0.04213792615693503,0.017915910639070002,-0.0008094657835719907,0.0358970701985422,0.04812750041642831,0.14637248396238847,0.21828821555140462,-0.0554193930903405,-0.1587729058946069,-0.3942595245537748,-0.10685751899715847,-0.48473558196570515,0.08092873629356857,0.07115020733509238,-0.07315870141291615,-0.0034702071644808676,0.030357846475940465,0.4639534634065649,0.6458346023619311,0.5092950214787509,0.8910466231121841,0.6821236718403241,0.7078535662411398,0.43582612751366884,-0.08319064364998464,0.0013922335021370547,0.050448404122681985,0.035120052758428534,0.041261077492419,0.01099540101569792,0.01589126192270565,0.01485785762370737,-0.08643062060532969,-0.08733325745054023,-0.016408619673534287,-0.45443519027696183,-0.6204691555717335,-0.1764424390813185,-0.1994757375439981,-0.3334129976404951,-0.34867383399978713,-0.18110937521005468,-0.051202059679701775,0.2800487560241946,0.16768332927161853,0.5464695717804393,0.36117843104444447,-0.05505678089126405,0.549998263686408,0.657972678954814,0.7704395531254296,0.028426497052951336,-0.12856598643142264,0.022963557847039517,0.04403440540556852,0.04015233254921727,0.01595646139612087,0.04095839596636538,-0.041442204878105994,-0.18138386912205992,-0.29357505719475013,-0.3995562950683396,-0.44625077614864156,-0.4592485254374815,0.007325727682732439,-0.33199152934623155,0.11994301028880773,-0.4794488660836263,-0.4231581476132841,-0.3278094188002501,-0.26860268052504593,0.355878769624106,0.4889127754144497,0.5240737312004514,0.3430072628381931,0.8089314148386768,0.6026549249336489,0.6426834088116377,0.9028813809592325,0.14782690486110356,-0.08028946514404516,0.015580445785717953,0.02183421344125317,0.047772134828024206,0.023973602046419133,0.012075867391273734,-0.09537651335711156,-0.3203070476260488,-0.324942448794139,-0.5169173488126897,-0.3587047494037301,-0.2165867724880157,-0.31053262144923716,-0.42320122167966406,0.16601867155712538,0.06687761856751022,0.025236624231096984,0.3403468792009384,0.0325707232404812,-0.40591089807648884,-0.16396420576186568,0.32907062022557426,0.4551832090936435,1.007648897718591,0.28827995801232703,0.565431239188537,0.41458942948126093,0.4875264132304437,0.2082097492747725,0.10702808650311255,0.018493418180327945,0.001321611719166502,0.02228546647656609,-0.00025348250197702784,-0.13806391542765398,-0.38773754381717057,-0.3671183620590979,-0.4753729921470284,-0.13373842052899124,0.2992413066042645,-0.09502035115833705,-0.09729813070999196,0.03966210840269205,0.2787862045619856,-0.08478317678707688,0.369774754371366,0.19510872358970155,0.2851860863920609,0.8895560580436151,0.641459288005311,0.6830604549620827,0.8025446389636833,0.23528572636471953,0.12243793467706213,0.1099136273507024,0.016167910382599623,0.04512591645383365,0.10021380351484835,0.004944564590606214,0.020001327270082643,0.0191061844207288,-0.03893908777728599,-0.12383390227476268,-0.34089531703374093,-0.318536309330065,-0.1620955167746781,-0.09356581092466064,0.12329831356525474,0.0585695143010686,-0.22659424232018652,-0.020209651005458483,-0.1819883599448521,-0.5169825945399922,-0.33693553128839726,-0.42612511645403156,-0.20541804391672738,-0.21114739262118642,-0.10881759215694692,-0.4471347210196834,-0.3783364819693456,-0.3416273202198595,-0.48785702823297344,-0.3656372073534047,-0.437928985405986,-0.21945995942132432,-0.011203190163511133,-0.02591230543127536,0.004138340601584511,0.023194366510291973,-0.014683521392442889,-0.10768447617853398,-0.2671638120416641,-0.382244579677881,-0.46385960417228794,-0.08389149940620085,0.1702950122040549,-0.5327381758724472,-0.38793209131849243,0.03608739379577062,0.01806771646432818,-0.6195140494827543,-1.1275219490224417,-1.6680300898026508,-1.7648073336106374,-2.1972251659401256,-2.6051438175486443,-2.2886528541569318,-2.0171017108531117,-1.6204857483060102,-1.2484420248803985,-0.8937857581875515,-0.36816279261463847,0.011920400017089992,0.06109075552652609,0.05250443919486931,0.029224906623473847,0.0036112249244223053,-0.0013959439286902466,-0.12879375548059704,-0.35927534880562795,-0.3842522427155947,-0.45328006737917415,0.1486675691263792,0.16462689397718547,0.09767288815003987,-0.4322204796643274,-0.34904701551569206,-0.04903220720027298,-0.0951319690952942,-0.9463799740488827,-0.5236850461493285,-0.5787533614133364,-1.2030597947681902,-1.599069053860288,-1.8532809133714634,-1.6510332266435697,-1.6430742182839893,-1.3101626310804044,-0.9243113931282411,-0.48458384709654806,-0.13753313736633133,-0.007390296928733513,0.02582000555503575,0.025359306515074943,-0.0487923507645063,-0.07595042065025359,-0.24628787722393458,-0.5411396799846698,-0.46914539226746815,0.006348640445606699,0.10280364508062372,-0.3963478558832831,0.36028687285738753,0.28435921514647017,0.18725193249149513,0.6101844065505764,0.3228976785821946,-0.14005406363929657,0.138452826802126,0.2069608924553833,-0.02621552204931421,0.04576503324116471,-0.1627457815748817,-0.38540206147364753,-0.7793708658150472,-1.0876540530257006,-0.8106878835024279,-0.5644729360233813,-0.3795993774085676,-0.10853744567878251,-0.011521511687057819,0.00045573822773296483,-0.007795330215184935,-0.09807806214272644,-0.19126486534594112,-0.4304517702486879,-0.3229479357282467,0.05088187040125156,0.03659770617655397,0.2838355299957053,0.15132050846722245,0.19939225564979038,0.47473418709367754,-0.018066381898184998,0.15340883044275738,0.16116138193723384,0.018119664898694897,0.12430388228530011,0.0728464243927399,0.5202342529201953,-0.04200952250377314,0.02274451709881576,-0.054496923210268305,-0.5649482840340623,-0.3848193184968063,-0.2767283237532242,-0.29348848702956853,-0.07230200815909439,0.01617434955127214,0.019164039800888957,0.02544036677428095,0.009792010380050948,-0.08749250137647563,-0.2541885425961492,-0.35885464323813726,-0.40701283033494684,-0.11383848000493503,0.04784056686358293,-0.49951000254484457,-0.016943841964768423,-0.23213689228044987,0.17587360685255968,-0.020734697811325278,-0.21768934607346296,0.36756275547642825,-0.12646344684836058,-0.4374381665740142,-0.2783106941147361,0.012028512491652942,-0.002237614043241032,0.2172613827176441,0.2959567657948141,0.25690325152174104,-0.1451769976288337,-0.26829231950225535,-0.035508629154960815,-0.04930240465430671,0.04853376113026014,0.01787380650385723,0.0116080011567359,-0.10172985507274825,-0.17978694089631173,-0.2724790307157987,-0.1994559750420048,0.28767672268923833,0.11578446761640132,-0.22221271902136094,0.5794506008262285,0.18378151058505804,0.19184343545076515,0.028755362755974293,-0.18161516526350852,0.1890607587286,-0.05692340407564608,-0.015793364653605795,-0.00994236502648488,-0.007187581783273426,0.24268985766478013,-0.06629863896922367,0.3437970579974952,-0.023355683971955272,-0.12897252101824425,-0.43810453622179285,-0.2079873453060491,0.0029226692946117193,0.012794025418705664,0.0009270321372671276,0.010140653982840551,-0.16096457253480728,-0.2936335955983434,0.08660162500474704,0.0363974760864761,0.2524287767888635,0.08085673455427685,0.10107328499623468,0.00756265113636159,-0.1295616048921079,0.4177004241263195,-0.1711574255102777,-0.13512425491501906,0.00044086266260259094,-0.060322058805225634,0.13696168578745482,0.2909033719756604,0.29008223797231764,0.39700067667281985,0.27699889805278965,0.1728192839545832,-0.040768842186798805,-0.1470163494831836,-0.3788955728891554,-0.2547228747827845,-0.01623419873419918,0.04512327499516391,0.022548172643655093,0.031407739582642556,-0.14180074987070318,-0.34699106994905443,-0.015770352624797847,-0.19363974244529736,0.15071006791840666,-0.09587417771077134,-0.3874718719493486,-0.21143665807343753,0.44046147220603526,0.11955136148443729,-0.20829414159413195,-0.2187332325757706,0.24745888031301802,0.07005196965428345,-0.27044222999866696,-0.1120492285022315,0.09438958394687938,0.1638893414698791,-0.1584377985043422,0.12526296381534271,0.32167401612883906,0.13977389995789125,-0.35787733510433717,-0.2931294111365795,-0.09187678127467637,0.010025707688816419,0.0010404011148169342,0.023949714301757075,-0.04335786635077325,-0.37255071368105946,-0.24621264781213648,0.09494879899003736,-0.14238426516609334,0.18841085089360757,-0.1712818443058474,0.268191877182177,0.34427963347304896,0.32382548633424335,-0.33454310620273403,-0.010887636931590264,-0.002838521601685213,0.0718277053107028,-0.07958343635181454,0.2750593402892327,-0.10367787194306033,0.360082189542316,0.3280338943833378,0.2682625184677419,0.48221301133779215,0.3362032106961045,-0.34263497456681913,-0.20904221130594391,-0.09439577767706,0.030433512212630336,0.045312304615520736,0.024790664390663544,-0.13923664852182396,-0.2326309867817096,-0.3220194465033119,-0.0868971680627883,-0.2745713779605567,0.10721156308514632,0.14476946249155384,0.08592004906885557,-0.09711470416088641,-0.17643987613074016,-0.0589979883898074,-0.02506551178819633,0.03746017645667838,-0.019117757437293454,0.2199903034956015,0.3672389799146924,-0.20105877372102407,-0.206795956633951,0.16431295635948695,-0.20437166303927268,0.12122440558689121,-0.20788347599585952,-0.1955581657070002,-0.0343029582582334,-0.0254643197000128,0.020233003557956864,0.03291252915400325,0.09179969103749551,-0.12580035063497022,-0.09971531999073752,0.1666122211161366,-0.13228530500176697,-0.05553545592115867,0.302703121489177,-0.19690381673643845,0.22905855678372114,0.23625042837408827,0.5781207397078187,0.049881569512016555,0.12693549817432295,0.310203021339841,0.14281851051675123,0.17215274830792765,0.09642627598827772,-0.2827171399416352,-0.07964781104472224,-0.06662891342631762,-0.07237230971638556,0.21616779219308244,0.003398236149205311,-0.23801895410183826,-0.06788473957688798,-0.0008716136008071168,0.046974046548361036,0.00545083020950283,0.0774889858041373,0.1500246559915841,-0.09134319525432517,0.12640048420734415,0.009299376599732598,-0.09482964170543065,-0.03558467703108139,-0.09272023913211114,0.044145024559278566,0.06405297961390838,0.02099085976335265,0.1423906581994409,-0.07119448205312516,0.1407790720827938,-0.1512013145374934,0.27208302942844426,-0.3879006074872448,0.1660087257492327,0.4624220546966316,0.11712343736948934,0.3773024021001976,0.33054065726396586,-0.0022113989250499293,0.05740917459094175,0.014414884368058463,0.005916890590089606,0.04221721350687884,0.010739013970939425,0.05823931663765426,0.2460544072732069,0.022367113645117762,0.11318487092233848,0.05346970017173651,0.0325226936460616,-0.1369928624151704,0.11676320465862206,0.4673327164691357,0.09638048098251285,0.4024248368412553,0.2988010533347827,0.4827035473908455,0.4259656411708037,0.01982372174499608,0.2764665853183362,0.4758128426595318,-0.16371928404277203,0.2721226665580658,0.23892610250216528,0.5684699449085998,0.050316477507698715,-0.058375811033030474,0.06156096139798434,0.024204907052530027,0.02481664804692479,0.030075933582150865,0.009071490259501583,0.023708446018474504,0.1419864032506042,0.1530081403195903,-0.12037521038071758,-0.2624248292447485,-0.1596853617808336,-0.012296403684955546,-0.13018953680831363,0.48788635404827624,0.0031534294756323297,0.7022688632852491,0.2283780087039392,-0.05719168214918168,0.3757997457317283,0.3636880654665338,0.23380507298685307,-0.2747844414569536,-0.12461812408354982,-0.11669481024537241,-0.17199851403900945,0.12499018148187571,-0.0644033483850199,-0.12014950607003017,0.014631586651137,0.053171816355343814,0.03990187596840404,0.03571509337647378,0.03994486056965415,0.033730815508973,0.03522107600293647,-0.016042501960161944,-0.009894888246831194,-0.0927651758086309,-0.33675771762536244,-0.14822093965488606,0.29166557986204156,0.3497391224730238,0.06833396528259301,0.36487999546151284,-0.006139414883798419,-0.06681861620249702,-0.02393176520036295,0.14559764263061953,-0.25755277133646154,0.0034071885139581384,0.10006654216120717,-0.020351262911813325,-0.058381762677208376,0.015523070171871422,-0.06235195219352121,-0.12982597263178344,0.037513939636268624,0.012748741773896566,0.03325865119972931,0.003419998005585512,0.04778781460663379,0.018739831085685638,0.014998286192485482,-0.1315189148267925,0.04467266048719981,0.005934958929683851,-0.13912101632991994,-0.12452941862271374,0.3286350950996533,0.14639336905698186,-0.10216825056618933,0.06868490193763012,-0.08949152688305964,0.12578925518833348,0.3861304912549192,0.10794404713580713,-0.12839535815101077,0.3242112969946601,0.2552348715536579,0.3105354698018507,0.14124149265780786,0.10032327680619303,0.05142482057145236,0.029798720799219414,0.008458459066658135,0.01078473709514085,0.020767368593103512,0.024531983442779154,0.02645299726849981,0.009609461495809449,0.020415570805037607,-0.1152526635468081,-0.16958104539921623,-0.12578352588392147,-0.020082622849136245,0.14750329719508337,0.2870609335431946,0.12886901575971427,0.2108539428591049,0.522827649500006,0.29334184076436454,0.46521114715472617,0.5093640912733429,0.2240379740088835,0.31264331510398985,0.358675961750297,0.36941791275947267,0.29323851454760014,0.31394091577894556,0.3172549198990015,0.08949497818290246,0.025980204519788063,0.01660649882683823,0.050470481095323025,0.03355394908244341,0.011902344753798536,0.007914983935234692,0.027737055334407835,0.005455504609695874,0.04781907010488954,0.02008796901357656,0.011710426494936331,0.001995965500158756,0.022336594474181928,0.02221890646721771,0.004219000000024718,0.03217582515035314,-0.00669275413650741,-0.03796298351840754,0.005723620479886901,-0.0013379731112170704,-0.041803212650340836,-0.005290963344995113,0.005362032834917506,0.048718344846804505,0.06200131712508271,0.08797553072137189,0.06693784442854545,0.03604021772639809,0.0006564779541308744,0.03983322375668089,0.015800778880969882,0.013703029413707705,0.04166313981513664,0.027108931969252764,0.0068205671275478365,0.007938416205366254,0.02267762043454969,0.03794650324526117,0.01676045235013526,0.008697819366390079,0.040819388345931566,0.034278427620331405,0.03194060023901846,0.04375739781513969,0.018358676708962778,0.013889845001747055,0.02103192412926564,0.019152520126250544,-0.00006525093254345195,0.029209034547103066,0.011280311771607534,0.022512916544037757,0.034510576457631906,0.011807670773509197,0.02358799920359477,0.01908940672338173,0.04518146442448858,0.0281657396363629,0.033980612308105174,0.028909563152956525],[0.04617455893053159,0.02446266122557644,0.00928339578514875,0.031039809971540325,0.033887963413382786,0.024335610222509577,0.022428924883895692,0.013393945042804152,0.001793963939852266,0.015098843707738703,0.04787403753963399,0.04308603317834567,0.005007815266897796,0.04435637619629941,0.009837898854198251,0.020285365707380498,0.031008326285962635,0.04125646121929612,0.02260863070647482,0.009408366016440128,0.04865847441090358,0.00525096605712183,0.02947066285098355,0.03234572034856533,0.01970194373058738,0.04206924461662441,0.03658131538414157,0.04080789512391484,0.04527137847278417,0.0029610879134711284,0.003474074312179462,0.03998924794909666,0.00698861910701236,0.036418042083499906,-0.008377050915191395,-0.015297494479129866,0.03363886994423879,-0.0011073230527190122,0.041329115566541424,0.09503169286054301,0.09172883811174924,0.01433892281769757,0.09423977988673367,0.1276272439111676,0.026651219431513808,0.05467797643710241,0.03328287886178878,0.03286761390694944,0.006893921728024924,0.03697464021839156,0.0185421137536326,0.0259218786663188,0.02410429513258018,0.044681975024288605,0.03203258765326134,0.04780477811326979,0.016853645785600765,0.005771810573916045,0.014663726990092744,0.04595446757886065,0.0513760147754913,0.022030275599634427,0.03557531823848626,0.0720068134697269,0.04420986922792265,0.1266080641128482,0.2272571717456519,0.16957452565977427,0.1431707109532782,0.10112414964970419,0.12663943345232176,0.10758717806708304,0.070268066194688,-0.07826873677707985,-0.011810185776128185,-0.11637347460276298,-0.013934421368376774,0.04673040110234515,0.07188597877053605,0.03078997403294624,0.0450378746113449,0.03021931092768639,0.027273757109989978,0.02388963188366764,0.013678360570698196,0.04271135070470489,0.012935572528047343,0.010147591111009295,0.006626328310965155,-0.007192727599424573,0.00740207097206261,-0.08181593012590452,-0.07657601985941498,0.13118371577183907,0.11638119545387474,-0.12749678886308646,-0.06819673728092411,-0.07986916450185222,-0.3327213357473199,-0.5130145469521856,-0.08616602410033089,-0.0064014498777703824,-0.11808640256135565,-0.05263468931353861,-0.34928166289088697,-0.09915815830114104,-0.13683129514449377,-0.03656230940095266,-0.002117590317625395,-0.04921031163088008,0.028143863690319626,0.009742216706088165,0.01842452222953423,0.00778616240074077,0.018521066853602438,0.04470219535350651,0.04133488813089156,-0.09147318090796687,-0.079235426347677,-0.19117219863782406,-0.11989821610992778,-0.005393791402766742,0.003220194345632009,0.11884580863333952,0.3608698451451498,-0.08268311959022888,0.2901422178836593,0.07134161882319498,-0.02303723697016939,0.2699823608460669,0.005050200510110057,0.27111072954394894,0.08835970075442218,-0.2550958167486639,-0.4434629994114906,-0.4640293456000968,-0.3003244099161056,-0.012962776777335774,0.04709661741708626,0.03542330838869562,0.04764198580266409,0.0008909978431754681,0.02248227651655739,-0.03843256749055529,-0.1759424138136093,-0.34296035444381173,-0.29453805013617995,-0.18943565532290912,-0.060387571353705705,-0.05079468292286941,-0.30121506418815264,-0.0597913585022847,0.05171725204161803,0.1856946808350152,-0.06532655719250378,-0.14582734346909185,-0.5401094003506708,-0.23102908277835862,0.13152606356851013,0.45174552952257313,0.16435714477142854,0.2681216799153699,-0.29889942711525136,-0.3036052149455603,-0.32371268305063694,-0.05102879954468803,0.031996417190892336,0.026531931570549498,0.017885695571895503,0.028871922410068782,0.027587782276837284,-0.12555433536219393,-0.22267257891683576,-0.4304484432358759,-0.35246478835432526,0.041318801336914096,-0.09990368444959166,-0.40270782407357264,-0.2796109517231655,0.018518567107814347,0.22917197507475895,-0.15459869820411246,-0.17381527835478064,-0.16863145052108827,-0.543328129420775,0.20516146532170337,-0.37398088959583825,0.01616904754699844,0.05547028963740484,0.2171376560595815,0.09536013749107915,-0.16334502228488573,-0.3338613118549478,-0.034892513351392235,-0.058540684336871616,-0.0029346618780842076,0.008580010218660799,0.01050712630795554,-0.00794510649163738,-0.15548489998126802,-0.2279379348028983,-0.19489310527539266,-0.04088804883123274,0.043388417806736045,-0.13074703545238672,-0.38727908610352324,0.27811949642881245,0.23456977034309337,0.3755755241913027,-0.04419394757080895,-0.10588241254851707,0.2353708594282126,-0.432025994114599,0.08466800582306962,0.27493304772966043,-0.017335731020310927,-0.20447144339565498,0.14600584717937518,0.11890608814261099,-0.06018964702997103,-0.30353192935590206,-0.3288189709967195,-0.049189517009297835,-0.0004276076416544524,0.04081619362527545,0.04978277912605424,-0.05957922904803048,-0.19237361518913498,-0.05372496496306303,0.07886629970515747,0.09823024468246706,0.052428610089835154,-0.09721476043674214,-0.04493315151273766,0.01145853559380312,0.3484097641410649,0.6669900078627934,0.31961200006698326,0.032881681080564565,0.25742624948597004,-0.24788078021607576,0.22687086554395966,-0.3659862179532327,0.2295384565283219,-0.04675896682883551,-0.2540824959461631,-0.056803085681776506,0.14621417565516984,-0.06506864312392281,-0.015755517781252105,-0.04832920750902298,-0.0038534593869264536,0.04341024359345104,-0.016540121090454617,0.01425281419776273,-0.012434193174691271,-0.089491370787954,-0.06457508135269191,-0.049375585278795014,-0.2665445482410195,-0.13811112475841933,0.06109002775063421,-0.22987838645186034,-0.06622476686518744,0.5364113564410848,-0.1385538012065125,-0.1456205812794089,0.262889369576831,-0.03134464156389952,-0.06543197532215626,0.023282553731948888,-0.2519208919841806,-0.3087327717660979,0.05301911173259604,-0.08780971737260572,0.39334997383711534,0.17499838552612185,0.23232102354289547,-0.006637112826947852,-0.12677165133015755,0.03492844437321444,0.04233152898197139,0.01872866023150554,-0.03675659417810358,-0.15506329790515053,-0.07147106037680755,-0.047574444266413614,-0.14630697453853328,0.11784680719635066,0.00396073525671057,0.16944461154503446,0.045267307198306586,0.026062334583203783,0.03786892535755423,0.20741664944028823,-0.290040719819333,-0.5335448361617453,-0.24426726601133442,0.18457368666410473,-0.6749900592756563,-0.12698076996520244,0.17261916966302646,0.134452744658092,0.0900179292701363,-0.11343881246206904,-0.2425459248589938,-0.22693244458455436,-0.0074982565062868675,0.025411074890222107,0.0491602464533497,0.00009888700079199672,-0.02015442466422616,0.06084038984870708,0.0753899362072942,0.03007428395727507,0.45233746660383967,0.18415171566451252,0.33148830170707955,-0.5218906879349157,-0.17128079290805634,0.30705239489303743,-0.15426155380570444,0.3681132347422513,-0.1991897484816464,-0.5993039342269557,-0.2777602577158526,-0.2688924672605274,-0.11864668589515384,0.006350242618279509,-0.02963367920996515,0.2928528089508825,0.1322616358827886,0.11283014114931987,-0.0034097215758038552,-0.056134347772021094,0.06455040420836698,0.045080437557488216,0.04205925540004435,0.008514109528997851,0.025855038435757215,0.1368013133315492,0.0894511354986369,0.1319317773747985,0.08027004409021171,-0.03587261202373116,0.4104963574913609,0.08812631618267353,-0.2670301469958859,-0.6382440650338209,-0.5649805788548167,0.034625621015616254,-0.03657729995377297,-0.3287605839954131,-0.056273266641707086,-0.5031218209941798,-0.17953577026812748,0.3850340998519771,0.21621875823695125,0.43662540789728255,0.38540122116423564,0.33828277052754224,0.036801382242236204,-0.11279285839212169,-0.015161164226032097,0.02841828491978735,0.030501595705500092,0.04058861039098895,0.03061447686412163,-0.02628379919976339,-0.014874305753599321,-0.2378845823296739,-0.6919902417066982,-0.5291897933925461,-0.1736675497872454,-0.4127878455054849,-0.31694106801828176,-0.6179682547600013,-0.006446150839396277,-0.09453754141044977,-0.11729175617859783,-0.3641263729370798,0.08440789350695631,-0.276034428572323,-0.17766466126799338,0.25672490143977705,0.14783222988154818,0.21215452394850412,0.11142392841862862,0.1013002179397108,0.06572849166614694,0.0846133114828019,0.0783659119953366,0.0011153420309459687,0.02428271402326203,0.011487155060085581,-0.003102445959003278,-0.19934301234340787,-0.32951062086468325,-0.5145629825375208,-0.8328878501831861,-1.000997328700485,-1.272300671931958,-0.8717026468540181,-0.6973591362721817,-0.3180237561718037,0.33794034430444186,-0.021048413059348254,0.07932083971112858,-0.16723672757384048,-0.24505446281080587,-0.4409417613907475,0.07642908788282757,-0.30934224171910246,-0.5343832493000009,-0.23145195097215562,-0.02915886834214884,0.11437066592937654,0.08628539033748087,0.11746152352541958,0.05024896146949789,0.030365836020393958,0.02495418891263517,0.0361308493966008,0.022685295917970843,-0.15819875428180785,-0.32590874968739003,-0.5481393242189085,-0.7863760860907401,-0.8838401738440329,-0.49875545651107694,-0.38205182977776436,0.31297410872598685,0.06574706344993403,0.4598487826055285,0.09523835833281094,0.07275337653373468,-0.14571059721149388,-0.5021762301654311,-0.1407022874170179,-0.19287472807015432,-0.22037161605707845,-0.6179768876754242,-0.6423679421402687,-0.3966493695317207,0.10286313997076321,0.180321681591224,0.09162143199275029,0.03044238194585577,0.02730177423642343,0.016258203358300374,0.018556484000040018,0.037868313202613225,-0.26679958582229796,-0.43200033944667054,-0.6237279994828703,-0.7342620868805995,-0.09121648151366316,0.2973659881153205,0.4715634381918659,0.5781505887987991,0.5003058868673463,0.4000267468313606,-0.12343313346565596,0.2784963781022877,0.21687792932125907,0.09169054572761631,-0.008575653004315172,-0.5874457385552335,-0.38052293730672626,-0.5423501569237643,-0.6459266023368365,-0.10541120422941992,0.061477210805794026,0.255936889528155,0.1499237105970724,0.015758166540254973,0.016655293764411903,0.030938603596519797,0.012956958145290515,-0.001863910360880038,-0.01880309239076859,-0.20587918295281799,-0.2535938296399123,-0.11034031050927316,0.0691754271546217,0.13300458739464988,0.3403150723279197,0.2383105399484729,0.4816067341646605,-0.32237387060180106,0.15412330285437373,-0.14408912604697977,-0.1270039364316157,-0.6791374202616193,-0.46148682112615846,-0.3808742136251371,-0.1030121833472853,-0.16782816433234204,0.05410509514953783,0.09117673863904596,0.18761172807774126,0.4196447982415777,0.08982077300236072,0.06040906197935203,0.028086432090916408,0.03991911507905998,0.003646947698721657,-0.01886570668539911,-0.026807430951531236,-0.16530783236381902,-0.14167030657519084,0.5109086613564737,0.31031912499585096,0.5902921768192712,0.7963585667732986,0.7660789566909473,0.39526570686862,0.03556272945298676,0.18139001220109202,-0.10840469193479303,-0.2495754823066557,-0.31870347585163933,-0.07340839573534433,-0.11212159567277798,-0.027268546828844522,0.1231203931339191,0.3893286837718872,0.39167900127571753,0.36448477579573313,0.4235093708761232,0.09545508863706038,0.055121170763826256,0.03105044310528121,0.04355469960290507,0.020377430639454717,-0.11273941196766259,0.08752741525687241,-0.025309532849962336,-0.0925914057977344,0.18664145489275552,0.22031713998833302,0.3446494777948994,0.9511809246134298,1.1261709916750358,-0.20888050428275953,0.18596316598955934,0.3504654715833182,0.28704204695375446,0.18907299379987957,-0.01357405552899544,-0.2792239067826625,-0.25032625312837076,-0.18831072579266742,-0.1666093289321892,0.08023707797099068,0.3254785807110328,0.28894792425256766,0.311847739669089,0.10454006850953251,0.015270150001065354,0.03325535295840695,0.0524569798623397,0.04087165802656031,0.0606914321524454,0.08404421375916306,0.10186757843503737,0.04758431558041651,0.5065195811635962,0.44021410025106517,0.1176636013280046,0.8360029397607951,0.881776400681754,0.14227631895553045,-0.32284643892250164,0.2717782985064919,0.3478686868384752,-0.10021297596535336,0.1553517594699295,0.12069543295126756,0.15725367507599652,0.13235102222026546,-0.19662534477762908,0.04694621800106831,0.35973433855900644,0.21526220232355128,0.14795138337179986,0.013955745928252815,0.036162256358440906,0.03630943550234256,0.029243131005589618,0.07813557274764958,0.17590765627551203,0.08815432718670935,-0.10109729849034634,0.20268871863439758,0.33526479851835317,-0.061078162491674456,0.22911159339511908,0.22273866616095966,0.1598465471933261,-0.2665844402505725,0.17862059717698728,0.17605913326984013,-0.0075349366984980405,0.17398980128401464,0.12840588071868325,0.3173311651301793,0.5398452218643298,-0.061709805290076525,0.04980103875649814,0.32384753765147123,0.3824606118537265,0.13224189381277326,0.1236243356541428,0.05657140809490237,0.034720699934555684,0.03771518575330577,0.05001222957802815,0.043916227587491155,0.10026983777294844,0.27808905851079063,0.6195992037143084,0.17380335993736457,0.41131331864063564,0.34471401171123467,0.21731495607141407,0.18101749920621882,0.1446919097028016,0.19914605423214493,0.21295768445451468,0.06895630205351597,0.24407640669344446,-0.14886387593330894,-0.1634868969384853,0.14719178596157814,0.22403951998300747,0.024479690119144058,0.18860738532530516,0.23148164169188049,0.16109001759810004,0.054639421661419586,0.021820968379469136,0.014533182629161577,0.04089255103656365,0.03285086696284006,0.0431841227918281,0.01165594130144952,0.04144407625470061,0.2589736552388465,0.1666438937116526,-0.09405605630945837,0.12522023954576483,0.05709280085705102,0.4035489586094701,0.675024347991755,0.4477775296935415,0.26277851872533486,0.46027451509535866,0.007934963858169844,0.12078639016164239,0.2966137587532418,-0.05135045018605231,-0.16169377925756212,0.26768533431148966,0.05471682352337929,0.062419487679162104,0.08815440146627308,-0.09221867739170211,-0.03021183906663187,0.012894961533207398,0.02050637952513252,0.012164645172089367,0.020285043349341017,0.00614109246343551,0.023317167446328158,0.004955077023912867,-0.021693737702430552,-0.3445417834553801,-0.03993001783495189,-0.28393963525559557,-0.5906931763070297,-0.2680534152995409,-0.0679925121412357,0.15569569860796334,0.5524975989136194,0.41016666531559337,-0.1808818788163675,-0.03640215990529076,-0.17707946347779346,-0.11393595531129033,-0.015413786190134744,-0.08930178228391379,-0.2748894172844074,-0.029844785636022914,-0.12291839342534053,-0.17940662291201745,0.041420393152512926,0.04156769282313392,0.04777698226225868,0.034260414293684094,0.03415639564065694,0.021236619371893955,0.011632301304465117,0.013594874759736749,-0.00812527163181844,-0.20818151864712225,0.06758487510115552,-0.1369982347609725,-0.6323890353614441,-0.3579699592771898,0.4372238036043541,0.12015592128330807,-0.022194037858931006,0.01647415798841783,0.17366109901610313,0.007524452486434426,-0.31162866147746976,-0.24526488706233102,-0.14431234946655117,-0.370406920154487,-0.2935908794446137,-0.18151798116472623,-0.1556151142480684,-0.18054656371653807,-0.002726923246608324,0.02227724330286371,0.01109030290755658,0.021927591606830516,0.03397341222799543,0.023038049733383435,0.01003097953610047,0.04476917639442611,0.023994904624313206,-0.0843786279795004,-0.07853610402036644,0.0354407292305521,0.06943361217158858,-0.05686277409276372,-0.05723330918567481,0.02110264764858317,0.08564956627176037,-0.06331761494754531,-0.3257661152213953,-0.27057187612852723,-0.1496764927194828,-0.060532753610075166,-0.041466588908763806,-0.024952201843019155,-0.15162125247789562,-0.12770578354976606,-0.0466691456940231,-0.001562307787032262,0.03815803912100972,0.02305102106088787,0.005758865051407654,0.038184964417529575,0.019589853681189564,0.015811161113323376,0.016574178357303338,0.030333626447362365,0.02966014836795982,0.03477015514963328,0.009864012058317505,0.004513600193599643,0.03843227080876768,0.00697052434940167,0.01728461009138318,0.004638757261425819,0.005841105398019687,0.04026904256991787,0.010994255356000826,0.005991710106921246,0.03648926478030294,0.0033017197610761767,0.010595590929077489,0.04326060251995818,-0.0058706891386162965,-0.014365346154510296,0.03020052692251098,0.0009458939588581685,0.03816281792399996,0.0006034512075129307,0.02401606744771056,0.03957119857871845],[0.008798507552179681,0.04488370848339434,0.04277392793091822,0.04117391812423891,0.04512030822183362,0.042293374343205715,0.017501860667051918,0.02055127237659679,0.03211646195819053,0.016668287547057476,0.03105634739328709,0.028937739338400076,0.011859154148668437,0.025223433246204862,0.01750130613483675,0.03261785612897357,0.0062934209235730185,0.02975201533791711,0.022843796485817795,0.0323442217544268,0.024702133499746173,0.03699604840989685,0.03953968695804683,0.03637873194699493,0.008621718034058581,0.007270149022697065,0.0237303824514625,0.019153257431508794,0.0461967810361556,0.04748674272349415,0.017393722964304664,0.005536263743277735,0.031149458208066517,0.019509477947016546,0.054975604195930165,0.04191821854920589,0.035293271002320006,0.037006393894157455,0.0035526515102961556,0.03739972031113046,0.048657056974764225,-0.012707691133239746,0.08628928951895734,0.07603275294426975,0.09828351901999004,0.033896010817202685,0.018801126434620348,0.02977492377968395,0.032144839940100936,0.02813745477469443,0.01536415505402971,0.009141455187669525,0.0075989024414047784,0.026951305296597877,0.024130177605658443,0.007572192099976356,0.0012897619272806114,0.032828093154850656,0.006275236728376656,0.014429742425135178,0.03556813734670228,0.0560191660678122,0.02948305221040362,0.024016022217896376,0.007670345412669823,0.006678720680403788,0.040964781475240734,0.132841938472772,0.18607909356174898,0.13697925106542166,0.33416322271721527,0.2787951487600549,0.09827410480979792,0.07626919763054163,0.0763403166240551,-0.036261532782199665,-0.03823747366981236,-0.04858792866837214,-0.01867431025926181,-0.041840731153491836,0.029977705744485574,0.04467223294400962,0.03288559472857158,0.016260906582236407,0.01924251447886154,0.03119599349986505,0.01815507171769445,0.011429196725133931,0.03803377258531108,0.016220253912049502,0.030532496331020845,0.016697790236045985,0.10574585978158403,0.21154481762677732,0.0406333544382617,0.3145554252168784,0.3669089215164494,0.24611695428013328,0.23765502837896887,0.33957443202477156,0.2957629326494752,0.33985880118809564,0.06888428940802062,0.07088902068489483,-0.09496613332683902,-0.33395514423216416,-0.23807137357092376,-0.13723951572388116,0.011712057707537867,0.05409280149929476,0.03248502501856565,0.03200792291013432,0.02786730702883344,0.0071572245113610275,0.016262155227531397,0.03456098195088226,0.0330145958108083,0.06296447914714842,0.11264921283920967,0.21456991040159906,0.12424687538523922,-0.044887511687815344,0.17928209008802298,0.11483702511001824,-0.07994603569122287,-0.01038256558025472,-0.008374074589748925,0.19330839378464706,0.4170873873119128,-0.17595574196478658,-0.022614670377761534,0.35154772712868565,0.20922320014935736,-0.22212617306176133,-0.16422616496632741,-0.08661723715925895,0.010720564287041334,0.024542716753041875,0.017793979162952497,0.00810609942007235,0.011345806929384904,0.0032989940828602724,0.0457384503969308,0.03918185793303375,-0.05942311246797877,-0.056476799449491355,-0.05706031784542242,0.07451949420377924,0.15445864086152603,0.27712155905263497,0.25632833146378575,0.05160401838674978,-0.34799479208265793,-0.3307172243853174,-0.1786488312468662,-0.21063962048564375,0.017403453398016255,-0.2528746156844173,-0.3129341876274195,-0.5334373194665464,-0.2109731535753626,-0.034748797740740404,0.16289496461438308,0.020837085513265224,-0.04932105871211425,-0.17169381736033232,-0.05561344906196128,-0.02163567227704132,0.004207577614627467,0.0050037383784627834,0.023544591360473835,0.050408575212471524,-0.020910704150720414,0.001319705356187546,0.13549602682256004,0.2903452915794935,-0.18368509938643615,0.3870256637989349,0.5341527351788597,0.2505151410723012,0.07737924063379997,0.1103761135370161,0.5363005447051982,-0.20764503309808632,-0.1853717175000966,-0.27339543708767006,0.2374003020879961,0.11893886921782554,-0.13250241503791418,-0.002360986339111631,0.16750615360057938,-0.11193378981979962,-0.3744477374019088,-0.19823916773595227,0.014450663266584755,0.040388019403324725,0.049286797145620044,0.04976971894191592,0.05699778476932999,0.09047472507739777,0.04543888916063216,-0.0832013059841604,0.12389599887693865,0.34524415323252516,0.44200774295569734,0.4046709209459291,0.071039058128096,0.5394597187019738,0.3055287996754445,0.722815906149578,