{"layers":[{"numNeurons":16,"numInputs":784,"activation":"relu","weights":[[0.04975519220218567,0.042613169945979294,0.030849956056656754,0.042455638068454565,0.008634789694260724,0.03347270396214716,0.030567688850577805,0.017785147676149134,0.00931717462562929,0.029372083827331818,0.03837431706088922,0.016860961219798357,0.03672777782924668,-0.004721077639461317,0.0029001547043132824,0.01003695953979426,0.020933039680858422,0.036477622838217365,0.031053360324115823,0.03908073686493322,0.003734519579364814,0.019683931263321835,0.0499071704344684,0.00864937448510754,0.0019865848651629877,0.04539618858031601,0.014877468161566536,0.011365635762213938,0.04807392673332638,0.029913059605181508,0.04542178211870277,0.043763364836667665,0.01458240283951725,0.00858334270248615,0.022286924620178467,0.016765516329932964,0.0024744009557434517,-0.005008999533493752,0.033923268290523334,0.028055720251932002,0.003394465627529217,0.006497132770464212,0.00260973468898104,0.04404432552966914,0.0749082208252508,0.05074718455161039,0.015660038281537475,0.004781592577135884,0.03697938339922547,0.039962031763296275,0.027146440948055316,0.003389577986452133,0.04033186269022669,0.0023444054336939223,0.020976743474377967,0.014452378093701574,0.03137693025262926,0.008811617413787276,0.020010676289473672,0.040339484105123884,0.010248756607962603,0.018270324338601318,0.02329600690788169,-0.014117502897806609,0.0264652258006678,0.07222164871948981,0.06279513409687565,0.025451287051225572,0.01464193275283799,-0.019028113544766516,0.06782853920776899,0.044681241608784075,0.05423318342948617,0.01455788711949625,-0.002686148791292865,-0.0444122802715972,-0.00018125284808715112,0.047634739567990414,-0.010753984862940784,0.03688793418135251,0.02458295475486379,0.015548849956070443,0.0019137545219990797,0.03216799168503594,0.026319636286804768,0.02860992330717115,0.02273161225139826,0.04570254666186166,0.01720367311256526,0.045385685511380454,0.030159446476509998,0.04740665246820832,0.1887659507185637,0.10632107600501814,0.02658807705203871,0.05819613425988848,0.06894704528826248,0.06244220230912746,0.020756461784713232,-0.1036417578015447,-0.18039123997179587,-0.21362153276211238,-0.32268178850841817,-0.36226040923243624,-0.14891183185026297,0.03009227001780488,-0.001929175594123063,0.04122031430007819,0.14193464417463586,0.03882077949541308,0.06126737124139154,0.024128655279122984,0.050193888801393305,0.015527812923363965,0.04555177613517191,0.022162749305708437,0.04849626235857711,0.04372298254100264,0.0580935514419118,0.10732435937975816,0.18002232791694017,0.041481393283312996,0.07257210033721648,-0.034092552918383104,0.12302057932691764,0.31712113535383735,0.13229745565290454,0.04182018924374794,-0.038890896967420215,-0.05230127127158314,-0.18906546448875822,-0.15159396808750758,0.1162450724055283,0.22303527244695492,0.1272911498212712,0.026436031826078885,0.047920973087756856,-0.04010477488991173,-0.03506532322568409,0.05243522577279718,0.039784442270080975,0.04404852490933439,0.025677818998203473,0.05221355174519888,0.011664690107103474,-0.03314330406338045,0.0741597143141359,0.1671584753372026,0.16856478935356692,-0.10414771996756171,-0.13653872907685952,-0.08854867856361426,-0.307207407875541,-0.437315131388635,-0.12487615809991502,-0.15722453521304863,0.10140712114918826,0.2890297458705544,0.18596729412267277,-0.1008600207213622,-0.07712020388011308,0.353548443788144,0.3240076788102155,0.17150901779475022,0.08974779278581903,-0.10114835827082687,0.04652472884519126,0.05246873903689586,0.03220647198827147,0.021811405866662,0.04813262987140382,-0.028932620141745694,-0.02334959737688709,0.029643286551714616,0.1434626489946134,0.07192131069779763,0.08763060458173848,0.190368068152508,-0.43211143976462624,-0.8029344146170131,-0.8347273371754766,-0.6497340001073137,-0.5866096543680912,-0.3515404347181781,-0.6667237879143941,-0.2706207203595319,-0.2902369875080735,-0.10934881094525764,-0.278524900377566,-0.10795958477182398,0.23339272666477917,0.2465224276545204,0.04045226962702846,0.11241290391968611,0.006985028870624297,0.02273877860619122,0.03679673879246752,0.028230737013177336,0.020666595144792615,-0.03204015344815537,0.1014248140020911,0.059201268439410024,0.10943032121234901,0.12712447035001037,0.11065895090871704,-0.3319501641691456,-0.19045722339718263,-0.016096718241185873,-0.4852412087966433,-0.6753703876903443,-0.870557582920596,-0.6402682070164859,-0.5110787069407324,-0.27156808403241617,-0.25032482115682414,0.09828144122188984,-0.22501112022437808,0.04030075087473309,0.3132292081762123,0.0784890022445232,0.029801413049673414,0.05499615082445173,0.025075905005822165,0.0001522910416684973,0.039050583984515,0.044043690132207484,0.0022021217235268986,-0.028542000996955454,-0.01024251794661289,0.01881731733441127,-0.15255491840522004,-0.15483188550414181,-0.33700632961494453,-0.11194772041083995,0.03013370977207058,-0.41858141272840094,-0.6338823336760029,-0.6123996725765226,-0.7385850692425397,-0.3967346211598372,-0.5077086700473338,-0.17025197846027468,0.1664288063975651,0.0005995159236230392,0.19142862886647857,0.10771438571454081,-0.034723087742936184,0.08692507792565231,0.0295359744029052,0.030356214783190102,0.013168616022927751,0.022728292393144056,0.007754696367344805,0.0009386596857587116,0.03464068719980495,-0.07663284714067076,-0.033297912653097624,-0.1127225147005419,-0.5026311146348906,-0.263152465245918,-0.21946192942186213,-0.03592064902245203,-0.003702269234557096,-0.3025928731253703,0.03732639058642208,-0.3920540522364162,-0.8488212506329881,-0.40264415421725314,-0.14110835098428956,-0.12753728979387288,-0.05757495312472694,-0.13434152329019963,0.08296220252391212,0.19737469454390072,-0.09200070954337498,-0.3064014529940183,-0.055009053470403524,0.0003556177901004789,0.02576945734235263,0.0069231129071345935,0.017427874722711324,0.04059552141171361,-0.024011733723573524,-0.2239329485975111,-0.2536269171733232,-0.07328391727438205,-0.551232723844543,-0.174661867351146,0.11031889141024132,-0.05155460152006184,-0.07352362087229347,0.16265238915520805,-0.015439937256788407,-0.48942419903322937,-0.829353782605733,0.2093793500524868,0.25234732056520615,0.17739588407347281,0.034505103207011716,0.10513485460608922,0.08211664530549112,-0.13439204054545734,-0.36270041412958837,-0.5948607738753743,-0.2708226905572629,-0.07966254363479336,-0.009338173822163726,-0.005962513579249113,0.01845146786106437,0.022750628968494002,-0.143188516386967,-0.18032103910887548,-0.35944754766791853,-0.2286210898178462,-0.4250993795961237,-0.26471605985691843,-0.0055967920733729325,-0.21160833910630647,-0.09195037554112492,-0.35403685093989085,0.09999429472990212,-0.4647670527175133,-0.3087326983609996,0.011091904204628193,0.5377317006196415,-0.20795181899563958,0.11018156217395925,0.05917298026829322,-0.2272471759653546,-0.5063169674908268,-0.6019717234738469,-0.4499128880951783,-0.4455877150127435,-0.11574905283069445,0.009396977683168486,0.027130351216682037,0.009115596026852793,0.001592190575611935,-0.1125269436666384,-0.28671644230449606,-0.47428936481462036,-0.20228961838849566,-0.2037478775662571,-0.15788030351159613,0.08118008076779798,-0.13743335960276734,0.32892599463204414,0.23908294493747045,0.49504871103208686,0.03419427868068495,-0.44222822865050454,0.07748978684379683,-0.0012572708170891145,-0.47425444049423165,-0.08047985743522519,-0.17450622777356292,-0.05741990611455901,-0.4341297024007917,-0.31219207499665974,-0.4308941212857184,-0.10028958502377225,0.05955501353009968,0.010060213921157352,0.023713183717041897,0.008471843476426225,0.0012775418857325152,-0.1662332749709767,-0.24304051659224912,-0.410937645714144,-0.01098617287367915,0.19095774102628635,-0.20159590957118173,0.16702918562734378,0.18525775505838393,0.46149052306496124,0.7990774345771544,1.0285828428035861,-0.34320600399405043,-0.8935524746575261,0.09876807043674711,-0.2836976565862259,0.020040924380024586,-0.15303461182465553,-0.3454145847070863,-0.21907517462413362,-0.011060570983478778,0.01748767264861421,0.26110003702063533,0.1888735982062381,0.1277409495685434,0.0504227418710205,0.03155181383735121,0.025859311787279026,0.012272466682733381,-0.08848486272398637,-0.05755700621203197,0.12715559034871268,0.2715857332759715,0.3983101956367095,0.3247050883704869,0.4147912675847193,0.6171130245702543,0.25329674940709324,0.35422842732177573,0.636547532913799,0.22887462780513965,-0.06802685934200263,0.08761419916777581,0.3838178799857157,0.22209281980800694,-0.22857235623908856,0.18678402074508188,0.34950233661893076,0.28256225638580895,0.22816897273790204,0.23286453170850085,0.2009030783625355,0.21811435409211696,0.07955222139013338,0.017324128397999947,0.0428871936917294,0.020360089351752545,0.036157172302527955,0.1370600592741248,0.39742041733857697,0.4349862599494829,0.43081330214240243,0.2624259017720272,0.5637500556711932,0.27526858048249975,0.28394038504489116,0.25990719001863966,0.39165983110743785,0.37324229673415427,0.04015608786108894,0.23405784460530032,0.538198167445894,0.4368251300673219,0.10241855153808974,0.6273045175193891,0.11389238897362658,0.1804747935114683,0.24361134746332652,0.10833622370774011,0.2455967590032823,0.3134786333626903,0.12138322249670916,0.05027934022080971,0.010272456209395675,0.04623145918337398,-0.004990753107903687,0.05288673581289055,0.053981388399159544,0.11725537011835543,0.48627390589356345,0.024683716738718112,-0.12678090553453933,0.1190481120003278,-0.11020599924450308,0.265092366678062,0.3503525218550814,-0.01862073524236893,0.32711693809980413,0.9082184605404907,0.4605704541631592,0.4820285299731615,0.4610144542085738,0.7272217203839069,0.4533097829932994,0.2955842626588889,-0.007363400679554538,-0.06081934646533439,0.21598308560778767,0.284221368896923,0.15532212281798005,0.04990923027676066,0.0018937283277065194,0.02351221782110619,0.025173204111999806,0.08049605708850398,0.13474412007451883,0.32576045022660693,0.08811184551896993,0.21414619381551134,0.11128210877867897,0.11069277608324057,-0.022308324482857293,0.2549479721169906,-0.25151178126816903,-0.0865816906409098,0.4546716025955486,0.4326383183485005,0.5243332290318476,0.3578882109631004,0.35181496142983326,-0.05116004243810129,0.5094544248222687,0.18631399416596528,0.09208062017140946,0.18762694250687695,0.23575468995268054,0.2791671706704939,0.1312416776471699,0.0058445231850446835,0.005801875246380388,0.048075781590742404,-0.021301270651632797,0.1665388601570339,0.4034381885932678,0.41155472073293475,0.07931039692334925,0.18237010738773177,0.40842385695540695,0.10643600675029248,-0.16360443455554874,0.0713525803678944,0.20853346756202737,0.2956861381813367,0.5076829565749154,0.4360664888015873,0.7178865855013247,0.47122653017240307,0.41779861431988824,-0.06427272375498613,0.045618000390632116,0.0861593340844625,0.1233883144155607,0.37444532972910405,0.5372660744584777,0.19189334046358947,0.05214622259073553,0.030515003717627314,0.019655378136442976,0.001229124406586784,-0.006565418190896782,0.15621567122382402,0.26250207632423894,0.13064848999927142,0.18514023590651182,0.3089349885774087,0.2755916453336693,0.13415134227673792,0.057944663844413116,-0.12108994495673069,-0.36394042560134016,0.08616990469547854,0.4400961976205802,0.5387391896156366,0.2725736867177628,0.12015700259034724,0.05864604465393351,-0.2877742417389675,-0.06394219194700934,0.15995868470819405,0.1897897107967081,0.376526569396444,0.38312090606380356,0.10082634638224705,0.06643137016023204,0.019746210980727517,0.0270193394915234,0.04562133853241987,0.013545135007196656,0.050980768269491106,0.3125543844845569,0.0007616909465607723,0.03455175676993204,0.34037700024863676,0.1425114295440137,0.3234449526916103,0.20766369349436656,-0.15214894075771498,-0.09116994057404883,-0.5537941810315506,-0.5508945817816655,-0.44361153195387765,0.00045912447365274907,-0.06802157322898657,0.14184867889638222,-0.12632164803830004,-0.024886089131210546,0.1078216973867485,-0.012920366034919688,0.24717201252454124,0.0895163669297685,-0.02046342133406827,0.014261058168206865,0.01277105791747622,0.04303501255351259,0.02543370902183286,0.026512062190624575,0.1173321980588785,0.1527897098496142,0.04901754075670739,0.026550304392511055,0.01812280729597856,0.10381674813064881,-0.23583592771147407,-0.28478941427064597,-0.46620437488976274,-0.2689725102640996,-0.38430388725522274,-0.7110345106688533,-0.5738008640563345,-0.5083843523452625,-0.13660480239697778,-0.23284958676415554,0.0279832754958684,-0.28931406515220864,-0.03628414399456697,-0.2175883949929471,0.08260039143845856,-0.0780220921834521,0.04999658061331417,0.0454514044357495,0.012125034814502441,0.006241748257800383,0.02950200952216267,0.05870755180180592,0.1248905838825647,-0.011118970679657022,0.09452327823604745,-0.11977488095792997,-0.08868007203597718,-0.21339424700571558,-0.23803137095309032,-0.1360841645973492,-0.02944266138323414,-0.3438217244949828,-0.20985922402757387,-0.37135745173558504,-0.21589719143169703,-0.5112884444744071,-0.36927470685062036,-0.31131460521512544,-0.0484432945304417,-0.2083330686224069,-0.04092602577154868,-0.22892017452190802,-0.12729113264093325,-0.025172902766656582,0.021956081592154,0.011523025008501386,0.03769527229668745,0.016938034827489533,0.044641665179342774,0.03752119420250012,-0.011830616055974423,-0.01645986503357908,0.055784328397315695,-0.04902663354712505,-0.1423496631608267,0.0308209422832565,-0.015409945522668524,0.0730776305036423,0.02128740991620948,-0.2778525785660876,-0.21523016005737927,-0.28599512858926546,-0.3391259394680022,-0.3360338747533529,-0.21316834783409522,-0.1996644913431057,-0.2914833207562214,-0.1794874676574786,0.011073109631632414,-0.34561946868607146,-0.20727064606191412,-0.06021971569792473,0.069523027853985,0.0490005932355574,0.011010943505181328,0.005949188744252798,0.00210458564676648,-0.0011084455786112136,-0.05486321417720462,-0.06753888027380711,-0.06988660321227363,-0.30527641123583477,-0.4734425820860049,-0.45217486971847193,-0.2860858299466333,-0.5141269220154393,-0.30396082981135475,-0.1913524511454306,0.1890229892165057,0.002736782373214431,-0.03905550868043952,-0.04870537623626784,-0.06937472113509484,-0.02769754219582193,0.021119811409784785,-0.2957495836558038,-0.3013804319718302,-0.2675456490206343,-0.05984682797373635,0.03179105936744572,0.025248434813107245,0.04242839822459464,0.030137942132609813,0.031201659065117043,0.019090676337731857,0.039978833915736284,0.04197025360312207,-0.005250987116837072,-0.05992693461488686,-0.10525326893962096,-0.288676360658843,-0.4436409662870753,-0.4725244969471383,-0.6448034068703352,-0.6329375067082136,-0.5588730676898244,-0.5618757116204169,-0.647545031656722,-0.27860308248521787,-0.5991788518517521,-0.5177385676368762,-0.2125201562516411,-0.6535481597168297,-0.6595850069392022,-0.24642807845812542,-0.11423775153682883,0.05770362753902438,0.06291288227345192,0.03263422662979732,0.01561801576309855,0.02949820569811635,0.02095833274932585,0.043418052489558025,0.045632165999748,0.02640649225552365,0.020631797591101134,-0.005076103904380975,-0.09768110756933088,-0.057727797910691464,-0.13215189067532315,-0.14810244266127146,-0.3294028691560291,-0.3673960593498297,-0.4364787555252894,-0.5681999663556585,-0.7388583408021945,-0.5981694624021308,-0.5266722695012465,-0.4459864405960872,-0.5045977333189087,-0.4278428158877169,-0.26767688271724954,-0.12083761343454513,-0.08239386109137292,0.044997224673068666,0.015429835140042938,0.009060155403825263,0.012295658742714096,0.025735140073591175,0.02611923424018693,0.04822304494403464,0.019825414405337423,0.03964088930601418,0.04311398899961991,0.01039254071242111,0.00941715679645931,-0.05156522118875607,-0.03837933960080563,0.019804674846536006,-0.03744933091722215,-0.011416845944435499,-0.011253650803447469,-0.06718445406463126,-0.05078671049202553,0.003688295034701435,-0.04034508699373126,-0.0004919649519875403,0.007517974028731279,0.022823675252087314,0.022322621203606875,0.00041626608028598537,-0.000628517282696103,0.01838023448618174,0.037690117682285675,0.03131299297281335,0.013773110777503322,0.040360755948011987],[0.03786557971538362,0.04853750803915591,0.03524833652930251,0.013078534534475234,0.015105892532855514,0.031555619838356565,0.014788471754700588,0.04860312637370564,0.03964010722068871,0.03973669885009556,0.04622754203448798,0.04450149515882099,0.035196566613728,0.03352223038169374,0.03767447569893857,0.010437390915033535,0.0006956791174239874,0.008240835527612905,0.02819927407923603,0.030014939859332422,0.03694191550316156,0.036982887754971945,0.02514179630139461,0.007110431495427014,0.006417354319689515,0.03555445937849376,0.00028445862380601375,0.006975108266971091,0.0027945959933413536,0.028902416594153522,0.015937010701869442,0.04263049626666869,0.0024299074159079576,0.027531479727968853,0.009273243895498086,0.015271223690272092,0.014313413941640837,0.020827890406096033,0.04862364774345191,0.03248073864274071,0.028179323035677887,0.020563224447632252,0.0646408614459322,0.07283781404180652,-0.011309242351749493,0.0143662653853551,0.02172453230297991,0.009831942277097194,0.011968873805486764,0.03748125076739944,0.040966424285912524,0.025481219828817937,0.020377123178194383,0.0008714937655335907,0.04391239649839519,0.036968622767458756,0.007830163494343487,0.009097624232512069,0.009378288830544285,0.033885081378690785,0.02411114101998929,0.03804041411620157,0.01893104011512845,0.044406426643846274,-0.005924992754242598,-0.020015811697297516,-0.016259976108607428,0.010766469480881623,-0.04861511458299794,-0.07920632749155952,-0.10920567185553526,0.029413995537369335,-0.033624022100411245,-0.03975917599997166,0.02605443343432225,0.05195241356657995,0.04308452616092494,0.033792709071042225,0.07207385674630441,0.057748140045604475,0.03842838315124898,0.030922073883320543,0.009701235853938488,0.00945157525387378,0.04019484030559587,0.049145538107854374,0.006604718860672488,0.016454619509165047,0.029207308447341908,0.015027241672295357,0.021982178032913278,0.01576379545577544,0.003206800505966799,-0.042089567071930206,-0.01634642124697505,-0.028804715965555387,-0.15855313011086233,-0.3196183664307987,-0.46876998788102203,-0.37119281869766957,-0.26802224174310474,-0.05247044989795646,0.13074212566253116,0.07920614693846965,0.10088901245482507,0.04721416833796203,0.11345495242248209,-0.03119865970470357,-0.07167029868330749,0.017642277859196677,0.049218121661698984,0.02839689933426816,0.006941082916580259,0.048574106565407456,0.04576001597406964,0.024280279458469358,0.04692443945435196,0.005623676838886875,-0.08761010396128435,-0.14891068414183012,-0.2040914705590039,-0.2681417238866102,-0.48043998307953073,-0.44228839464917996,-0.5038956568620815,-0.1984569643246776,-0.14911154071065955,-0.2092332762357512,-0.1036903556228986,0.04610041579739355,0.04627156206986464,-0.050792175781041636,-0.1550653939449231,-0.13949919536866057,-0.20790984257394007,0.03472300163426802,0.13863197601278487,0.10360390705663614,0.07210889788744074,0.02186174066104192,0.02118026533612576,0.016932582328296652,0.033413558494069524,0.03416092567800522,0.0037244737705812393,-0.020645508270962006,-0.22189238722491283,-0.3187210625299338,-0.35082299755533,-0.22734538841375349,-0.3819307030933762,-0.3553169253703968,-0.38441662079349176,-0.4030711515171603,-0.047744358255444735,-0.2506723871142314,-0.1564039494529455,0.05112631257814996,-0.3823315860054451,-0.026080232970284573,0.09682093375985233,-0.24662303306710903,0.021329204202058145,0.09602374932969181,0.04829115170294326,0.10414123788973977,0.04444389928296066,0.02447653509279262,0.01276033611092707,0.006026949211431223,0.04739154883972698,-0.0097530709678755,0.009728257646972627,-0.045409690216124884,-0.29494164274736706,-0.40794611205444337,-0.22509518487716784,-0.05480098307368074,-0.31196295393662754,-0.22191067995947975,-0.07214222157424505,-0.18385778772608719,-0.036831214094503094,-0.46943520322000576,-0.25266629204057883,-0.007222916179340008,-0.22155407388884105,0.11452389491758373,0.14072996583412084,-0.17095097401952158,0.06384112637305495,0.23052336021402997,0.42098920639756215,0.3320826100237455,0.16867078703127966,0.06700511504742854,0.013812056797144218,-0.00044928158609182557,0.05568093948040086,0.01808188649252151,-0.01555479389650912,-0.07893512301571566,-0.19045475449100033,-0.24093751905750604,-0.12446990589439776,0.2374346301362076,0.2378377386312688,0.1828242199511355,-0.046124799254531036,-0.06607272442601984,-0.12134128692321294,-0.0504967530162024,-0.08751489474536399,-0.1123281437916417,0.2327304357372791,-0.06352318649892408,-0.22587236116574308,0.22398342027720664,0.30991149580709043,0.45253736981588216,0.3655073270681346,0.40139091203293276,0.27092322778586264,0.0319878659227481,0.03317578466042567,0.02264216753417227,0.024198067009176878,0.012767742514888132,-0.052406354314838165,-0.13548673867951158,-0.10736951752824375,-0.0036089341746828045,-0.11875997834182109,0.14816287879066198,0.02842819181499732,-0.12464272645030747,-0.0741549537499141,0.06144205715973166,0.24458529807868332,0.17718792998334892,-0.261035289472027,0.0888281027572549,0.19384206833366768,0.40561065292391246,0.24516134121857214,0.4565321322042436,0.23788258252376449,0.3452775177447829,0.7382127134739219,0.6360288054913996,0.23734325392963074,0.03806720721821679,0.024596673125152808,0.04473188241320818,0.017074841407706716,0.00022020798066892076,-0.05985156501897465,-0.18895187735712934,-0.14106157806600636,-0.12347832610075433,-0.08352864452349153,-0.22896565864258672,-0.009464801425562074,0.17151199063030276,0.0749435699874053,0.07265829030024866,0.24418613497860106,0.09133517866138886,0.2910999916117868,0.4803143887953313,0.4981989493047093,0.5699646072486093,0.4315434608817993,0.4176694294895744,0.18958646117067285,0.25246238134200527,0.7379324638389926,0.7713731937789656,0.13134495430442067,0.0023137960608313997,0.008987058510207199,0.04700967398182888,-0.0006911795724014425,-0.030660125538515343,-0.0076131137515561415,-0.08192566580908807,-0.2795993967021466,-0.07025275833335931,-0.12061313524448228,0.031936829132341686,0.41061250212256056,0.18205617651333153,0.18055555094057993,-0.27732445362708097,-0.43366687208927485,-0.46691089746585485,-0.3662590330238879,-0.3879575822900265,-0.19144681608972944,0.06944747623656274,0.06417823070915152,-0.051716351601190855,0.2066661791245748,0.31768576522083525,0.6323391325466955,0.5131581501529388,0.13058510775052068,0.018898110017120103,0.019358434695769783,-0.0008244424881399247,-0.03524767146759208,-0.064326733604932,-0.09411453087697506,-0.11346522231056073,-0.062147114929310146,-0.10363223397671148,-0.20074250092281137,-0.02457495241611135,-0.08052376241363074,-0.40921015900221497,-0.16331650687550162,-0.2471306109261586,-0.2363682549805587,-0.51317963664446,-0.595548798685321,-0.8694150615161415,-0.7820434598370186,-0.48165700134434514,-0.781942744093946,-0.5379154679660745,-0.2639928340807879,0.01845311124874388,0.08919541025006134,0.3204666450498804,0.13076827904742191,0.05105753082091219,0.014218160987837649,0.004853702543810121,-0.004932279825101166,-0.04446775303721422,-0.22370458845049057,-0.24855312584553732,-0.06995767651990648,-0.03681375843160281,0.005313123330478187,0.08394399904748436,-0.2302469970776182,0.21653658186967406,0.24523351782955558,0.5832380505228979,0.3734768945268136,-0.25363842645569246,-0.5156396934812708,-0.6007131189518639,-0.9670778905472596,-1.0383598286522682,-0.9693081758529376,-0.828722021741726,-0.6617494754158608,-0.31308777903055496,-0.14583828653618408,0.09832763568633834,0.05445458886679333,-0.000845382879730976,0.0285752703008979,0.0004782333882660884,0.026313309108359564,-0.04863023640859055,-0.1821650947840103,-0.27439279081742823,-0.1232284075425809,0.07066877538484366,0.31430691006667616,0.4387850910125944,0.20668900051520697,0.2902688547586338,0.41999976676179435,0.45304667992664743,0.6262914349732023,0.0725863444832727,-0.05102408489648263,0.32169758603969256,-0.2480274591594275,-0.39744720109891085,-0.5126011928124977,-0.6435137585628816,-0.5031472498038315,-0.4374604600806177,-0.24550095873925845,-0.20257076090285925,-0.1212658708913936,-0.057161787062423,0.0107994900901065,0.020175908488595018,-0.0032541360573395445,-0.037221084774642324,-0.10599346678427829,-0.19733969290830525,-0.07378203333864215,0.060820920869415165,0.2699294432247795,0.3737032129074564,0.11684965850688339,0.0409652394273013,0.06729635953761935,0.35203540157372293,0.5517162924182312,0.09562261535911927,0.026878963071818668,0.02067495097479567,0.06389629978015468,-0.049961159483354584,-0.1407937124834018,-0.28129015376636907,-0.3682088567506833,-0.297008067706195,-0.16555534390289958,-0.13105246265899242,-0.09866703591969843,0.023692800458758125,0.02634379100258496,0.025799462140865974,0.015936796312071566,-0.011063034113989042,-0.050660341083037366,-0.20722250205203677,-0.1967143204242569,-0.3200110522177449,-0.008053892207299362,0.40193301402567033,0.042167551222507225,-0.09250907895076613,0.3079573833160929,0.17695485841864955,0.3983943724958835,0.09256486399106585,-0.23470274230319516,-0.21012163353041832,-0.029684129628923254,-0.07791405051785297,-0.10192970578723065,-0.3940957263996051,-0.5266485119747725,-0.22756015485828257,-0.06193670224051692,-0.024494782840489015,-0.09052882518911104,0.01619334921716782,0.04075718329675321,0.009076906570251375,-0.024716336170847494,-0.03592621402414322,-0.07053348954966637,0.002901949549156102,-0.3579203762592172,-0.40060811827825193,-0.20715183125087736,-0.14947838778254083,0.004271689452723217,-0.15908558310809948,0.05779733182893387,0.03001486496865626,0.11237026560367512,0.08318852316924254,-0.32812165821609945,-0.0808358309083497,-0.06699550736238596,0.20252868065355362,-0.14574627749251035,-0.4870097230266019,-0.4469651159813032,-0.2412605574582255,-0.04984065239358728,-0.09448452115421535,-0.09562870346104331,0.034664675976461216,0.041149522947284786,0.01665114830121704,0.0011762281161434632,-0.014056694574645753,0.026828255913053153,0.2871109193198052,-0.07753007146738237,-0.38805734952257775,-0.5310492812048152,-0.05547440422345739,0.28180098493492556,0.0990292151164675,0.106701151950813,0.22586424357625273,0.23134855877190197,0.1595790539608384,-0.031188032544983885,-0.0546502431964912,-0.05278516199930573,-0.297785164480295,-0.26683290727146064,-0.4442217015824325,-0.3858475990083016,-0.26175567915890285,-0.19853764966616663,-0.1483026505019341,-0.08110346457411048,0.03216561709269595,0.015028259612497657,0.021927246357173382,0.03633120081692772,-0.03572037448149766,-0.07634047847457241,0.05898259009198914,0.21665353441188773,-0.22248893398256292,0.014877434001743229,0.0706909268889556,-0.24094009825360133,0.029556391016770277,0.1277824532972428,0.3139447414350128,0.32272343584117524,0.14272573656916718,0.024697499368986985,0.21549070561941966,-0.1452382797420966,-0.24976501174814675,-0.3203024645355511,-0.3843122278297155,-0.5609335412493016,-0.516997946498274,-0.31609880470171986,-0.07696811003153066,-0.06929420393996653,0.005733948046283895,0.03525849669693088,0.005921867852354018,0.03848926418835071,0.002745946168504768,-0.11781460637814734,-0.15544890647643664,0.1555897220465535,0.36965616965964415,0.17901456280026576,0.01765114051874695,-0.03905987072918531,-0.3564154450917125,-0.07275801633979924,0.16896330989918162,0.2717454858967991,-0.13080485831406605,-0.14252085718187754,-0.20593057266178635,-0.15147587877095595,-0.09810309413016781,-0.07490336736508352,-0.3717522614665865,-0.5504485298826074,-0.3519444087280477,-0.126263687022353,0.05577568649935947,-0.003399641659268038,-0.0011498167446975364,0.03689566824841657,0.0438806640292332,0.03970033823471226,-0.052607357497176765,-0.2284612792240649,-0.05239469129640926,0.10370452765957558,0.02898279943434722,0.06639488768750611,-0.039059844765565246,0.3708090094492738,0.24930587670730428,0.16489818275748117,0.015301606014198768,-0.11872199334564908,-0.09637520031167686,-0.11669657457442438,0.1027778705590417,-0.17817118676315202,0.11289038527842257,-0.05919313924690056,-0.3797696526753794,-0.41967707226110634,-0.12100989468675585,-0.02531761663635631,0.0131305988393378,0.01008513083253008,0.0035726506425717342,0.011635673279406502,0.01993114993543727,-0.013728207404431906,-0.12275372557495448,-0.03057802023240063,-0.19728392151678867,-0.14690979051654318,0.07986049606227658,0.24784562714339117,0.033381773895771405,0.09260362915610165,0.3199311299360894,-0.14682740929368937,0.0017781552355230863,-0.0824333828348887,0.0507417948763582,-0.29756525433973097,-0.010639516875288297,-0.10738439326185668,-0.18820114569769,-0.0634184063772096,-0.3473478447465248,-0.18702473242021328,-0.07028577460988877,0.06023112034338507,0.002647576937028509,-0.008147597310167363,0.04990781756777921,0.044088050779490726,0.023602333527849732,0.014352581278870872,-0.02556855848618829,0.1175993780230387,-0.037991333994871326,-0.08141109722492089,0.08283384142989594,-0.06907879390376859,0.0339703408595855,0.11665053549223521,-0.013065342378823046,0.11965403319618186,0.16351049608417745,0.01899327907839511,0.0443853220213493,-0.2129696730443124,0.1288101204270522,-0.007410829130349627,-0.1090494607952476,-0.21129666516068815,-0.2195479049181777,-0.0679416632132681,-0.03895324080248268,-0.03133045297358491,0.006548705169430365,0.025749182384795094,0.03847959136573405,0.033336542988174414,0.03492136051922509,0.04194245626638367,-0.024670373234352973,-0.008710940839782173,0.006129142636561967,-0.08993445007248664,-0.044140909697125114,0.23255105221731157,0.19389413979832823,0.07139517434932759,-0.1413380233345085,-0.040782116027566546,-0.02514156740015131,0.22865815354972752,-0.0666170086474498,-0.09353647356698917,-0.1259844459698708,-0.06335028699571268,-0.2596365802856535,-0.2990960749162213,-0.20848682741939528,-0.12347525658766043,-0.04948385725504121,-0.022070527335390593,0.003077367134686516,0.019024105569567656,0.01384754741507141,0.047446963912557545,0.04262974561035111,0.02937720035333033,0.026168588785737423,-0.11600589961146354,-0.21403692233262356,-0.28422837365249104,-0.26225771787658564,-0.08772634815697287,0.19234494208287561,-0.07623614992492281,-0.18081563792567637,-0.0566653862180798,0.10247628660007933,0.06556251193244557,-0.08807251723579267,-0.19737419731501046,-0.13354196980178695,0.17698101264708269,-0.08821115015968217,-0.10262178988062527,-0.022482621231403863,0.049414193386787035,0.04102695825432955,0.028439399754462354,-0.00003614210865274941,0.03080834190274037,0.03991991425171518,0.03342851855785696,0.024157135147567625,0.006026408095461994,0.04878109519569901,-0.1041566845583332,-0.16969469225653708,-0.24496629466468567,-0.3457806412624109,-0.359840717412146,-0.386976238997085,-0.6033838114600649,-0.41717385979610144,-0.15167291002754654,-0.016814752011219278,-0.18170681694433466,-0.29997101878168125,0.011326189023157629,0.38343456661507286,0.3462414765494913,0.006813029968126419,-0.04831361472938479,0.027265221841366285,0.012062280923231984,0.01710264773050148,0.04286964662703454,0.0443414499053089,0.030833088133374945,0.025154324360050277,0.040174496890540534,0.034690710386574286,0.042780428458089194,0.0007720215779268877,0.026436562087118358,-0.015898439339341194,-0.03893915557808406,-0.013745800908639437,-0.10878801085785744,-0.2664517889978819,-0.25399772756077754,-0.2042479593068013,-0.042386561632306974,0.045986142022280255,-0.06072739702737646,-0.08341659184655467,0.11604527251781716,0.19329774320232526,0.11196292486241671,0.04383408711082025,-0.018639575262230992,-0.003091444746858369,0.018873921623126618,0.046800649538597736,0.03037565535521247,0.004451325463336981,0.03565907712700403,0.04630891171675743,0.00314699872873259,0.042354639716017155,0.001198384658547494,0.006984479113771144,0.00404320497282712,0.005795917570808792,0.02246384236079448,-0.015419971942909744,0.012147321243006588,0.026083288703682976,0.01520782824914832,-0.008481766256164912,0.032023224409676865,0.030253077520130865,0.026750948194782954,0.04979303358023261,0.007707088030774744,0.0474045067412393,0.07983448496451918,0.025462435514444753,0.0356680158137081,0.04971416329737803,0.02444550453276076,0.019563566919222307,0.012485908465318813,0.0177596585463351,0.03988272393503137,0.013435649611989986],[0.04723997832999904,0.03488409218387156,0.009465679053942891,0.04791426197258643,0.02866683709874456,0.005435772191977361,0.04192574233947163,0.0007116603699011812,0.04429116706750406,0.03013247679675027,0.002947175351341877,0.02357827698284521,0.004926866528274115,0.038409866150479775,0.04307155639054075,0.01155836458792762,0.03770241741976795,0.0198977371951601,0.015311417733092041,0.047419291904175785,0.002526509040161621,0.04631209563002216,0.00443801460522392,0.0406680432339558,0.04658086077015119,0.025377819487268822,0.015300854181957216,0.03790141483420491,0.014360471537946232,0.018712284563406487,0.04792714966615958,0.03127434159127167,0.03142386507411641,0.03771341441531437,0.025216338582172253,0.00262888942267523,0.015706495048454325,0.04810020025709482,0.009624089902266661,0.02049224052042071,0.036848933360865005,0.01962679533812844,0.003401516772566373,0.028018901309633245,0.00451781863499821,0.0022552156138751895,0.015669552796316336,0.021499414832950287,0.00640607281647844,0.04081567652786581,0.005374806718085848,0.006116560140569028,0.028205384763295364,0.036472643347937476,0.018457582634329717,0.0433230481095448,0.04973319981957311,0.04917685776751344,0.04274758480531554,0.006946999925407732,0.015584112238219023,0.033388906501121605,0.032321264613600784,0.026915459469579104,0.055624621616474745,0.012920891820959532,0.04006475575843779,0.0492300798373504,0.03974765220849148,-0.022914890963720267,-0.05393298676447551,0.00027394848656315217,-0.007198330726463022,0.02300375127326043,0.0313765781149627,0.005466521768899815,0.038825983344984084,0.0275105663624328,0.015275292923628175,0.04915867999485892,0.021864524526568428,0.02760523463249023,0.022641230384796377,0.034008209779769275,0.03013017553184973,0.03905319120700296,0.025310500303316,0.03683357347119625,0.045244279107518395,0.027956767044512252,0.026843721012195624,0.03850306844302596,0.19159112104203874,0.23427193157788653,0.10599971509510954,0.13311372674226246,0.1789144469185813,0.24304456080483058,0.13406515744676178,0.10075016963298283,0.07143930771229318,0.014237313747644998,0.015970202486464802,-0.05217040188792389,-0.05554595606714748,-0.04505873777324147,0.014342829428006437,0.039433394352285635,0.03786303918900617,0.018997497144424093,0.045956224812175796,0.04932212945068324,0.047939882332075946,0.00034938628179111874,0.044852772907506014,0.050385392351379156,0.026836542540506495,-0.007780744465902703,-0.008585921951033746,0.037763144243682434,0.14593849492149358,0.19188245393058678,0.0684663673049947,0.04766101405372148,-0.08843050099895843,0.028821977414982547,0.036937225819483194,0.02274227678275185,0.13400735942010197,0.0291440466257235,-0.0048066163854777,-0.06641391450913957,-0.18174736059100802,-0.2202133061447712,0.019290378035662855,0.0198143860330273,0.046446626026331136,0.02272110410663334,0.02312009013566083,0.043297047750610815,0.01588186001857779,0.023024546370590343,0.0014894367027948026,0.026791798584623144,0.039093513366153305,0.020395545306689113,0.09407884641991834,0.19228813738171455,0.4172147767057116,0.402022328916131,-0.10894351407149566,-0.1456746371477959,-0.16154980354002524,-0.09437777616430433,-0.021273220451310113,-0.024574425877612133,0.03276514895712628,-0.05846379255003676,-0.29536707145164165,-0.30841867167125825,-0.34577384927612653,-0.16144047819623927,-0.11091154580600235,-0.054287680048342536,0.025113330778783794,-0.017576193910346958,-0.003221144059667024,0.02320129651230176,0.007547443625054603,0.019069643297476402,0.060001410077291276,0.1339560800892037,0.17466288806058633,0.23780857358531243,0.3215234627333189,0.4432697283518573,0.4564709738100679,0.42281104412482934,0.1467995884991982,-0.07423555108242262,0.12972071064713953,-0.06814261851284752,-0.4818395262725687,-0.26307334827928747,-0.17961363124340726,-0.013439806476986057,-0.09718745215287458,0.05258250130847233,-0.26627856360951346,0.1679532316801562,0.16048606050434322,-0.11847366861279758,-0.1469885466412234,-0.08173719075080428,-0.023372861162180316,0.040422640931351034,0.010869559248460631,0.05295645149786703,0.09916731794104348,0.2721610637695722,0.2793364235184426,0.3159517709076584,0.3649577658337189,0.2538633239268912,0.13430478475691193,0.419453897153872,0.23472430479570203,0.38072373548528715,0.2055865874867193,-0.19699094775963177,-0.33948703554181686,-0.46030185807748797,0.18398397049344742,-0.024164135654188772,0.17613240316008705,0.10870743178532233,-0.2094247128322301,-0.03720987598682767,-0.04041005974547806,0.014862744543249078,-0.1635682726456099,-0.1610084551303989,0.02159877547778154,0.03277747256531743,0.05364996412447844,0.05632371815334971,0.08290964936846136,0.31271911092774873,0.2717217035842044,0.20748787623173534,0.09159363736955373,0.17861244978455423,0.2085575237169281,0.5284943834347872,0.2770964898728837,0.20902742253980838,0.46484829263047656,0.06635205754953256,0.008318318942367888,0.04260013230454122,0.21312782411264028,-0.0875449011497928,0.10009261528958152,0.04431107103005215,-0.02488056448393357,0.16213842049142538,0.11902023303829294,0.3039242752769629,-0.01736256319897153,-0.11897191514474587,-0.05172127164588582,0.003626173698072614,0.008043076325046982,0.06582230770675018,0.049493251352778475,0.206222600883299,0.3786391580284315,0.3474469569997298,0.1764158686878579,0.211690328904592,-0.23718998154443735,0.30954972652734464,0.05299494599703971,0.29192280974518653,0.28897559620121177,0.20858469427038326,0.12499755801188417,-0.033044431650406075,-0.1413215953297212,0.122144830751297,0.309950714859151,0.41770632915365197,0.28467262568487517,0.504571111759716,0.49599776076379115,0.3427766719317382,0.18552232858509785,-0.08468583654166954,-0.04082142074716636,0.004453576799862759,0.02814164661292826,0.026726053519612505,0.12007134601241481,0.1407629906612998,0.24645718635382255,0.31386868200815565,0.10171147469662412,0.21716232466601695,-0.20720177123334726,0.14125119348950352,0.13017134263970845,0.1999643235327323,0.08211255836669104,0.12386261887969541,-0.13055959967417508,0.2003658921968534,0.27006530458979844,0.3190203064794768,0.6824439683524144,0.41972619178397047,0.6239585261922695,0.4929118189694461,0.5646176742224056,0.27357446456552564,0.2712073615454824,0.03167295743874392,0.03328077548603726,0.02394499866629209,0.04055242747105315,0.07355114827804742,0.17786427165397456,0.2043091462348696,0.09101052818848344,0.0066195015825825775,0.09282270720479173,-0.03606943029395085,0.000997146790730328,-0.0014818845359968438,0.23308577620825843,0.4405009196537677,0.16476917433535943,-0.30516921690135984,-0.6543470143896768,-0.2849446361268096,-0.16138116696308422,0.10130926180482697,0.5067024868107475,0.33243760725682164,0.2831440181167752,0.14354037712830375,0.07952618461447347,0.1773772684061531,0.28724405649065526,0.1728639337595981,0.11594646402117868,0.03278753797920192,0.012689192329233205,0.08217911959440653,0.14189839660651546,0.11319064696382965,-0.22799275086876647,-0.11412522283528173,-0.017584566816500176,0.06991348587742152,0.3012027444049441,0.2175673845205114,0.1963235297963775,0.3087367055847331,0.03776766530807563,-1.0270396664850263,-1.3505852522719595,-0.30061973939123615,0.428490861291899,0.3559223857293904,0.11267153068374632,-0.2264800661046351,0.024899122484194965,-0.317479736038473,-0.015784817940411637,0.26856752836832243,0.31522043513315323,0.13533783619225573,0.05085900728927561,0.05116153071621201,0.003496092803780689,0.03183752544777705,0.10501236152224301,0.0703568229800383,-0.2528303501316615,-0.17316046147784275,0.0858320596753594,0.1677398920985048,0.2586850209775617,0.06426925628175471,0.21919092372992835,0.09156899949550786,-0.835213514105381,-1.630103309940902,-1.093883326131518,-0.07804083751399017,0.2789291388909549,-0.08897939618246667,-0.4766525926444405,-0.45239960300473503,-0.17971461116356596,-0.024104032169196075,0.028049195022939274,0.20054694013682423,0.19604397949052177,0.07222355263821023,0.04127171021494487,0.03126507314846223,0.02298002660981185,0.017029200130664196,0.06678473682458691,0.05871081021975941,-0.12000911185545998,0.014881562390657107,-0.08749698869611894,-0.0694237399753859,-0.03820751379775474,-0.1360267729464849,0.27794690565164937,-0.3472345943787227,-1.2757859492929853,-1.0928504847896274,-0.6120247421316612,-0.02552826956698228,-0.010941555703516044,-0.41037146561672583,-0.3760081483880362,-0.14779653227241563,-0.16645983194450933,0.08880341339747451,0.43170430648095826,0.3803721260532743,0.27049232258867306,0.04495880091835767,0.023756674502011407,0.009674986137115316,0.025383745005907215,0.028617728391384278,0.06560397199882016,0.13708069720710825,0.14852867641453962,0.11046965466345102,-0.2182231286399892,0.03516010383194763,-0.035873478365225704,0.11284535318576104,0.07071167476184427,-0.5554056394199243,-1.2793321409335632,-0.8656445362855502,-0.5317338188144888,0.028101262294260892,-0.26644721601204086,-0.09419002516969717,0.2057658331417259,-0.002196524388904069,0.059094116026702725,0.1291756488079231,0.2654335319222999,0.2716653461188048,0.13998267526572333,-0.040363102413155744,0.0029296131532673794,0.026632178208098503,0.032340669905810776,0.00947144791117731,0.004975424585947039,0.02786967319585083,0.08381087132954523,0.10473064286290143,-0.06261447880435705,-0.0036584158726517216,-0.2079528760962724,-0.3900170393375365,-0.5695175550430785,-1.0523272400639947,-0.6261901434373635,-0.5093891502162267,0.1416255401196887,-0.12330140679717004,-0.3124963682450949,0.06762412726535887,0.24573227378357013,0.11622425347792653,0.15837136308847474,0.2243856981902543,0.10767846246765833,0.19413613736079005,0.02526430934710499,-0.10861965690913775,0.03326885866694346,0.005327652041799713,0.02647087188026689,0.02262717127802198,0.003236426637430575,-0.02405591108988231,0.020131166002252555,0.01673032965119225,-0.17997111815754605,-0.2539300227545096,-0.3111919004006577,-0.46958431623685304,-0.5212904832173267,-0.5665205874704513,-0.6777587793438414,-0.46760894111158346,0.1837016415307304,-0.18436374809157424,-0.05895026880471624,0.10573079935484699,0.2513844947141003,-0.10653401437296156,0.3007847424995973,-0.12307473396014251,0.03559087604488572,0.19485857796672162,0.15402837118115695,-0.001740357267304262,0.029207642002896352,0.016377104418582842,0.02920625430955797,0.025442340811836817,0.01936186915429016,-0.1342945865493773,-0.08487308466147304,0.01835984404773249,-0.3290481901966521,-0.06656270436940821,-0.23373365800033238,-0.40548376068783576,-0.1834529068786142,-0.3853919755664172,-0.6846092423343235,-0.4242363019946523,0.23504045782390345,-0.02792259014633444,0.08298566923278188,0.02784923164088492,0.05903016005680507,-0.012301132354929032,0.17862496946298528,-0.003805167723057716,0.2652486582850785,0.13214011548918347,0.030785427649807726,0.02514899410955489,0.02422852746303888,0.024903033993516215,0.023818631868523052,0.05275536090016957,-0.005515128745509866,-0.10359847232104134,-0.005637521475098157,-0.07562842816859486,-0.15886901712332205,-0.25609432854203085,-0.20810032104190496,-0.12063474564795812,-0.09009227593106857,-0.17882508593668836,-0.6045495846427131,-0.3107401146967311,-0.0733453718298437,-0.11779611611357003,-0.05445360688576562,-0.06372857131766556,-0.10517142734052624,0.0034779360336789694,0.13689294394014725,-0.0998942169637512,0.020575276515129484,0.042942298815258254,0.054416390398587346,0.02694248940181281,0.012226782738671086,0.01736608966121464,0.022439544901762646,0.04040536253274733,0.009399880662699471,-0.0039456612990981695,-0.044831707634955885,-0.05888115379264829,-0.3233909333164841,-0.21342259065517172,-0.196824999399547,-0.0753340163451274,-0.1643293919475366,-0.023984278598919478,0.20818653712256704,0.1279032978071238,-0.0513219079724752,-0.07047544601544072,-0.40963068385034274,-0.10701593848936691,-0.26402973378124756,-0.11483389973483221,-0.08327142500510015,-0.24447438088579224,-0.11429044922580262,-0.038505661032832574,-0.010380631061106963,0.004684003288232035,0.04235937912115303,0.04827353470979752,0.02002518553469948,0.02941084190254444,-0.006181183550559494,-0.006382507247267394,-0.15438838587745377,-0.211020704366548,-0.25925863455191855,-0.1002686107427468,0.010908511757815124,0.021488909420638184,0.13385663424989142,0.22181868299469415,0.31127105461476956,-0.11995615346112595,-0.1008184424378559,0.14197308242359472,-0.21474786306395435,-0.2728938942002566,-0.025684835610833553,-0.24150371247239974,-0.19488322658246546,-0.3459927318188113,-0.20237306658727272,-0.03022156643646366,0.041457283289379164,0.018265322529637744,0.049384845112615816,0.045097688209973716,0.024208743266472668,0.04621847037189827,0.010909758627353756,-0.012873724873022342,-0.17576409461902184,0.006390587559264194,-0.10779168304206888,0.059424393358832185,0.26834049459504317,0.25041135570614675,0.04336679150829782,-0.0444907122561129,-0.1199925927940919,0.1765622961814075,0.2903734902939088,0.33639460295355594,0.10913150295734135,-0.11575020730072916,0.05836355744525633,-0.24301184135257928,-0.2485862203041901,-0.3169392564589848,-0.1778066517179924,-0.0695722883073575,-0.01759771212864544,0.029790466912910672,0.033740322316505145,0.01703226048752823,0.0011046507214149315,0.014287047737644604,0.029286368658973425,-0.03248490032310166,-0.03763168778548936,0.11983500143818863,0.22280315702595804,0.03729846770733926,-0.059485750905049664,0.28079830189684013,0.1461499655755131,0.11029427348821134,-0.1496941353695566,-0.04859015131860554,0.2626364333429574,0.16109273702910867,-0.12419819427845702,-0.06481908430724535,-0.1877827325928092,-0.2184532019011899,-0.3289765776674143,-0.306018915291521,-0.18468363667638682,-0.1943074137434554,-0.0037284640953286186,0.00020590175651592207,0.029482507922098892,0.008834292095969044,0.03145603036014535,0.0033874363516181666,0.027809354976061223,-0.02235599126058376,0.10670657093746297,0.26325120412609565,0.3150354579647992,0.28925623070103157,0.13369417467784425,0.09329128342118188,0.2099829394142453,0.21405703566005846,0.13026606407436506,-0.13139121555349917,0.1729885283010449,0.18383410117204266,0.038211387665512984,0.12316111457067143,-0.25158332099421205,-0.2110280857796632,-0.2606815597493645,-0.20715568107939836,-0.11711507551440015,-0.10144501607049042,0.027679244406293962,0.0019287005463535633,0.0497570948622376,0.01759118296573283,0.003341316114759294,0.023679413237151965,0.04502285637226901,0.018426712460627163,0.1107975181948701,0.16212579495342636,0.22302132822389037,0.22267831682363615,0.07681579919794454,0.10279554577062396,-0.15552872780341587,0.24449231280664124,0.25273740438111125,-0.3793912375941426,-0.02412795250852373,0.24083501340088245,0.46106471533590593,0.15657208937843065,0.01852757109891707,0.012480459252066943,-0.04363796059918413,-0.07028286363983181,0.0034082185514140713,-0.002437127846140081,0.016460415741371595,0.012012134389017437,0.041329667107195066,0.03889616539997899,0.01553241032437256,0.03269703243993248,0.03918373948269402,0.03928184207310885,-0.013652114794455222,0.01019112352333966,-0.07690139243256705,-0.08669003466078949,-0.11585427726650162,-0.1712019962078823,-0.20129353410331255,-0.05143040222637761,-0.20138703206610536,-0.21567923161916838,0.010178544545283427,0.018422489751420662,-0.004251887419118965,0.053535860542564435,0.15153299775287016,0.22564445199007646,0.1307428554166059,0.09889815561038523,0.03155928500468286,0.004201019952425667,0.01294859674348837,0.019296089192421616,0.038988176351427685,0.02517682251115341,0.03949061832015849,0.014662009484492367,0.04444507032644339,0.0032820818652043405,0.02228075515199377,0.03598202879311063,0.02547712543494029,0.01242914618078652,0.020590653227789673,0.037914982281919106,0.03491723578542302,0.06196300812443098,0.0075012323351966205,0.050296231304086836,0.037219125231863916,-0.053933769597997734,0.0246081732495961,0.03739742948498246,0.046111214830879495,0.18883752142725302,0.06198818738118374,0.020185861702025965,0.032283104097715634,0.040461719000689594,0.019709992951854854,0.05002755763491441,0.04389903903490671,0.009761927044684125],[0.014571740912778153,0.0115854958606983,0.04741984983548863,0.019517252162309442,0.01805943559972886,0.0017926270261790485,0.050045461049710575,0.019612870938311773,0.008616963570902733,0.023487494881646743,0.0037523960058297727,0.017451295412005696,0.04480788406742586,0.018350911848522538,0.03860100699777603,0.032813068989098866,0.00945703203109878,0.0388196035035498,0.041280226378122856,0.011573044035736089,0.02226612953169479,0.047481572192910645,0.015356395742123458,0.03182082914233133,0.018418261274123125,0.015613581210316387,0.0021352261565306344,0.013257484029510568,0.03491588815785675,0.033715168850086366,0.003888763499230784,0.03539440581522514,0.023764515560133686,0.0294111726028266,0.038084289812829714,0.0076138748031169615,0.021681943059570847,0.020785837262079214,0.03519979089213844,0.06250357777984891,0.03483399277205724,0.046376058413816826,0.012722682176876252,0.035623725079596096,0.03764565165071708,0.04041003436606281,-0.015097152387583527,0.007379980971036061,0.03641860485485266,0.010727662648683446,0.04032825435769149,0.009512289313929768,0.007514475165345467,0.01845370437197265,0.01811431284431129,0.0013674906425965544,0.017318935080090293,0.038443938258908135,0.013236126472799899,0.0028148813627066776,0.0132211093686415,0.017816279779261524,-0.004662150436784544,-0.02107336164505903,0.003077438268985315,-0.02001998514197713,-0.008767667398302361,0.008347122236096526,0.0056275766000079075,-0.06248458029512777,-0.11330781386141178,-0.06318162634306128,-0.07100232764588338,-0.10263605225277528,-0.11976785565420615,-0.0696754951060955,0.0024433417068745254,0.0316012128983845,0.01370329722002311,0.027237345461362715,0.03663571552128931,0.04924877661363555,0.03177561621142667,0.010375351787076636,0.009382711708230459,0.018753807818230474,0.04539146848602757,0.033502876974165874,0.027299369350817625,-0.017952059601043648,-0.026715815621615818,-0.0898487808687499,-0.03812476274056319,-0.048399795332906344,-0.08716611121731069,-0.14927616463748256,-0.1590054496178865,0.043058003274336926,0.061055191243181865,-0.012256917935696663,-0.04572260395046305,-0.1178342088916411,-0.23117591761504522,-0.2563709973285992,-0.23581301799432927,-0.2187306176632882,-0.13691492342484202,-0.0456399559306426,0.022677569734535937,0.0333728057615912,0.0400585323713369,0.045312965454564896,0.016389009098332075,0.010040080861533117,0.004507744647119007,0.034224376249507284,-0.03989102628715337,-0.083304028667336,-0.0286515536956064,-0.09006399800231463,-0.09186097541910965,-0.06235955689704709,-0.03999043233446237,0.09880052938360506,-0.00599912350623641,-0.15406151524409548,-0.05407698816950928,0.07919546850226544,-0.003714693570844149,-0.1565844685859403,-0.12304434842168703,-0.2118447551328143,-0.2283298555900778,-0.2501788150316686,-0.021345880825784466,-0.06000653378517708,-0.17407989318212616,-0.0010590346698614497,0.0350861067027569,0.03808762618778219,0.03620465339882239,0.028033420240795914,0.014233279800558718,0.055922089593527693,-0.0800058635422025,-0.215565895081762,-0.001283266402736097,-0.04809838115127691,-0.06787210570540002,-0.0788301885533769,0.03921972268176815,0.23286258145743693,0.11421653787574423,0.14409823986119402,0.3861546166672889,0.2555447846093513,0.3532907446992943,0.3058069457001016,0.2317717378373435,0.2693914060779124,-0.05320570456534697,-0.09632107398279341,-0.08353165480672312,-0.2038973599765416,-0.12273215830188766,-0.1030967593665714,0.020891970242506705,0.04489982038702061,0.00025415990895312967,0.0374818485018789,0.03807640386184264,0.04154591409407501,-0.1176450427993162,-0.08743751522272063,-0.09638116738042989,-0.16301416353926945,-0.13631482346940804,-0.2820526404608364,-0.0015967113115667143,-0.14625168298267585,-0.33537945955507603,0.15527267149111093,0.24553574406605028,0.2217998535591835,0.23808555495369554,0.19490894152329807,0.2452345756932565,0.11962164919489099,-0.08101911807335604,0.16942122527238473,0.17686081656153585,-0.10292304465458497,-0.24222677318452096,-0.21307269282370922,-0.09809357090929241,0.0038441896719287392,0.018546236069486046,0.00751988913019395,0.028313193945832947,-0.0073942799711527,-0.08408687476833784,-0.04360318990185247,-0.011365584987182986,-0.23730349387016053,-0.4034661180585607,-0.05273641313388744,-0.08315828526152312,0.1784772276371407,-0.04002292683131881,0.18412016064623998,-0.005348995305306351,0.11103125630309237,0.009520844311614788,0.1271433158308441,0.289675254960864,0.33228144931125425,-0.1261517316622142,0.0011620519295960925,0.2791145070803277,0.1208963842033611,-0.05405375146023158,-0.21441697292211723,-0.10039903530867249,0.02471953251960294,0.04516414071391848,0.0018857683461837662,0.004392714268368681,-0.008720388446348298,-0.14714495089390145,-0.20655969192365167,-0.053581324942834054,-0.08620814762521055,-0.045068816355273315,-0.1311113994907243,-0.006434930545231058,0.23256721219888313,0.3177113230515459,0.15388328524825723,0.345044980890755,0.26162543297476193,0.5657075581482431,0.3828096247287421,0.3097940265396935,0.03359762328462396,0.14294297738413578,0.010123713718781754,-0.18283538229519405,0.28745758152082723,0.01889120626610249,-0.20287508820291808,-0.061717206545297804,0.028594801700214077,0.005497090849336616,0.008586391351176188,0.04529921206755203,0.0004613803798945615,-0.05192031221335061,-0.2563656097974345,-0.0997904597792458,0.006107102890608501,-0.06518814774749573,0.29301403394877545,0.014940015379941697,-0.1778222207493238,0.08416844025923333,0.39135837653057876,0.15109540018902023,0.002329520718054599,-0.07470243227777955,0.4570911522078957,0.5308238058334926,0.32480728180376955,0.2643281708909225,-0.05827095509866042,-0.13719752493080187,0.17329530697517698,0.15849978018718258,-0.24573929461859279,-0.031152959357963365,-0.0020154131661813935,0.03552843955262352,0.028148472943070577,0.0368049071217627,0.00530499447107626,-0.0714389936890274,-0.15721094369843044,-0.06823655972990124,-0.09007124641094828,-0.32032625859334346,0.1048378768083012,-0.19283004240043503,-0.007886419686032625,0.04964998556146522,0.16456092938343803,0.1441110250043266,-0.26971743199151726,-0.3284166246799665,0.3613127519067831,0.4821782223608319,0.06055158703169027,0.10552030068014166,-0.05139624219420677,0.24894468392186786,0.06973586162686599,-0.03958348813041013,-0.1785954046607118,-0.0721838521728064,0.020525952103563644,0.026666810168120777,0.016830777024595327,0.031025226566851454,-0.01667713084723559,-0.2589110590820833,-0.2423501397866735,-0.08212996608667979,0.09722953930114787,-0.201371868235327,-0.15407964851451536,-0.16377447562539763,0.1503649706224901,-0.14905052558581663,-0.11199965331986042,-0.5505603836431764,-0.7407450796214052,-0.673429968745967,-0.31243512627838743,-0.11705675934759341,0.03628979283687151,0.16606949385467645,0.20269851757107052,0.2791928071613083,0.0024307483215511056,0.012186472198873035,-0.13302241824289773,-0.024143050941624142,0.012571375929540905,0.01687618608348394,0.0464480804053667,0.02541784279542547,0.09673666625676627,-0.08855891430988845,-0.10238362869334086,0.1391864141316093,0.00564449443728914,0.03399116056857023,-0.12339031663654038,-0.33119365005142426,-0.22111155357897946,0.4293744087059994,0.07436533883271955,-0.500510506358528,-0.8073117989976168,-0.8270100895050501,-0.3836255754798896,-0.24498829645073356,0.26672951930314015,0.2327963535053747,0.19032009344209255,0.27973852570709024,0.2532056579285278,0.33402037231062337,-0.08219029834238625,-0.04949686931573843,0.013513852814637272,0.04765969548584741,0.03811486230188253,0.03504707955141216,0.13669995173181415,0.16159359330798184,-0.046433623607900446,0.10537767240580086,0.3859140321546016,0.13079627880637076,-0.0054570296550319215,-0.13571995368394044,-0.2105402396620127,0.16843128396579593,-0.0940406314247462,-0.2189224123363954,-0.48210120179837046,-0.9006795649243139,-0.4699300206632057,-0.18887625530948082,0.016522132559073553,-0.21689390076833404,0.08167401368044583,0.3848234475616159,0.531721743005337,0.4241637508795625,0.041288031979180816,-0.004062686083572413,0.03097903799349627,0.03023957995481448,0.0008599463270345274,0.01697874327692826,0.16134787608091408,0.2827679505785623,0.4094360296415348,-0.033954470933080384,0.3208085135030926,0.0489799929332727,0.11092200368515596,-0.14350531832100258,0.18827092324589884,0.2842271566759519,0.01789204275288504,-0.2539097087893692,-0.42655615359180127,-0.7220709839657348,-0.43578473224685144,-0.12407676376020321,0.14449588904518054,0.6636610310873635,0.1172958232268812,0.017145133596660075,0.28861388129945037,0.5548761428550463,0.014815820692670855,0.03047575375958838,0.03822472576408597,0.04725213439666103,0.009721240511262297,-0.011906099803807243,0.10982955024449177,0.30573283862915956,0.48826012649600253,-0.023327264950802656,0.14777304927875948,0.035642650680551356,-0.009699790195522775,0.1637193331534771,-0.09703745637403927,-0.016354881775613464,-0.3646888157471816,-0.5138739902222661,-0.5564078000781061,-0.19343638543094413,-0.03439195718339963,-0.06520867268093862,0.25166701022844823,0.36531773992260413,0.24483672138123494,0.1767905156442571,0.3337575233446004,0.4389211547217943,0.027436703583574817,0.04524846104691556,0.01794560091025678,0.02543679476810258,0.017777455657348545,-0.021157968281458286,-0.03057099798179367,0.18011608757422173,0.3700097512013142,0.07988278901110211,-0.08764372164185907,0.10530397309406427,0.23528170741467688,0.0694448946841274,0.2010278635719627,-0.15111622978449996,-0.42251325410556245,-0.6413319906853746,-0.579591940059959,-0.0746194921944965,0.1126886639094643,-0.17115090098047878,0.0071121372553929795,0.40691116618643475,0.22557549734054266,0.15933468371801313,0.026344597396743386,-0.2864285583012197,-0.0439851827481729,0.03822432344054918,0.04126833346585578,0.04363090102197369,0.02565584594627969,-0.06082519197233406,-0.20063669587692756,0.17880737403976057,0.36276826932164535,0.21427353750094555,0.20105978065712987,0.1297555441649002,0.1695101578416193,0.09649925594603541,0.02344484495415981,-0.28724797702745897,-0.6328731743236973,-0.548046497142682,-0.1460658718968398,0.09943786185189774,0.03445511701977813,-0.28577461382684044,-0.21419263560421975,-0.27195584907393794,-0.05827212927576791,0.3494338927880397,-0.0027107426984213697,-0.19134743647372943,-0.06394106486686654,0.0235424363678933,0.036570841439528524,0.00637777816993032,0.004407620445921471,-0.0522967750777494,-0.24212599006063648,-0.03078530734869465,0.14755304639733022,0.04514024093035554,0.43753947169107205,0.3636309269926741,0.6386280076442562,0.6169885495077418,0.1423478308296292,-0.38355498253975223,-0.545839122282588,-0.142088808542743,0.17802703595532943,-0.026630447158370325,-0.07541058327096661,-0.0788869293300573,-0.11612814300784978,-0.1251361596007757,-0.1182049891275816,0.294046489878984,0.1376190426384812,-0.16926309356479044,-0.02168944592258745,0.022065832565760505,0.042563756257736104,0.006277259418653856,0.00019933846131921774,-0.017479299251323157,-0.22317242566083514,-0.11756099006125686,-0.02497387700845008,0.17590522298824524,0.0767589829408217,0.37137670883796,0.027676906918240776,0.3691494902965144,0.3576273240827101,0.12977745619790204,-0.15882737925675627,0.0262265443514468,0.0495324253867979,-0.012481813554193656,-0.12074040874039342,-0.0824203721409494,0.08220614559628656,0.026055528191626418,0.14942165360164497,0.15540914590358676,0.02152403610904048,-0.07916390919976792,-0.03472524151501003,0.04412382502196342,0.016325607739929273,0.04771974658322086,0.022390484639314662,0.019383670026083235,-0.10392522285933702,0.1403182267213232,0.3807143773702099,0.3087822165827549,0.13142744661415137,0.18963794766887507,0.24350776324393353,0.5113502728962335,0.31358194667795175,0.29500998818838614,-0.04960317019339991,-0.136199115261186,-0.04325249593573924,0.0008927116221694474,-0.1638852344616079,-0.10587818499059368,-0.11515829762842728,-0.15524630445636872,0.10215341579016547,0.00011440347565342123,-0.0766608556061204,0.03159918073538122,0.06232870621688858,0.03836948516566627,0.047808687485093544,0.021202152172653005,0.011700126777090107,0.07729109372432455,0.04397655368293764,-0.034123085680965136,0.30546217259666647,0.23103564174647165,0.07482781761518108,-0.07396006417283106,0.041907030942560784,0.17894796526514214,0.30208738597267565,0.15751713020989527,-0.02118990274092694,-0.1019648173559655,0.024582440644909987,-0.08628466335850263,-0.09053336840454142,-0.2144195619257605,-0.2754395342766682,-0.4893330383307413,-0.001996264170566164,0.2595069795272354,0.05248941560471839,0.058341742342442805,0.046007053342340176,0.06512373982893441,0.017586187813904367,0.009730936006263844,0.018208451510481814,0.04905767041665655,0.09484356859946083,-0.1996914014495378,0.20647541903669875,0.4110225487170647,0.06970768895526251,0.09347578323645765,0.07725449742124657,0.1651513056476379,0.24180273511064576,0.25376963468112657,0.24808787208455002,-0.030918915959371667,-0.16567033871883546,-0.1259646011782578,-0.20634220282910723,-0.22940632334430777,-0.2296043310094683,-0.5897120511517348,-0.0644592084467953,0.29097567122772255,-0.005437862398235172,0.10359002946061666,0.04504218518325966,0.026887403131620902,0.006473341434374835,0.01832051891209703,0.018795532425300323,-0.002965577897036479,-0.022287671161382736,-0.21996223758115335,-0.22791465182791212,-0.08582251079013228,0.046493719402857445,0.2846676951233111,0.08436470473183273,0.28586381625135077,0.2714250266975159,0.07791711047177291,0.13476478332004346,0.18767648903396436,-0.0345448927444066,-0.04331222227547451,-0.04777249292874304,-0.1404191056352934,-0.44265677053801916,-0.6107909590070548,-0.17727953070393526,0.16039198803076724,-0.021722922881526326,0.056229651393308565,0.028089526931275893,0.025454453094865968,0.041992755539354304,0.018995404581318865,0.042141078810202015,0.027910159047418785,-0.0257191436874975,-0.12671611245453487,-0.20552787579301374,-0.2550402152987852,-0.10205485117352063,0.12837650815231236,0.11158713350732545,-0.19788429444584263,-0.15887640714719614,0.17417318325577588,0.006860649641357507,-0.13954653919251692,0.05416743487489901,-0.27659962013586714,-0.2081845875117098,-0.22812196598793488,-0.3353105248703075,-0.3555632589512392,-0.2236502142663483,-0.00845598565558108,0.0028379389419463945,0.004014160518735706,0.0100942330023249,0.04280282001169216,0.030052595189777247,0.01371159822070909,0.005080108777732102,0.0107523993401172,0.035258151354453024,-0.021667477753037935,-0.0650034371667011,-0.1357713077872013,-0.17664813019691883,-0.2063562465512263,-0.19188571368640106,-0.41134439507891424,-0.4478622543412532,-0.654380048725901,-0.40759697685354945,-0.29622691649167326,-0.37807420243607825,-0.32781268956043486,-0.38819258759894615,-0.23781586353685757,-0.044441246931865006,-0.10783426092181256,-0.1455239054494984,-0.005045020276700837,-0.02161237150700119,-0.04183967781500605,0.02988258394241761,0.008862560406939498,0.04946509633916421,0.0002132259806361537,0.012409957533459066,0.023152650468245828,0.04334391271148089,0.02800266237065409,0.042260729099223716,0.043071250420726286,0.0011124556861991238,-0.031055619061719674,-0.10485678775118253,-0.1406628988434146,-0.07892459350923295,-0.06802937339855675,-0.06074259128461244,-0.09806089539309293,-0.12855156140568264,0.010024593768670207,-0.07728593199426005,-0.02497014424428145,0.022310375957180086,-0.00821896952167659,-0.01879362265198634,-0.002485645920660024,0.03776019170147513,0.01699164017385544,0.020015614755702398,0.013687685553953896,0.029056974833764272,0.043324624451654914,0.013655886314354458,0.031886633238845,0.026437353598130754,0.0010563586185445505,0.0013529711170010266,0.010791441999219093,0.04203513964648158,0.018634994878410353,0.037415319186218786,0.0015030446134192358,0.001114219550295687,0.003756239997220475,0.042592349302089695,0.031999236389226644,-0.005576287303781581,-0.004229036473225561,0.024628197189095605,0.048225587844377395,0.017667016128944838,0.022215575865976285,0.030399202833971423,-0.003626959989208625,0.005875718069424172,0.020735427618872936,0.025754130960129015,0.017534459959922463,0.010634004733415615],[0.03455930646251373,0.031100352362258093,0.033378248506764324,0.008542336045250124,0.042939759330375055,0.038822228101877014,0.02619912889327954,0.04393091629767821,0.04427340223258224,0.03132411959108626,0.027634339556581056,0.02071843028410833,0.0551637883469046,0.06255782329753576,0.023422955024103454,0.0027713887520851212,0.04317749700799323,0.01036708693614358,0.04196971873425831,0.0018969568749110073,0.025511375178636622,0.04274234924698487,0.017495656588141572,0.02786892351965495,0.025499128330040897,0.015704459240164517,0.04127739589433611,0.011952404500826911,0.037165695037811204,0.014478753757025174,0.02402312292681115,0.020691088190022487,0.00669741836521167,0.021334257997931625,0.05251531324779281,0.03259401610670814,0.035755810228338354,0.023547926503120195,0.09913035582834416,0.14170240391447234,0.15970337299036963,0.10334335666269351,0.0652991623837999,0.12287056520425024,0.14270093904728773,0.08629583699120667,0.05109811122965559,0.04616606204206806,0.03629056345040686,0.01862102137075299,0.006284457302962831,0.031252711863025404,0.01750032796790838,0.048316088621140015,0.023109302782451553,0.038568492326940804,0.04312548282885922,0.002861410305864176,0.01484317188079636,0.006565389073569887,0.012089612168689022,0.036295637110469146,0.07092875763764651,0.0840595369883878,0.17589433740794744,0.23792612674273883,0.3135236023736701,0.39644500740316224,0.26566123293689353,0.1685939780691438,0.284996478164961,0.41910473581799423,0.31338243823812384,0.2717924794839554,0.3027880372653844,0.17143021630645427,0.16817701059992798,0.19303642028025245,0.11411451509167965,0.05986332017922322,0.016031916848187385,0.025204269247447807,0.006083106209032623,0.015477646568951333,0.02073262619537798,0.025059789665034065,0.034618713545323865,0.0025081272238196652,0.04930588433736928,0.04834628217600232,0.14493043597927477,0.18487062640861,0.2131633196700114,0.33332192708849034,0.30250352619348647,0.3548567785043918,0.16149478775353782,0.17599931067180144,0.059915805986128605,0.08709329278102164,-0.08069179890158394,0.00855300315881383,0.09943430511928941,0.14607302245669687,0.2037433009374498,0.5242652417174882,0.39109447134006065,0.17985609280656573,0.09828426668891874,0.003151414601922937,0.008219091250070247,0.043368990218343936,0.029482246013156087,0.0021293627534776636,-0.0057286262177474135,0.018121085079939092,0.050624281641049006,0.025476650915910257,0.027613271408661065,0.2580710827921643,0.32809162491233285,0.4651519147742837,0.4851219783013022,0.35757250952209263,0.08014046716167868,0.08094061234981142,0.12586579161294612,-0.29490803585687886,-0.2186213874157588,0.036650732915542286,0.11527480718971848,0.03662146312695707,-0.02445555371091688,0.1947285721148307,0.032907344306425335,-0.09274521640747198,-0.21324223737102257,-0.08063376736291915,-0.015412574345549088,0.0168999695346399,0.03380550383542578,0.04845916421827316,0.041640455072606136,0.013413510509932712,-0.06085314455023877,-0.18719935057627304,-0.11041622131653783,0.014486787018618568,0.168644351906358,0.11681222029636486,0.12356553109658394,-0.12162415964705875,-0.08654787173486768,-0.15493736940261013,-0.03810260773083326,-0.29666085226924815,-0.20014515045907044,-0.05379189401848575,0.0729603511294047,0.15296648257817919,0.056330931829221234,-0.03693868711629989,-0.38595636595956506,-0.3576913326433549,-0.2914296421116049,-0.12017005290967094,-0.011520687823333516,0.007684176914350844,0.03582983573950627,0.04042415852486021,0.032752111348529456,0.03098593327863377,-0.05624943561885758,-0.2075279774537145,-0.12065579791526104,-0.16458346549136513,-0.313482771576196,-0.31353936236125085,-0.34967709433255206,0.1431947935556373,-0.12358538999778966,-0.24909247321644964,-0.12220224290545384,-0.11091650966426482,-0.1428475437336444,-0.21989933834806483,-0.2378721401275498,-0.29167615043139955,-0.618381280722597,-0.5617085858054808,-0.6388676723585607,-0.5241307226626163,-0.2943964658480797,-0.14416993657506563,-0.040541452317409334,-0.0028028219372068183,0.022938942440261543,0.03988021598701811,0.03500563250379839,0.012163484536646677,-0.12451070080406966,-0.24403420141805546,-0.17457167913817084,-0.17078664674477986,-0.13161676521950275,-0.332218503314583,-0.06447728809033139,0.09671605656347895,-0.08193906313597794,-0.1426366078745997,-0.04521450398937096,-0.14003647695385912,-0.24582536641539166,-0.12914495626209022,-0.5325003069855463,-0.7050509219402249,-0.7743267469587886,-0.6995606293064575,-0.828096598121314,-0.7239696395049885,-0.35767087393874536,-0.1480364162662817,-0.03185211729326479,0.01753047294614641,0.019394087053652316,0.0034338141149235536,0.01670102484815857,-0.03215358205067783,-0.13568931285546354,-0.17240358242191461,-0.20929979043218003,-0.3178742156208131,0.1157987718746993,-0.1614148970732635,-0.248850385641805,-0.13801120463937702,-0.03554259564171151,0.06968792710877172,0.10557927289653637,-0.34122909464039436,-0.4495909864293503,-0.31880946572113317,-0.44062852357559684,-0.6936735589967566,-0.38240947249690094,-0.38860698553238865,-0.6906092935237828,-0.7415981701387131,-0.42253808129928033,-0.19778317699441245,-0.013242978282597191,0.04146327574503681,0.041789979549195846,0.013539755048239122,-0.022438536621274797,0.021083675733885827,-0.11902970078363896,-0.1799608825570021,-0.45247432618222144,-0.25194239115138706,0.10322116293105812,-0.2594797515805693,-0.3447496654795645,-0.07279463200869188,0.04685921803407213,0.09075490955665572,0.09273340160513763,-0.28644072758154043,-0.23142649473070545,-0.3195385792172113,-0.345154707306105,-0.29935935215515325,-0.09917196854425997,-0.1295605862062867,-0.45693797990397184,-0.6963909898652275,-0.4225523381323354,-0.1340627514724382,0.022280502824005698,0.017397347603145995,0.009914642307894931,0.008801319528698325,-0.0017535464992238289,-0.10151205134066735,-0.2336009672021054,-0.26570535450944366,-0.1916587763354366,-0.014389430914474595,-0.034876540317930416,-0.07843053798126594,-0.1297738828139061,0.009831077546830826,-0.08718883262808297,0.11055380822744999,-0.1751535023429248,-0.45144470081050864,-0.41576544591916365,-0.061950060331877485,-0.39212013965865755,-0.4339083327991837,-0.1209678789796588,-0.1308403955315292,-0.48982475784524493,-0.388682625748473,-0.2379719234979994,-0.16815889209879067,-0.03116815338629975,-0.01862732366139651,0.013583481661418385,0.03782003355047374,0.016711064384820676,-0.037399364070680514,-0.10475477679242069,-0.1063917693169881,-0.19965480312455613,-0.15449010691332826,-0.06300050259395971,-0.06594776516733042,-0.4508326916936492,-0.48220641334538383,-0.37562001213863705,-0.13945911890620094,0.06157328208936941,-0.7603925494611717,-0.32804159434033064,-0.3184874503764221,-0.28215488751013895,-0.09843131045362956,0.14662659788069957,0.1320699557037113,-0.16915157275180542,-0.06863551485883024,-0.17127822374664542,-0.21592255827014123,-0.06763638898893508,0.0011651042501899782,0.002276329879407251,0.027887930700311547,-0.011677530632974584,-0.10890641286395339,-0.1717830215851714,-0.1519810756666559,-0.3007753390016884,-0.14121635361773657,0.057594768633536436,-0.11192968630439358,-0.18445790872024997,-0.23934927763055666,-0.38357439563325346,-0.04095505678100301,0.010660350297023216,-0.4536610867219204,-0.13685305745865897,-0.3513186444490816,-0.2127222655264613,-0.19888784180802813,0.18004751774394348,0.19380863396743014,0.2050681201332417,0.20976699844934327,0.2995550312236161,0.035575387363259506,0.012508655984435946,0.0589480483120873,0.04395041073713155,0.020863151601615487,0.025281526024846582,-0.044025519455869244,-0.05851162769875669,-0.04901896471869883,-0.325423987686648,-0.31773803519324106,-0.4126906569798157,-0.3150666851134575,-0.028052972011027306,-0.41176320305978864,-0.19668126045529574,0.31570210396900883,0.4667353037095327,-0.21267608679031016,0.057919959586990595,-0.12860061389767058,0.0801402626369517,0.199093137706883,-0.008616596130661701,0.03056568747828401,0.2910772371358954,0.5509902033361942,0.5171987460597244,0.16477617975721337,0.07923180408953401,0.08105060040168822,0.042177122080331704,0.02884417923591499,0.04768901146233182,0.04881278414951099,0.020792866377090154,-0.1462570989747929,-0.19120839159193687,-0.2782938384423611,-0.11280508853382576,-0.23759367493982567,0.223622104221912,-0.10342457583962716,-0.16993039949714436,0.40682280435974005,0.4924640541387292,0.02380067641105538,0.15138800033655797,-0.4076567172631882,-0.03699162118533343,-0.1092253491856389,-0.04990630831978544,0.19577668917470412,0.4666865480713315,0.33174175043499515,0.1964877198647127,0.12678002619646683,0.08826222907079075,0.042673979919013165,0.01519390264485031,0.018697436844126888,0.05645596402239252,0.06138313737641782,-0.14981026590603616,-0.22170270864360897,0.020217278743458317,0.13305023781652028,0.029891324628573974,0.1367191285717726,0.33133653144288916,0.3198031651763083,0.05658891480760003,0.5296728376078413,0.32188205867434516,-0.11262576262590936,-0.1320467022600789,-0.21951632412578975,-0.025945113205323927,0.2131420053317242,0.32564247297664456,0.19498773857737206,0.20345218639515578,0.07497129581225073,0.0675271287076271,0.17254042309459192,0.06218952126077393,0.03332097927196625,0.009264715621404344,0.02896827045825108,0.008853871140545375,0.08396914973357912,-0.12744450670206162,0.03365037371968346,0.11301739382611886,0.092698148680337,-0.1186991249297498,0.19337969935506277,0.22822677955533274,0.45528621077215026,-0.08355230334396921,0.1101781298113156,0.4774660938031744,0.16149977969667212,-0.06929357827398126,-0.09385353143564489,0.1835493431145844,0.1343985027184006,0.17263497463157418,0.09490671977568792,0.11819337850452742,0.1813729867236352,0.5228136350798592,0.4140944660607839,0.08837434648691937,0.028163351158921747,0.040644458168590934,0.039675741186933886,-0.014365810646216708,0.03476265177199107,-0.069982374046124,0.1266919226853402,0.1456667175487615,-0.046639570798623846,0.334253096985175,0.0011659845956109574,0.06148209124375876,0.1942240492571402,0.3394657030441959,0.22789876153104238,0.2749578247145102,0.040869865363243635,0.14927226402711677,0.22052109761046063,0.02225067710783441,0.10145790640846802,-0.09192771250507213,0.0321523636398162,0.02711858322080926,0.03368324287061346,0.42534084194165955,0.4133919406371551,0.07874418478731429,0.00465400397148886,0.047305582830040126,0.03820250996932221,-0.037450580088140596,0.05509282070433993,0.009423713753270804,0.151285955577804,-0.1748995660491542,0.14547137155967216,0.29774557326767687,0.261941302183297,0.10262997366913137,0.06871995041389649,0.6684854206897909,0.13543827933898692,0.4095818749173324,0.019909471782307286,0.18296293776803602,0.23151529188958317,0.3121126941002584,0.2840407916757808,-0.0424612681052993,0.17647808024268158,-0.05122408130822911,0.10735798507768629,0.45959955949050835,0.30400377803540396,0.03177968644161008,0.047542633639803406,0.013135714313215682,0.02491664213564963,0.007073952588332029,0.11754957170850006,0.1536116181046518,0.09631014782749714,-0.09230702281185213,0.07780917452572962,-0.05311145600505334,0.160550766869176,0.21139645376562455,0.6646585382849759,0.6100010765680962,0.2666971445314884,0.4741681977547909,0.17233169726771258,0.18192171764697132,0.15057492835995492,0.4195809579930659,0.12213182041415373,0.03043181349342967,0.315025732822016,0.10052023141480793,0.4021365459294004,0.3407216435517813,0.07823593558363354,0.05042975035856758,0.0372703548376834,0.03435123710558865,0.020497305519561877,0.07219483710016752,0.16392674200680216,0.23104290546684336,0.2668676243142604,-0.11394050469443343,0.11202281106905268,0.13057330466504094,0.09703774462724639,0.31593625577941603,0.23771615428138,0.4291774974630024,0.17839385540437538,0.5344636528657654,0.3874944648719209,0.3008349228991572,-0.18012951346489275,0.242943441290528,0.32827780370482135,0.20744651906524383,0.07949923031529381,0.004628024692718047,0.2889205278075669,0.052852035087661044,0.008768647129193428,0.028726669946033748,0.0013584828323345971,0.033019377092439565,0.04749425162071552,0.06466496958802509,0.18245310013458477,0.16664892597169362,-0.00304026825304895,-0.0471723920301169,-0.07760335657164533,0.0066290006894603485,0.23450146395960952,0.43189715476188983,0.13524658565074935,0.36110656350465137,0.3759014072607163,0.5535490125246427,0.2604891817934105,-0.08425888533129153,-0.04582484517785762,0.20067632249194772,0.015118972170860763,-0.07312085739934157,-0.2308410960486288,-0.1018109229087028,-0.1077314934887124,-0.0825824492564899,0.07021167798903644,0.09109358723812531,0.005254098799079744,0.020421969491632098,0.04256774909602638,0.041552621166612035,0.07108325032185461,0.05878318878177586,0.0010309224176452796,-0.15952219081990598,-0.20395993348746452,-0.20926369583068932,0.016223273480570045,0.1842801484679152,-0.29932615954473674,-0.43803800352728073,-0.3164363249273996,-0.45802282732315064,-0.0670204153574597,-0.06480713519619426,-0.1416608850198413,-0.21430176652736907,-0.3347663991660509,-0.3117206640014391,-0.37681467120721246,-0.2210062369802113,-0.2051058250444979,-0.13496730037484977,-0.03112157642727105,0.05505821081021518,0.024304835462682896,0.04796202610565295,0.023356681565501677,0.011870984492025529,0.019843634728667594,-0.013914053202309123,-0.004965917047964705,0.03037001810429002,-0.19827665799340832,-0.3505897700360084,-0.3582456637766689,-0.52782274376995,-0.5563366357714943,-0.3796951222711359,-0.5064372448713776,-0.42837199237990686,-0.28655696954143656,-0.2645016145822738,-0.10077359615787998,-0.298782936922675,-0.3543433102955146,-0.3307843745385507,-0.21462996854089783,-0.17921337847573166,-0.2192460708701319,-0.10472044609072631,0.007665132417548342,0.0356426832333884,0.043443355502590805,0.021279823911259526,0.000021143981253226257,0.009868853962377177,0.015952410065804865,0.02504357971093924,-0.011829006629989817,0.006418808569633396,-0.009236916113180818,-0.11012529063280511,-0.19942692862012343,-0.20070989674350398,-0.31670704124593013,-0.1401359379169602,-0.436800488065022,-0.5086775326645051,-0.34040717729664155,0.01924726933457683,-0.02650610845851144,-0.23919599808027472,-0.1395367519839248,-0.14043334308458494,-0.12926966163452078,-0.06078567391213803,-0.09322695894989007,-0.05107809533207561,0.03300740553860487,0.0502791245000238,0.01557464411997542,0.02874305635484163,0.00026786650693871243,0.012614658232278976,0.040598613840000304,0.0003891841783256214,0.009200536465776238,0.05616998236955541,0.03262840735603981,-0.040729362627890786,-0.1138322836149518,-0.09003532343486928,-0.030439716884712625,-0.06829984298417142,-0.20796176743616163,-0.09874649063684525,-0.04098429693673671,-0.13197237095444062,-0.08959467055137116,-0.14020536689093252,-0.01784260127102775,0.07515942000395276,0.07489696104027134,0.00935564894690866,0.017861801282225108,-0.006943275703350366,0.050618709849024106,0.0377645039372567,0.01745527467613939,0.03741648781308437,0.02693145342792143,0.009467314750931974,0.04335546651511867,0.03493765363471745,0.005707945378695314,0.01205501642267334,0.04229774917073938,0.02436254923742553,0.013115990953077044,0.028244268297813575,-0.04014864583495493,0.03783290622571091,0.0042120320029287684,0.032251864264332686,-0.011062839086405518,-0.0251494673556954,0.013660732585617542,0.012736544088291241,0.038404055447305595,0.05421910101067168,0.023877800984783863,0.03829563624202607,0.04308056380008873,0.024315543038450006,0.04366136234885109,0.03314870742776311,0.029956817181216233,0.024030189893648503,0.03651195539566511,0.005729929481105881,0.0090961601781395,0.04399814836298437,0.006860151179481386,0.01622787746200484,0.008634337994210926,0.004401962918846999,0.023749763831098603,0.03825952535333292,0.018423359033114785,0.033795841861821864,0.008638731529097837,0.037213950595735484,0.0044436169872251255,0.03764310969281515,0.000005700379166230724,0.013851613111161488,0.0198856427781674,0.029758611502573855,0.029005830708807502,0.005248210606041246,0.0017139467801517351,0.018677823271943672,0.027342303522773136,0.037670440263884185,0.016561943732435063],[0.045356126687851724,0.0009238447243969827,0.04211164507901518,0.004465969053838722,0.03689154877837651,0.04913958467820556,0.019342261312999206,0.013420428834203985,0.028806134870396124,0.013460520721098128,0.02724200906637513,0.003926026302197115,0.029481943606093495,0.03910460019324493,0.010124162970396696,0.030902372864805922,0.024936097535795267,0.0473710531837078,0.013177108623477082,0.02031815771996078,0.008959739842950145,0.00680756746378301,0.023422752654485186,0.002671486123559204,0.013311734209386793,0.03953714892152326,0.04741314227917512,0.005682823020641142,0.011250269317661769,0.009271716880231014,0.03518914829751739,0.030474555941361805,0.04115341701569778,0.01360455145714078,0.01999139327267655,0.030155396060462417,0.03101682919477431,0.016871463704390292,0.0452700663375875,0.007876134889574404,0.04035822459109908,0.025651300420860463,0.04154843779546086,0.08615874154626009,0.03164901888459117,0.039429296350557926,0.007362231571928026,0.04566822338650181,0.021246257793890222,0.028257998000933295,0.035502532434358275,0.02856810135148645,0.025366698765873174,0.047272140102811874,0.033374889800169276,0.04192416607907122,0.007819537048468347,0.003130324617681899,0.04808418258647269,0.038723556355715866,0.01817282148269402,0.026560586818805347,0.010797321440001674,0.023081106619881532,-0.024284126057774382,-0.0614753349606861,-0.029370983136345317,0.02283928399159527,0.11969570218034989,0.3087435035766389,0.1466705982592221,0.2628042554814616,0.1766951653121511,0.023907330670982805,0.03134682573624654,0.06937783938216219,0.04521499113538493,0.024556239221585577,0.013013159300710973,0.046423431578059886,0.009747848649070356,0.013920720166283462,0.0114885333768082,0.010575572733203309,0.03786688233811045,0.019546708325438394,0.03980800590522284,0.03228930905000304,0.04198896878080248,0.015894853883094306,0.020444499738898697,-0.06051923271983528,-0.14076507014115625,-0.011499833767021588,-0.06583831169854228,-0.24557313769119557,0.1189946666702803,0.3767516111340284,0.12252310408204634,0.15415402600393394,-0.09004911634888825,-0.3460978603848469,-0.31893796548221737,-0.1494992300356733,-0.33773200836394657,-0.32808689667761454,-0.05175162162020401,0.0451804269308333,0.020032797854986607,0.02462344294423365,-0.01398694266599696,0.018174121709748085,0.0001453790673803862,0.012545981170327387,0.04551537039763332,0.026800229791411542,0.03100689339152455,0.004551790093111097,0.05452781936418664,0.0020990426849375678,-0.04288199505458862,-0.07681686664555483,0.0876808847726942,-0.021658217869337065,0.049766369244276354,0.17901238284251306,-0.10926325221147021,-0.07127793317695447,-0.4304282991907057,-0.36504359436347594,-0.2182536926321897,0.05690559144180157,-0.25204587474237566,-0.32970005386150536,-0.11916594336881292,-0.1733758887950914,-0.27202846033395794,-0.14839082177048404,-0.01841802739441307,0.006396010370704796,0.034354910773058654,0.030493596357930162,0.012284488761734356,0.04201540405151485,-0.012105163007142157,-0.05959789264249311,-0.012685628608053516,0.0727589177027544,-0.042970772658379196,-0.13735486827921659,-0.34028763671671586,-0.47475800076693525,-0.18789006043372028,-0.21372136464994287,-0.20990466041891093,0.1085666415390705,-0.03658545837018499,-0.5701646975118974,-0.19297557815893168,-0.09509504943522548,-0.278504622212678,-0.12137650586387856,0.010677081835770827,-0.2790892081053497,-0.21399713336320075,-0.2164390869378076,-0.015239990188805204,-0.011983478350619073,0.01710654836913141,0.011551465962197967,0.03218190077346255,-0.025607923687948134,-0.0805751065279142,-0.2141129823250708,-0.18448013516577497,-0.21946941912789195,-0.43061458847490974,-0.32466758827339337,-0.17818784942193164,-0.21884917363213244,-0.21797069869009392,-0.3028797031252261,-0.12813290863140187,-0.19841393298576082,-0.5296014534591541,-0.4106829550405889,-0.28759000525817646,-0.2357991725161375,-0.4148204645150317,0.1845367331145574,0.07051400875152757,-0.1902979926492531,-0.3221350116958381,-0.12201728486555494,-0.03905951099489836,-0.012599076359380594,0.020921092269021155,0.04210989977851479,0.049879059109917454,-0.012711008696639998,-0.14062870891863624,-0.3213179571382705,-0.2811471834974258,-0.16585783576713195,-0.4316925444055816,-0.17273466843599056,-0.11026617468364572,-0.18517056875440954,0.021918059608625026,-0.08313726834234189,-0.14717325961833358,-0.1310167044643178,-0.2455461420739825,0.008647721062184002,-0.4382008767372783,0.07770558698027923,0.06870860527504753,0.03630354537528649,-0.3126932712996399,-0.16984060400864773,-0.310108399849728,-0.20843482901941626,-0.049746277189353615,-0.00016354291910525336,0.017345213700531617,0.022150756512823423,0.002277176538777844,-0.02206274908475914,-0.15503022861973945,-0.30199421845543184,-0.2552818503090096,-0.034475422929929764,-0.030923899669060614,-0.021380193624604527,-0.16777970422054658,-0.18692743613462448,0.15517052062451198,0.14013860735773392,0.13833003254447368,0.04476298638237874,-0.4604072822630945,0.16698776857775632,-0.2184567071834338,0.24075305712597989,-0.13072015192677253,-0.16749324097350912,-0.06845388331510162,0.05081073887100716,-0.11264910238729815,-0.10671248954535036,-0.02104659879196104,0.02717280092087109,0.032935483154935476,0.017923220177945873,0.010779540816131672,-0.011747464031802657,-0.11764664640251106,-0.3619431227448109,-0.23510391957724502,-0.1359569894945905,0.04533471614231402,-0.17636215236064917,0.016592357875703245,0.0034810853222383225,0.352783990960166,0.14803052544164752,0.12187200462697734,0.3615257894332086,0.0051590080474971985,-0.2836082185947347,-0.05887405321729339,-0.17317164432673543,-0.2045571063409793,-0.05691947897586446,-0.0370645697644105,-0.17158434161746441,-0.11634442591873503,-0.07834144309813068,0.06175870634220307,0.005987603221356455,0.049622230589956864,0.015831355566467625,0.03806104030910733,-0.16589686178896862,-0.26010868782712987,-0.37375027703190866,-0.2898779143209107,-0.030945077823284758,-0.09742185190679749,-0.30685476205041495,-0.07254794820893423,0.16722334294843383,0.26626118147351335,0.21693724834479652,0.5037498686776581,0.6332308244879096,0.06409456943373458,-0.009998570605513069,-0.20391584755219108,-0.3875727075629039,-0.36878199708166626,-0.13013023281531916,-0.32256556424668265,-0.2950137237686394,-0.21666333728845424,-0.06852849217594545,-0.020520172625668423,0.03503176288731727,0.03885080384283459,0.029115136521118676,0.022671851224646728,-0.11654282982960659,-0.23096273689494284,-0.3034008896468209,-0.26193309973959805,-0.05940833930668336,-0.1060639605757695,-0.2997317100379981,-0.10667621393281226,0.2392913462717034,0.14183130091203192,-0.12186730088322434,0.4621086325650732,0.675641261696329,0.042704352492923224,-0.309475903529451,-0.2187454828025998,-0.41735978111302835,-0.2858697908198741,-0.4179306748567983,-0.37797958342335874,-0.2817422025162799,-0.1677121437119644,-0.10734758539193219,-0.05820372753148294,0.028898977576245478,0.003945049539634769,0.002069153786130153,0.02462919427046599,-0.002234901437590311,-0.0688072183404455,-0.12252571782060262,-0.14777033062477601,-0.024919491993999225,-0.1083933702182199,-0.23520063334951155,-0.16794483465618798,-0.09869811639149408,0.07943264811000231,0.12168263960653496,0.6692358274021502,0.6298947839548624,0.2507681679413645,-0.16734056619897664,-0.10160640615425108,-0.2789752901097432,-0.13112223957227115,-0.12209119692482574,-0.07692236270218115,-0.02606014096478518,0.07836610330965042,0.08400755664235207,0.021318241137839897,0.05069526869206857,0.012694646953776171,0.0011706140723611966,0.010358240005120168,0.05266854691376242,0.003876721467967643,-0.08869751139548185,-0.2110401301210332,-0.31343537483193806,-0.07281866641576573,-0.07435036631780383,-0.0695502365730772,-0.0740878359647634,-0.1954615411697775,0.09625862328632828,0.651386563873882,0.43540430133125624,0.32236947357089296,0.1770722160645357,0.003082025747774151,-0.4562805811095461,-0.2938929186958946,0.03427874918840558,0.06534129042003638,0.09233821512680367,0.09575451365079435,0.09953843274042626,0.08830486088293715,0.05540768068874978,0.005057271421460466,0.04962319686340567,0.008787194147321828,0.055109481419812326,-0.020712140586957292,-0.14222277720159532,-0.2312248141743742,-0.38391196824474916,-0.14203198753374444,-0.2294765140411589,-0.15538365836965828,-0.27162974613075624,0.11325183601430773,0.07592118665596329,0.6620988113701053,0.38339041137448343,0.24844026662400365,-0.09955313316093281,-0.32732344811143865,-0.6385361937869066,-0.5638176767401463,-0.18940627967568463,0.12214211152855142,0.09311161243896114,0.060439775008871606,0.07719048798094284,0.07474357440978271,0.05420156454480783,0.03394714430523507,0.029552826863295408,0.0434876901379417,-0.004608160635341728,-0.031061659308239717,-0.18504654610717705,-0.2511701200897304,-0.2569669359760679,-0.14674805518036518,-0.1656382942764035,-0.2385404577591998,0.03611007189867945,0.10075881904823476,0.36982156137818784,0.603813122597841,0.2211371193791292,0.34109070917144607,-0.3532912558426849,-0.7943576284266429,-0.7352715546633128,-0.6187591036299263,-0.18388079959956072,-0.042416427675555424,0.019959465915486214,0.025161138532056475,0.07117454908859588,0.0779958311916896,0.029038186957187666,0.00920139245610741,0.03408636721099173,0.04841312272305017,0.027943226856200223,-0.02118886076061796,-0.2311403777696704,-0.323806878079148,-0.30953022267015073,-0.06194244136045831,0.1359707704015922,0.10915939656883814,0.2256553476614933,-0.14059987303515478,0.29039235948199016,0.5603530302819504,0.09638149638754995,-0.0747309174518144,-0.9559228616659614,-0.8400040198566053,-0.7423386170345723,-0.34283553527284516,-0.21244044788767277,-0.19005982711867295,-0.009303709311086022,0.06296154735983045,0.08563503767542396,0.02637654722460721,0.0379105178073493,0.0072356786348913545,0.01643291143882207,0.026013571756755133,-0.0018907437282399448,-0.1138205410355434,-0.38466528951984197,-0.42994011725378944,-0.3863571097538769,-0.16598874432092686,0.030407962596923445,0.1627996258544807,-0.05649098430803077,0.2571697949606474,0.6035970130129497,0.6849312167815156,-0.04624078421110155,-0.5403386183417438,-0.9316695233579417,-0.5101862573051555,-0.25143667607463605,0.03603906480402171,-0.06274597854829449,-0.10992856107811998,0.09928366659417553,0.2193268931388009,0.16181691133226564,0.0639620231871823,0.020991307689985753,0.027747107609077434,0.000979095119445355,0.016519012548300117,0.02528533827944439,-0.11466080755077761,-0.3832659114139093,-0.6552343005253317,-0.2646523536369162,-0.01983504657364346,0.2642512548626566,0.12467058293099866,-0.08424640182768973,0.05262923555881162,0.0797700510187736,-0.06981618980440103,-0.42830313023683714,-0.744674395316613,-0.3194967453655939,-0.18964663595683598,0.0637609485709349,0.3270383554435732,0.08984419659915442,0.16765342180280696,0.3005435504112229,0.28158593932640413,0.07814728017940485,0.02717711714761548,0.08526711561314203,0.03927175247485544,0.007145389721068067,0.01795633047690538,-0.015044809636431419,-0.08844265776710156,-0.3857683824507089,-0.44107991303987976,-0.23908839215966077,-0.19287870094960471,0.22452044585790865,-0.018821154685165233,0.025873362945458257,0.06583431648640946,0.16956386612193108,-0.16083760094313038,-0.29285903732889595,-0.013026582092227247,0.05595980757334935,0.03178708705639835,-0.07371713386553443,0.12228946727505142,-0.0774602348294859,0.11214852994232977,0.29342689951574974,0.3189470641172976,0.18555913838803806,0.06671411789149313,0.06277233746264109,0.02338552443566048,0.04124750290728719,0.02170493474489076,0.009996975206732251,0.013858648703484779,-0.26097059211049456,-0.16256888818717646,-0.10131887465882469,-0.1315679846283062,-0.08115956837052365,-0.031162911581862133,0.14945672103010882,0.3945921094811586,-0.2256583306184163,0.03935624825965615,-0.10287461369337801,0.24106865428532467,0.11073404232397346,0.22911037900557765,0.09600328981131995,0.18109298162936235,-0.06693242176958229,0.09265105945236944,0.2324391610423114,0.32946556027468893,0.16012732973745383,0.027417676080011645,0.04243746725147244,0.006120473438292756,0.019993838043151087,0.011564772433011137,0.008751732555955122,-0.021788141342712543,0.0317704245048277,-0.07493810906370676,-0.0022120307368048296,-0.24978426772511364,-0.005371896006963706,0.38216023635273016,-0.002332030577612358,0.10168766101780277,-0.22953355266032757,0.3399336358343365,-0.06564004141555824,-0.30162231694814035,-0.16814690209014607,0.08089693651835946,-0.04306476501784794,0.1071357126622535,0.1484188757403077,0.05995433463621518,0.14011146029512672,0.1546530389005761,0.13007029769905518,0.052744825666269375,0.00650171168754979,0.015377360225941678,0.027346453383477104,0.051164983622506786,0.04142471227606982,0.09222405454560695,0.4188712264590115,0.18905549187416196,0.1617921082685443,0.07374723582124185,0.0763996363594789,-0.17088099971606308,-0.4445219469090327,-0.33657667301935057,-0.020605964467063045,0.26324588968452917,-0.09387068630778658,-0.02352914572977907,0.0345231934355756,0.2303423155148056,0.2623870863473077,0.2746670211723013,0.22742169141582202,0.07439488313872368,0.09697819190775638,0.10050013135054435,0.051469971272078995,0.0221060446455453,0.01636129278060516,0.04279960646699589,0.015827826601452405,0.043708179713729055,0.035083129570553775,0.08234422268114232,0.4742299448580765,0.5510736618505679,0.37252878751644203,0.24943751869358383,0.021238573583541524,-0.1582370029587356,-0.061862619519639596,0.3210080412386923,0.05347432463032957,-0.4260493670212836,0.08579445332085042,0.3269118124077153,0.1429449156505994,-0.13706780569632634,0.07440829650070735,0.024190634124335118,0.11156472024272807,0.00039853443341769337,-0.01527125936767574,0.07401992891473774,0.09594850428199786,0.03106215257743936,0.03891606409925228,0.04923734712335444,0.04283464231245404,0.021905613381292332,-0.004737279841484832,0.01412561418467091,0.12111981556694067,0.14488618024912128,0.07390778615137207,-0.07591694838797676,-0.0742967364836263,-0.25055523586115747,-0.06336092668588404,-0.3703115986049228,-0.5293187354670323,-0.1594762618870971,-0.19034788669076164,-0.6070282881069948,-0.13280131732108733,-0.06700298608064456,-0.017229411811583776,-0.09610938397918578,-0.049818679147974256,-0.037062739487223904,-0.000418265037186886,0.029373115962140782,0.0455162390100525,0.01662846154086534,0.037103775579582055,0.04911882243572296,0.010379488963016494,0.04861714374422587,0.02496487505197007,0.015094254086901841,0.02180557920653031,-0.03540209413274439,-0.09859470048152995,-0.25859586657101685,-0.1755032649214917,-0.2965678242421694,-0.16816980022105893,-0.17432938998085198,-0.19350393266967703,-0.0037440373390785478,-0.3402668640148031,-0.5155920962038827,-0.4597723933573461,-0.32681403361875727,-0.24843603507066125,-0.10962677008019166,-0.018751465767939783,-0.02788458681200335,0.03286102408346111,0.03235301743929419,0.005915133332536738,0.028177319218726946,0.019018151690722344,0.02076408118216667,0.024948275848608786,0.018971870798218906,0.046261488212305975,0.030934150836920873,0.041987072191495764,0.02963300920325825,-0.01719291457774692,0.046134963817055015,0.08734400885143388,0.0872784316382601,0.002894497527476228,-0.0409038925842143,-0.03881674317599177,0.0028579247028384996,-0.03890298455670706,-0.1616631195592563,-0.13082781769746052,-0.09121623299341468,-0.06930470790754437,-0.019098899586622992,0.002960663799941205,0.010307384238693644,0.041247867468538243,0.020516778779130336,0.037960254325870676,0.041043380599416084,0.04387586158552204,0.03187888086928626,0.04484344369087956,0.006506500319846325,0.01583890354911409,0.025334940561792647,0.023952788143314942,0.005030470670233216,0.0033712325177206923,0.02567599457931803,0.020231480491180787,0.009367977281923259,0.04260033278463807,0.04326992747107414,0.026226316388980646,0.035938045779911235,0.005113308742290989,0.0006149968266307345,0.014199044985980494,0.007708306731723466,0.031482431332443786,0.02532645408308366,0.019267870689932395,0.03556079129938426,0.042553017744598624,0.03393143898821637,0.041603356962582425,0.027688961936904847,0.02167446962717031],[0.01657506527910434,0.009728582635345205,0.042414370827147635,0.04139523901983305,0.0067782376875459875,0.008952748488981444,0.04626461304474578,0.016603621971983045,0.03846690172102443,0.03757545175359699,0.038462790941299375,0.04916772786944562,0.048122939163245726,0.047836727076206766,0.0060070646286645045,0.0009446849379262024,0.0032799281994400796,0.006698472147315015,0.03436905477209142,0.0018088375337353797,0.011434022270275191,0.025194677432369462,0.028175847295511196,0.0021265191412017156,0.0007652815878357782,0.005019274594447067,0.0241812147029453,0.015871721634968437,0.03452798993849958,0.018406574189349777,0.023400740228137793,0.038096620163718536,0.03180490352542036,0.020086188656296647,0.029809782356485383,0.019662460676916012,0.021983472019019356,0.012966617192415573,0.022891719512786436,0.03620968382391838,0.0383019341388401,0.043332103963584244,0.00892303469880757,0.06002632237179986,0.02006133410487351,0.048880377628052446,0.02525845576839681,0.04881341854328086,0.017337217680476694,0.026189459919931928,0.042196248932120865,0.04264082486957343,0.022779200514320086,0.012213642438677414,0.03692372179436048,0.03641055551631045,0.03338078369048948,0.03945099059545919,0.03378017991202481,0.0182177536352055,0.01549211282298822,0.0445838728736409,0.020016328180280013,0.0366264040893219,0.006753776060788384,-0.06471024946627874,-0.04158989707973876,-0.05652643065720076,0.050997066981424415,0.16000917468377174,0.1714382179619656,0.14169218289319044,0.07302957275965152,-0.029220201853339105,-0.02360636404891674,0.021676267272539844,-0.03041134275705405,-0.018097298423495865,-0.00026262561113244467,0.022834988056634604,0.017269909586582265,0.0009822053462387624,0.014482199664484559,0.001327380635049783,0.02539514289612934,0.011076708044376729,0.013190439577408964,0.0031229131887909978,0.019710680391174122,0.035304038599447474,0.0615549310503373,0.10677542948706154,0.14080763349772443,0.12886634389263385,0.2702914083847078,0.20151015912918627,0.4715447172644672,0.40203492727628687,0.19904806541041398,0.0785362764518784,0.06848560994593468,-0.09113848990169404,0.00949045433242573,0.27496623787105684,0.37262421222662717,0.05853144104642559,-0.02036602710268289,0.07158051678295271,0.12574810453659394,0.036234565720018964,0.0144014934672387,0.02386016392907385,0.004019014672416802,0.017967023791834506,0.021414914405134388,-0.0012487361708236851,0.03237746616404729,0.15550408960529946,0.2316805648463794,0.24235639979280693,0.36919634399307066,0.41324784638631445,0.42544046796947194,0.31651687032785014,0.3303220600254534,0.1678621047875587,0.023470370737035114,0.38083596228390276,0.24883890019910093,-0.04704043454493511,0.14854847469817614,0.04039217337656142,-0.012829996953454798,-0.042205326771480256,-0.043516267945453345,0.006692724830245109,0.2716981871179507,0.13015265963321937,0.04500448760785522,0.007786546022503707,0.024139756479945033,0.004919050645185313,0.04253853845395027,0.029436084806783478,0.23533953379571784,0.5080005486455571,0.5145599040344495,0.34571015242662745,-0.025902326555141984,-0.020159674037850118,0.0943278201683246,-0.14739198966491732,-0.08040003098929085,0.22517959702696538,0.24111801697492383,0.4436360997457783,0.41644234365846505,-0.07939682747216587,0.10414060835842309,0.019870849129725067,-0.006996694667266992,-0.05377257694256021,-0.04325202109196604,0.004031765418435719,0.04846188550953504,0.1165106670503658,0.05325021030102434,0.04485889578039871,0.04312171589810116,0.004587209866227372,-0.031217134424425225,-0.02922692514380733,0.19707020224867444,0.2955369774585495,0.2400798341999617,0.041862064952001225,-0.004482568099327249,0.21121443298425852,0.08418299682632606,0.25326581692906175,0.10980578502236152,0.04711695817716611,0.0905772837104818,