{"layers":[{"numNeurons":16,"numInputs":784,"activation":"relu","weights":[[0.005036685354166747,0.04052946562950303,0.02439597282415174,0.02729318061920239,0.023855643306785485,0.023578810672998017,0.025267008951906055,0.02867830166153087,0.04308832959173224,0.018648644319978955,0.04867336294346588,0.013219870329813498,0.02375908682702,0.03600366202183489,0.022196789124394323,0.01656285005481891,0.015218224740838919,0.03673384975298074,0.03092659530849872,0.03108735730493628,0.035421955757639456,0.013852943017413102,0.02800802869949323,0.03938016709877756,0.04345867872352047,0.043879973718419306,0.006600582650821255,0.04879181115739651,0.00886058602927511,0.02484785306009397,0.0012210263561437543,0.02861432585012097,0.02959272335557755,0.03750982050807579,0.024353221765770903,0.028489135993634503,0.03910182665221416,0.02962541812058632,0.03945234471363122,0.01457610571295684,0.017770388071218356,0.009149463492698299,0.1155677930146399,0.06904033670543107,0.0335651366131063,0.020864987173722014,0.032014593902260316,0.025455577897090572,0.030922373799958002,0.02762185230527433,0.02423606010462235,0.013715913369289392,0.02999104504887572,0.04287503176849391,0.03994712346665779,0.019280481951328213,0.03433273261791038,0.012565444284732162,0.012747042287068338,0.01418932464878264,0.04643689312842141,0.0353294754325858,0.004026618986747045,0.009849235455031146,0.02442056526625818,0.13502074439996636,0.10639295137481994,0.11947142450982849,0.07440915581739659,0.29051098391197633,0.3558677122933861,0.12242440637310192,-0.014225904406910806,0.0499520670682422,0.04951080822763768,-0.052370771221870144,0.0037210743210694306,-0.0008748968912892282,0.007907828258667239,0.018759535685053067,0.03949655135817033,0.05466239052980512,0.011910649477305192,0.04810323410698823,0.031399446184543274,0.03219179186530677,0.026780890772801044,0.04927751391945469,0.010015882736331793,-0.017898989967170775,-0.0008814509863179844,0.0032058938611831877,0.06528677536846608,0.20428325783768408,0.2316327777410524,0.2390557248240344,0.11086304168681611,0.3678673643851107,0.4192749763532418,0.15092970645938822,0.19135685956205428,0.023007783495032633,-0.08830660821023158,-0.08596773785017661,-0.30306953954565363,-0.24023123850619663,-0.020759181982007834,0.03327960439684417,0.06975493465294334,0.061531564985379,0.009633613352521556,0.041340215696241106,0.04999766924711402,0.028104112466406046,0.009465981938677087,-0.0028275629587270782,-0.022225095527230558,-0.04249759980838389,0.009369931527443679,-0.09400450742937329,-0.18179835784838705,-0.06720094187058248,-0.16273802067842644,-0.2755342542189135,-0.14897168204985584,0.4024678124693536,0.5599202351822595,0.11507447583600505,0.08223888675347536,-0.13205232029784503,0.10450653100431448,0.09177564215673029,-0.14907026052469008,-0.5552570989394312,-0.14911625323524128,0.04558601578611346,0.04979443498819489,0.03150154133816505,-0.017595748140225787,-0.0032576198094174,0.028953335438755844,0.034476886782342904,0.042128716052752244,-0.007798932822705911,-0.013973898756399676,-0.09028014047766915,-0.13849674297704764,-0.16590554876403016,-0.07260545505654585,0.005374988562976684,0.18861680405462164,0.37221079129633455,0.30500420474719014,0.0720651777825574,0.21842095792634222,-0.016953299291637244,0.23812185303424493,0.013109378940377621,0.21770524112790826,-0.11996567845296872,0.06439112734377149,0.1296501226018485,-0.20433215664076024,0.03643998414739993,-0.010374874127623798,-0.05528413777184499,-0.05324534430004893,-0.008484751085279539,0.0418509934683187,0.04740345844893247,0.029976274477660693,-0.021281248096094302,-0.060999013236095,-0.21381598651176623,-0.20485231312426797,-0.14013520916929154,-0.11373165523467761,-0.10796765063987059,0.14025803123988576,-0.03249521054023389,0.22482320480278836,0.3180105159944597,0.5055936561045901,0.11378997429917785,0.09605246902867273,-0.052967014174245326,0.14975233270249005,-0.03414964983377605,-0.1604413133584365,0.26246464289951643,-0.1701161658061177,-0.21425535896945339,-0.08907718728359569,-0.11856544123665307,0.0021067753560029584,-0.004231453417764944,0.022799691963223536,0.015955712394618255,0.004382531325672141,-0.05637731594064216,-0.13320126996290838,-0.05252415115537874,-0.20380418183534793,0.020160212820003673,0.0725000924773003,0.2568082831578018,0.10609082465341707,0.051805175987020856,0.2540462176144036,0.6138884312745695,0.13380284875396342,0.2299525571328623,0.3972498754794776,-0.34718420221508606,0.2908276148565221,0.2413363482095936,0.01784090839507903,0.33200710242392517,0.016937348999559076,-0.306924424703158,-0.010687092339522383,-0.09173461210772572,0.005787845359649985,0.01005336410006067,0.005228498735866309,0.022660995196142373,-0.022072710441716523,-0.11799650439500316,0.12285132333560331,0.018656113851944052,-0.07476320168813244,-0.04033105162623699,0.25190414051200916,0.09615508757356712,0.2404197239156203,0.2003738590850296,-0.01440317857700128,-0.32430787591296106,0.5473155186125847,0.5664873838501274,0.1867424613330974,0.25730515330412695,-0.15347513793642717,0.21733101079745334,-0.15557408665796166,-0.35179390530344595,0.0003721465352568529,-0.048182193254863975,-0.21485510060254667,-0.14390103954462247,0.011533002958857197,0.04084800764969073,0.03727508724879866,0.034179359916320005,-0.0012105035042375251,-0.12481515025020654,0.03705763560184445,0.4734912362711035,-0.08254405511426324,-0.1230377620780502,-0.13545327468572704,0.19490109924139865,0.11888598089045098,0.22630115510754462,0.17919471474925375,-0.7104327828459653,-0.3744609164484971,0.03435471890850348,-0.1370435257975947,0.022215884667771114,0.3933341011922274,-0.2334184493794181,-0.26427199440640303,-0.5349930935806514,-0.35501678562068567,0.04092864768592657,-0.1217385735100039,-0.03536487048954076,0.0022393887714144823,0.013926533287275798,0.04974035092458334,0.03353895290144551,0.01869344421562562,-0.07964756518010266,-0.09940739893154804,0.24840108454160345,0.3274260230277238,-0.0878440503137757,0.20649453410071353,0.08437633030507202,-0.014944385435762363,-0.11057951796277349,-0.16903164708327567,-0.7921832763160472,-0.49531315151852906,-0.06038141020045081,0.09178959566979367,0.35269500465330883,0.03961349280320214,-0.06040660250347995,-0.12400618000938943,-0.20519121463766093,-0.1120670695474387,-0.1739164729961022,-0.10439692240897243,-0.11081260051852397,-0.037958423428896285,0.012868958524668815,0.034117295427537594,0.02576788753411312,0.030033945409961533,-0.032571707001696974,0.03995516157313755,0.11871090246489767,0.19620854570134114,-0.005663672376543667,0.2506585781660916,0.04814570331175828,0.001303814928290596,0.07079359688904506,-0.2796517254171448,-0.771632514083113,-0.25108484773382556,-0.0004043321513655953,-0.24573499593112091,-0.2693850031466416,-0.27925476495784574,-0.0362817865639389,-0.2655053770936832,0.18120451741127236,0.05067992897109206,-0.23687042571159986,-0.17848982423442397,-0.1413783322060671,0.02045012477844669,0.0050519582257847724,0.026210947696715267,0.009988445902357193,0.014583266106871546,0.008387930804648402,0.08049068440784016,-0.0920485247504766,-0.03365802057708706,-0.08644699073399206,0.19856024285033716,-0.04519037260800797,-0.602397980047676,-0.7644823339023668,-0.9114932133990519,-0.8477579144094265,-0.41834544234095117,-0.04074679429161936,-0.28808730785880504,-0.004681439621580409,-0.3366085471967016,-0.44854507609689426,-0.34356276882042447,-0.25913443949167564,-0.24597482505003718,-0.18956087577889774,-0.1463049915309913,-0.07746296143030396,-0.017059865073629252,-0.0034887464577332866,0.037976820393244744,0.01606006622417689,0.032821892295645846,0.024541892061179495,0.03429826191563096,-0.1155798007412838,-0.4866396001146761,-0.5613463498920139,-0.7994863194626642,-0.781441965434758,-0.6789011751347838,-1.159661461192697,-1.2113238478895754,-0.4949327599071294,-0.32913012169351247,-0.5280751265640274,-0.3107455066491025,0.07436985620556111,-0.49309609516372666,-0.6911053939446548,-0.5593416829227237,-0.09269530243749446,-0.11073993325262556,-0.23538798788433532,-0.224614930206498,0.010472420377476126,0.0038329146243191274,0.022817283549659693,0.022431721064613497,0.017178660365856583,0.026803898437531604,-0.050036538379513607,0.008027607945460372,-0.2914677477715251,-0.7119034987547133,-0.7432952019360429,-0.9147920754989468,-1.0191447524981332,-0.8360953379376753,-1.0200807886553958,-0.6094858369065899,-0.5288313793948451,-0.5052819393499318,-0.6439129864391366,-0.5061523906688772,-0.39244881538689813,-0.2704955616358644,-0.7909509234918224,-0.02639969205280431,0.023469070343071656,-0.10979469068824385,-0.43665436959883475,-0.17194765785521662,-0.014371532611784173,0.09352461347467454,0.011803066496938533,0.014067143809700694,-0.0038738497195949916,0.030016061336534717,-0.06931361859035133,-0.14962355535289396,-0.36526192494635945,-0.7070847325759089,-0.7561485682160917,-0.38466553917349444,-0.2305240955248775,-0.18121862334385655,-0.46717883211939987,-0.3335966789381504,0.0025885938042571333,-0.48128708050539426,-0.42923202985615927,-0.099317695624663,-0.6066544095529521,-0.5934774829995927,-0.7727720544485716,-0.30349889226185983,-0.038861028695772626,-0.5414779965766732,-0.5280919594067046,-0.16603777973782538,0.0029546341120773984,0.09240374633471816,0.06896675802580267,0.02569818580455264,0.043801646875272784,-0.009858873346325497,-0.11693018673330627,-0.40802969630216485,-0.38507663436528783,-0.5846419519736479,-0.44648513210430074,-0.29612555220207953,0.058083802830959534,-0.05483773357593888,-0.1586621512039372,-0.14932694346731484,-0.22042378949743047,-0.3623576734848813,-0.07488722496659017,0.0367875771325555,-0.4716251613453538,-0.9011804830693807,-0.5351662780068418,-0.4453118193823298,-0.2184889739376749,-0.5637659871130525,-0.33841350494333305,-0.022882865111566952,0.20289294873149274,0.21715778614924217,0.07340710775280809,0.003458606943997529,0.0016908506687654543,0.006869705822396011,-0.042697541067940215,-0.22372778026829246,-0.09541977537255357,-0.006189187047828117,0.11780115802572969,-0.03879345486030057,-0.08716434844996297,0.026119404713013605,-0.041682688656974685,-0.0437284932651533,-0.2728684609653132,-0.1839285284650728,-0.12959277973299885,-0.2807159976327894,-0.6218261540665192,-0.719627740118075,-0.19977547728595935,-0.22765040876276038,-0.4230390905642912,-0.28740507791315684,0.08227242274133066,0.2666555201094759,0.4935936275805618,0.17793812070503326,0.02495416054584281,0.032309359138921356,0.04090485085009268,-0.02041339578498787,-0.06306219393141115,-0.1490603114343503,0.23972259252307762,0.231155285895076,0.638625938227319,0.35957119100409773,0.3851260038766841,0.17937045680673724,-0.17004916404111597,0.3691680221433451,-0.013361998197862726,0.023929246818350534,-0.6815207085733294,-0.6626375764543591,-0.3025961586989283,-0.015429414134366697,0.1520518124481675,0.18443865380376995,0.03428045706388189,0.3773883664756879,0.6661130264725926,0.4666569814144027,0.38809206151794834,0.14509485116788692,0.07493738564721113,0.02244019597104954,0.04759478920786372,0.03274736529866054,-0.055292013386694885,0.013466590181773564,0.23211216337083754,0.5217339933469072,0.7522265784359126,0.4840994854703449,0.6406493760594726,0.4670005616107031,1.0589570877703371,0.6535922921705776,0.6199562884501261,0.07901102568933319,-0.4855191371249961,-0.18202772886573218,0.1522462705549571,0.0626867558961333,0.13677522984399343,0.3029078772878028,0.03556636793586261,0.2363464744263113,0.642831913396506,0.518775736930645,0.3583541457598325,0.14358915052536364,0.046220539367259623,0.033230505872405884,0.04360604421618593,0.06861549251922701,0.30870427898123654,0.2705350632337784,0.7770006645588026,1.0369722200303895,0.5367144613043642,0.5803313858563468,0.5996589907610688,0.4416953562033629,0.5819475045850728,0.3815202505907472,0.23662660392086313,0.10333896287756979,0.06476342955866042,0.5005519782847248,0.23108818238927198,0.07504688564621634,0.10866446918267769,0.22057731602633546,0.365670090053884,0.1963635630179421,0.6909488695030609,0.3965824278518663,0.22076827029210663,0.10068982014395149,0.037645315158382445,0.050705174384707896,0.005420026403670068,0.12338530740978625,0.36464835490773123,0.1827802222275417,0.6288704544255442,0.3606274740222647,0.1480239770243446,0.09805552664647912,0.13461619672511613,0.4116673794120735,0.4802017011791135,0.24188937527441873,-0.11179146273217999,0.1473895740566759,-0.19763426272232287,0.30412982602786637,0.4383577754587233,0.2995319908361425,0.40042568788791977,0.25452757254825753,0.29242764869437254,0.3876282702744952,0.7607318226523262,0.5445063832657077,0.26382366622144954,0.025718434432683724,0.005504117810518648,0.04165074183676082,0.04731085273490214,0.10169075653532307,0.20832442524725653,0.14510554065383108,0.40025153941015323,-0.18443763687635029,0.13140651235716158,0.5701793879772548,0.2344506082245161,-0.1336569469756354,0.09995596563935644,0.023760732142112512,0.18785776710350513,0.4610827061760106,-0.061976483241928206,0.03429123052223744,0.32351563632190466,0.45273001102963883,0.28846026330231134,0.15286796719887039,0.1564229483800474,0.3555883505634237,0.3581048800308826,0.2596737445467269,0.11448402584121131,0.0007009248818559368,0.012961851401134268,0.031089090023581106,0.043113504707594986,0.026829133069400598,-0.10097581114762959,-0.10456710698082694,-0.013490986481876566,-0.04403645067492081,-0.008494990258803035,-0.028716267037435968,0.39597371510218615,-0.061161772494565496,0.5206408679576726,0.2940990600935818,0.051560682721875764,0.08475683499505865,-0.16872403948917752,-0.299958902015327,0.055185846956183664,0.46418182176362544,0.6277888650027905,0.25555391726040527,0.22875098762625276,0.32467095992247086,0.2475550823259922,0.11333083294833456,0.018548241215461742,0.03621999381946289,0.021388308618954893,0.044511319097194454,0.008988710324324658,0.022725306375355615,-0.12434418671828605,-0.06820151469661308,-0.18082804072574557,-0.1738839741923895,-0.01933243114462869,0.010772880235896882,-0.058492428510248336,-0.17638870160423184,-0.13333772441969402,0.1143401569809547,0.00014618721062691078,0.17216780486065425,0.14636407795023318,-0.1752331531921925,0.18611110708976256,0.41720179584945105,0.09078603040140623,0.07685515967322269,0.3495333875174947,0.27687604306729247,0.15261404548357796,0.25361321529476555,0.16590471076770932,0.07604599097736613,0.004987450251605676,0.043993271953663954,0.021922964184126006,0.034146477692285515,0.03461824298605086,0.03766059938623253,-0.028624468581861365,0.08086130233842494,0.25843069868915225,0.24278884997785183,-0.08208051701832986,-0.27445104627957456,-0.2370953361031686,-0.06333938162109348,0.044818007925973145,0.271253949996284,0.24974539349268052,-0.078094167774849,-0.13471468996692676,-0.34523327515083546,-0.3146952130244545,-0.10609290851304025,0.03187595458085083,0.004713947195209955,-0.02845306272269031,0.010375028652990396,0.035435167198395304,0.0778007129866994,0.014757601610220245,0.03225269616001477,0.010565967220052016,0.039816786312616544,0.004517166261414666,0.039345867998093115,-0.010731623190726961,0.018681478175640108,0.04391105097948221,0.08127653616642538,0.051402151450595644,0.02630610846156524,-0.026866790468226924,0.006349108631979768,0.09944276401045506,0.033022559199703615,-0.03251496164285555,-0.1369970211700047,-0.09533622282121054,-0.038566756319117323,0.0013599095115815675,-0.019501488383456663,0.016684995412846335,0.001730087149149068,0.01621142861334195,0.048302491811894305,0.013318376434769852,0.038156899458166485,0.04162530120718305,0.028405359931551768,0.04053539123973886,0.0500988313820455,0.0283992855878049,0.0320226987199088,0.04595772302608423,0.001604767514449767,0.04758418685522625,0.028076068840951783,0.046741621120981916,0.0015808228797292003,0.005809440665753541,0.02321700146451113,0.011927665656116804,0.011480475050644602,0.046835454914802774,0.0378542504024361,0.029752762017750765,0.013603308270553213,0.01406897962597852,0.002154194732529648,0.03025304978917065,0.03604204374200959,0.04348322744874576,0.028503549457763334,0.04041073855661899,0.0196916292760298,0.04344675034227703],[0.04996718571509944,0.031050110148393945,0.013889687498105947,0.04878881355676707,0.038500805601211704,0.010513802332208725,0.026206262836998957,0.03158683560858235,0.040713138661049864,0.008310974791646697,0.02026969295567982,0.04992599285516179,0.035512838789455846,0.01007950032534607,0.0038062866390403036,0.031232966584306417,0.017323359393786607,0.025325362636116698,0.04858218537127561,0.008752927159492427,0.002212732533360395,0.008030961937447494,0.021899486245724027,0.02348308116393847,0.044739776707822254,0.04432952817922236,0.022952634591631566,0.008899004365146493,0.028880940049520593,0.03415932873733027,0.043068232174050376,0.0016774355371459934,0.03910484602469486,0.005085799046360113,0.010019991474114438,0.04198141299927477,0.033084770918221845,0.0051932403007927536,-0.0036990525783815783,-0.015142819087113117,-0.09404840796928883,-0.02321202237773949,0.0366263164178842,0.008023379939648568,0.039053197640985304,-0.006855663935602628,0.03123081725110903,-0.00208496026451246,-0.04405102417010067,-0.14056397337415277,-0.006177660047153054,0.0018763483251639339,0.011055023109193601,0.049749675182347165,0.01513615275043783,0.010975951700864982,0.044497767231633976,0.04191312622813176,0.04277112116762748,0.029330251124746447,0.006299451858787648,0.02568916304302404,-0.00903751559250548,0.002310517725093925,0.04316245385827914,0.17849911714152306,0.09187147192523945,0.00590514292713812,-0.06928532154415455,-0.01896773042567004,0.1557417915559543,0.11207600859435027,0.09987152430330609,-0.01399339547484611,-0.24664454970761832,-0.18993785077896716,-0.05525553433584529,-0.2712401868990689,-0.2060591280148517,-0.03765135780515213,0.11160763763202375,0.06719212375165386,0.003947148461524679,0.01897798113655294,0.021332116159331175,0.031696011634425696,0.025106847315470148,0.025903914769444793,0.02030033053361861,0.04048522951576218,0.011917992982359779,0.02351543712429642,0.15126243328525657,0.38370718741347476,0.45450478852922405,0.4594748398609574,0.43025905844070905,0.354154951335267,0.15579545978149645,0.083936729286444,0.18115553000810145,0.18402686900669454,-0.03922262185636264,-0.22338936249417762,-0.2926890492211897,-0.3254356342738673,-0.4532355736135852,-0.24040910492095588,-0.014680240587863104,0.06577822279249215,0.048581324259481265,0.04954765022531828,0.013112927783517216,0.04541687893660672,0.06497999545160597,0.05263507051972128,0.025128341759104958,0.05627229064326316,0.09350336940656603,0.1419599738949126,0.26090773565702946,0.38226996715583583,0.5461268631743494,0.34307716483668715,0.16625499589532822,0.17809060846563513,0.23142436907657693,0.25750935191929275,0.06987080278253,0.018561101688558245,0.5167121274171501,0.12146171374696477,0.20848065056602166,-0.28618428299079895,-0.3477971462696972,-0.3923840704272239,-0.11238975024729593,0.05537162109206324,0.011156030082382749,-0.01113397086896784,0.021868253274616254,0.0373583931864601,0.014477006773992102,0.014538241647769989,0.015204374866632897,-0.03534530932832365,0.07994852222107815,0.32376402738094706,0.31638779710433573,0.21968981968428009,0.22570755829923494,0.37688449694015475,0.32966692538506076,0.3552941369450089,0.09399481603027429,0.12639302740812225,0.606423854718065,-0.022869194668079268,0.24063582790361407,-0.10840791329361535,0.3201184554117008,-0.20536439059995923,-0.2711928603543391,-0.38322055358075496,-0.3497297216085633,-0.1058174206903718,-0.019190826065744068,-0.01415113182550717,0.0442816894660297,0.016366987655875343,0.04225837321379871,0.026152352988877695,0.09151177836993271,0.18099153264372336,0.2385950304176883,0.12001690973482827,-0.03926864329802062,0.45593523580515666,0.6272936669282612,0.27710755817041305,0.02491569849559784,0.2907040559420754,0.2852138293512571,0.2570700158996051,0.28306900205101787,0.05099610591764005,0.18474930735102757,0.19241845446680766,-0.3493785638647884,-0.09456773325137166,-0.18345769407133547,-0.48715859633105857,-0.47910925040286123,-0.2185164727521644,-0.031125674216886442,-0.010567091264695946,0.010779505051448476,0.01013641199996459,0.08520630690187876,0.10378621130460598,0.20654667659135373,0.16316183729421965,0.23125290110583824,0.2184221346515206,0.07215432005830932,0.13609568555815696,0.08100732230011866,0.36368918258460353,0.20566662738537056,0.4018748769258882,0.3706180357784888,0.06375803901426419,0.15507706380600275,0.0837876216884686,-0.3104853959171,0.02843805265685349,0.15758010753501175,-0.001664413050883258,0.025144865029650663,-0.3461686654370693,-0.3384643566558866,-0.198121668034278,-0.03373133236383393,-0.010804934002670635,0.018586708339243845,0.02720117759506547,0.043346779337455524,0.0875230262220721,0.2604427910192905,0.17548215666866895,-0.07131192240099288,0.14801080505338818,0.11453031414330982,0.16339404153651305,0.4796404361559087,0.3988819775058598,-0.049374578649276794,0.16798549558535267,0.49024293967592847,0.2639502711304978,-0.040671058620827136,0.2315261712434056,0.17267808606608287,-0.012831354411267318,0.16100376171611253,-0.2732628711631305,0.4827894173335013,0.18933856489686865,-0.37136669191352095,-0.134958400534951,0.013178556379666865,0.04958545721134161,0.03777269152798647,0.0028135667070493856,0.006166845912679813,0.12355847115372383,0.15680625880191357,0.13352781706637692,0.13948940808311053,0.20903728790425985,0.29667147659174603,0.25081045155140425,0.36960471136887973,0.4390132133486056,0.7453816698925537,-0.014785350601811326,0.03527602491716028,0.0038825009735924407,-0.07506795102283154,0.17812339745160163,0.28640865851937924,0.10210763811364514,0.08373601081053206,-0.18399281855884633,0.5472615820988824,0.12613654289089507,-0.29774096103885705,-0.06377163194352423,-0.004359255944668179,0.014084608478738407,0.05013793327232753,0.033324473752689945,-0.054636157020060167,-0.06122200251492882,-0.1667496412192752,-0.2290235562380509,-0.23701507346280365,-0.10864557700863738,0.07706420371853223,-0.23148249953551328,-0.6082281738284276,-0.8295698346117913,-0.6816429122467272,-1.4668891419063539,-1.2331353381246088,-0.5977092152701945,-0.14467074475726352,-0.05075779415360103,0.1395566152513915,0.10984932290528648,0.20837057225108738,-0.04838877693895322,-0.07275507825221057,-0.21702504753323243,-0.2126203877780199,0.06770053112525029,0.02665105266939484,0.009385149210525513,0.03626824006322704,0.002141991558715214,-0.20715851180329253,-0.21676779269654456,-0.6127375745346308,-0.793830917058976,-1.0757528835124892,-1.4758807450032512,-1.893055907929875,-2.27492974561877,-2.3755484545331704,-2.279872128061791,-2.3416779631220312,-1.2764892757616189,-0.17661055075715357,0.08974272939961571,0.32060317634750063,-0.027209242006232794,-0.1039039542797328,0.13547414748416842,0.02491221972312944,-0.20188300027343814,-0.4928417037720807,-0.33689772026825143,0.06987808393619649,0.26262551989076094,0.042675367472733684,0.024434260747431193,0.026586676892625907,-0.056385907700172884,-0.20625717069173,-0.354943962862827,-0.8903290075812572,-1.41612634888751,-1.9631583579876326,-2.0455793395433517,-2.0706655172974733,-1.758674618073632,-0.7561360966416361,-0.4217264465485634,-0.14975458050684948,0.1515655634235845,0.33973486721643287,0.14245359017685627,0.28255599057425934,0.004187328258365743,0.14583459973187937,-0.056024896884786186,-0.2531926859158752,-0.20231749316905986,-0.38963048661729804,-0.3931521794426308,0.07621593635080202,0.39675275391755604,0.18265446849948155,0.02860997270123272,0.04127536027770991,-0.09436389224302878,-0.10678293029374837,-0.3908266749481894,-0.7872209375263854,-1.3251537170034455,-1.2254452648480667,-0.6437940225200365,-0.365138871830945,-0.07342424940948693,0.18068820058504673,0.33663869204602614,0.3552529803690034,0.06846576103799024,-0.054627398694979935,-0.0853926860900353,0.12281461247283167,-0.401773447737793,-0.17077106916439233,-0.1395903220664584,-0.42342143903637164,0.2602214238544473,-0.18349221454258952,-0.2658015818162974,0.208819344154511,0.46816213731023487,0.22779603383196942,0.029930520208384964,0.0007415528842781515,-0.022469061062802657,-0.11569935513877905,-0.4146679343359908,-0.35014797225415617,-0.4767033830568421,-0.021053295716511038,0.46786569505366804,0.4333376088862614,0.3276668390798896,0.3002614432408308,0.4043666870123075,0.11401008304813724,0.35207036001734276,0.5538527166488949,-0.27990417618362323,-0.07335353569568229,-0.04197477505016016,0.3168381007980782,0.2381260075655843,0.0687012556135072,-0.02728669131572917,-0.1798324753986968,-0.09079677589589699,0.20929382465658006,0.29976553063371014,0.1541541213221735,0.017315464891288736,0.0073240800515907275,0.03303527262775893,-0.04620805696242926,-0.11393282681114028,0.13165458891804452,0.499123613439947,0.3357602143577242,0.3066590258049375,0.08290811775204594,0.15099088905798774,0.12453519533429432,0.13305020391816982,-0.21066309051465865,0.12319953380960127,-0.08213150916177278,0.33717635483235603,0.07377136203516046,-0.07777865391792602,0.008391074919394944,-0.042555147870982094,-0.37337851949114287,-0.13633986674111914,-0.31770143330646816,0.18525543592127186,0.5507772863448944,0.18059780621311028,-0.011856303999220854,0.07545673383177458,0.02718463848772626,0.0090279955249213,0.13602200999452818,0.3984971064741333,0.24671276698115496,0.30498632433041484,0.3482610862489757,0.21442659804915307,-0.11695978201006722,-0.08135466343624165,0.25050098289803935,0.09820205143796039,0.271812592906024,0.29765279870674133,0.13903496337856,-0.28929627497528965,-0.08306334671295944,0.3411236224861673,0.06346489335509746,0.5020199400894936,0.1298010586608187,0.4895104752890868,0.06111372001966833,0.3445013183160279,0.3950923787494348,0.5031392776585458,0.18851977306546186,0.02025629458248271,0.023060677950793716,0.031735878141856896,0.18239522578777295,0.20107035488389421,0.35786757447188533,0.10898434905064609,-0.01948468141022964,-0.3345667144671463,0.002351238793879441,0.23283265101040074,-0.24713358160619836,-0.10726235815559004,-0.24705214274284412,0.03275480730130204,0.28877980903280726,0.2228024717870964,0.04524058666598154,0.28214887873508476,0.017064429170423633,-0.21072113570227025,-0.026047207603785788,0.12522628299678357,-0.004455524475954149,-0.0033003134996705714,0.22785805178400903,0.5151856214613666,0.13799361947695565,0.02800790990799884,0.031054148047285176,0.0181755057655051,0.08607880579666263,0.2349206861866623,0.3161124286617637,0.29599469732437056,0.5224819458233831,0.35503041692600573,-0.058616392359491024,-0.004512990132175558,-0.1685197156138322,-0.1202480641995197,0.07710934503608795,0.10780851447104144,0.12464650720603242,-0.038828171118759955,0.035451421435765865,0.43868386908451074,0.3796605133652202,0.14422328870747633,-0.25816200879028284,-0.02710147979273387,0.041374391081443834,-0.1500107252328357,0.2818699337989419,0.5144235152382705,0.05537636261612305,0.013447736690113555,0.03901356525658338,0.019489511895889176,-0.05204651115626807,0.2483924139886574,0.2433610811670348,0.2050193149094747,0.12979789052152327,0.3356708382827675,-0.019061717613431936,-0.08176031097464034,0.021307171527538873,-0.01582770993044827,-0.5472308252340814,0.06259400195450263,-0.04760138973682952,0.13714055599184713,0.560858421281298,0.4603677503464842,0.22788242493302174,0.1324590529709502,0.13500830149747725,0.22399429501276122,-0.030862028049632406,0.21543295771754886,0.23060751330547544,0.18044322133774407,0.06767299747970315,0.014188680704097175,0.03259757901949007,0.013806490457184727,0.02413927674663315,0.4338593488209663,0.5379709271452322,0.19592864922234335,0.003861071571850981,0.23604344563469287,0.13650688114657236,0.1797638239161009,-0.2555760818315574,-0.005217645659487364,0.30605375589002115,-0.0007603572929672544,-0.08982296869825743,0.023675865149642986,-0.14313576650188947,-0.3864230618042032,0.16274681584094924,0.10485368330955863,-0.023680765888530558,0.14563708295710537,-0.2869539053285543,0.04080176454439346,0.11313535420145356,0.09875064579493328,0.0684509736676858,0.028173167496133873,0.020784213480667925,0.023276214906409406,0.1319494531006198,0.37431696636498957,0.39601532838201164,-0.17796145531512264,-0.2768924081692198,0.061342612305568416,0.18306464081822046,0.048522242273414715,0.0670182214876794,-0.3994589592490538,0.14656315142490184,-0.055309701888126,-0.11790240657457543,-0.37172062964539004,-0.3491213782325518,-0.3758547987051932,0.21476533801735187,0.3788578116054235,0.2234671629477046,0.42267654648477215,-0.04361281722450624,0.0900669410024827,0.13091863244444632,0.13150696691930083,0.026349281644241565,0.021571030579296047,0.035043497119808906,0.03133353478181508,0.11434721508214014,0.10022507390056706,0.2536143775614944,0.21282641328083016,-0.01445028805422564,0.12968637513390135,0.022369395511959652,-0.1729994826225291,0.17103739562091622,-0.06914591486685252,-0.36840976685236543,-0.13425878394611637,-0.22744808746854042,-0.0907276281686094,0.17161151839934433,-0.1184272077996097,-0.3403061514081665,0.002861597020029838,-0.0950521364184175,0.10613513579455147,0.04829842782207798,0.08888176692166971,0.13180918950591133,0.012639384266621688,0.011327443278092418,0.03221394464401409,0.04297799652550159,0.024061955006773553,0.03915172710641351,0.1519867688431546,0.14578149171429808,0.13687208624644204,0.11942803260125064,0.25604224335534287,-0.13707323513800482,0.015189424195220281,-0.4319319713668346,0.05021187987470331,0.04249030035429033,0.061467021121210275,-0.19073059311806465,0.15137411382009125,-0.23026457730888855,-0.14332017161971408,-0.1529107694860808,0.006215652112169004,-0.23415715014741179,-0.0574166505547034,0.10147014404794061,0.06379830191382897,0.06950525566855298,0.010467787808419143,0.014330820536124337,0.0400250257917498,0.004534679864340822,0.0361811813825051,0.01395595291113649,0.15111391815456582,0.23515711089703714,0.18195182450345831,0.10565947084967159,0.10357579907357094,0.15719713437649244,0.16336010620540756,0.25377408074198216,0.07039840376601862,0.06021853632716781,-0.19368060788279548,0.1114509973340506,-0.05066669809165453,-0.22728445814144196,0.15713636241793874,-0.5321288163405842,-0.3539384860491954,-0.34184192302330263,-0.40374990991240395,0.04565008250016329,-0.058091119387738366,0.0756274197178349,0.07316046912698951,0.017864915519094842,0.025185870214154502,0.03497469382766854,0.046581113244543296,0.004344771134548816,0.08741537822323464,0.13326397180355087,0.03249028771482626,0.08669050090968779,0.2639129190747749,0.386066871162945,0.4545678246785134,0.38373189755137105,0.162999865048427,0.30105031337902827,-0.16469022932060395,-0.009848022332543819,0.546324327157519,0.2820358351114075,-0.17876105361659553,-0.17242977884009453,-0.0907213233649275,-0.05740825799470359,-0.49781261699391416,-0.15190506473709572,0.013818934592594635,0.017349727121732505,0.02825216121509152,0.06002559605985256,0.023560250412541155,0.026649019804834348,0.012598293980216389,0.002102860991979193,0.0254038245419092,-0.004719769684971093,-0.2857376596886694,-0.2598387828397322,0.0117224792610744,0.03313238511030182,0.035985852147350866,0.03219838895250448,0.09428697800362189,0.04929984481631241,0.2163029275968987,0.15931575021537064,0.08470643243168946,0.0419179173405336,-0.10326865372347033,-0.09742627215295609,-0.029932008756729463,-0.01231003957780137,-0.15379780640930404,-0.07383969799125295,0.02233084624651752,0.011463107186640249,0.0006816065546482777,0.03689251237896201,0.03082854202911655,0.011463058384888179,0.01028219677075189,0.02330295924041667,0.029925164593991586,0.025451207642511044,0.0282675396786058,0.007757170708647081,0.03721641226528825,0.015675260496190543,0.01423810724769587,0.05844315051530109,0.012946174734975347,0.03737698931284119,0.03425900686931412,0.007872977505565882,0.05047552894363374,0.03443379487984651,0.04249857649783353,-0.0001820395654250712,0.009567054377632412,0.02110973887235612,0.024349068378176277,-0.133002721466891,0.04227671784379964,0.03867693513619279,0.03366758730961947,0.002678512829814579,0.02772870167099238],[0.029956812388110616,0.007727571907857131,0.003587453260017512,0.04143577037881886,0.006561944481765719,0.02802101606645478,0.04859978599377979,0.037408529844781,0.0027712231612812494,0.042342671166739024,0.02282951284932743,0.025593253150046576,0.047707672284138504,0.010327895949944259,0.008892719367918363,0.02358731150806088,0.041667870878581544,0.046774014259173075,0.014561576414890875,0.010994791628094691,0.02508432912487668,0.04661962045513839,0.022189002487866396,0.040037894505219745,0.0029335513368802923,0.04749993904829424,0.04897148312195063,0.016080837125468303,0.03870064778856668,0.04927859154838432,0.048062025072929865,0.0120313249548038,0.04203440736151859,0.04240151329614217,0.007386296800771813,-0.0002142370885389703,0.046591340211230535,0.03706872532040964,0.015788636245526164,0.0262852927709423,-0.008616817881106353,0.03464174358240343,0.01194759546988642,0.030952481290490084,0.013978163858905315,0.03998136349014763,0.015563379455332127,0.034052117307329974,0.011415012060944656,0.020301521496720373,0.041572726625776865,0.015090510318524111,0.024865381502545098,0.011579202590561681,0.004764281932937593,0.01495920148099353,0.04607093522683435,0.024485963471888174,0.044034300541699684,0.03611626144094437,0.04085833051566415,0.0472483014212173,0.016484891396174265,0.00810414951988758,0.02094274476931289,0.10745937640812661,0.17911041113798304,0.03758897411456851,-0.03783578648977135,-0.18764217510517608,-0.19549564775589087,-0.22799499279299332,-0.18706237831238923,-0.1244931556220978,-0.16399246037032647,-0.11898056154963954,-0.010506093832131313,0.012986459796333795,-0.004525139049154437,0.02047031621459687,0.0764740639862417,0.07977085264964653,0.00711408499599827,0.042749350837234745,0.02015964206791744,0.03322309681438389,0.01643368998926868,0.01725998151122897,0.014597610415610578,0.056467152784351944,0.058402058882386663,0.12966640539839105,0.1499473507422893,0.31035917585283146,0.6313286579220717,0.6359539955774459,0.6440105697281968,0.08115055949865113,-0.08086063500833264,-0.29958468011302725,-0.3491375877133344,-0.4339640758640986,-0.633198944206662,-0.4152303190410494,-0.19659378660822774,-0.14743784381906658,-0.11964829990058959,-0.05439936202976458,0.06282055762227035,0.07033088120698351,0.004278102583249547,0.017446477159074502,0.04147236713568262,0.03552734227194342,0.028712710015702553,0.04098989892656844,0.07258715296266144,0.14796066877134867,0.38905893653643375,0.27867761370111926,0.5192565046540436,0.4477741651085623,0.6309843426458924,0.4928243932110917,0.5233053806068444,0.1968531042170603,-0.061931657799538894,-0.2856772183999891,-0.3105363015914923,-0.4326541769587865,-0.5083742935126815,-0.5966569443392991,-0.33344710155178037,-0.236418863497979,-0.045838699265797374,-0.1203172863748262,-0.004748067835765051,0.04450615083445243,0.009621326268709774,0.01000930233841433,0.03564895275128253,0.02360480578721006,0.027690360540912694,0.12007454596273316,0.3198917612077728,0.22783443777634435,0.45216744901356676,0.8177560473473803,0.2631132721396911,0.07047845387917125,0.40290613258152813,0.38234530070966644,0.44592590957445005,0.11068634141620538,0.275786056281615,0.4373833043305145,0.2280842258776485,0.062040058059930826,-0.3070543966666674,-0.5514217334923253,-0.684363482974796,-0.536915333710394,-0.3473150797292425,-0.2807645061914104,-0.06060265051367454,-0.004209777072816826,0.035441384078460425,0.0069598786883532954,0.04472474259534152,0.035104099523537734,0.03123748131924319,0.2451664069234528,0.47808897649422144,0.4057134924625587,0.525896057738886,0.5333119952105272,0.25341258016687457,0.290586602316358,0.3161707032428647,0.41612785495504756,0.15252275891175887,-0.10688836571732001,0.24603945835981347,0.13691837864115391,0.06310213253340309,0.12722163088652538,-0.10366472296582639,-0.3214518314765215,-0.4083648518648742,-0.29518772027268997,-0.47022546045178687,-0.29551582279376476,-0.1147023706877347,-0.06151779071654589,-0.022463439823489733,0.036866536061287716,0.011625345839023677,0.0074497426078804375,0.04573473554938862,0.35048698678446627,0.755325552993513,0.43004375666948014,0.18552372692092836,0.23588449212931828,0.053100098927390156,0.004384870571977179,-0.1714877141011102,0.15518735758671467,0.08092610216823118,0.030162925617633025,-0.0355888154464515,-0.15912781679986396,-0.03654859375318745,-0.16029647526723226,-0.14287964540692322,-0.5288395956287614,-0.5651705051985394,-0.6163691574192125,-0.6740531073017354,-0.36026622227689836,-0.21538284610404265,0.0022260774651963054,0.02885770623560036,0.026097259293058058,0.013722490797058102,0.0007875344633640242,0.02887678297885507,0.25230420527449576,0.8238471851398163,0.2870907400637182,0.020264245697761668,0.0690367824972152,-0.014320263624738287,0.17719794422000074,0.4224313361944745,-0.2410840273546337,0.00942436071642998,0.15092036806422404,0.08223899937337771,0.3014144001291256,0.09389283615532298,-0.13597994160172858,-0.22328068801403064,-0.5904257834003794,-0.49091164601554405,-0.590407040771715,-0.4836028095208686,-0.4330871886615602,-0.18234887991102694,-0.03475136006595345,0.008506592892488887,0.01638612474108462,0.03223567907660806,0.008591030891107845,0.02656812500278007,0.3083984792932447,0.7071950352654671,0.417384754814519,0.2873171889110963,0.18730267846888426,-0.5631520905600268,-0.5441181243994244,-0.7680729410164839,-0.6059356751138039,-0.24212501507373874,0.3534933729864352,0.802169764704694,0.9246049472259089,0.6099307327197359,0.3141701640951063,0.09712193183621473,-0.12449272692942458,-0.31268149372505966,-0.604978226993724,-0.34722741278788366,-0.34913231025647784,-0.10964970203818922,-0.0013815600737519403,0.018384207225013605,0.03184945361864995,0.024545468678371336,0.0027414417122626476,0.04011914851335672,0.1909904434248078,0.13972713868733072,-0.0018168956756790184,-0.23190867960341358,-0.7566649463703694,-1.6992051999196776,-1.4981808062348096,-0.8724107071801607,-0.5117730210223055,-0.37849612370370106,0.4546333166286561,0.7857291992756569,0.02705336511549988,0.11769405962834315,-0.08274130374022781,0.1286533761361756,-0.17935693372427075,-0.35005071109703584,-0.35976282936444876,-0.2600718339609683,-0.13640331351437593,-0.008861253523370154,0.09496736419985626,0.031031186463163246,0.026899329827939536,0.03972373635228173,0.03681152903237682,0.010061783239673503,0.01042791283527917,-0.256533285092049,-0.5665112075476951,-0.9107032188643025,-1.2310827549286245,-0.7345607139138339,-0.5081140745685553,-0.36490813331680994,0.4120998353021341,0.7819486915511672,0.7172959655220396,0.6360102827189712,0.0208821136855814,-0.4708787196327506,-0.6427133937614774,-0.6089728479887536,-0.30802074919015565,-0.47012092542082784,-0.624679434177025,-0.33506043515411893,-0.06483254943967812,0.1181677766895606,0.1276118103809522,0.04619223881530714,0.022340251971509843,0.00937812106905815,0.03832948652806628,0.04029684411938721,-0.05515995201829932,-0.44973471184558955,-0.5270645274822731,-0.9777200248768715,-0.5305999212043557,0.25706659156497047,0.5618171485292807,0.5859763448035024,0.5191937030632997,0.31664603249786477,0.22043379664161122,0.4184308330546809,-0.44872036903307877,-0.316118098001091,-0.4299990445467107,-0.3525778291655086,-0.32207772446258415,-0.4628526727322212,-0.33205061773076533,-0.2713279731412967,-0.11981066523175984,0.17643831477779384,0.14634506619778204,0.040496127179096314,0.027956645812525455,0.01304155427136107,0.003111975179533594,0.04674957635891868,-0.038061665126465596,-0.3807619484022339,-0.5308209511536476,-0.3860910434844626,-0.0829916788543332,0.1093422269747956,0.17163344781957668,0.15041880684119652,-0.09657252555878378,-0.07983917923044138,0.17651192623544032,-0.04213642269094832,-0.6085407201424761,0.17525201103366117,-0.04702201418199411,0.0687150823711821,-0.1946157996814393,-0.25175533942970035,-0.19241715991500946,-0.2895082112381763,-0.09222278840951015,0.07640768617892552,0.10471097507892725,-0.004865473156031927,0.010404173012217022,0.04774579440213018,0.0084157379735438,0.018322779243288456,0.023182911311405263,-0.1587221245675062,-0.4157101821988371,-0.3165184485139068,0.1106608269951628,0.17654717467335154,-0.08682576706910969,-0.4437924117008567,-0.3231319830785822,0.04436406592356412,-0.16110342953868623,-0.09699638901607392,-0.06856106971546627,-0.03901444264398195,-0.20995025886679528,-0.2809413234793666,0.33692123909356886,-0.03632736089204939,0.03297393546749551,-0.19345989639795214,-0.0016273716516352925,0.07897993187544942,0.24343489759827955,0.07457248914404402,0.009764602361674781,0.03868322262331368,0.033580660092980025,0.01723366800450347,0.027290116392098798,-0.07953365644423922,-0.17883990768632244,-0.12293847472712739,0.1796509086925683,-0.29876370662990115,0.06844689044903035,-0.16636754893626826,-0.14928042679966325,-0.12893167763775487,0.2300110726691407,0.02976607581162342,0.13359202461105385,0.12729337574026042,0.12793823644425084,-0.27142189417196944,-0.03624312413505968,0.12637956930726718,0.0038442401604707873,-0.03108608831078647,0.3632291786964087,0.369191694926275,0.39688125835603016,0.20485166408290123,0.03882186249856477,0.031228587699901802,0.00354790327396985,0.04684351324239203,-0.0069722270597805175,-0.05728465106763964,-0.20463631645791885,-0.05236631812386697,-0.06525569148827486,-0.3041310327209202,0.20283620695056187,-0.16500159163840977,-0.18685980865687707,-0.14617947827654265,0.053963666650786224,-0.10729664402209899,-0.45616958302490923,-0.27895102254187637,-0.6566956583182372,-0.0007917149966201553,0.19288580093323363,0.09500040026051983,-0.02463419333125752,0.35462675056720755,0.6156090413545046,0.5679832026441836,0.3510473684849038,0.1509244848946888,0.08014656341305637,0.03458084931377358,0.025705112167399676,0.021228811270650284,0.015129343281607423,-0.11543013906379133,-0.33255989162483796,-0.17198715129094969,-0.2414215989355551,-0.08624042617363122,0.011318968507222884,-0.5778376190286378,-0.706190569549637,-0.6006926458837907,-0.21678101285765547,-0.39793505045538785,-0.5864519331545496,-0.2946937475567543,-0.19007362587018234,-0.23674231286291744,0.3031476785507307,-0.20252624813245038,0.14987936260131626,0.33938692803892234,0.342210262166726,0.11281331342394253,0.23714594744098855,0.05488302195684435,0.030237165087260903,0.052010955016393016,0.004824803080602756,0.04239687289224395,0.05120740177421141,-0.04442935355661027,-0.08232832373231629,0.26131813183858693,-0.09491877589248418,0.15602953401263128,-0.08655280112062555,-0.24189336815932744,-0.4195620776027456,-0.38981709163417644,-0.26816599770690663,-0.3232088496044828,-0.39337381311330866,0.4494302606567049,0.21876733488639427,0.02569958040139544,0.42029961729309745,0.12437675278484885,0.8132107147132731,0.6871227884241099,0.4100716234945587,0.24522751567611742,0.2358882012254064,0.05091137158073359,0.04388046503184908,0.030337754631047455,0.031415040813115774,-0.02953557174962616,0.033998349002792465,-0.14556306431067667,-0.13429479098238295,-0.20778586985513398,-0.17073267894689936,-0.2252085453643912,-0.35692049962335204,-0.10235484309514915,-0.11801399992370115,-0.0216022620240489,0.2973388356198796,0.210904317253616,0.14292457315535406,0.3140919895976784,0.18002863601845387,0.3442152012584594,0.06875932665315913,0.3352635588052806,0.6240093448027101,0.4036811710424201,0.44629811247604545,-0.0037046896840219863,0.14881811459392943,0.07934198326631188,0.03258348400780001,0.02999822756416136,0.026412238276116294,-0.030950643360450912,0.0036566610462410915,-0.24115238577821746,-0.2263323874329111,-0.3079390235113845,0.05800503142203202,0.2213703223065915,0.001309820641153342,0.03402872858583751,-0.22555042936072045,-0.21328997456349813,0.2481237897926891,0.07327312810892572,0.19133195415562795,-0.1857668252132776,-0.2687770523996152,0.17181101274057894,-0.243693923413047,0.23218490065779554,-0.005593676123980823,-0.10682618502221339,0.008502181423986087,-0.11324215125189412,0.012568091227211831,0.05136875714800261,0.02482129727337945,0.019377131907983246,0.04947028172828103,0.1068539744633546,0.06839938111733636,-0.02622574584866642,-0.5321495206929961,-0.2843162595071578,-0.09540343820113364,-0.3031542936759101,-0.018972869296277596,-0.15416594052448251,-0.0005880659349521596,-0.034515356439598924,-0.3354287158105501,-0.4025797672344417,0.14300856123321423,0.21155269172680263,0.2557126361690568,-0.12332730967770662,-0.11729890325214813,-0.6839298585231464,-0.7986507776872009,-0.1332933616937867,-0.11764317300414157,-0.15574374982387693,0.05037210680123229,0.038528984276242934,0.017689555438736657,0.049958437199422764,0.009536704608047251,0.04977427178080504,0.18115646406616662,0.19629107048034714,-0.046395243209751594,0.25458826831959747,0.23214675229925583,-0.059987125671165015,0.0823015227184575,-0.08467637154043439,-0.2299091424822743,0.06053787688943715,0.2600148545232652,-0.22080579377449608,0.07256549549456276,-0.18368146961475584,-0.4274813763093287,0.2706062670787105,-0.11481865801939055,0.024706848685607824,-0.11484183957105115,-0.018895068842060516,-0.047278108053496186,0.048310005367346136,0.01127380805586809,-0.000921854683470618,0.00695671186323098,0.04608426080344237,0.022676905438127157,0.02545771633277922,0.1598772494035882,0.23646553614600405,0.17700172784829687,0.26641720386118245,0.4646301612956125,0.12652351076552226,0.4663514185330609,0.3616903364692383,0.37663776164806007,-0.10403337983288408,0.0386404206619498,-0.3383469922410747,0.16125996805924714,-0.28904626881348366,-0.06271609284826699,0.22480282699247425,0.25040315559021703,-0.0012559035364980273,-0.1620248673794511,-0.003248483603590476,0.1561438137185808,0.0553434998221377,-0.010939350393011507,0.009830033270311296,0.022790674451710957,0.001201433207075264,0.014972025158018406,-0.01755324809979085,0.04767009288291703,0.09843287731097579,0.16724136742360007,0.2748223486956418,0.3920800704907554,0.19338875589541696,0.11541355866761208,0.05422742446644966,0.07773213988221533,-0.07198150306157047,0.08328232034258339,0.18186939049457782,-0.07133271766647115,-0.16808895774889576,0.14556144322574094,-0.046233179049981796,-0.17994045602165112,-0.37165623776586504,-0.22115935482832605,0.07563250660617842,0.08950953829582356,0.06433285110618452,0.03914097465852507,0.0007772259552058692,0.04736288402010183,0.02741443251210175,0.039271083189567596,0.04015020786731,0.022751815362240784,0.08338075144213988,0.17837646298390822,0.24871556718188714,0.21937208809390898,0.18355345557044808,0.0808260777478107,0.06669719989788121,-0.023429964328824115,0.1167518292594761,0.07513175238726326,-0.0021494116201391782,-0.07530875048096039,-0.018649999489572792,-0.02602774024623542,0.050008357246016946,0.039238172338144306,-0.0335837197184993,-0.10569590009668635,0.009622738694098354,0.002755592064471769,0.030754944725119214,0.0192294451791519,0.03479700075924454,0.009142988087331211,0.019969435614700194,0.007927198358739508,0.03435455785212836,0.03071124113724529,0.009046624424436262,0.012530363328713698,0.03952346538339789,-0.0008258277037060442,-0.008921219843858302,-0.09238912261227497,-0.09904975925294751,-0.036156281038406034,-0.01415663762747998,0.05803217836623296,-0.015530063314727591,-0.017239092209072045,0.02864582918358782,0.12741091711362423,0.10835193817076062,0.06591190287265888,0.10878693276219785,0.06644453614571424,0.04727749627282451,0.04206566320198308,0.037637812353478343,0.03630178365968895,0.007583417334958811,0.009735546465916331,0.027488732207072267,0.03738798179219693,0.011966989761791395,0.004440029553873082,0.006431133678142574,0.0051698177710879,0.01632068856695183,0.004599294668122425,0.026722716576277002,0.022706279536244125,-0.0034008341015419183,-0.0015817276795439365,-0.013125647362121807,0.004598259560845338,-0.008497608542982017,0.00184435249360395,0.03606306631957137,0.033686496340791634,0.02332515477747862,0.002550499034485126,0.018418879280514642,0.007773512874167892,0.050219815531506416,0.01650049444493008,0.006776241215679788,0.046855654653408456,0.036319092172000224,0.02142089628014054],[0.04977166593852105,0.014642675299461913,0.01689805573053161,0.020841372508518703,0.028746268133523708,0.008897042164711013,0.0006346637933873551,0.02070368968331573,0.013639106623841761,0.025336666362062398,0.050369627768349905,0.005279352766891621,0.027625136275779717,0.01089554216412746,0.0026244644637462037,0.004650628847707681,0.002010079939414377,0.0072164088311432225,0.02941268238955238,0.01723462849209528,0.03063272897679969,0.003627415896557896,0.006565290805044079,0.0015085934885140544,0.015834941055330762,0.019548955927157205,0.02040239421969364,0.0042245054686315875,0.006167176303954274,0.012875508756038876,0.013729306446420252,0.031116221072975327,0.0405086032461574,0.02608552292507061,0.000886030925848026,0.012240990652738051,0.030778095277960816,0.016423807663781115,0.009776816460445502,0.023117576423625774,0.05003406366398808,0.04433871628181353,0.03368876834500487,0.003186344511215645,0.021990616878821097,0.00376576932127675,0.03152466792902533,0.008038124373774923,0.047367056489683874,0.020309149823412045,0.015676964952109948,0.02233735011859948,0.002670106427927125,0.019057372566064046,0.010403572341613706,0.030665136662365224,0.02471805987117636,0.03835390996251361,0.009528261835092441,0.03606175952372402,0.009442204605249305,0.04627738086945573,0.005305380791037448,0.036687973656487134,0.033741294567726204,0.014507988582964107,0.03510622681782646,0.03242598246289145,-0.0030708253712082986,-0.004629660386501727,0.018285600643027443,0.012473649743977801,-0.016257021719293573,0.0581478256969326,0.12213553336671991,0.10253856952885317,0.021404256888663882,0.013583987034170663,0.03243579731362968,0.0027134598899773757,0.015744834229028427,0.04391780255689442,0.015723832368502867,0.02339066343474576,0.040614623656217305,0.011270552038396536,0.03252842176143886,0.020569041274500946,0.024575807564758734,0.03407980823346319,0.03560938354468509,0.010416931817448852,0.028833814927151213,-0.030260210813647728,-0.06011470321962066,-0.04264543813910089,-0.17780951974634848,-0.17203262570800465,-0.25935546945315885,-0.231651880879172,-0.13579845027880968,-0.054092342612615356,0.10866522390735094,0.10622133962032045,0.05445459356492105,0.024221240518785745,-0.010031336650691494,-0.09569035192982582,-0.0014859145534234408,0.044718108481243045,0.04699863609597348,0.03485563448664257,0.04273031457113936,0.006498880949452688,0.006337863764977614,0.014149265453780332,0.013796472954353572,-0.10727707315521094,-0.13866910721050055,-0.17613081037118747,-0.24612144681659862,-0.15555617597291133,0.059431831799370866,0.210215283408289,-0.1352801903977732,-0.24760739301578272,0.06804799177913047,0.6006363460437514,0.38419379268677817,-0.051886237273866535,-0.14811375296348842,-0.19791624560429374,-0.14852643166746438,0.32676446811082344,0.2465894172160269,0.3752129028860777,0.31075872099500595,0.22776923070464472,0.06454379843799579,0.022630056112777276,0.018458905222477548,0.02071187823507567,0.032976259649376435,-0.01330680507954927,0.0005169077472107762,0.03662617491495707,-0.20607873291958523,-0.30514746731956094,-0.43465586325067096,-0.15046331398306675,0.06620815123454206,0.04819980684475778,-0.026679525791241044,0.14872192503440232,-0.0691591068478862,-0.11561320009985508,0.47599529205765956,0.5427986731678537,-0.16433822007421145,-0.4921360421956333,0.1036549024231455,-0.18109450220617102,0.4577367126792365,0.623985324921711,0.47626844651902167,0.4078497445269251,0.09185995871003982,0.03878740125893288,0.02275953301829182,0.03180615401010418,0.029555495301452378,-0.021134520240102688,0.026970782570925386,0.06944284856338027,-0.16387440527078087,0.10963167184227185,-0.03866154062194201,0.284017151794304,0.0346162756817223,-0.01492416275451722,0.16982797089611243,0.02630777122219319,0.25006146605556834,-0.205061090735269,-0.13698209481512225,-0.06961743822331752,-0.15042575737035027,0.11635189575367012,0.27855944758365603,0.13270485177242072,0.3242392288270885,0.4714604628107341,0.6364500937815276,0.5370773359888651,0.28324103700933234,0.05214780297575282,0.017885936668670135,0.021324588975225992,-0.03062939002514571,-0.22544592827844165,-0.07512751887038091,0.15312424978560912,0.12960677192139758,0.03615962172182309,0.17763900438608302,0.08734062977757183,0.23638893316568096,-0.0031087719569891058,-0.0588642243525445,-0.0753955595746842,0.43110429717156373,-0.18379301237734239,0.16928646424622656,0.17047267751361003,0.694752055874495,0.4362080968269824,0.6136259664048228,0.37956702235609274,0.39246309098891696,0.06404702112700468,0.40579253326751474,0.4883945017379297,0.29467843084206363,0.0641984932257265,0.03244537858044172,-0.0035398162442279568,-0.0035244868764434294,-0.13214476670123756,0.00901262532582476,0.43947091514073544,0.1152951690412123,0.0621299760707768,-0.1768909616760495,0.233740211213875,-0.00226308100179763,-0.036130604779498164,0.1908561706706745,0.08884174286753946,0.022626060583770195,0.2281172191426653,0.547743006882854,0.39338787526584384,0.4650677579767505,0.3307387073370768,0.06379958467101782,-0.02517884591174753,0.0805065458536984,0.16191232313278658,0.42941689607555883,0.43165375793997857,0.16676375854578063,0.03883400385327347,0.011061294594104525,0.02232372598845688,-0.026619794263001977,0.028443859478105852,0.2728042804736184,0.09643403793477347,0.3128966099898751,0.20053379847043395,-0.06391824321339797,0.12646132727168408,-0.03549640880737779,0.20840909115020817,-0.17445165710776425,0.5206789954881489,0.07401197182142923,0.0513798676394751,-0.09502079509484372,-0.7206057383006436,-0.3626156448358586,-0.5200008616726315,-0.14800687415233865,-0.3054990175849152,-0.055597685070495555,-0.011093284369558138,0.2714768188909171,0.2644970953265184,0.103713995178889,0.07432800439727091,0.036716258364659166,0.011534778026854944,0.03391527218779132,0.21931553805760864,0.23015613800957294,-0.021474560032180068,0.062241324199269095,-0.088029685578037,0.17348797868051594,-0.3001138372999063,-0.008375408049048991,0.20238158160514852,0.26976832398221495,-0.04113961491307189,-0.7631309371542109,-0.6167766116954307,-0.5732062082552336,-0.6038773281502305,-0.6393572920638937,-0.9183777394845809,-0.41752614774169455,-0.33132269670876113,-0.5214904254784856,-0.478733073175912,-0.2390901668203183,-0.07377843277964943,0.06452442896098766,0.06368264014989646,0.014869687674993196,0.004226149115829263,0.04186733738215283,0.2018842806482129,0.14710329385707424,-0.34969093557145614,-0.32775981519801717,-0.26233743724449343,-0.39630415728822044,0.05758571664115561,-0.19755348902077477,-0.2586997514939603,-0.053835587039573835,-0.017419092263869146,-0.5588519225076704,-0.7387056722810743,-0.4282043892807015,-0.4681422228283857,-0.5058992225858654,-0.313012439516841,-0.7320274282559265,-0.8443953282136698,-1.034850629296584,-0.39846524145070517,-0.2816182341857372,-0.1262286975253081,0.01907020388694376,0.016673899632977614,0.01600813435449294,0.014060321836198635,0.0070204272710684785,0.09789258054160001,0.15700488575741958,-0.4021103828155348,-0.3659521473136144,-0.3307292499554579,-0.10682429012706114,-0.19051339766493836,0.046839320372848256,-0.15984177865456348,0.25405906290312513,0.5277517576805633,-0.1996825497601497,-0.019369707599486263,-0.45139783719858817,-0.3113335750016122,-0.6323958895596139,-0.7124114790713505,-0.6770928728088776,-0.7757564823231334,-0.7379672494482954,-0.4829236510015796,-0.5122286672506928,-0.1417371353475418,0.01469916330803558,0.053294088311139985,0.026263744783288384,0.03775592534513642,-0.0064269986618179,0.05671527802658102,0.09947669589547369,-0.07225507507895727,-0.032235882139059785,0.0794870398689655,-0.29326898643970944,-0.17111267439905792,-0.17858958915617554,0.01752925360632897,0.43937629825476326,0.2956828171506108,-0.10319649881851221,-0.13591509265548266,-0.1588974231574832,0.1412604682793001,-0.2562407112695944,-0.1681134887740605,-0.09511213479106007,-0.271020970833228,-0.25562778581792206,-0.2133487949388547,-0.22057144306139595,-0.09018711920868963,0.053211248461524245,0.014789537015406813,0.05213762646417805,0.01360318818676437,0.014587608256586428,0.0025426646300375604,0.002032082675827444,-0.16487243339340893,0.053994219408597166,0.28019422723342025,0.24306289458186764,0.1354415574516871,0.006762636280143498,0.002172172596548081,0.2781830693861859,0.15812558730015133,0.43334664758312397,-0.00048218166887011184,-0.475379689378904,-0.753829073555563,-0.22363468893144506,-0.17759947799828393,-0.28544581618242654,-0.2505822295467104,-0.0793287704269206,0.3019722082225484,0.09178714417449858,-0.0008898311917319248,-0.037414731819270505,0.01772643020236545,0.043472005026887466,0.04579503174916193,0.01866598403669501,-0.05795687514092736,-0.2586763574795591,-0.19405422713146755,-0.12219788075120365,0.13392992076405807,0.23146016356773336,0.38612017523657294,0.49007757309550476,0.04881509924371735,0.3717932632867327,0.042714734424055614,-0.08047193954116033,-0.39370307604470867,0.06083452560265636,-0.39432944832511696,-0.22983638983981544,-0.3055305499763921,-0.08381081261627314,0.0791228667911551,-0.20183447134089033,0.2573551428219505,0.23470857164678197,-0.013892470631537203,0.0020580381086539724,-0.001187481965363178,0.009821963540093306,0.011135386205785735,0.0246568454697949,-0.06419508000386066,-0.2898478360064311,-0.28542888862079974,-0.6017162916309139,-0.23029068254354593,-0.34643906249685713,0.053726354507959456,0.4243871022882041,0.299339214399883,0.11587009887706402,0.27170451191255923,-0.02200903757663548,-0.28866625958183084,-0.11948346894971007,-0.2596072121235998,-0.23877809174410608,-0.23268996135287473,-0.13430578221829442,0.20552806359969011,0.20724427824078737,0.26243995305673884,0.2874997970686982,0.09459014253545708,0.06699665561068814,-0.012780856202610298,0.0015580020436005144,0.04179135732869757,0.007096932909749521,0.048835565348844076,-0.15023429487566264,-0.5613826253589144,-0.7355138483758191,-0.33005268074039207,-0.6428173443020525,-0.5874010815272549,-0.04276085339451645,-0.06035405056564183,-0.18081497542625605,-0.047109321691690166,-0.19243797189923736,0.06918558441039438,-0.6376882300860327,-0.11334726650605234,0.19701289674957612,0.28732531515212995,0.14611139081521496,0.072510990591391,0.30740604028042007,0.16217228977014383,-0.06229318614943976,-0.06789294540570563,0.027604456744115723,0.004621501502456873,0.005685517357290793,0.003191966206455507,0.020250715481878307,0.0507208516497463,0.05039421070042194,-0.6871547352432973,-0.8371330135256638,-1.0922224864545367,-1.4437572480037588,-1.5323276386566658,-1.8641638481058351,-1.737429364901572,-1.3206252838255672,-1.0752670618826814,-0.6663758582686614,-0.44221085707644875,0.009151091801479655,0.25917776310640817,0.0657660622660458,0.2456330419765787,0.29393431710284085,0.25365270190031697,0.1727066676819285,-0.034271898860632644,-0.018799764465259224,-0.025753162865963374,0.00616830783985348,0.048879952081240005,0.044127166378845895,0.03939462220346754,0.04619160953784842,0.03186064492444398,0.3186636238415819,0.09473701230901037,-0.28150656260895074,-1.0698822937422001,-0.8875182917429824,-1.2967588217180948,-1.4591418550167061,-1.4823229474573532,-1.0539542486999915,-0.6979511670233373,-0.28830050550094044,-0.007144548391007786,0.3573091233277347,0.23963260417573415,0.023672220081863062,0.1775189854454337,0.36751519179533176,0.25872394226369905,0.29267561640929346,0.10419922091492285,0.015990920775028283,0.05969598231164548,-0.00945545759618661,0.03572213208282315,0.006921751105688719,0.0033131804280984722,0.013041726163743862,0.11264305302471693,0.4351322980106662,0.5651757983673128,0.1392493577006558,-0.17489001386434455,0.12709899822654638,-0.07522464857800702,-0.15336641089100733,-0.024380573015485442,-0.27297374288725823,-0.18623302740162503,-0.1863099752300174,0.22298718610629922,-0.080733644429851,0.16650538187206315,0.20133372061304872,0.6896966830178067,0.19254565504838642,0.19678119311282397,0.6545207295187792,0.2842638763296174,-0.047462667650422424,-0.007245558605590478,-0.011011659068883146,0.047251477610679236,0.003033716574518983,0.00654848892450429,0.046390212533351474,0.18103768224353553,0.4233701532482772,0.3051534251893483,0.19541681802294406,0.4845913697885457,0.716632874587183,0.4329882891831222,0.3454543703125171,0.3696062655186221,0.2552178232397707,0.33044462834592403,0.3435509818298393,0.026257508636721837,-0.08482760629813418,0.053023749669508624,0.3374923260995329,0.27061276374864957,0.2379396669721063,0.15736625095906223,0.3382886051862228,0.3119160756457645,0.07999180454301626,-0.11095235013128874,0.016388155850027914,0.009507134080344357,0.0483937783600155,0.020695712731741537,0.042981155137347044,0.16549427153205182,0.34494502445645026,0.00006679459202546698,0.2017170027074699,0.30047150425068797,0.3392779137479716,0.32357531039215626,0.21106830361924173,0.6469577354505516,0.2352053532921655,-0.10124891753495732,0.08035998445770755,0.13458205384826005,0.23615711231918982,0.09860102820074569,-0.22569249195630947,-0.039827944797059346,0.366671208250625,0.04548629262935517,0.3257914097968003,0.4545195333886684,0.01749177731426338,-0.07007629563805903,0.004524890090465315,0.0425312298098685,0.035633326768892956,0.018271497240927984,0.03407038317996631,0.14535665030241118,0.5296358197356779,0.38676504964719577,0.5813608820161165,0.4150898108294276,0.22134858835003293,0.23372469780225574,0.39262907477056,0.5188924214314801,0.1544225854131197,0.12392737616169475,0.2836793375079916,0.08347371767912841,-0.05267317722542778,0.16736721065348287,0.0326266442215659,-0.042073096429967066,0.016988063522205655,-0.3187794023062658,0.05603507613100293,0.092952570853815,0.148783230671548,0.02277812945169299,0.0011224642875094777,0.007340805758895534,0.0058978620184442256,0.025719724583849593,-0.0198109848599125,0.049435530793532585,0.19401680378202113,0.18494223393376472,0.4085221404029484,0.5632846550937718,0.5194396795570665,0.6429728514403916,0.568394323703562,0.3003423535452157,0.4326644128891764,0.22117975528785627,0.5320042832158209,0.2864291334977778,-0.12334866457201034,0.1378704806157053,0.06958821333319624,-0.299344200528311,0.11960765611317309,0.051447455209663706,0.113925351505951,0.1630932905282096,0.148879839270277,0.029730129572560528,0.01775272668258312,0.030883412932835766,0.04488151771953844,0.004442099683585678,0.016930780611220008,0.01787944748199128,0.09076292135800841,0.11315262803092793,0.24630753737619185,0.40180708462967146,0.3959009140683392,0.29123370161147455,0.4448831110704401,0.2946365674315622,0.3521517774244339,0.5618783375287342,-0.022800370539787645,0.21421363243458405,0.30777580872020366,0.103960236951022,0.072077284649635,0.3712364948631186,0.18082574843755667,0.23955024915350234,0.3213201422840586,0.2214620601417171,0.20489720347904022,0.015609931677739834,0.019455725823547296,0.027797114794410282,0.027136076250159447,0.0374595392656176,0.041145757863772184,0.021492303760884415,0.012107944838518264,0.014462346686027173,0.03131780467159713,-0.08670583414204357,-0.18569395471829817,-0.16674506046330184,-0.061814644926013136,-0.0309102353210685,-0.19515772214393487,-0.1344025477710643,-0.29725653725997003,-0.18384097415135087,-0.027255119977730006,-0.19109952124404447,-0.07187005800419882,-0.051494959432515836,-0.03041010317887059,0.16560700765816153,0.052198465146068664,0.030808038338231147,0.027058548411107507,0.021571783316276145,0.01750533068956565,0.03034115903318025,0.03275028325226412,0.04683018715884345,0.015313076110262492,0.014019901727986618,0.04783244616573401,0.04088974937753791,0.003862567091613033,0.006938683837501817,0.016335645538008745,0.023601845377740106,0.002200043689839655,0.0031552654769499817,0.02228290637866812,0.007066449830108041,0.001085078044519884,0.0032589509228810546,0.02457174129592142,0.03501487560505518,0.0046361050197648674,-0.02197952417064467,0.0375303401861056,0.004150487738639757,0.023871798647342148,0.011766294274693221,0.026693018703775162,0.021497944250494415,0.019932259542064255,0.012237796375711069],[0.006720492450768251,0.048969381000243326,0.02058395903758782,0.015594092343579072,0.03156470642294457,0.036482121848642524,0.035791805634215024,0.031032234243616296,0.03417377576278477,0.018518033304008922,0.028365265549576798,0.038659991987095174,0.027955063875305854,0.02531410049540371,0.0436354740910087,0.04308023579897756,0.02079058639574315,0.01981193544237102,0.01641106381460652,0.011949775817058885,0.0489635809974283,0.04415854231920467,0.02639853185490105,0.02828819905649883,0.026336726079989322,0.008234128274850212,0.02387866331046785,0.004078124641739977,0.03545540330970772,0.009540641151772803,0.008024733879500931,0.03149535563473471,0.04232680580592441,0.016606978898043405,0.04898623726512167,0.022717490919524005,0.05253923665059346,0.0512888062652177,-0.0032511134230944036,0.06215900400317131,0.04877400045298933,0.039361908415664955,0.001596508708923906,0.004834622873832107,0.008510797355673963,0.027999064457811005,0.049258185733009434,0.004803004313614419,0.018535932393628773,0.01750890346674076,0.02434956433431091,0.005338026141344782,0.016382667876095217,0.045567623312102,0.050338481643187404,0.01255517979578772,0.038810401724652575,0.04969943132489696,0.050284343797592924,0.007341688523427386,0.04356274892901153,0.0020587549041836536,0.015370398692373943,-0.0071533647804470305,-0.01115663552401166,-0.03686644128816126,-0.03619461832881294,-0.055555089442656504,-0.039153056779546676,-0.02508555258610587,-0.1120211045573763,-0.12508862555150627,-0.09541786961766356,-0.08797942348790228,-0.05475772940812004,-0.009091079915944744,0.00038377635366424823,0.01666143216767509,0.01874697232628658,0.01771992775810976,0.034774924429605676,0.03845580396259638,0.02230784532542148,0.00398733665501376,0.005602884473437678,0.012425157149727119,0.04678940703281857,0.0006584566998557559,0.0036856571523942025,-0.01888507259827126,-0.03267978704224894,-0.1198752357974272,-0.1957138562894503,-0.17653747723390634,-0.11435883007485434,-0.21767353656308822,-0.2074201435952687,-0.17404885880019996,-0.10590586700905345,-0.18878625778825378,-0.03284740057686387,-0.10259907464092129,-0.18230417494127724,-0.163271717640892,-0.07115010140265704,-0.11886940306561967,-0.04793876125286896,-0.003391818108398845,0.0340442292361936,0.05127817927351105,0.05039244587546081,0.019703779732317052,0.0340043194993118,0.02335219432681114,0.0015695152266250233,0.03928170327086793,0.02640309719638813,-0.03250472110099016,-0.05466357922663329,0.037966256593398355,0.07190532161131734,0.13111254346580134,0.054440074955872955,0.030044094883510418,-0.1379914127286061,-0.032598513761117644,-0.09716372451470393,-0.14479860243598996,-0.22363396118746473,-0.07709367836934324,-0.16900272655103446,-0.14595069769444147,-0.1741305503126388,-0.2709344835148953,0.0007902101935477516,-0.06549823566676917,-0.05646431082846172,0.035169894086106254,0.014016798305671947,0.026649700009232745,0.04875021951876523,0.03258525690501007,0.029263200974732808,0.015533572389255271,0.05280820643495824,-0.05217214232704352,0.11011213424859566,0.0669896755513254,0.01964880974155657,0.037695659719418254,-0.14152191486198815,-0.10096740760985465,-0.08120362324405013,0.07021048182764035,0.15435924723416697,0.006835275821545392,0.1338384850673691,0.23239458444730035,0.26896216341323853,0.28256234509736033,0.0052019037457172864,0.0033868112017799755,0.20554219503113327,0.08631830210559632,-0.0868043560648547,-0.06210173294763699,-0.011674934131818825,0.01928377862735401,0.029952749953549802,0.01034698881153364,0.04192479385926555,0.14166576514607804,0.051648419608086166,0.0006904937543009065,0.05286426998040406,-0.10041944658868014,-0.38578714584502394,-0.5918770322038609,-0.3849349763839605,-0.1886211607636126,0.08571215008575359,0.35767216332124513,0.29910000084716637,0.1734828036901179,-0.07347587602658588,-0.04185075394396956,0.017057128008209185,0.13605006240806597,-0.0377776672865886,0.5254583795893225,0.5583960372225747,0.16409983923438806,-0.1284021287253399,-0.24207260072900877,-0.1103671375401121,-0.0488418126625052,0.04220993993314797,0.010926552303941886,-0.0182612708136017,0.08439254175471832,0.0022353974929299413,-0.07524791782013267,0.004407937598968961,-0.07209372132671968,-0.49984926447974914,-0.18302528343492203,0.05873551576716382,-0.0013021101648207996,-0.0002235273377419618,0.12430237960681258,-0.22243343049402045,0.13286746058222298,0.12846596629606358,0.23998496517193457,0.12328750795250637,0.03971760961440656,-0.2395311903711998,-0.11227253948565805,-0.21280250248447713,0.1710286655629909,0.07971538812448403,-0.2800468499255895,-0.11698551343267534,0.015100610096138115,0.04805956430525632,0.04070593119918355,-0.0027933200087328362,0.018463855410008254,-0.11608428108647978,-0.15775652214020028,-0.022002280658342414,-0.06074833956614001,0.011722837719465858,-0.0280487041451204,0.0498219307875214,-0.15726893200477635,0.04839304684940301,-0.39536399750431717,-0.1262882420145536,0.02370470081080115,0.7056709919471038,0.5313503734701223,0.41560100540373585,0.10432742574271042,0.18856553280654884,-0.04765565641785677,0.03910257961068439,0.37486746085893274,0.21102892623272232,-0.20900816051593374,-0.04054785057218002,0.04401460716724692,0.050552597992772924,0.029925207687195147,0.022687000810113628,0.053074573414086695,-0.13833793066930586,-0.060495992253810305,-0.31112077647176295,-0.23487081210598468,-0.2815007901398907,-0.1609172498407759,0.026696479858978953,-0.3062356590840707,-0.28040858926631085,-0.13615350788573846,-0.18170339909635974,0.11735275488118665,0.41132774328110655,0.8335488882525028,0.5625243284903255,0.35730901891149797,0.24499264591467793,0.4332860469191019,0.1893723464308947,0.41630157849905286,0.42497105702422083,-0.12548206479075086,-0.060195639416416445,0.012229108971669261,0.01300751007404735,0.0765296909337595,0.1127191816357644,0.2369557732686354,-0.04037553111907091,0.001960701311214906,-0.3014971955695544,-0.03803774366190494,-0.5013866728006358,-0.19103839576376724,-0.1346754559429136,-0.07867708741328308,-0.3277384655171815,-0.5719244660050498,-0.32936103574289366,-0.015378148125881242,0.05308075416643212,0.48406959818311257,0.6394945726032455,0.5026843866472245,0.6004412396364404,0.3135730607364879,0.5185531417617653,0.6396308582730905,0.3719073086166532,-0.07266663249016395,-0.06529377170626881,0.0045231361905459086,0.047766523498532124,0.11560223122148604,0.3349325635979661,0.3835479151272086,0.10200363671208112,-0.2608547223551375,0.07082118937134502,0.14302911950225208,-0.2404591927659362,-0.12701164701764905,0.2619043725108496,0.22847070979499173,-0.20515455501821273,-0.11464025805833139,-0.6222257317793713,-0.5392873443304497,-0.576692122534818,-0.17013325833812412,0.343660482722849,0.4246880309506007,0.5946142334644704,0.45871246089844053,0.4897630250816675,0.4821409514939054,0.28397873084723096,-0.025848693631148063,0.016935308537894846,0.043484677286376325,0.04954013347941975,0.08494432025696784,0.1855532786558893,0.273021240562123,0.3991278397941267,0.24142167486283608,0.6683766950565367,0.35915090896705315,-0.05464851411962289,0.1387189882975751,0.3507553774929843,0.3085369456100744,0.07142171334078247,0.07899767456254927,-0.2679636027702777,-0.3818918021651986,-0.5301082643187516,0.04448182322522194,0.22884846541599668,0.37741196391158394,0.28361799988375247,0.45288620690490544,0.5346129220257017,0.6628766138813059,0.39351329422798775,0.1390958499393688,-0.0147617960185816,0.04290152731276708,0.04150550622093778,0.09703283781895428,0.1593080457963492,0.1803676451463321,0.2980439931912395,0.29377705204039595,0.579294159140469,0.7170865746046099,0.1290670560583584,0.13687879175814857,0.4550365428949458,0.05802557956113217,-0.03280084276824775,-0.4086480422348088,-0.36176669638816056,-0.6437693194293275,-0.9466562184790137,-0.39715658719537755,-0.024696753226244147,0.2343682624534332,-0.036878427038849526,0.31736478835378534,0.46891031344344963,0.30924135035270983,0.3138496871550692,0.20265354879338954,0.0018108563737625402,0.04891990587089023,0.027396994984781337,0.06418467948380156,0.13757146596625308,0.21972164788652881,0.10432988169697467,0.3954498766075272,0.2594158493724824,0.28982435372543647,0.14545386427120416,0.19855463811360421,-0.043885731193039026,-0.16173470359690997,0.062938079488805,-0.13138472638062695,-0.45635804084182496,-1.018084721227103,-0.9286170600372919,-0.14393473261162318,-0.07894862426929837,0.10436397116230754,-0.1558299497126868,0.06662124556861135,0.21368019288879914,0.33233202790162947,0.5666791104276627,0.10133358173181503,0.00361498961523467,0.036513675202514397,0.007041816989719959,0.044055962001259434,0.060487144039628904,0.0594636667278017,0.026613109984529527,0.4143854102321352,0.050024406490381326,0.3173141465585817,0.16340059840200483,0.21057802651487345,0.117172197673605,-0.1912502578482257,-0.3012290847745664,-0.519566454279159,-0.8269766716584225,-0.7637033193044209,-0.4204855901899719,-0.1336652723725429,-0.06664552661696548,-0.12714327710795567,0.17643194080826058,0.06523128285279559,0.4432227111749563,0.3450721181279883,0.20511527131249976,-0.027641892869289864,-0.00022414423306189532,0.04072302487052318,0.03402230235376783,0.015854837994482847,0.045511702744124395,-0.03922810351827161,0.22356445838812936,0.43716823491768647,0.36130092052320306,0.34402970604773386,0.17698276797869214,0.3034193088715256,-0.015562282715175861,-0.26520715968066977,-0.8069145802598401,-0.822552389937207,-0.985446927993164,-0.4725931825792034,-0.4369723651734572,-0.13698149708745533,-0.07368615699974423,-0.13973857415081942,0.30216080440112825,-0.02405290659934195,0.3138608161041463,0.2954058942154071,-0.13236771037969164,-0.12379712836493792,-0.031073582126430833,0.02384676694643914,0.018224538717239922,0.011565169788108723,0.0024792051963916516,-0.04748463775376983,0.1538535123764376,0.4032449961009345,0.014605449512799547,0.1526597239944785,0.1727329508000937,0.06433911295330978,-0.06827452099995164,-0.4442211347934802,-0.7588163274380784,-0.7369688570024058,-0.7290389406962706,-0.4937661234297842,-0.16503520572559102,0.2427635475154194,0.0800878472204805,0.019077510832285146,0.08084629456645856,-0.17419913630508896,0.24553293318081515,0.15378567862967654,-0.035628496349397874,-0.03046463549367563,-0.0158909646061376,0.0050351778946057975,0.04354882933591144,0.006096747882159412,0.020595190991306477,-0.14480527942293814,-0.06572340602186337,0.05624235427077396,-0.04460807115838856,0.14241545179775303,0.380867371605508,0.19262160793444705,-0.004573969751793602,-0.49905108061718995,-0.7867037108371032,-0.5405085522202169,-0.4132142740013214,-0.06536933319426007,0.16108131891594324,0.3299675146820007,0.061529950129137805,-0.1499686106245464,0.22546122621256443,-0.06073877140571129,0.37833778848614136,0.09273746761287782,-0.21706761142839023,0.014300344185651907,0.03616394495384663,0.036300553356844054,0.034848113877614606,0.05124694777146631,0.03930090633670871,-0.05849936181305377,-0.16195133640797463,0.24957024065900457,0.139821271791417,0.35311854197863185,0.2795512081131638,0.11531371769102891,0.07716038340404374,0.069082615286597,-0.06507013832099509,-0.08461726926646955,-0.05668958773291675,-0.028923426740188673,-0.0017914545299302141,0.2854801981635051,0.20037164335335142,-0.15085846705034733,0.16118833769768529,0.09086128961993332,0.2155211611462394,-0.21803714606934632,-0.07667256169142898,0.05755364734781552,0.0055575379451408904,0.02635232506390036,0.014669709955094022,0.021311198990537523,0.02675277517502351,-0.08674879661071722,-0.1065750950448239,0.15142489222734026,-0.0006284004398964144,-0.09250447897579661,0.0686896975476854,-0.036837973743165886,0.18419946928176903,0.3650202702162457,-0.0010365743379236216,0.034569330710163625,-0.32648122786780664,-0.1845631221037334,-0.2335673176893774,0.25791443615477316,0.31876885743344324,-0.3918891961340798,-0.39351967883521255,0.0397192081084567,-0.2154875176885729,-0.31112982757181856,0.048646318833782475,0.025946022284318016,0.03358768429494937,0.019904874360770743,0.010619072998690174,0.013278766991527148,0.01123334146191596,-0.05477033336251585,-0.15619532343051662,0.012288051700557362,0.10579444715443402,-0.12870655532448405,-0.3098438412897834,-0.42866542432094895,-0.07825329553452277,0.09644269025398634,-0.13113274596695842,-0.30352479664181886,-0.264534274908596,-0.2523685237180154,-0.12330511393592085,-0.03386110930304397,-0.2536722722335772,-0.5591330977432034,-0.21606433395958385,-0.043456325343162704,-0.20341822343582852,-0.015475951955133559,0.005683472202153999,0.000316083378688114,0.011305239958936732,0.033736073578609804,0.04439416929580852,0.04505668216846918,0.02674107136477724,-0.031560447881962835,-0.31655585292024535,-0.23694538136333612,-0.09606713438926677,-0.2577565735331325,0.039795612418651094,-0.05151072062347274,0.03534859177822282,0.06894483883147186,0.06274376647716574,0.04950026612179334,-0.015603386867013246,0.15414280107780712,0.030361508352013407,0.27175771445181957,-0.09512596928082098,0.09415200869376988,0.010268400728667911,-0.046537378545412095,0.1284683322318474,0.17456148943672162,-0.016847663576594656,0.007377066792712865,0.03995319635433313,0.001859907566133865,0.03118949500081455,0.03504208894231518,0.035449701915059015,0.01609537581078436,-0.12006383564363346,-0.2173559595675936,-0.05755378784350529,-0.10442797086954479,-0.16797305490212333,-0.0672208137785317,0.2764707273270906,0.3749421405544557,-0.06240973013589469,-0.041041459058686856,0.2836649978665027,0.24983956322579745,0.38041923139589134,0.20279383564142917,-0.38322770093813047,-0.3280620934347069,-0.06568175561363507,-0.08067258242983126,0.020557599818918415,-0.1556529735268786,-0.07310101466124598,0.02409831978686604,0.027121209773403942,0.033904807388742485,0.023694996492287877,0.008327169473370845,0.09167941015636741,0.08751378489908727,0.10158500560801748,0.17314926746304116,0.05339671073281993,0.00038667292735019014,-0.040408229220813385,0.15593319556082078,0.3353027615870104,0.0445375582442463,-0.2107555526576554,-0.22186353951819499,-0.1811137333518785,-0.0982716617036586,-0.09738113708609475,-0.10638981807449407,-0.31293636889467497,-0.30552268929580184,-0.19431092955931975,-0.053185080898627966,0.014717639324586779,-0.1320675378491567,-0.05307717793960806,0.044708616510633355,0.041472728634924814,0.01900663503281044,0.035380834318490983,0.023815526341852602,0.010986765841740825,0.04536129129325499,0.028399945571881535,0.0018535623378855475,-0.027115160573165095,-0.02066870669907914,-0.12455621720972748,-0.11736641195686627,-0.11139509757925257,-0.2043597425269872,-0.4408563416896848,-0.2136150415868741,-0.05928784752060921,0.04907151263345238,0.10164188051554528,-0.09800466480619378,-0.14333691071799973,-0.024284312064736153,-0.0169468059586101,0.010315482430689717,0.05417906546820885,0.019179325333252978,0.02171459980068056,0.003632908212477713,0.029945220870022514,0.0243905919287457,0.020045628426753167,0.020529431636781552,0.006048127401442059,0.002678067841275725,0.0032334599751683425,0.03654288735362386,0.020365378914208865,0.12337098434959363,0.18023716383565605,0.161197517459048,0.11955597539904525,0.02035440969629591,-0.01837340916238722,0.08728537310621136,0.15443241979041542,0.19640282047109936,0.09217486524646921,0.09654154476777517,-0.009646022990151729,-0.016425767188780218,-0.017524023066717433,0.024603844997637216,0.04473896897247955,0.04702126720128816,0.002447681505047195,0.04752995327785522,0.0289381129860748,0.032732343066996926,0.03192911329617324,0.04594330973583926,0.009501064551983468,0.0024349548800823052,0.007655229676879162,0.04614696739420792,0.01708631294685286,0.008615107396050023,0.031654308618329165,0.004018944765471722,0.040771700889909106,0.03364180110193877,0.02069051853007597,0.023029091805579792,0.057530513150546136,0.05076256684932712,0.05200106799550526,0.026604805393898787,0.026926861847941526,0.0339846021759499,0.02594026295817281,0.06516859823545289,0.05765557104483762,0.021548142164120678,0.04777283497172651,0.009401069805606772,0.03307878231881965,0.0368308616781468],[0.0109914137797979,0.049825738391561944,0.026106644919434985,0.024473627393430574,0.029023960113425073,0.03236053870291795,0.011297396850332146,0.0013612866574883194,0.020371259849915373,0.020481526107720707,0.01756290095045378,0.011835894876670897,0.009380342908586907,0.045620705865000805,0.011633517306702902,0.013682767223700949,0.017700593494635684,0.04727559585437416,0.002016971963538145,0.021692552624500136,0.03495623995065776,0.015074347598883292,0.04979001092652006,0.01121376232264914,0.023704626340825544,0.000025747228086722557,0.0024216221673123844,0.02252674689807582,0.03131297628499394,0.011143685941839137,0.0006268238743442767,0.03376618590002746,0.0045726304891497635,0.04498347196866913,0.025094501821742513,0.011234758158950873,0.024470107486930133,0.002344930419313385,0.021664485258984727,0.06002700475198888,0.04996106448852943,0.01603935660821401,-0.00592771460574976,-0.002009619068773513,0.013865932811867694,0.0022631828796728943,0.023040541098423177,-0.000516501984295105,0.03437277345255274,0.04349790091306844,0.046162278152158356,0.002282957802343311,0.031775191048109004,0.034425467705915216,0.03962733266594113,0.02977063680967183,0.001439118288431466,0.025745655760123283,0.01776291497493206,0.041557540067981694,0.049492993801364106,0.04300402442112022,0.009201410173713252,0.023598287056867527,0.004860259419638626,0.0026382418230598004,-0.03558771162261697,0.010211945723404796,0.00853207571115722,-0.15658450090396836,-0.07048738516081116,-0.0263187790626818,-0.0168029325925356,0.023737368632551624,0.08648612100795118,-0.008967122399152209,0.01434628782823552,0.021962296354186374,0.01660847734550594,0.020643177821131602,0.010683056771175274,0.024315189134296564,0.0006068308588388656,0.001504792088078221,0.004034609824377118,0.034147435338710175,0.05008849047225491,0.02985758272933332,0.018453710557773284,0.022826554743614138,0.020726521328726828,0.03094627659356914,0.1089144442740413,-0.01002854869855524,-0.15707580391763856,0.06247618831396697,0.08999592338120965,-0.16462462653984863,-0.24419420337945766,-0.2984026114891532,-0.46185099202626145,-0.29599549383909224,-0.10262331745020037,-0.19661552189631867,-0.10590883595732899,-0.077548926540986,0.009231825643608464,-0.004924608698305595,-0.027795753098822408,0.058629377370968884,0.06709984568019234,0.0019230558248749363,0.03901082920185638,0.012949285361787662,0.03622077263727708,0.0019427199345991113,0.044555179065182124,0.009526397609677719,-0.0784154700590251,-0.027802871688035344,0.03101920893445009,-0.07485095070158466,-0.13181641366327462,-0.10996666554541942,-0.31755250228968246,-0.33166348258369843,-0.0693031029055822,-0.2107136312919788,-0.3321319909226646,-0.22143340402795916,-0.04003533490920928,-0.042152931274556424,-0.13314755220832306,-0.01076085706312115,-0.33468802528122693,-0.19405748043627002,-0.03701664621153934,0.09934930482138418,0.005644862472150804,0.023691598102001683,0.017095780081454577,0.0484177714686129,0.016690766712204617,0.036288978529956696,0.057680459011232435,0.014385542547707159,-0.12749021296980087,-0.13375160507586842,-0.1040547868611666,-0.1424733986995083,-0.21377115075254444,-0.005108766970349255,-0.3577559475465058,-0.12975014507784358,0.006980619132465294,-0.2162857823238469,0.1463853141679492,-0.15919017282052692,-0.4460997251139635,-0.363011954808697,-0.20235357608544752,-0.41057990337065803,-0.4618164706210225,-0.6168372085453229,-0.348622314954781,-0.08529461727962492,0.007615992682664622,-0.005555695583807281,0.0058216619320565445,0.022009773048319536,0.04136784747274007,0.021655954979891787,0.08592488995788984,0.031225881561314322,-0.12260880198129406,-0.22441701505438977,-0.23869761158665626,-0.2086981575762885,0.028381713222413448,-0.1906105926211633,-0.30538723736443035,0.017209026784781457,-0.20508852536164676,-0.3551482073312417,-0.0560327555381482,-0.39724173773238103,-0.4452367694146403,0.009680836720618795,-0.3496597843473508,-0.3257239888108401,0.00930797402397375,-0.030446881857693994,-0.1966665030130585,0.15881773435385582,0.20901906277528864,0.035810674009262404,0.0464863564813374,0.004409471010319547,0.0291803046350958,0.022760928912208937,0.05422027586981878,-0.029986014209533434,-0.11291227632968548,-0.06300581644328167,-0.017100657827426084,-0.35171546755848515,0.1791530949220201,-0.1656294371204725,0.04872631716950932,0.1874998764196889,-0.1824566764070551,-0.3029705727238062,-0.4745803904453971,-0.4567071254148532,-0.31543069772195653,-0.5475780835117134,-0.3068645157701288,0.08495044041884434,0.30166556819463486,0.02780377472822761,0.052658603856555616,0.0927379371431401,0.12751669118311257,0.01796222581139879,0.04727716601049102,0.05273016294282068,0.05049289966126956,0.02132320264006027,0.00327807002858083,0.013636498817032919,-0.18743492939476403,-0.22248662774095834,0.0574036095834375,0.10070772588661862,0.053324667602015575,-0.12450900654413295,-0.09409057468051249,-0.31893379481337014,-0.23405722736729312,0.07730698840399111,0.4087016545816135,0.17368075842189387,0.25151075121975314,0.4227102298142177,0.5540022248633313,0.534763243530715,0.17433091171667245,0.3262590588852661,0.8169233793091303,0.40000437675878725,-0.22289741792319442,0.04629101200416911,0.004389846586648042,0.044404235591426894,0.03678144723596178,0.06965871833583408,0.04467133936445771,-0.1339821816894072,-0.18122538106228103,-0.20247919322462843,-0.21137912246708554,-0.17123279709445827,-0.11078543877109864,0.0023181094406858112,-0.1984622275704984,0.21513222732629728,0.394899656614055,0.3745428992349723,0.46156915891835404,0.8380509947195706,0.9075245861843573,0.32028206539496984,0.43914054949737347,0.4146148411930258,0.1288780072849346,0.006707266923128644,0.7414749518242693,0.737719716340094,-0.0075116269728438155,0.07483244159701477,0.01804689533296527,0.039558025657585316,0.12443106211320668,0.09837892580595549,0.0502124563467018,-0.3013330194820794,-0.28857476852432784,-0.1676813459050348,-0.0413074640282213,-0.2039289539018463,0.13551778670753048,-0.050161353287240945,-0.1031761657192022,0.20743536774291685,-0.3067164095370388,-0.06556883082238249,0.24188335717774548,0.2208489409571437,0.5924647615888006,0.6943813434881133,0.7773687714015926,0.6829214168103994,0.37881496400794895,0.4210732030314199,0.969893411691892,0.7453452574041032,0.21026918173416576,0.03446629157163312,0.025332750071977765,0.05080180802940711,0.05956630590068759,0.11016664031050757,0.06883025342482642,-0.26468173999931327,-0.22462301246058108,-0.1010322252944827,-0.23780655208560136,-0.3616581213765421,-0.22254663780280093,-0.0715616252784833,-0.22276039952500365,-0.21868770122493839,-0.38117085826535735,-0.34934810569469993,-0.09602457128803976,-0.16449895174916154,-0.45000048697093653,-0.02504169142930305,0.22910440070633084,0.6721038085199935,0.5691063718901251,0.5818040174434808,0.7403870849042954,0.5503990600890868,0.15815641236350114,0.028814943792690118,0.050340883311442354,0.03047529487835767,0.04233634697797676,0.032336814754886346,-0.06350760765716025,-0.16399611423849617,-0.21966805060274977,-0.03400519008971709,0.17165371311536076,0.2548031708641372,0.22838432544063703,0.0611212083158721,-0.059921473918041986,0.3491324215872659,0.2016757716242108,-0.04375215184866255,-0.4868399785473285,-1.0624602816680604,-1.500817675378591,-1.633505420898743,-0.8934783350042587,-0.8193076342689222,-0.5208414984535897,-0.527208319635457,-0.33364534624064995,0.005279697585308985,0.12412949407484695,0.013482834572494619,0.033400396798909375,0.04043006054880075,0.05917532290501334,0.004765440970480533,-0.16168072642777298,0.08152060944050518,-0.06081955054871224,0.08744017346631161,0.28221782061508505,0.24516282213000376,0.21069141506181138,0.34165266210895173,0.30091341391944165,-0.015906885902441183,0.09512162252118546,-0.36742710325071876,-0.4809175338644839,-0.556752624683056,-0.9310089384432677,-1.2403012954522712,-1.1956554126251426,-0.7711289191115938,-0.5019805345300704,-0.49390513070309655,-0.38798708567329093,-0.11724031746601352,-0.03445119113546662,-0.0616888591529988,0.037284218143055256,0.04986176036659193,0.049697519302703816,0.008445633907568719,-0.021073505583558985,0.3655732114142446,0.1400031950562722,-0.12636856402649752,-0.2630104130391392,0.0906066792004095,0.026442929150160256,0.18324585234931312,-0.13425265597362251,-0.14715675077768223,-0.4821540183984217,-0.23078308263641603,-0.36613743661548454,-0.311302851986132,-0.01380029195152138,-0.8057693772177533,-0.7093897730526092,-0.4624085331844789,-0.33625548683948175,-0.1378788597209378,-0.13458740643299924,-0.1122912386546296,-0.07402055510331704,0.020603221826335297,0.000643883826654036,0.03598564064808031,0.02183594615317024,0.08860823050220691,0.1064791102126236,0.15423901285386538,0.18292620640512758,0.32134486588933275,0.14363071806931377,0.21657282638717304,0.3142519330009632,0.11016028173287272,0.4458656782572876,-0.3623463504993775,-0.3313558557640155,-0.4493114412579977,-0.4122249286417826,-0.1176646364549554,0.050774303469641596,-0.31258689410368,-0.32135391055940865,-0.5520197595859232,-0.3731592191402853,-0.1652592298155991,-0.13852155316058196,-0.08997676220429443,-0.11069808668638689,-0.044541183094443396,0.048922021884970066,0.02282818770659359,-0.01582177318729519,0.13793128469902172,0.13682900522578745,0.2709692479738394,0.13525423813629772,-0.0645158370252632,0.18701895304036145,0.2336628344855641,-0.13287171841529988,-0.6311537426131878,-0.14776061012822786,-0.3423453246674041,-0.2682780796390533,-0.5035595103100824,-0.11965504992949261,-0.053908547479509704,0.014835350829801525,0.0934939213991298,-0.32990169374611916,-0.4717060230192751,-0.3298854694811974,-0.09237617098116047,-0.08762660592082974,-0.10986192641466994,-0.06836837277790361,-0.059506894052796876,0.030497985962038815,0.011531465394588644,-0.04289321137672414,0.0447352526683515,-0.059147939075682124,0.336349003599295,0.15879020913448189,-0.04598864405599399,-0.2208996012613898,0.08669059585985445,0.37088922969849225,0.053835795124106293,-0.13693741984953803,-0.38222339904639585,-0.014540266558791896,0.10220208478602573,0.1418819075394916,0.17329597905337654,0.19048517745506913,0.0008576594806530692,-0.2709849235392217,-0.42856502797671836,-0.12718824802835843,-0.030231050248195106,-0.2900419804446876,-0.21001427159498284,-0.0244859534992117,0.01577281232257615,0.035917831565692865,0.048047499561140475,0.012453102437982868,-0.0575800962887011,-0.2535434771431313,-0.0367104917700775,-0.07093237125380618,0.24843469133693413,0.19690027670120122,0.030306959421727554,-0.0016777664289864868,0.32606985298386154,0.33365535616234465,0.056686591013880294,-0.16906976648398006,0.01591229542666808,-0.09903872904150136,-0.047718138396788845,0.281903425383221,0.30343873073654953,-0.14585773747037897,-0.21402485673608365,-0.02164239447410324,-0.2758164346907873,-0.24582289704331947,-0.010246948943743069,0.015201039651758966,0.030550589354083845,0.041190290261090064,0.028565406485285043,0.0723413484702189,-0.16455807244083906,-0.027293039797564457,-0.08336612550753861,0.21367789764747913,0.15647133205380992,-0.09109358501184686,-0.06832830119217612,0.12413266485351221,-0.06504145160941385,-0.11136559384672307,0.3151540528899345,-0.1675612294772604,0.2554516489564361,0.2915033204166175,-0.03449107420423313,0.28490554197929785,0.14239056209242504,-0.052345084150091495,0.08372092550779286,0.0179340645240781,-0.16585056561052963,-0.2285125478290917,-0.1006375224780196,-0.02339822885972964,0.0008817146124468306,0.02840454235567834,0.020811443505903696,0.029344853253516743,-0.12963062389222693,-0.24091280758330855,-0.18326349601771508,0.08773433976965134,0.03515528649578042,-0.07734577894584548,0.21909957582028078,0.29120479895426077,0.4402773077428833,0.17176490340877243,0.42362887725703524,-0.2957102186622252,0.0631628474061377,-0.06553266396323885,-0.043725911389113505,-0.2074220788375024,-0.15186810426616157,0.14808015976046623,0.11573437652630118,0.2268502560060787,0.15348124136027302,-0.10548880963409919,-0.021736750757927994,-0.00928254743553094,0.02859074651327503,0.03593558983496281,0.011343710608317254,-0.008413029633505865,-0.10730963376621713,-0.3071270121456501,-0.15293091721946087,-0.08212593966732629,0.06066693405874419,-0.3182886495864689,-0.09450856235805316,-0.013054600551896098,0.11504444958307393,-0.06881437640315508,0.22972685731476472,0.020882958989568656,0.36667235618447824,-0.05634995142414039,0.08844460695365837,0.012939782318950791,0.1291681263499306,0.2033647389517316,0.05758840958115524,0.013179591087052843,0.07617053303915974,-0.05674462623124221,0.014382893601101347,0.031051301077792824,0.018548619511346932,0.009007165699775624,0.02877140695821229,0.02041245351617784,-0.04431359656233095,-0.244039607696773,-0.2021226491964202,-0.16679607678124636,-0.12283341371931233,-0.15133967913496982,-0.11383461628190851,-0.254647403516898,-0.08459499524270711,0.1702575632664265,0.10833190855892755,0.49537787822631374,0.3969767782045788,0.05972374970149557,0.40752936369573367,0.47663834090739,0.08228639827396354,0.20207568994705113,0.19263576656516285,-0.05900965614301454,-0.015167439782264256,0.003090335699461864,0.05233421553350737,0.04966370861379779,0.014266840814199915,0.03840437961590596,0.025105155419237444,0.022993821434782426,0.0014357154374854753,-0.06724923117567196,-0.18614516295660538,-0.3175820054965073,-0.31399867235355805,-0.14169964821791298,0.16999349355364218,-0.03538497190157106,-0.06005402074734318,0.11737557354425532,-0.1659211283683274,0.1184760780421858,-0.06670514779870143,0.056296454606138045,-0.017868785986602242,-0.022072495551520445,-0.05200690576208997,0.2108176786852627,-0.015101189366092227,-0.13284842043624992,-0.01601889773983537,0.10392278749880489,0.05201513383787707,0.03704826158219471,0.047693769006098057,0.023074443695544806,0.0026623413513234833,0.0183287019410661,0.02723773999701611,-0.009781764766655272,-0.12807840691980316,-0.24941005083604936,-0.34417663842138024,-0.1871987152928012,0.1312928908366561,0.17998576049339962,-0.19168514289051877,-0.20292690971780722,-0.09037858437320291,-0.10415183835226362,-0.07765285603671203,0.036159642658042425,0.1148820858200872,-0.18362725308168806,-0.09816496543949921,0.2266476791900337,0.05952491056055316,-0.08314972457120451,-0.0019045648138534682,0.15874498182095712,-0.005995666370892052,0.0261984237031809,0.01985761383661454,0.006801880408739989,0.029500522998633028,0.035712353411412226,0.012078941947173415,0.02722165314404869,-0.043053373023568986,-0.09914593772467757,-0.26233659712118196,-0.4736260781767822,-0.5432559108382164,-0.3305386280667574,-0.1653141780339832,-0.03524965583925393,-0.1119084180894885,-0.43917566646604755,-0.12395307307552725,0.387469088950323,0.3873054306237581,0.17278805510412548,0.08169168967535727,0.08287449840825825,0.1281347116392702,0.07519074418561716,0.05916007625953644,0.11269304272657094,0.01122123756522094,0.0379995742546931,0.02630175347690332,0.04345486721483401,0.03178900140067235,0.02434081065958206,0.027265737466361448,0.05367320010408671,0.0038820069693734924,-0.07278168697011808,-0.14863574197706358,-0.07366105302490755,-0.24510240031688899,-0.2704626056432948,-0.1584069898593322,-0.03787776474644682,0.0020426340525958975,-0.28141630104995613,0.014717924319366507,0.11893748526491155,0.14481728762260485,0.023306499443681045,0.08749824383791784,0.054183979715618114,0.08088175780172287,0.06785238217209676,0.04237111527437246,0.021914960513577626,0.018767256532937752,0.030626240299642275,0.04693727233678452,0.03246012886649424,0.04158721427542398,0.04565525193060816,0.016932787665612053,0.01706937747059856,0.007912040193626162,0.03670227499983644,0.1025497020748915,0.130638522293923,0.05102657245978416,0.09234875230406427,0.07872181952556861,0.05582374480874251,0.017835516862359152,0.07390866289696849,0.026497983740403432,-0.006074810836607789,0.038509667306830406,-0.021173324175454252,0.021817458254114835,0.03909008835043646,0.020695763443543142,0.016948576003146174,0.029331458544124927,0.00581221604983763,0.03903218058018339,0.030608770997668882,0.03985453911243381],[0.023576881735165787,0.025204662915264492,0.0033766495538302566,0.0326813635334017,0.015666230354522567,0.011920018891346295,0.0393930439088062,0.01026932536609001,0.03493770389362906,0.014794205003601072,0.02124355039214816,0.030061846150695813,0.027195798762519888,0.0374929133324421,0.005839501044237535,0.006398984505546812,0.03489582371939973,0.02491911304780478,0.04615580949972837,0.025205350206077944,0.0004013558825050293,0.029447719516623214,0.03045193527247746,0.0341669065112854,0.04895356942371166,0.023527256723473333,0.02904140102530269,0.0017460230634067646,0.005337449822217762,0.007139978501214894,0.005821895526553282,0.04004773646376949,0.02414933543641475,0.015862480994555027,0.0368951723559581,0.011848671036238217,0.018776547603744573,0.012052781734377327,0.03084717219103214,0.031846776556295676,0.025444527220790956,0.03704514589769063,0.032890217501470566,0.030207444058480214,0.012655576587586877,-0.000042308714268336326,0.019038800132567504,0.00047317048173309376,0.013660056749649941,0.01869163575241096,0.014523378094993765,0.02115530044631204,0.0432200215236281,0.01894184626819289,0.00747267610482764,0.029999246905761952,0.021270917384384636,0.022422686427649052,0.004918037541304472,0.019417541131297674,0.008801140209410458,0.03234710599345982,-0.0007806971598768525,0.016154968137833476,0.020998725661448125,0.02305742015525637,-0.011637148653326936,-0.022045838362505073,-0.05523513225918057,-0.04829629511604747,-0.09162977254578229,-0.07670011606646022,-0.1012794570983232,-0.024148087621555455,-0.013451494922284233,-0.06737908993987905,-0.00011751803677183283,0.003396551421322579,0.039137171899742945,0.042366093729116205,0.014094615553779768,0.014751107118295801,0.03223006040759368,0.003981034711050581,0.049010085329598066,0.03682753293058586,0.021787952871181484,0.015028521574744944,0.028866397378775412,0.027883839988517088,-0.0148161870809628,-0.01633494845891553,-0.10090626145254494,-0.12830846458247983,-0.21459923997537422,-0.18609155039844988,-0.19456901740202387,-0.20509502650552455,-0.24387975930823394,-0.12977736457500655,-0.1523978559340235,-0.1830660311630676,-0.06682905927832779,-0.03848357741415469,-0.12337569216476178,-0.1411724407106015,-0.06645145080109428,-0.01285473771099243,0.012686510109917544,0.026618085514091984,0.04216692312423863,0.01535723457271041,0.026953991997546885,0.0006891858628123318,0.04600753828446014,0.03257742407113839,0.015340097755744714,0.011560407741657763,-0.04841752487882642,-0.03262088913482915,-0.081511069692597,-0.22980686171347064,-0.26330009408137517,-0.30169955240487495,-0.263296135229114,-0.24820275030275166,-0.1555161885422787,-0.2098953212941093,-0.05406860311186887,0.15660683086103105,-0.044004026705086616,-0.2463964392813866,-0.2743314753980166,-0.09913325316480563,-0.130045370770301,-0.10191038921935622,0.04585935371496006,0.010670871296343537,0.0023309933928055827,0.00782862677234424,0.02395531310982008,0.017418076567146494,0.00020762665232863204,0.008358225102913269,0.01194065216706927,-0.0013135986790594868,-0.013742150368850826,0.10297882813656674,0.1598575509293648,-0.0988871481136033,-0.7582886778375902,-0.8035301036422596,-0.5746522926291581,-0.24722369005373288,-0.08751284624113519,-0.02643071569148001,0.1201197425389442,0.2663376709351321,0.16593161785769342,-0.10493955159747823,-0.10194084595781842,-0.06230283532042018,-0.08478019959769524,-0.1300016356833529,-0.009680554913825254,-0.028823080301627405,0.01874363766270801,0.039281769000452806,0.002398494446297453,0.03136030897201592,0.028230643400311548,0.08940999211213846,0.09008272416038135,0.10659439064543792,0.22480958002164642,-0.01573573322113432,-0.025509513350446423,0.11966681890904532,-0.1978666630388985,0.004093281950975163,0.15734495914246122,-0.22039578568622142,-0.41767209704488706,-0.3000553196762732,-0.15127857960292346,0.2570968001164751,0.19710786196444952,-0.07045584456409207,-0.23366814006203657,0.2028211760030848,-0.5614375802357185,-0.33925444489647366,-0.13446119685476637,-0.0717310770820618,0.010316940328436589,0.044427394442107866,0.03475722680455699,0.02441782633428015,0.11756573902940519,