{"layers":[{"numNeurons":18,"numInputs":784,"activation":"relu","weights":[[0.01583775159773008,0.03638836819051373,0.0050111094180398386,0.028498110588285996,0.03918492039286124,0.028910629334175254,0.004376674810508353,0.03270906205570439,0.019357462403714484,0.012588715555469643,0.001332089415080806,0.004639399738454649,0.024750426241793147,0.000890637758440971,0.01224381773121791,0.03143450834563512,0.001183617676014488,0.04142866370198526,0.012579027511267491,0.00869784969436801,0.015910268311593867,0.03586083744376619,0.009530521342759392,0.024783496744649396,0.039930987163396686,0.015559267609870487,0.0402693225167547,0.03787753074238225,0.026899467318109684,0.030296284728125247,0.029939161504253402,0.024171322722313475,0.0068051253497985855,0.005248843634489023,0.009925146232982341,0.03558252935575342,0.039031427719588604,0.023375729283233854,0.04795229318868416,0.022095455177588104,0.055310987621144184,0.05353998780735759,0.026094900914848736,0.03239521148520508,0.03182590456640971,0.029029481921191924,0.010951859215228761,0.04026144075052815,0.0626675806244234,0.011339018179702235,0.042632786829864405,0.037610091394853905,0.029944709343095784,0.0013247066781778864,0.027500927644270676,0.011526956654625367,0.018029704789147213,0.04012068492168764,0.050370327458574,0.00807339620726648,0.018715640355055404,0.02904618655813873,0.018788716616284448,0.009931135705266301,0.021839872604534818,-0.04924474195897415,-0.02283219732350464,-0.014320398199272144,-0.009659412939607745,0.01738651730976065,0.011835942868677226,0.09090433758010862,0.31384432732423667,0.31332095015544464,0.2172870961732169,0.12541371894665493,0.03525462616952119,0.01615741112944795,0.0035186702067156734,0.05921286847156056,0.04889653541444954,0.04788876978435722,0.022841811959781893,0.0049449369291120066,0.014732040297558828,0.01678114721405814,0.027346347942769755,0.0384112328489768,0.02978930104298788,0.031930488507713274,0.068417014380249,0.010442573238029437,-0.0882461395734979,-0.058373168884559117,-0.11652044757347824,-0.22733722397450784,-0.24609789318563896,-0.14113138146632184,-0.22359976914884794,-0.05085992334721708,-0.03965981164290476,-0.07566203804721307,0.06082843635590431,0.3215110343889675,0.11576431619851422,0.06003834378229473,-0.001340521466819401,-0.0260987423293442,0.02781927963323848,0.02467388007507425,0.042665333795997046,0.037003639235820195,0.035857603647918644,0.046704565806648675,0.0018316137452830973,0.048269468023537834,0.027181603865129546,-0.07018536373820451,-0.1446086429791866,-0.17256824736311316,-0.020942565631762243,0.2551775214811353,0.14544113906067502,-0.07563685217554598,-0.0689180086211842,-0.31272919611611333,-0.12523274533906956,0.33115694957049324,0.23599407137864453,0.19946959269508666,0.057658899748176944,-0.10749302736658625,0.22237553874851687,0.6675126036167638,0.3083530879068215,0.13553033724597063,-0.042575846552841065,0.036070387774291314,0.01662160219737585,0.045798120448422144,0.0072005652322620775,0.03301850572468316,0.003980769506411822,-0.010790236280357149,-0.1317736329298085,-0.16122545191554521,-0.19307807021982965,0.002091910889079812,0.20173952650654833,0.30537260950169764,0.5332299511560608,0.15237009747277994,0.07376366519178797,0.4228066315043444,0.42585327906029447,0.43977398054443884,0.6803983326894396,0.5032796364088017,0.30100083583396214,0.1254142599819755,-0.08183013828995787,0.2853825999117088,0.5531473323064814,0.25162822952736036,0.07966893022820494,0.12054037470370942,0.0036842627942937317,0.012289818278134254,0.011361129442354699,0.014795791330563421,0.045125395264494834,-0.058806719090972646,-0.15272281722802702,0.05782382333813089,0.043278738937395124,0.3267564508994384,0.5232739233943293,0.35108422865277994,0.3303301310183304,-0.21753017175709996,0.4849015813456273,-0.07107470876987701,-0.0033861982852177734,0.22232372326383748,0.08782966090717212,-0.1282763324136596,0.013244522098018083,0.3330582970835515,-0.09907512291135684,-0.08707258135212917,0.39471796255784575,0.19252466265116594,0.19904011656975235,0.14338976749414023,0.0627667513933951,0.0263100630592726,0.033087226872986375,0.012733847410794403,0.03961105475280613,-0.0627223129390398,-0.22271841527837014,0.16438472730280868,-0.156226949762542,0.10703502931634572,0.5395948291896054,0.10924964148930187,0.16326053125536397,0.4453886494915757,0.3114791108207576,0.031414506086843624,0.770145558087165,0.19982730736382595,0.4363420359160407,0.39388753653156205,0.25698707685422456,0.5707469233118373,0.7536086858066863,0.41056161581782796,0.5073992191440586,0.6115596382886118,0.10109700473470386,0.156622062403479,0.09338559118559922,0.01479350003860106,0.021872523176345693,0.027520583668152687,-0.00336469870190743,-0.0523885980120334,-0.186776979269604,-0.0038868658518150787,-0.33315429269265306,-0.6545717224648446,-0.12091123504290524,0.020162444408952318,-0.05843698300567507,0.3106737161144419,0.08094744670594423,0.16645209072981698,0.4631553197033337,0.3688482409852148,0.8171774822025476,0.5923196793342735,0.09800377849903769,-0.08242814397620132,-0.03766103793321653,0.02240509634720586,0.27168726650734915,0.8505949983064254,0.02729223330529156,0.00948620074758338,0.06960290465314363,0.024284391369121243,0.020328517856569125,0.0199792268681382,0.035219297433324824,-0.0764633534042427,-0.06264647740013972,-0.14619246289654733,-0.14044860574813747,-0.2865180491705329,-0.6677934481324669,-0.018128287272805094,-0.17479637331156572,0.27748732311204644,-0.08100283219659037,0.4341623429386504,0.5517794055360273,-0.5233139079255962,-1.0104788159955136,-1.3570397953616593,-0.8090830213438698,-0.5792799052096457,-0.6297584159935512,-1.0491137341547863,-0.5393213725592769,-0.6696804651722721,-0.18581333639921765,0.013368057913441084,0.03342281858986113,0.04457826114625618,0.029314143781257965,0.012235796208534714,0.006809055187565436,-0.11426201175290993,-0.2831942210318974,0.059703193415949526,-0.1491169256453117,-0.24739149929639803,-0.34906963167907185,0.22982552659096503,-0.15019578823169732,-0.21945965139930948,0.22675687744941744,0.18242343956575283,-0.35933392317361945,-1.2778398219448572,-1.0951185417459486,-1.3759428392753976,-1.4716414205482549,-1.3780889928665447,-1.514673866907062,-1.3869682216849166,-1.270095943817683,-1.2514475326734125,-0.2913044788714077,-0.02223174185568183,0.024825589238767026,0.05042470448662859,0.007606172728745054,0.018493554337651718,-0.001808244727071707,-0.16419510216080196,-0.027003722595739944,0.02646445863061594,-0.09942295403140831,-0.23562779888572688,-0.3943391154221098,-0.029497948149344432,-0.0559133929182155,0.08601751791089032,0.2700433038335538,-0.23171249218175138,-0.5202031057020202,-0.5420378451800749,-0.07175592011404117,-0.13271483022219885,0.20164859942982927,-0.33659291527121,-0.9759696051192073,-1.1558719265266237,-1.2749873376409606,-0.8893930884725817,-0.38926719110391966,-0.12978041906277538,0.03718085465574658,0.028773308364377036,0.02934727969028399,0.0020737638801539907,0.0017759631688794323,-0.03360627171458232,0.01866649629371273,0.02225882157677676,-0.10209077700378098,-0.10142928152969653,0.25139904156562337,-0.02613857011309596,0.272756466626969,0.398707878778456,0.025626855819005208,-0.5992757957435249,-0.5870641669694882,-0.08643400336590823,-0.5233783857241869,-0.34259414738592703,-0.05548483575776503,-0.6074155166877814,0.24436503445120583,-0.5687774209883931,-0.682938474881984,-0.2509171146455465,-0.19684638447134373,-0.15266884813222725,0.04226463654672197,0.0021309167629080376,0.008741617402070733,0.017003219303796693,0.04623678807387755,0.07137998563353276,0.20740939176943504,0.32191064210584897,0.35429848583926493,0.5069388632370389,-0.5006824536121038,-0.13130595970322742,0.10812419668037485,-0.23890922852286384,-0.07016074104061369,-0.7672598402772521,-0.33118934649515425,-0.5086673916549092,-0.5196715005403957,-0.3096098331883867,-0.5608904587638042,-0.07096218585809207,-0.11649788190183562,-0.1366126681580297,-0.5700624726449681,0.012375888491022911,0.09158531217371717,-0.06810204844575585,0.05831554945222914,0.05006328628160038,0.015565192209111641,0.04914207505478592,0.06660504706604725,0.059636898097521485,0.16261552244715965,0.15226900492263618,0.48084563560509763,0.48676441180608526,0.03939186317712816,-0.022465434078527368,0.13208723741705597,-0.5054123488730788,-0.06782988856193534,-0.408633602154979,-0.5092195177244306,-0.4234339226250865,-0.47233410242862495,-0.6525340799415782,-0.0028742486965662225,-0.15447811124511934,0.2907099273734352,-0.3253660606132096,-0.20033294103267676,0.13971275387075496,0.23967816085730229,-0.03728478810045112,0.02132570885358013,0.004614611396002623,0.01696671570255702,0.048085418019925705,0.0283053879673961,-0.0469898676922485,-0.16268896705695077,0.2965781483895625,-0.023411807996201437,-0.19737127671132654,-0.16158079112878115,0.2905279033361544,0.20467874839778818,-0.5983611085113297,-0.17562902844319142,-0.5752309651465529,-0.6769075744624511,-0.3464305487762812,-0.4520916693088888,0.2680406646881504,0.16774933862798683,-0.5228206056181877,0.2745486063793392,0.10222082072303773,-0.6424513666615674,0.06693307881354979,0.3868204512817379,0.014532755868626115,-0.0016298722403346763,0.03402753064719011,0.041333625458278636,0.033714111761476484,0.009492716868712598,-0.007097182660007063,-0.05274384645865056,0.3508355527179927,-0.17205362267158106,-0.2621361328976609,-0.20972224777104453,-0.015737682543638283,-0.08855223075461033,-0.49694198348387186,-0.15105219176312357,-0.16955346265681326,-0.33765029708968103,-0.11070012022773904,-0.34950474568572804,-0.023612920434169144,-0.048024690529423375,0.003432591041235204,0.2651322682403966,0.19227760631479823,-0.0979644085863793,0.08650744762284585,0.3852328486929072,0.14897037610344085,0.013853248855088906,0.04382678669255614,0.024142393377974546,0.022331530823446466,-0.0017944565548500678,0.045047334935826945,-0.05296648692750023,0.19054086657532385,0.07786529752888409,0.174715700087564,-0.10645900431127947,0.10001091068677771,0.35035504113402016,0.0168258548985633,0.00018276639119267423,-0.47393396165340335,-0.03711495892434235,-0.2656203338977345,-0.399719062705335,-0.11848087364570005,0.11753197707592014,0.43466234554343214,-0.11891412564804014,0.09904986983168397,0.45350457600383287,0.2571767328025761,0.3214287437633928,0.02255890316759438,-0.023564412633135197,0.01970210494315064,0.007752908636182385,0.02758728772557117,-0.02371611189805153,0.03788738763733452,0.16205431464590495,-0.07763316021996282,0.08918962958935489,0.13709689139726836,-0.10998952714218131,0.2193145557891141,-0.3651051261646553,-0.26403859828677695,-0.4212510514677564,-0.8021919032157007,-0.35229404086343047,-0.37150517303491976,-0.027067255896896146,0.005855262443466621,0.21269464037175817,-0.023289008871855692,0.5093683525487852,0.1949472021584047,0.09839188172238805,0.10156376647017767,-0.0985882825518749,-0.10630524752998072,-0.07318348646867118,-0.018660232810974214,0.006540046637999513,0.007540650886787967,0.04219812773007855,0.040302001239519034,0.44474110841336306,0.2130029653316489,0.5876065484602324,0.18347293285277505,-0.25391297865052476,-0.056778283818456884,-0.39604696910190385,0.08324699065017833,0.20282556046471165,-0.4625228202003104,-0.017190639952817208,0.0751130518009329,0.4397189524736604,-0.19564307529568223,-0.014888121736980097,-0.06302206332742157,0.2934080071284646,0.39311572717611487,0.12572884434158832,-0.15806348753438806,-0.0017672686527106462,-0.17777650538603973,-0.0704697446007885,0.017370467419593878,0.01928675540651492,0.013716187014604884,0.08176927367936651,0.2125760498926823,0.5149962074760677,0.06438094235646238,0.015725495582867823,-0.21135925035683395,0.04363258954057559,0.17585653984823216,-0.326005528221846,-0.04232235445812491,-0.07716031537890099,0.4995495562655862,0.45365132988562296,0.04971701708519832,0.2649557745233678,0.0135713931215098,0.26606158330442903,-0.03271787502880161,-0.29702449995286156,0.052973139402872044,0.2504498835219395,0.26971496797152716,0.18122262088731034,0.012428456864117372,0.023077683664319254,0.005824376586607872,0.0016824885195158982,0.026285943868506398,0.04636366242327107,0.17862860309446613,0.4871732179933595,-0.10914006188789482,0.0768361866878245,0.08679922265147419,0.2506097590473571,-0.00003918635870399713,-0.1313291558393288,0.19366932593969652,0.2734035859959976,0.3550877889547436,0.38200531015892725,0.33983178881532006,0.1335892422394697,0.11031361002033561,0.46565995544005556,-0.10296163203736995,-0.0001078996559480215,0.4392982971397355,0.31406331713220653,0.6953701509215766,0.40788041098332106,0.09916143489744113,0.020187086111593654,0.005452812309267645,0.04780196000136436,0.006346770532950895,0.020800187245019218,0.13599354366558,0.3123830487531086,0.04782126811204477,-0.47256916143680816,0.20801526360646933,0.49890323462122965,-0.1951847254579544,-0.02899809848136144,0.38962631605508763,0.5711156072052319,-0.07757673312285347,0.23742517982416142,0.039183854825577055,0.3346392329210539,0.02279507643534205,0.3732533967984353,-0.2089056821815184,-0.25527855558134144,-0.107410729952514,0.35890047011346615,0.5782582945169081,0.0032089139462914474,0.016032130643032737,0.07634387796487471,0.034311055961117866,0.006879710840311813,0.026225009745743873,0.024697562914874235,0.06583065286227152,0.23076326472305198,0.20338215878147065,-0.0663821182225897,-0.49029884181618894,0.03682132147874856,0.30578480425021637,0.387381310925302,0.6344284275320097,0.3796185385301472,-0.1839476181726591,0.037240248371071816,0.35503562015882606,0.18385512187165828,0.17853754450579062,0.20038256606512764,-0.07565706980317925,0.15555206713224226,-0.14921496146655744,0.12166319412083398,0.011242597805141233,0.015588061123684585,0.04011544879797856,0.0399882655712249,0.02378922773725367,0.05036382145210822,0.04738148389593977,0.0327271898173466,0.002204411973620032,-0.02925478096349275,0.04787690892272344,-0.052880448539613406,0.07859552458405246,-0.0158015349230828,0.29349282806058385,0.14446979761082537,0.004486675381659073,0.5386769953994103,-0.11562342424827111,-0.14988435122605365,0.33618617149660757,-0.10642523410561652,0.5311488780262069,0.9230467419282143,0.35634607842551086,0.28068768056037485,0.12979490506670963,0.23354655855505257,0.04294526810121456,0.12162164417966871,0.0529783525722673,0.026271398812441362,0.03132740188631289,0.001571445887818003,0.01690873037755126,0.019254555842027187,0.004132510093433025,0.008853148817910357,-0.067680843734573,-0.018966077668986357,0.19327768506613272,0.2724277849781196,0.19518567050178448,0.05815154917873215,0.38473994368064,0.8992208550426537,0.42982760869105957,0.31184268603079685,0.4579635366157198,0.45032559743308415,0.6896136385670687,0.6194089110393818,0.42887337105781126,0.31205195062903646,0.1891401731851821,0.2119984627851321,0.1728683194257187,0.1264969157271789,0.035734621136275506,0.03825705817179708,0.042174368174432215,0.031932383424243926,0.02466687681574819,0.04223933099207676,0.03314622651714294,0.029735262834276042,0.031543168198258295,-0.033915404676158285,0.012909702853640157,0.025035114160487544,0.021493852822765697,0.028924486097880158,0.01752288032249272,0.05793968003674326,0.13517371724916663,0.24368514897997456,0.31969392155121673,0.2845106081233817,0.17523067011909899,0.23993789119503367,0.24625588376868904,0.03428101209181119,0.05788102447250994,0.059085437292347553,0.012791886561625611,0.04043937344192614,0.03308153785036991,0.020307526025887552,0.037920302366441304,0.04387564884568182,0.048099127073912104,0.04440198668443587,0.03811550743619849,0.002494347879495298,0.016269253257556977,0.03925288088326198,0.039497433511089114,0.005379020719440851,0.028782706821414608,0.05035674150159892,0.05568518007317604,0.05574592206142404,0.0249857150444826,0.03914558884321975,0.00975723215912219,0.02187041731409027,0.03692515889710642,0.028792059780938312,0.036221755164686814,0.00944003174670605,0.012976185718468515,0.009493434372762184,0.0389912457397031,0.04433911141889669,0.04690672562930536,0.030932773725811418,0.04551699838090071],[0.03018467814417943,0.003195765554715375,0.02423174618984874,0.016085008956257744,0.03105695726182016,0.03666035515858795,0.024246156937095212,0.018212427677688547,0.0036207828119917077,0.01288371995773795,0.04434708079879182,0.045642437541242475,0.034582027904490116,0.024322368999067596,0.03811464148041736,0.0319226850027171,0.004392089750442045,0.04463813870239372,0.033955243295047045,0.04655892299156036,0.03654226894575356,0.023834946968012874,0.02459675471927102,0.04242876773183938,0.048764303288650175,0.021025101640267576,0.019643839236508545,0.00954801464232957,0.041772575471793395,0.004924678505287095,0.017147750073404463,0.039180695006441925,0.0035153091178527925,0.006535951036520989,0.00768661667599335,0.018930175426413783,0.0020761574086784838,-0.014615157929686828,0.013671405802527301,0.03685234752513806,-0.005722660499970247,0.03896644735968222,0.019039415417324863,0.0249017391375034,0.041904343318241166,-0.0012274813266841514,-0.001081290366352614,-0.019343715633837046,-0.0001435992630884923,0.02127305613516527,0.026949292134334474,0.009171697252603356,0.006642166449601588,0.025861104866451483,0.0004720545077767863,0.029935257285512083,0.037387651410425035,0.02404254526574881,0.019465574079362457,0.04939121741702677,0.016796924799183245,0.007435764440654587,-0.042781911425280025,-0.061067160052123405,-0.04959601505918428,-0.07401125778942737,-0.07004539627901987,-0.21515185019854655,-0.20104868154880004,-0.12575855518009008,-0.16759370742995341,-0.23535684821657277,-0.21072030276250733,-0.12866673646485882,-0.1490599009454983,-0.04205988001864429,0.009544540608758641,0.01845287644226634,-0.0138592082307924,-0.005315610909895153,-0.004460755201962042,0.04413088711151887,0.010300273255426276,0.04398575786206459,0.03532950756241434,0.03124362107906344,0.01568429569625036,0.056564599953684194,-0.013954920372039317,-0.08029186663032614,-0.12412968071959568,-0.1862044395818843,-0.2966269948243584,-0.07687909801825414,-0.18377576543194474,-0.1419554143568023,-0.22421897270280583,0.0417973499391761,0.11684550358935417,-0.29019390661534067,-0.24365603326895502,-0.45389646888093566,-0.6572430179769548,-0.5829590335251714,-0.2100562468569318,-0.04778998721463304,0.09242186944458748,0.04571284634943989,0.04992901753201985,-0.029947698437338053,0.025995488869484887,0.02751495677491807,0.021128548442394982,0.005005227108530934,0.02071761007844327,0.02784087042093563,-0.01648392123564394,-0.1978983924207885,-0.13026862706631664,0.04971474964968859,-0.12700636763186024,0.09258273626840358,-0.08305450630973991,0.014160316453767583,-0.13151069819157557,-0.2792526117277183,-0.27262033451859063,0.10275179564180581,-0.22641353494393038,-0.054350985939739284,-0.15589020089674036,0.12896751739484083,0.1791456434970625,0.001667481397070388,0.39524286489135285,0.28197838558927113,-0.058067424547720826,-0.0662848442768744,0.00150125062378137,0.0026860948941642773,0.03768248228421185,0.012696695123364415,0.0007648395268895542,0.03351431930086383,-0.10244289632216991,-0.21774399723269178,0.1675461209586632,-0.020615064149095686,-0.16714729087689253,0.09051974942401933,0.03412359320737755,-0.025557039783362868,-0.4707925928900148,-0.058539486004003764,-0.1379543024428205,0.03424060998292698,-0.19278795154732903,-0.1287609270163407,0.20179548440295997,0.42851593918390873,-0.1260130166686398,-0.26730248933568956,-0.12666739585973322,0.022211907513077653,-0.02084843471496333,-0.16482806620781462,-0.08236270389085087,0.04507211916502336,0.028163526066789173,0.024149404014628527,0.022182818859863323,0.08094664492579322,-0.03472398375871992,0.23804931861481565,0.36246650255815394,-0.08134566330496824,-0.23925184524123388,-0.49050070917400745,-0.2512229259257067,0.25651382556678815,-0.41088316249866047,-0.17795199706439663,-0.05265218785855961,-0.0905382811150195,0.06791822842735681,0.06556984636238355,-0.1407085255229302,-0.45109473054246796,-0.3025231081488953,-0.013640111454166002,0.005419193503909634,-0.1343720441163535,-0.16744568436768306,-0.18738869693084506,-0.1339881008481725,0.01859386014582171,0.041592855284898186,0.0009692269096642378,0.039708808281722394,0.18249235915415757,0.04407503221030057,0.15785729439203697,0.2523285805046802,-0.18611232796843633,-0.4258530085589241,-0.029876802181333807,-0.31136949983785556,-0.04460102684742956,-0.1665423084731343,-0.32268993870243856,-0.137607032677237,-0.0032616786676286677,0.032460891735269906,0.21181514100029572,0.06970276318748497,0.1020034926435981,-0.18960381221933836,0.05848822921945046,0.045266232813642324,0.13034199599245874,-0.09300660444901285,-0.257894561140412,-0.1737321876532531,0.04704687719753776,0.061154449822693004,0.0370455466470239,0.04876657009120744,0.2075161618556234,0.036594976254942777,-0.07247307928299103,0.1233666908181409,-0.14256407180285058,0.12630799176894747,-0.14105402414017235,-0.09596039026414499,-0.0644508435723544,0.037880264177029166,-0.5150760480678545,-0.0009307518082513369,0.3562981090980617,0.3971184656465898,0.39253543637381777,0.07540564326187373,-0.2606928555770855,0.008445254694774187,-0.05664911278009342,-0.20408088096601268,0.035194400839567236,0.08322481531763543,-0.42447181886876845,-0.3012453434003897,0.038281165192651984,0.011201496138503497,0.07037550562295788,-0.005847476044140286,0.1459143979297612,0.17071162884622884,0.28688795078116525,-0.027398490041801594,-0.13041905954274596,-0.09505551500796604,-0.017611269897930985,0.1375265390757823,-0.3106433736338865,0.06933275478308971,-0.2156040496224415,-0.29197611740359913,0.17942066650338062,0.053506135367483755,0.4635073050008765,0.040338026215428584,-0.1170444798236921,0.06539110316662596,-0.04429241245513408,-0.4043204416039048,0.12520513375623635,0.15266504687311014,-0.5245588158749385,-0.15341972459252468,0.00036353436150645145,0.014587653283759187,0.07126020830142082,0.17386394015731063,0.12208309603219968,0.14867530824662342,0.3629489702747016,-0.13121649809816177,-0.015653652908214126,0.27827103382141544,-0.13154944139960087,-0.1620791922907769,0.3379863417498986,0.29272630480601053,-0.14056108702143308,-0.5443212455946203,-0.5074791514784253,-0.017676821439863554,0.8176725914628181,0.7818662977394266,0.48091122581409895,0.07660782377194075,0.11186943763665827,0.3455319856700803,0.1448124728214767,-0.177423243920689,-0.4005906329860954,-0.10661263887693544,0.039261232885030126,0.02774965053530197,0.07288471476553496,0.25033873947928764,0.16915040999407174,0.2243205021966696,-0.19514212329203104,-0.21799297876918558,0.3463369948643159,0.06416923589086475,-0.08441846397147386,0.16640914204584667,0.4109628517768419,0.38709521513676953,0.1780744345708313,-0.6753300368123122,-1.3319644524852252,-0.6358321055247358,0.2832327592608666,0.5581015777907515,0.5199336903683226,0.5719087230948895,0.17717790945572812,0.13121111447419012,-0.04436923638201912,-0.1576704781254495,-0.40611124058973513,-0.18526515904165958,0.036293384261130844,0.04856251349272241,0.04438880191582357,0.22235395392297477,0.42660381818042714,0.4415074483808719,0.3368791764231925,0.7932653234323337,0.2074390972201965,-0.1105083016293485,0.14933362454829935,0.3213700786571774,0.4383241177989342,0.538572891226242,0.4141838960924938,-0.6646589940594351,-1.416788132459738,-0.23181809175910326,0.3225683880943191,0.3581360928450924,0.7696171997824246,0.31876147277174993,0.08262546740383614,0.23608281615074564,0.1705278662863581,0.06004355143472598,-0.4165402668608442,-0.07828246940254313,-0.0022014157206354376,0.024758152853617255,0.04886127697416499,0.22034986797665243,0.3405177904899437,0.381030859227506,0.23942028633995102,0.40117245975929694,-0.07849142498816004,-0.23206979718183932,0.2933263009024843,0.2836490570166515,-0.11812605819353687,0.6141400387528387,-0.2149172251322902,-0.8104034499837438,-1.2239821804299644,-0.47401207602883233,0.10148293043685756,-0.07302778763722301,0.14584005669346542,0.1728428144033293,0.20845786503244063,0.5269010564763479,0.15306021196912778,-0.03052336690747728,-0.2701189587776291,-0.06245344436018456,-0.0035397068126798723,0.039426883542545574,0.03220131981107102,0.11933572535626373,0.15338625301683695,-0.15666395400405922,-0.0016284095794573145,0.04302373555038651,-0.29709112198593496,-0.16122989642775543,0.16527257968767148,0.3622752368864288,0.15740070982939802,0.6967778479244545,-0.1420791419727507,-1.0385693225901618,-0.7425739510430336,-0.40496477157271377,-0.08739386857159451,-0.05751809926589689,0.3203384399274444,0.28160276127639616,0.24988560731457693,0.14927868955635104,0.32666278739287213,0.38775902558301456,-0.17161190025862463,-0.027809303185167285,0.004380766587330329,0.048980846538101516,0.002876903959158192,-0.041887034927350526,-0.08480264010574506,-0.423466375618374,-0.003382575630024413,-0.15375780062665595,0.18133109995601027,-0.15728926302305438,0.09373178933276609,0.11243948267244051,-0.179536783041891,0.21813524793033626,-0.3552471720692851,-1.1659579602461811,-0.8077771589665854,-0.3029078622473472,0.26949510711339053,0.5834423694943647,0.441862264919899,0.28717729597591773,-0.23138056350248767,0.21573098708809138,0.23877950491967573,0.296732295206673,0.0011820675265430108,-0.010388923965427878,-0.0015777712345572063,0.050158962533612794,0.028781469084765674,-0.04653347265715218,-0.13198360116088328,-0.15665603784013413,0.18823725154316184,0.005772733748304563,0.19980319703379318,0.25964263422074174,-0.3206244737077084,-0.02033258047511031,0.4381366707303555,-0.4603336514892754,-1.0722536719161573,-0.8628279682525892,-0.12296093427557861,0.023629933079212313,0.6129413336387176,0.7802623753340947,0.09132586597171617,-0.09696894683552951,-0.13442679401331414,0.10989356400505147,-0.04301956993207465,0.10605013890709955,-0.1030174041598081,-0.05267198954873317,-0.00040445703903189083,0.015316780404913136,0.023904257587150736,-0.019554442659208592,-0.1376189493071705,0.08228722399980608,0.01971606876184343,0.3262967319363544,0.08678251649739892,-0.1561069399618374,0.003563040479130183,0.3138995118604198,-0.20917864036273873,-0.5482344636044552,-0.8982900174242323,-0.20031187366702305,0.14997857042031798,0.49084642828858,0.7186688106750971,0.1927332613255181,0.18555877761474288,-0.17595056868046227,-0.06588633992781867,0.21411043084736187,0.02842033793712164,0.015121346728268672,0.01713326445816596,-0.031754931390900173,0.04299810539441337,0.04888540599119432,0.04767370878361741,-0.017376474042582593,-0.29858652610779507,-0.006325476615345962,0.07102979158550692,-0.20262446271023432,0.27568995606331753,0.18775753486743071,0.3391316012578438,0.2994166617705975,-0.23453572495163166,-1.0108685464394225,-0.7216337286852111,-0.1223663078935157,0.8269603003046582,0.4324059550113305,0.5079675101599825,0.2817230134246853,0.058684083171346955,0.2820668267091312,0.05740146387416016,0.04098937046212715,-0.11747739078426783,-0.27924502033140525,-0.04162153137875221,-0.002439573421134,0.012633771275524598,0.01736023395105915,0.01765789772579097,0.010005088677548768,-0.2445598034884519,0.07916297663476406,0.14079602704793887,-0.1194043978210659,-0.00010202896755213254,0.38061350864854065,0.23474075963024052,0.030110295324183634,-0.16380863623049194,0.10004664202583455,-0.1462577641304227,0.3241160631064769,0.01809257754101915,0.04461579154316589,0.28288396409464844,0.4974663643474249,0.4399810269618787,0.0578757786032107,-0.029198362466251165,-0.36597109687469787,-0.3360398065157502,-0.1503120793196965,-0.05494862509827528,-0.02502820847382973,0.016304282788445687,0.006914318747235343,0.014451483933115005,0.024313099648824252,-0.2867985076961642,0.01662657475715685,-0.07399409387061394,-0.14955261591482968,-0.1739244137133987,-0.12504219009678055,-0.35553122982672375,-0.07986882358862411,-0.027993474584451852,0.21102499683785278,0.17855724029622838,-0.2642203983039504,-0.2274476708135847,-0.12495078286375272,-0.07800321640139016,0.13933223579447873,0.18079843862256273,-0.18118028974775185,-0.09612586796060074,-0.18173437109666887,0.08211218612151687,-0.03981150825351072,-0.015253708647942342,0.010563360142193072,0.04006819699193838,0.0486311621779148,0.028097793645526108,0.07531176787630854,-0.19108776008086578,-0.11460922606024612,0.07779565788837207,-0.27125039921995686,-0.32932968599678814,-0.1903430474961097,-0.17847790117903062,-0.09125386197921048,0.06080047681150112,0.22648234284895338,0.31057400594842427,-0.22891259062415767,-0.027260572794117536,-0.18118770683118693,-0.48648558190185126,0.21764886148741638,-0.05469001524957366,-0.03054222319158789,-0.035035214329394014,0.13374060534875287,0.06294146553302755,-0.049358175822347555,-0.0318896632396886,0.08274483037392764,0.019141391144357728,0.04541001319499317,0.03142094330739637,0.04557872630429375,0.056732708754543934,-0.17957725651645196,0.0028290471573484788,-0.030545043274477362,-0.050804490491021585,-0.12815194919903092,-0.006134336687979351,-0.08834711440253804,0.054389880106441316,0.22042656758901194,0.18463664791333523,-0.15549009190031135,0.32040092509351764,0.07129740378540676,-0.12997429823473075,0.03359141251064901,0.0006777502338082703,-0.17058180497028236,0.16969756857260387,0.19196546388503713,0.056681352919046,-0.12439817252314661,0.0013477794347969297,0.01367667481163848,0.044539689691025265,0.013137248182049248,0.04706934880923556,0.00038974227693110234,0.03917801577063743,-0.12163987921119714,-0.23299998100765357,-0.028355592732618888,-0.0925318874051834,-0.14374032085175703,0.0422040729543987,0.32314729398079417,0.06400431676557976,0.30392768788164054,-0.1641524494639804,0.4040739998796732,0.1073122302838722,-0.10624080013346136,0.5545014178237775,0.26797184490381587,-0.13499050127038878,-0.15378376264469332,0.04437347137880326,-0.12901713940807621,-0.2338787327381826,-0.13191960053083188,0.02114687677613532,0.03319832633121732,0.04684571116647567,0.029047643162869338,0.008964660719713117,0.009204065539506468,0.03198905369664819,0.14280128240840056,0.1590737403612832,-0.1874274193021683,-0.1655725935456996,0.1936238178639562,0.1391660184576611,-0.14189081787554053,-0.15156152274600931,0.10573326535752897,-0.34785625164439216,-0.028620027598676153,0.13902508893619545,-0.12652341125157582,-0.07693649342204394,-0.25681479306540317,-0.368291878376867,-0.3319798053875276,-0.15215306873724474,-0.21457381503150771,-0.15697437036675016,-0.04869270583189012,0.023447785106730953,0.024471798921921327,0.017401333502735285,0.022127181740245996,0.04105948973683433,0.005782332212583602,0.022456396966184247,0.024127977104768415,-0.05745711797843663,-0.1732639421139864,-0.1266234565410322,-0.08464184086872813,0.03885473877502477,-0.16543759768278618,0.04892778354286665,-0.06825410977978488,0.06451730554921883,0.2686887469504163,-0.18623708817514417,-0.048865531751094614,-0.33194258445485825,-0.3095981590551628,-0.26870450774389343,-0.1859619958390262,0.06251091020002975,0.044184915003553586,-0.04463252846642592,-0.03199402920564407,0.05026937928788747,0.034394176659653934,0.01777475323673439,0.013903581187068062,0.007936969301892825,0.043593133862703554,0.006826403653953296,-0.004941157327403895,-0.04568050881601696,-0.06813306356947955,-0.002958475233236192,-0.03477582239289877,0.02188113090147956,0.013356712573737628,-0.051788255799682444,0.09640998045293511,0.04045031853473701,0.1634952300811248,-0.16953901609195096,-0.11878841608192504,-0.07204908674682495,-0.04916151601684168,0.07022578139530655,0.007173199660108463,0.11122922445807576,0.0565649550185001,0.03493224083948367,0.010849886159763669,0.03769855473421264,0.041005507558998074,0.04893943652751956,0.04117574841697814,0.03539926214871103,0.03186536420620055,0.013169699891789895,0.01243426084591809,0.02629316028178645,0.04780414514337136,0.015419446491581909,0.008253242807445013,0.013733685261179964,0.07745278286734597,0.0277433161726661,0.0006935090741837716,0.07840890519432829,0.1320561825513421,0.0899702885847075,0.06946128688738856,0.09075494660036,0.07087089573452905,0.15585243978076696,0.07546701959588392,0.12435975274590043,0.09344875462721382,0.04046910882797481,0.02863850202287995,0.02974013953765345,0.03780870783132327,0.04221078520785923],[0.0024606437963361283,0.0471390898313284,0.03522800568021055,0.03401161526749087,0.04081632556468072,0.03685875474686041,0.0030369723428036563,0.02319353567631383,0.04356068651430278,0.017643031672751268,0.031100027619807784,0.0028260593358507263,0.021915476069024605,0.04001625108141082,0.017388248275612538,0.04294053564999061,0.03724548456059529,0.014444725509674725,0.008695363587768384,0.00018139640953872488,0.035061238437411386,0.04979895989083412,0.03604287687942311,0.013896695314601169,0.0219286658451618,0.043802394578401176,0.00258768846413836,0.04549619359022901,0.01724081104991974,0.023535310643857128,0.029433346229999987,0.04094642907269878,0.006614041601970168,0.02841443283197541,0.0021115850542077074,0.014030699606291015,0.011682360392800658,-0.0006359376461877463,-0.02147037799889138,-0.011765028281436727,-0.012392486748057777,0.049781559511435744,0.03589234878910991,-0.0019968553408086925,0.006976260570332105,0.04276068577969357,0.028809261221473485,0.027451671014731588,0.030341610090811304,0.0416828293067357,0.04792517899025061,0.024552926083946738,0.021828141403913794,0.00984592008780062,0.02112860173185265,0.038986585223232055,0.0010842558060272845,0.04778798862425487,0.0065631724943036795,0.00007697556344850633,0.018986055447502537,0.0034860716466872713,0.04916892470065667,0.029027845489445397,0.07843855489190911,0.36134028537795754,0.3956157430594064,0.06296891759097983,-0.000969579659943153,0.25223524445320494,0.010790651627457178,-0.15173859459549624,-0.22062625203906042,-0.1940327544486922,-0.29583726212519984,-0.22699191642752578,-0.16050798084856313,-0.0007420542600753028,0.040094560334775674,0.0199687575590793,0.09434233890763341,0.053490067497397195,0.028232641074918297,0.004704490604685292,0.046872675037128865,0.04773363633318193,0.03884598670492128,0.014181686811586694,0.017539649803049614,0.054217920532825314,-0.02610737822767214,0.0729330622129597,0.34374772712537166,0.5022258567215849,0.6704942981797223,0.5739488351743323,0.6453004865359206,0.33133470747650545,-0.1704923812739882,-0.1567058893384303,-0.2565058509622353,-0.47714122349212706,-0.708462193745892,-0.36618793807896116,-0.13649394715786559,-0.05574453641409906,-0.008205556989958944,0.02460688923094963,0.0908931527851361,0.08405501337877269,0.03650819484251929,0.04449816534452546,0.01497865644717891,0.01553124806157278,0.07748689724999483,0.03007389995842167,0.0630034919957204,0.29039317929341596,0.4204274254851243,0.2342487139731134,0.8471469262423001,0.31219500940558886,0.5908702502973708,0.5948419407417977,0.46799559151275194,0.2248657378017536,-0.2421196536613183,-0.9406066960416898,-0.13927641858616796,-0.3548987907557543,-0.26699385947333204,-0.5845050098695154,-0.34884133891248037,-0.2633874500730589,-0.14210414548931144,-0.05811062915392807,0.04670360295425159,0.05380379950898814,0.02059200948343436,0.03519302429794308,0.013803584284548889,0.049846693365994926,0.05237776870007494,0.09523115929420815,0.3986049128893628,0.6388910272144481,0.5074261022658714,0.6473187191774245,0.3320842123865782,0.25894179532785405,0.7370623596047,0.5437535457080439,0.27900391920334633,0.20815385169135012,0.24875578833788548,0.5310219913950334,0.5327634289324495,-0.2477098234470254,-0.6241094806362939,-0.7655506228065652,-0.7090964095333565,-0.6885290017679889,-0.46184457826614467,-0.31754873901501307,-0.02523761516963715,-0.07972233584534545,0.013254337864226301,0.015236037295438631,0.047192555786196105,0.032562673342485776,0.01607045317000818,0.22948607212665456,0.5249482449307926,0.4800799301409468,0.7023945583739901,0.4591294927554334,-0.029256046504548928,0.6042697507330828,0.5841100536157705,0.7690830198796715,0.34410741548950347,0.1794753201118326,0.22389097716502898,0.1373650747027815,-0.15962805500734875,-0.042722147498787034,-0.021863766016551954,-0.4331071234484911,-0.5789663299922541,-0.6412843374372107,-0.545607281370557,-0.42468562682799926,-0.32163159551207626,-0.16342440249792153,-0.029590299895953954,-0.004453101916420762,0.02562141782390879,0.03812357489791456,0.019577233377663445,0.38106862031786964,0.7818369253674633,0.25815752310441414,0.3697266508111334,-0.0805341201835169,-0.12202620385541994,0.48526313840679725,0.20275580003117533,0.10907182006313319,0.5787608869541758,0.29138340420926495,0.21261487684057917,0.4202472504837007,0.02292316107141193,-0.20916117537075343,-0.3615464233467098,-0.634585769125615,-0.8027199621021729,-0.815739129235176,-0.6014487017550263,-0.2650683218483369,-0.11082375426344374,-0.0008211235486651229,0.020229828398328053,0.024896611107443765,0.0073887281489953575,0.0033223733170040094,0.10419293748855628,0.3068553698184937,0.6813328191569564,0.1309944715698755,-0.06069707073180316,0.1994042770829679,0.07199163369080218,0.06235537705777443,0.25531590882313354,-0.2871810349145363,0.21913727054251878,0.5197147343893458,0.856402926204809,0.7186838968824938,0.10958324705943309,0.4613429331694835,0.08580072157772617,-0.3924686691648195,-0.8958535823737976,-0.8290126993279909,-0.3414193617452893,-0.24163052847329664,-0.11168317734568645,-0.07727376825683352,-0.0024478715555974703,0.014821714445731916,0.010513424217497031,0.05008143478357971,0.08041132834103092,0.1171970597434098,0.4133009946037492,0.18666621209029088,0.2055104595082555,0.07263297440786978,-0.5828610387709694,-1.0721557403304411,-0.879780904623901,-0.7617041175066572,-0.15802294334362937,0.5526247845180752,1.1636840453840476,1.0969622545843118,0.520527684783162,0.4915095435246293,-0.30841342163124913,-0.44145433131206174,-0.6877867419446968,-0.5369115558827925,-0.06822558861942606,0.015202883783971525,-0.02621632868570372,-0.1333134963605816,-0.006414819896693103,0.007518365929480132,0.04648417514107982,0.023750409028897947,0.030282363397655547,0.0931289649934759,0.10907070915032922,-0.2947583384263281,-0.3766282514805262,-0.9318893855022423,-1.5310903726840637,-1.1806208806013918,-0.13258546574238095,-0.0019670169469246106,-0.35110192652611294,0.7163534790677434,1.563196909792672,0.17856561272605054,0.21935028799582498,0.39435739097185196,-0.8541369473939621,-0.42136642131649577,-0.4442379474336404,-0.23278971212292496,0.042607702566443716,0.25081259604126327,0.1129840082928303,-0.022583647799515418,0.01433647383598849,0.009709490320108264,0.02760703527273675,0.01037396374317391,-0.006347860315412336,0.06512961241368877,-0.13154069697458426,-0.39454164167763994,-0.8100425531561699,-1.1605317377333455,-0.06877334778656335,-0.23928704723418837,-0.6277928248667662,-0.007987283348090192,0.7450030832204668,0.3697366959144777,0.5719359872723825,-0.408881244925244,-0.8652523055117893,-0.6069534567285291,-1.1792385756118877,-0.595234077620238,-0.07315503438932708,-0.4267643727600756,-0.2622132191322931,-0.1314909695553896,-0.12044531259309162,-0.08990282368278621,-0.1016846797548301,0.02998703761509874,0.010513304773914245,0.006808887881158197,0.007171546565989624,0.015929211519442488,-0.25907202011327074,-0.3190351221717838,-0.7421677222867175,-0.6744594415845434,-0.21409290155060373,0.189852244298825,-0.01578631286154309,0.11219712665330728,0.6711120188598908,0.1480136551670306,0.26906354815407024,-0.5300131707013958,0.075899956076501,-0.45262585669655836,-0.3457054458948005,-0.31231207380229864,-0.27172169284871545,-0.29616416031078635,-0.1909885587161435,-0.2499725721745287,0.05736372809039523,0.09252687839430718,0.06359153533411571,0.02110572997111198,0.02866200359218505,0.04118484233976072,0.020182690323715415,-0.003547378169630624,-0.1450207755725909,-0.20714095920613518,-0.38234319014433354,-0.4467445936666292,-0.13191360088213933,0.12977084923268056,0.045867779210357555,-0.09004372190132222,-0.27468198533995863,0.12245804254148288,-0.13400892136583697,-0.20462390614041098,0.330952080767809,-0.12017568369450968,0.008442106918110289,-0.2639531024237183,0.06111549393256242,-0.21703841099910848,-0.042565257150404726,0.1311968789820196,0.06159283338476505,0.20191653921594535,0.17340707485089085,0.020410403406166885,0.011049893190230585,0.024385396696546775,0.014347689002910429,0.01822482629680431,-0.06665838163996299,-0.16276156378994203,-0.14210915921697964,-0.1329259212391534,-0.093838736127367,0.2994202680028946,-0.5119089536635261,-0.8241352269908723,-0.17767752936068193,-0.19354252946125264,0.18111191098788015,0.04629275740622605,-0.29872987297474407,-0.48412022197445,-0.16639409073398229,0.09902480615297495,-0.004704492779699077,0.13346916961473496,-0.25214970826792504,0.14770628350829698,0.007326876380128981,0.06795855207765779,0.11823807581259273,0.010927864453962466,0.03534245043636363,0.032599543970004016,0.001787577062041704,0.03779001543968554,-0.03309092737354049,-0.1752627444785954,0.10150986910627977,0.242371267165077,-0.4578023968711848,0.02913922728903665,-0.5002678886498586,-0.23714467654563748,-0.31903112045206233,0.1321444467612337,0.01797285217859532,-0.23760583427123,0.13567246285148477,-0.3120122963172717,-0.10324698897246125,-0.34938092326737025,-0.14858748057668025,0.1956442194543654,0.15493698020716082,0.25151874926784523,0.25561488925480824,0.16055569466084854,0.20214550842485193,0.04470128831315623,0.008947351410319238,0.027037839972952046,0.016480546925737007,0.058044693745132894,-0.010479103376549791,-0.2187028080305295,0.06236774195066069,-0.05647835332924335,-0.31717857458557963,0.39498129009183,-0.22561221416667684,-0.13479731115504082,-0.5812296237421913,-0.09797358733078335,0.2563164687760024,-0.45163453379819535,-0.014287701580579801,-0.6565365716583528,0.02251558023196361,-0.04307004997192748,-0.38794330744117955,0.15349278839319266,0.5414754065314243,0.5101769915132905,0.34082330546253137,0.16627662177078534,0.2859663920187376,0.12844657445889596,0.007278374768099039,0.046432273824133265,0.02779928822857104,0.09259443190696413,-0.0787050842249074,-0.2641328440600214,-0.17242179853873077,-0.39089273145259845,-0.012477981738690663,0.09003375291107733,-0.1818606648727275,-0.3723346191951933,-0.44526824338860516,-0.07291028860671882,-0.0955326492955546,-0.9703624076224157,-0.47016739724956164,-0.38453259538728046,-0.14061590906957222,0.17121490942512638,-0.20614919263588474,0.2569973821988621,0.27839521903621856,0.06797974252993631,0.014851693480366713,0.19013062601375041,0.2544280145027441,0.11568741968095068,0.04221637501846362,0.004604102677393986,0.007650450339477655,0.13100507229792635,-0.05055957267648392,-0.010114208119355449,0.019317263210500178,-0.08446230824632549,0.32395630766256367,-0.23262340495245626,0.08463759127933225,-0.21918672745280804,-0.6436050934615904,0.0958419327105409,-0.09011750617988631,-0.690938848082945,-0.02555263639353512,0.10077383840803887,-0.2162898204460611,0.37498732620133024,0.498626215929185,0.8848206253732196,0.4770238589320981,-0.025140070294624686,0.21473576252103288,0.2795764806294843,0.267595836432346,0.16972000511955174,0.03978603764386784,0.013969299655350422,-0.1805075998524736,0.04972835918806578,-0.1281503426629987,0.07077088351340512,-0.18037594675878416,-0.030826166683106396,-0.11677534864905029,-0.2599707227923611,-0.3300891302655716,-0.4002610209420725,-0.3993451214320527,0.36362339474358313,-0.16388929870300345,0.16195523425082553,-0.048883760473875194,0.27622224548341145,0.21777217801424775,0.2616862674863922,0.11831100925265287,0.43935863910724177,0.17625863785648943,0.2500698819965086,0.34909791724732697,0.4098435195618992,0.24084582312503386,0.07324533029495063,0.018942425329862473,0.048774074571027295,-0.07775995046002801,-0.015140534099618325,-0.3762604023742232,-0.10253218298876911,-0.11682846233404097,0.43996140853142135,0.12168828186610729,0.29051384163824495,-0.053804622187817154,0.036620614904799516,-0.12711076678048647,0.1663971210354086,0.46858478325443026,0.09046882265464833,-0.19817858733248142,-0.2854878961234481,0.18446478644322978,-0.5493378319493639,0.03307384612895201,0.06403384021719746,-0.013717680753435635,0.14735218847958606,0.05597245225284121,0.07779205678795763,0.018360325576016148,0.013779526745136899,0.03804843325598093,0.020326191840941876,0.059579803251352335,0.16306952989042403,-0.08451049220824254,-0.28018229201076345,-0.018413753845803276,-0.01877214408477727,-0.22345034228267768,-0.37551760317989197,-0.3497540686548643,-0.26327450422675647,-0.25857962662170475,-0.28693303572112827,0.13784738788558204,0.21037039354411824,0.09819280027751531,-0.07640911973907859,0.0996537415436702,-0.2853297049963556,-0.4202492696825763,-0.6728898112565793,0.00764733322601018,-0.11239870429439222,-0.1852446756868531,0.014194776744767885,0.047194591122145045,0.04093620595918559,0.0325067446972022,0.03345627249285616,0.022070933037304022,0.13972130435081062,0.12837532560177325,-0.03287636599185502,0.16248234979643147,0.05352498965903901,0.16903018305828976,0.2726972714475222,0.19509862674014528,-0.32572749435783804,0.006935806496849178,-0.1577975639975437,-0.4284269580951128,0.10794772332721564,-0.14110200904835685,-0.07367456132235886,0.457078332784686,-0.10214596760338439,-0.32943719434542923,-0.30469461761237016,-0.02725579453700598,0.02796646625174857,0.07823659375023181,0.04202092232328042,0.0314448082946606,0.017340428049304968,0.012231201959115543,0.013094672234257785,0.056793627700817466,0.0755429094491095,0.06471367500812875,0.02753033779237011,-0.26604223487112155,0.2098041332083149,0.04348805759669612,0.40405972666322926,0.14391752880542377,0.07024138276388796,0.553443025252134,0.17632782229137564,-0.2025664864288507,0.1613861900931424,-0.05324252532230924,0.04681748482451161,0.14754180006925643,-0.10664778644971634,-0.13967734134460322,-0.07497557045161064,-0.08407093448403927,-0.03269352966710607,0.09638197816339482,0.09586877349950888,0.03724084034222977,0.02785331844092997,0.009760196277285135,0.017554504957915627,0.03644451671752201,0.04982515414787389,0.05977580274326517,0.0993823919306225,0.03956262479833754,0.04236299750822936,0.014935722459819641,0.3192690330410565,-0.01702659126158893,-0.011529989225360778,-0.08717527840400303,-0.11149270950369505,0.12506338305329825,0.07794527465160482,0.06200546895706409,0.5721578730452723,0.3048690908873313,-0.12983392097807323,-0.13927969970470322,0.008349752620501874,0.050576283525062875,-0.0026054911880110765,0.04169970485706938,0.025453632813124825,0.035182799200355344,0.03239681563364846,0.01613515841910206,0.039677273417731626,0.0014573333998171246,0.022213982676508565,0.044270463933940254,0.047692885892403454,0.08516496078911835,0.14210571246931655,0.17899145764258328,0.23815079690600735,0.056419222008954016,0.23509976231110305,0.2792977923045595,0.2245803826161272,0.09029291742640892,-0.04012688742847245,0.04584058086967318,0.13793082840440074,0.24401407543198742,0.1901623661783589,0.06014360470544631,0.042042951101286745,0.02970538675414632,0.031045634783459772,0.03106898004675614,0.018477765195332424,0.007579658536351916,0.022274188231982572,0.025486686044300117,0.037820783426840754,0.02897315060612746,0.018170887865237743,0.014962144499916065,0.023166581295033413,0.05108002274535966,0.004994469594155507,-0.016668737149655093,-0.029052414348543935,-0.029859247851432277,0.021278207378851267,0.01178572480878362,-0.04834677692231407,-0.010064579376236801,0.03688719759126429,0.0833665879772303,0.12470100818087251,0.16909003638525094,0.05150609940684617,0.029581388323204245,-0.014543402779666804,-0.005848005602301925,-0.0018151519594659209,0.021997251604034797,0.0010888153944718787,0.0010378687721582297,0.028488190254188167,0.04307393052239548,0.02292889255168049,0.030083223565288718,0.02298608193953906,0.033332631514151674,0.014533862555054433,0.026521441878545562,0.03269664294370123,-0.013297642727332725,0.006598957397688514,0.008220292097496768,0.04178936708222504,0.015276743449870681,0.023380307536863223,0.017079460702898116,0.0002493580948896953,0.037187232946377186,0.02745879249858706,0.030911705868672142,0.0054702096347453546,0.022397579598955216,0.04776674068610827,0.003363987771558865,0.044723231259705606,0.024524128486684397,0.040905089877086895,0.019210454203208868,0.0033337479561990377],[0.0034952705109366146,0.00883007892583591,0.02756235735085454,0.015126653981125622,0.024692470139893032,0.043795717058862364,0.010120521490872395,0.045384003646461044,0.03989944682680913,0.0038983200693563404,0.01886178358252013,0.03178716474836518,-0.0004373828799258962,-0.012655525348639292,0.0082033393771788,0.03393306320217059,0.008246781542569385,0.03148055358660724,0.0134703552315469,0.011672647235833267,0.039218760786887144,0.028292832882225397,0.040550443396073346,0.008665087453867439,0.004596251963581358,0.004079575038777531,0.03650475063161008,0.01879144905804798,0.03600920355334008,0.03590716630415375,0.0024954791473399975,0.04516337291412356,0.049222268999117955,0.040562529945800105,0.2747939690372027,0.1910424568211573,0.21632078537440205,0.13979367821141872,-0.07552001488550597,-0.019355372363365923,-0.005321065037149912,-0.015729907866631414,-0.02619460380556681,-0.035331109850139444,0.10157107949501705,0.002901946298067019,0.008904485164747955,-0.0012265170704094468,-0.010815526254443314,-0.061039347197988175,-0.004138386492390126,0.00740645723328381,0.031738055561750037,0.015042823089420317,0.04191573458697746,0.018108060886438935,0.025400792069805753,0.04282870630320732,0.0467297987287106,0.003523573556579304,0.0133443985547953,0.05276252834652068,0.23901078190846936,0.13051220927649476,0.07834162806858035,0.16418417573825497,0.04874029213631859,0.012222077371974864,0.13301159604276067,0.17608260867652642,0.11006114021387034,0.16723100507025276,0.32222619034950534,0.17124158497793118,0.07269842146366796,-0.10016234470072861,-0.04323126452966686,-0.1283655938816347,-0.04890309870968147,-0.007629924527210395,0.11460652420789255,0.08127565909870267,0.03693819366120429,0.04549763172961653,0.04107921195819908,0.0040090692630054,0.03472599362946796,0.032465305485568974,0.04802886925221941,0.01251367552988284,0.048114652422040806,0.06276014476609224,0.26602769480059774,0.35473458158740134,0.10090777717182828,0.23329354265651178,0.3616954923483483,0.35703191485669594,0.29091978915515593,0.4574289806162609,0.10549649075055202,-0.06395813998682492,-0.08499572085865773,0.18081427222145915,-0.10857730537391562,-0.2786288293628836,-0.2119905879316143,-0.07033281102125213,0.09025328779742853,0.10085164260581844,0.018905912909264275,0.03863432942063595,0.01270583138354199,0.05032203523626584,0.09681317009108363,0.05749289361644282,0.0345349295677313,0.016493734109443433,0.3140856385590203,0.3023954161762987,0.3327772409216485,0.15320022774361272,0.2076097875050891,0.14959781424993435,0.25282444156341854,-0.01833291553463033,-0.30651523003540787,-0.21043055308985537,0.08495747479224065,0.002990081922543857,0.13992253810696656,0.25973270985593,0.46710269027743007,-0.17411810642857115,-0.08711599261799782,-0.2829141606566603,-0.17584600949317034,-0.003993495189519081,0.012058585547811983,-0.02817618838635475,0.02864174858421366,0.042664797581610674,0.008301490451778117,0.024148606549711484,0.0630408502053054,0.0298309555823487,0.026554259524357474,0.2762272505634196,0.2026566410024412,0.12858105283509025,0.25943755501297566,0.4448074486275147,0.11532773931408101,0.07178611528690118,-0.15066487425627692,-0.38781666647729574,-0.0013896297293856886,-0.26255003118194487,-0.09290690342528962,-0.25479256698255315,-0.04022764712162377,-0.1996474978678609,0.16002551389612837,0.17958122965516848,-0.10793104265246183,-0.16808814698191465,-0.11245294703076936,-0.044719652978039044,0.006123187742798664,0.013843224917056217,0.018975095780293313,0.08277407300241181,0.14820533520660822,0.08450772548322501,0.2850056338328541,0.1911159643608786,-0.21896648109726344,0.5784500165849763,0.37394411625029716,0.3258648273946872,-0.25989248118052144,-0.048602422207310564,0.32520756761291425,0.025946094416448216,0.08649945691386755,0.00878482518714574,0.16691444977996914,-0.01221273928978655,-0.3231672589890688,-0.26479536272723125,0.14369108707658654,0.016339647585420607,-0.29940421251776084,-0.31949756211264124,-0.06662733822525471,-0.03008498478726886,0.03144688589555749,0.023228031937446818,0.10711182014295509,0.21230359153352782,0.2724830597978948,-0.004566491154361658,0.31960079388628665,0.22958690637455684,0.51058403772661,0.1862014840565454,0.025534306333583747,0.4720310059870815,0.4268498416100194,0.5799941388602906,-0.10510421687481339,-0.2921679032315871,0.18583431731347053,0.19784178001777,-0.5095620967050261,-0.0936256058891001,0.08207902146414019,-0.3048198505289745,0.0556874561806933,-0.1536526572987426,-0.25328678075672995,-0.36536302526108067,-0.06569381405724777,-0.014666129257404249,0.044580885787141804,0.04734060867404624,0.06439847944127651,0.13554857182878816,0.0702056937276356,0.034612444969984967,-0.24095862994012987,0.4274771393367662,0.25116125352733026,0.027532072608387397,0.5633431044580907,0.5311683939827406,0.19080975716180387,-0.13259545556103744,0.5323146360633213,0.37298337242228813,-0.061001722523305386,0.32317556004861264,0.2993512454930659,-0.01285698878424433,0.32068893006628846,0.14195073459979543,0.09850265732026582,-0.2670370428975737,-0.6483362879157757,-0.3596058725168592,0.00024673869436625,0.01763317850310352,0.0019297178815821357,0.025253252929003284,0.05085967373786797,0.1107550465636154,0.054613434468211874,0.05483090712559589,0.14317204259527352,0.07403732780964532,0.2924166740541571,0.32325937031664714,0.24781070594120902,0.2778986980374897,0.5274090154349003,-0.19062592128034778,-0.5359094677292331,0.029178513174217637,0.071646510364142,-0.1358781424124402,0.3120361252853937,-0.31550522253694746,-0.3116112986459689,-0.23202373395322143,0.24618109526274112,-0.07998330923799198,-0.5407008391621854,-0.19486643065524709,-0.030799363832063706,0.04292866529651004,0.028307043499234703,0.021901985018270648,0.07747525568487537,-0.022473218009334724,-0.0528539678123555,0.006821787568578001,-0.012462638294885964,0.1323189967032439,0.8815418856597691,0.21918931744209766,0.23970658527106717,-0.7415622593248483,-1.0087517354079991,-1.280025014629934,-1.3882448591311445,-0.5261503309582571,0.19191351117942665,-0.13451768672113784,-0.08963986741877798,-0.029913920102837895,-0.03155854611922665,0.0570765662377329,-0.32915823756856105,-0.34028308835308985,-0.40116414503318015,-0.019599157558007313,-0.0016371610165290134,0.02427998755202609,0.040060112354053004,-0.0007230168708354869,0.0026043180378424262,-0.09697867052180532,-0.3093814237186881,-0.37739131723959873,-0.5416546293879997,-0.8600629177305676,-0.7847000080065625,-1.3271201039530347,-1.9469773298233988,-2.3964818439083855,-1.991092367996622,-1.2944325461939903,-0.6284532562121323,0.1869992391751822,0.09884283817133234,-0.1560240403404562,-0.06017651007245731,-0.23266533873433792,0.1567360560506998,-0.11489555866990285,-0.37478659443476564,-0.50427742904507,-0.2662213787986624,0.13909590986466516,0.011200764774640609,0.04314969739424094,0.030827889780579827,0.012845304464840432,0.005440288319610522,-0.5106163175253993,-0.6727125670370251,-1.144646903629393,-1.6547332472914178,-2.3378746142670255,-2.7011211651948632,-3.160858419800498,-1.9963345973610613,-1.0850735541596697,-0.14515576104481948,0.09032488265322768,-0.14024984439534777,0.11433077482771861,0.19209971108990267,-0.023880807519559347,-0.12955913942091496,-0.3425608205656339,-0.2852769346311339,-0.2827212510237623,-0.4942503538678182,-0.13448771227866982,0.08152550429825496,0.472005046311487,-0.015724869601083775,0.029662840281589074,0.021531919424940666,-0.0034504139509377043,0.005397202682153841,-0.4833081991744554,-0.6496779647827746,-1.3326441340735187,-1.5803281449872422,-1.739587320211038,-1.2935437137265864,-0.6407743132219428,0.39471972822577955,0.4296035094237386,0.31821020326233623,0.142462931001473,0.096356361302703,-0.24325541303306344,0.25273672343693826,-0.8060134434847273,-0.057679796729856896,-0.20732652788596742,-0.41508292668449853,0.14989534960006032,-0.12661165390184637,0.3040553927516308,0.6186183990943577,0.6576380202603292,0.2058125797822087,0.06975402927863916,0.012636150487905057,0.01994421946753579,0.015269650681140168,-0.35787098727843536,-0.4026060578990723,-0.8647854671755835,-0.3167705577890211,0.029886389857092927,-0.11837646442317448,0.46619185448373357,0.4451156311573945,0.21148311639666043,0.43454025724175227,0.24981698178926146,0.5210498614120067,-0.037658177046656575,0.13894307716051177,-0.12216252654163991,0.15149560131387543,0.018164700852482,-0.18460930484139623,0.25399166688789454,0.05862609990732529,0.3364766309994912,0.5093979693440723,0.26781539601100174,0.14785222989043667,0.047583925750365144,0.018391919244765968,0.04378670518150505,0.026630105005529696,-0.1680460801274797,-0.33923169634401606,-0.3412868625492583,0.46880826720552293,0.41119587844322536,0.3983990044802167,0.13591714408587904,0.3255759152112883,0.6129963235085374,-0.051228197647009165,0.34233939749116843,0.02164038928677584,0.09949032370816174,0.19194435151110967,0.08526861001861567,0.11261881828451072,-0.06312958603319206,-0.316309903742053,0.3660490642469801,-0.05958176411677012,0.28610822959578475,0.6386485618826868,0.3585507668211793,0.17596889261359966,0.04010869790496936,0.015611562704009034,0.030973086097153463,0.05271801959405326,-0.007905705722542965,-0.24131596336786884,-0.024500125032792804,0.40172555714380687,-0.12251949986969184,-0.32100166527510343,0.024733840921252744,-0.03469988292371028,0.1889784711532279,0.09975165258649037,0.38185766304310187,0.09939865489566603,-0.11231796079475881,-0.22570578537993222,0.12597295853860427,0.15882048708888308,0.511267417963458,0.08103189160866457,0.4988010883609788,-0.05267187867924146,0.17200670817235594,0.5277467434836899,0.6633320779756832,0.4639577354360672,0.15092758507489906,0.010381566675714615,0.04549852858619688,0.06720726827923106,0.08669432299477084,0.002070779571197671,0.018861358894616407,-0.031013546755796772,-0.5545850951453037,-0.4386027626194545,0.291733742853667,-0.14577159096973305,0.283457479705784,0.06629475177042327,0.1323295173070968,0.1755487925470733,0.039390114546815805,0.15601002537300337,0.2768289024852992,0.05127423589018613,0.30589420941704787,0.07125049821865219,0.18062241029188314,-0.07579473072246379,-0.15158330190550506,0.2321496968964058,0.4593357394396076,0.31360331571244293,0.14296815776620997,0.0385543927951716,0.016391296378892112,0.018003748057710323,0.08271768158493008,0.30959248393394695,0.5201873707649061,0.29704501210400663,0.07295910650856173,0.10807146881273509,0.16978084324018072,0.046388946214441576,0.028759280211404014,0.261556892084891,0.38553253311010754,0.29942725782998125,-0.13530980591033226,0.4183069713588815,0.007721716448228676,-0.1276774672155375,0.023217525098151708,-0.112174395442518,-0.27426658182451163,-0.3710431027872436,-0.22283020925603972,0.03383698240068725,0.4856615188148644,0.15612899737405622,0.05600615465193732,0.024602387755141963,0.05105250937464945,-0.0878067534569303,-0.16661280777745174,0.3669838877751708,0.17526345139148372,-0.05636244858527328,-0.06081404385711797,-0.5859248155046352,-0.5143937548184462,-0.2556747147294884,0.4043894604011303,-0.005922585258019193,0.0010732131351684027,-0.1253359059622073,-0.3911740177865303,-0.22637384318763287,-0.16680288442002,-0.36146022520333443,-0.2520317537522407,-0.4320236568319082,-0.12020227957684088,-0.3211235368726296,-0.054814436537354023,0.0029759769317022093,0.472578325944021,0.1436496252634618,0.057521319103464134,0.024155502099893082,0.029390486592800663,-0.022491382329969584,0.20805036830013415,0.4259107670441774,0.04226458779601999,-0.004746027458352377,0.22411874810900093,0.23395826263702177,0.25108755442911296,0.3173687092376387,-0.009189999579744871,-0.07276941277441441,-0.2739910027878444,0.0002593478602735933,-0.2341159987063224,-0.30117474913319325,-0.36297974315762044,-0.029444982121901386,0.06917443565238868,-0.25571629872769414,-0.09620928508249732,-0.28920971751615004,0.06572506673804625,0.05293550513207271,0.1862982494967555,0.048099452086364146,0.006553459350928342,0.03048298777762819,0.05025995743894822,0.1485426189421073,0.38587600353150453,0.177702485367724,0.40313168678484035,-0.057199681788982916,-0.010133373328475241,0.049770850023047,0.15454083911269753,0.2399941943043201,-0.4640866617033831,0.4389119152594913,0.11722696224670547,0.03431978622747909,0.5017393270698,-0.11230506300161819,-0.48223896251369336,-0.185401407070873,0.1119325974692036,-0.3299159639195185,0.35539822678756106,0.0997218649688575,0.19664140707122374,0.0370143475723303,0.15386340873485882,0.02639060470538794,0.004808218528408905,0.004914250334792375,0.0482641292916156,0.11085947926332604,0.16517993366945893,0.04717231050072182,0.7218202142545795,-0.104950607976223,0.007259115308229811,0.045512756721648326,0.024435958863559218,0.2672431674973432,0.22392312856620966,-0.5455572960313604,0.1951767203605984,0.32542742822243037,-0.18300061071458001,-0.053894036661516695,-0.06641208299391994,-0.39483569972565413,-0.045629542397170035,-0.18964458421088237,-0.11828706430986122,-0.17089603658577532,0.03994044818896285,0.09634643765648851,-0.030897379431174824,-0.03826305008089539,0.030169010754735562,0.04996772190321744,0.03271512772709183,0.04059140291303734,0.1029386166385817,-0.021008426293808346,0.4880353268283852,0.3528400036508445,0.37626937918014425,-0.06968181232113067,0.0693037644280931,-0.17561130506229625,0.5152577611025371,0.009209958247198337,0.27965660268992515,-0.17198076721950145,-0.2222786153519728,-0.0020758616984675395,-0.08238460120253924,-0.19915959282795057,-0.05390969952438508,0.07449023651810513,-0.13617996496165582,-0.10984004306690634,-0.2100850783615394,-0.03081386172826993,-0.08318759628711152,0.01803773142231198,0.008443164750648144,0.029150683294122463,0.012616301314646673,0.011431842038205662,0.11738907096226983,0.3893220036426208,0.4542004740219005,0.05161647606211299,-0.04188924820222432,0.10020725027436253,0.0541236239974318,0.015566098169596618,-0.04333595472054251,0.27174997517897553,-0.14965476018146137,0.1971139143931168,0.052305396501231886,-0.1051120376276484,-0.01658120174792869,-0.6450691093635722,-0.32437610913462306,-0.05397663688285839,-0.4071911248388928,-0.2437678103695894,-0.14720691928418378,0.0819852589477175,0.0315903506690831,0.009871868243199772,0.041158652905332486,0.03634192305076441,0.03547176224426628,0.03690865414651113,0.09041444342531234,0.09953888636066444,0.05711641718164085,0.010564009281698126,0.11343652597619983,0.1032837917683994,-0.1464124085692035,-0.39320118086224987,0.15468200122498732,0.44285255944113605,-0.14773087201599772,-0.08216217243989696,0.23453225995793262,0.19800098524606485,-0.2243465753365056,-0.6062203210890201,-0.451854637956951,-0.2352272043460307,-0.5075350800173009,-0.12297681702431128,-0.08019275804521482,-0.00789590356353087,0.029019487862776572,0.022222828353179208,0.042651293500697504,0.011825770937295364,0.025970836132898526,0.00368489696607867,0.027573281758415356,-0.015056270452800563,-0.1747596788910749,-0.1700373219188762,-0.02042420688278956,0.050140203761129216,0.15937731975199926,0.12194973805898111,0.32232373410951937,0.06475401641383843,-0.012717981218464212,-0.02538626114190738,0.06585657020841633,-0.09358923467527322,-0.155105834615423,-0.02614256418129067,-0.026684230465068935,-0.04616687275545904,-0.21996637191737467,-0.07804034861033271,0.034819270524941,0.04789164831890377,0.02270666407654246,0.007667009403070814,0.02123471569181181,0.025106132238201087,0.04745661621494364,0.03435155485642279,0.01575197561043547,0.0470801916804858,0.031845479995094274,0.0033915375153829117,0.014599461357638416,0.018952605930101365,0.04305916432297755,0.07158978511766431,0.02171908156891479,0.0468841874730861,0.02882052301292914,0.036821729490017906,0.03472374403419956,0.01437447522242549,0.015639756448238087,0.03225893631666925,0.037339587463544474,0.0019542880249425556,-0.01159146571876002,-0.16385145967554093,0.04844900592921504,0.013025439182508702,0.004609399889993287,0.014462468950732069,0.045428472701729436],[0.0010814439742343625,0.049741103226486755,0.03429187009337838,0.023860752860371665,0.004956937801172734,0.039196332210041734,0.01108384989924397,0.011749131069325664,0.01739321778507087,0.0369292965342099,0.025039205575423478,0.045393740205916876,0.0134576808927477,0.008113023952790696,0.04738881086042881,0.012559911260621398,0.012991446536833422,0.017732074772709834,0.03444375157774569,0.025593206916007326,0.03631256618263961,0.026124144479967297,0.04261700799880751,0.005120705248809319,0.026524115289131615,0.02237714027710337,0.0210015675810161,0.018356224601115984,0.021434245585981882,0.025996084022143814,0.011901636762998168,0.022165110791664604,0.0407739119719488,0.01883116731364517,0.026992241803636723,0.02060583615698188,0.036005266848962915,0.001219844886068703,0.002138264349365325,-0.04454496868843251,-0.029547684425761597,-0.014953949534989384,0.012687164186661399,0.022651041375991887,0.09631924559816644,0.053083521371309395,0.01709344647809937,0.022290314672704363,0.022609853700265234,0.03307269101949853,0.0320045370266927,-0.012642004880256318,0.01843919512024627,0.02738899628881612,0.01980166539753447,0.043467256282426626,0.005208071827325997,0.03982208893038104,0.04442323711513159,0.02523925602765987,0.009470103981351606,0.03592982720900375,0.029116523020748436,-0.0013584220316943153,0.02869944691791188,0.005723095817762791,0.00573584651677265,-0.04686993806845516,-0.07890050884856073,-0.2285662456743043,-0.19064487871562322,-0.07115823717344417,0.020367212476067376,-0.05459264950754424,-0.11412783544324595,-0.07114736714431998,-0.08984357400055899,0.03056320422230555,-0.008611189783822524,0.005436615884966728,0.07699741561699255,0.06483706528368431,0.04204275076240427,0.025158708638196383,0.04507487020569058,0.000573574041301527,0.013234607972666448,0.0005673204548962145,0.04231958030027808,0.0016706480214670398,0.007579264051943739,0.0017755340741479775,0.020565482738614183,0.0735452163547729,0.03501319012536306,0.08658328217636779,0.04178556210863154,-0.3286175647146261,-0.578202336475375,-0.3858824662532291,-0.32500659678807586,-0.21015388458163417,0.010719648950440717,-0.10880338459734075,-0.13882134732789325,-0.022946444180314177,-0.020790434193322653,-0.02380496658189357,0.02694912522653024,0.06484819231831165,0.02732112032733055,0.008522456696285815,0.03141550972684508,0.006077597518966736,0.046291255514931615,0.0075810959308812995,0.0160200034119889,-0.0022733905933641036,0.04428810190372887,0.07868658963199668,0.017433325987950544,-0.1013828297039894,-0.19788171056731085,-0.2831223274723161,-0.27955288747220536,-0.5026215578088091,-0.8680156406501093,-0.36459846375756005,-0.5688055306128258,-0.564658315276108,-0.08067344089671813,-0.1469652752865855,-0.130826643091728,-0.035227446259311075,-0.09585529079164348,-0.04638553540327953,0.002895634608750699,0.02459123645532888,0.04822026580281961,0.02485797412744129,0.03782977238174953,0.03540717942311235,0.0016058627333013149,0.032533201229705565,0.013796841968403351,-0.07737279259658571,-0.016331066748441547,-0.06886239224104602,0.07533332105549242,-0.006918677358484465,-0.03428722663972742,0.3389938528884408,-0.048587450870011054,0.36017077248057616,-0.34954584515605064,-0.4620025687028475,-0.20961738405273828,-0.00965784782852963,0.013371602121011381,-0.07808101173311545,-0.14132034953422923,-0.16085463355482923,-0.3894652318260808,-0.2763845388143648,-0.06292546700287927,0.06313310650981471,0.04096321086085176,0.041454308995356744,0.04521535564463326,0.03420989611163683,0.02111052605849656,0.048867406200436815,0.010521293241975628,-0.21101869325175504,0.0006830128220705521,0.2066611894643792,0.22998363031055485,0.2315466889173028,0.5669325042989187,0.36535055623745477,0.06242775576428643,0.6238328246429485,0.6696260480758428,0.7179032599005993,0.3844078049372857,0.1643318516275933,-0.08911268506627201,-0.6956902401789842,-0.46843806668370097,-0.10695448835083125,-0.2908095760738801,-0.3931735183577487,-0.1541026948440055,-0.016847754719491514,0.01445198403414316,0.04575346962042021,0.005590667226963314,0.0319900463082717,0.034784408281278795,0.1322801794132485,0.07332832641754534,-0.09582405110717686,-0.0726013654112407,-0.22031343793970576,0.10672591311675299,0.23536890650970824,0.3077136329065277,0.429460548957149,0.7151578966234394,1.3304453123518716,0.6649483451704136,0.2831934862792617,-0.2858481397102821,-0.764118744244661,-0.8301117531192728,-1.1597832112928363,-0.5327227781069539,-0.08014776396312352,-0.30688570835280204,-0.5340093391583979,-0.279444801512979,-0.09848711830544521,-0.03198897761253971,0.0015405141250848138,0.012447487345055248,0.0007160348649597963,0.04475419278200457,0.09895714410707651,0.17859003070011475,-0.1904595548781294,-0.13444277870939791,-0.4025845592308109,-0.028155458919997847,0.16410202329743845,0.024090499004267515,0.6523166724741045,0.5491874268703696,0.2299130359022721,0.6454519990551555,-0.09266725491589274,-0.21691735730365294,-0.24916408366215773,0.20025059277090115,-0.6225978537260689,-0.429508653907644,-0.4993675833765687,-0.30055705559710827,-0.5545007803146698,-0.411627018723744,-0.1821169339117532,-0.020852244200784086,0.02340765241406171,0.047653143931287736,0.023166723883357047,0.0955762394844651,0.18568465803548054,0.2964166703089687,0.04651818886321694,0.17819514387767335,0.19385922078873835,0.41074260217940284,0.4638758999114038,0.8600965311500536,0.5883224426536954,0.1685762006163252,0.1375713403011429,0.5380011872638772,0.09917377191287557,0.3759424739325199,0.6837321224156518,0.3497077297912484,-0.6152534838402889,-0.4266004675348557,-0.8512913676271241,-0.41844966989997573,-0.4251727657179753,-0.41401808904816056,-0.12832289778277017,-0.015920110350025916,0.017195420321564785,0.0013426523909837822,0.029875812452380135,0.06250006014700496,0.10342000921872183,0.08907671833296602,0.3319960247346784,0.6163855043647425,0.486774850263404,0.46645307961101273,0.49560652093397445,0.25275531766399106,0.25962339962317044,-0.896046389426837,-0.21067722712114392,0.15560108058874283,-0.21049272456322027,0.62015060932578,0.12545265537303002,0.460588401694852,-0.023019930525809345,-0.030164864364184682,-0.47577187316037467,-0.505996596868389,-0.30943147013137184,-0.22025023583095407,-0.04741571695696252,0.0009628487099201768,0.0438786739753367,0.012749796556261942,-0.01044329832495885,0.04088058348620595,0.028220172346896024,0.030952797032584578,0.5136323569249778,0.8249033468611646,0.2774540468704808,0.061938070133577154,-0.018311337068196588,0.09133004993683162,-0.14635691798293513,-0.722317328741681,-0.27395286403993885,-0.5931482817598464,0.3104882726826531,0.4128850662082063,0.5058238865028557,0.22870945342121357,0.37430502480168293,0.12282008813721963,-0.11748556181086388,-0.41889097172881024,-0.30846731220487655,-0.13158907703402525,-0.016618906001950543,-0.0011461977605374842,0.024486945848881708,0.015081335728210703,0.010131078734623027,0.029388502662408618,0.0818708609996338,0.1759566232109417,0.2373527003405462,0.5690007105749425,0.018570899434661475,-0.20287043964899013,0.04909758268621766,-0.40850871920047466,-0.6427033477188943,-0.5492750575334007,-0.1879436736052726,-0.00581481284523049,0.4340804886804923,0.34915688187944594,0.4385374531900608,0.2945800153678994,0.16391408235782096,0.08157298884596292,-0.1936722606199687,-0.3927568476279805,-0.24830542991843968,-0.28394858312128884,-0.004264503761421695,0.030308288381357795,0.014657220026891453,0.013035384098431737,0.03166315226682738,-0.00018098570497928677,0.02312666815008394,-0.06927863999939968,-0.2527076853303305,-0.15427787536285645,0.017660299608161935,-0.36347930307996806,-0.3954600136483267,-0.2732384609625279,-0.07190727909864877,-0.12911765052721513,-0.21915972910813966,0.15593650411935303,0.030940121463020828,0.10541848648133313,0.10773964489777724,0.20026813958734127,-0.2901501253213957,-0.335632273678877,-0.5116323104647944,-0.36920515889848216,-0.0782027563416362,-0.16505763243370408,-0.1419645677470482,0.08625900118595867,0.04045562121923275,0.04014886757093628,0.03232389751171545,0.022745059389779863,0.028511241661387028,-0.11310931470550836,-0.6084516135448851,-0.33997410293331104,-0.15769589693394853,-0.30076657927856876,-0.3070762849398902,-0.11287175567325058,0.03487305895357124,-0.06383224109909011,-0.18315500093665044,-0.7464971996571133,0.1611925358156774,0.03101426606970807,-0.1845953091366507,0.2697635641483563,-0.09571275006109672,-0.04905479423166181,-0.28560400062126895,-0.3052178874718682,0.15483113900075487,-0.007050477156279383,-0.219807698965124,0.04785951648467823,0.01267021646547731,0.04100581851603007,0.0024084034515211763,0.014202677918981143,0.03424443576531259,-0.06418008239674877,-0.31721502239188587,-0.3472661467438612,-0.323447429167941,-0.17045797301558074,-0.3996015516166867,-0.009448210367618191,-0.034272134794762404,-0.18381077192089723,-0.6044570008689273,-0.3968276563602246,0.22901405833931202,-0.14261442849020325,0.4132288264547948,-0.16882427230031685,-0.20649876178762744,0.07037218056121967,-0.07970735844371658,-0.21522006353493087,-0.2134899279211176,0.020356826744369932,-0.021269061367205685,-0.1019499146568822,0.04453202655185005,0.000014262311552236753,0.035460279122623936,0.01697132150149544,0.0688166715852806,-0.02659168543724816,-0.17274901824450636,-0.39664161558997674,-0.0922460594407526,0.052366329616828064,-0.178231643194635,-0.18372515250505014,0.13661740003879952,0.1809772948365029,-0.3086928359922458,-0.25053667532580987,-0.27167887023423204,-0.3088256622582098,0.1357352346921766,0.040278091388132785,-0.4079267964870331,-0.043503835145333014,0.0706316824410891,0.08713794879164902,-0.06890627452158968,0.22009783541962682,0.01593059221122157,0.03746682485499211,0.06238228273518831,0.019851524541785466,0.031228031606638142,0.06162246891236853,0.04115486918615784,-0.022470773193072453,-0.19109662832205074,-0.2156989347164997,-0.15304631268862887,0.21685582879339071,0.15047297782438915,0.03757049883674034,0.056899499875159104,0.2379226617285407,0.2860115110148908,0.1672364848419598,-0.19168166303572076,-0.2609317511158841,-0.15194147728140214,-0.24974652418561052,-0.12736546955641084,-0.24795409309790314,-0.25981964615542047,0.0777685868645757,0.184558757926691,0.18528224752587732,0.2746063740587691,0.09932478073837446,0.019941756693020618,0.02553840730987107,0.03382423773700255,0.0367933769947027,-0.005704796242511944,-0.12672261402941265,-0.16691488715709313,-0.0975044453238433,-0.23836579474020037,-0.051101181310365805,-0.3486298661309864,-0.03652159143936329,0.5107266117955103,0.20320763852137225,-0.05296019361401819,-0.4348867634670017,-0.3595702157838429,-0.4092263078981833,-0.3204407412799173,-0.3508528890517536,-0.1071837957590228,-0.2836424533896031,-0.12404443760709824,0.1457474145250905,0.06291958022379616,-0.08937179092544162,0.19157917683314296,0.034135398164254045,0.009476358525575865,0.0036373641879470023,0.02514674172802065,0.12486008605337047,0.04043752941359682,0.07451655425992898,-0.16105233866524882,-0.11172671343980775,-0.05408480704711028,-0.12088536894872379,-0.10814234657992373,0.0925126122188824,0.4709771833839071,0.3201485436703207,-0.6791528867426359,-0.20975716521354199,-0.10602401235917129,0.03024696236204659,0.1033398728416174,0.37407982266838224,0.24388427111399408,0.08224279060002197,-0.06969009142868524,0.13388803035374056,-0.17592741738740728,-0.07629484431499921,0.19217262492167636,0.07126452514082325,0.021544001730368082,0.04806218350097598,0.03855801851226562,0.07829390581808326,0.15194457835379796,0.3286495547851779,0.22310231444747505,0.22169446063298004,0.4388444038803416,0.2669062881625756,-0.04751184311936159,0.040205268376494296,-0.1802695693091999,-0.29734602697247864,-0.39401955147300727,0.07175587855230925,-0.08208540531958292,0.3071759621587263,-0.290287457484914,-0.09797391552327889,0.09806205409651314,0.17159382135910228,-0.3105072695292405,-0.03258240524478474,0.047861883929020445,0.07218490174802299,0.2180955289621005,0.018968986556919573,0.046607937511770774,0.029891062407866882,0.039734248481835016,0.017549960410215514,0.05044085724692247,0.38790721968347264,0.2745422325776727,0.19239613378924492,0.3003664613723545,0.26154234086141037,-0.11802259529041714,0.1361925535090466,-0.07385258540048249,-0.07850791577548034,-0.2505432269189442,-0.03934257984219453,0.027370765194743758,0.062163015267115755,-0.6626720878875889,-0.02512922773997779,-0.3941779792328974,-0.20924529137946343,-0.5287063258939747,-0.01580269074218499,0.23454866989263037,0.11385078950593161,-0.04320794406986785,0.014239569948660682,0.024609180665494237,0.029303767911753074,0.03991172378193125,-0.00977470338199304,0.04542517802133465,0.2568368264717058,0.2715815392933342,0.2694763337361761,-0.07645307904156678,-0.01390795554497819,-0.13842708910595228,-0.03646225876852154,-0.24941191514549454,0.10409632171596958,-0.16683196264173308,0.19873252556201698,-0.20459351770151377,0.00007782860371208953,-0.28635889817378934,-0.2029349231059724,-0.723944226354386,-0.19631839585343383,-0.12315211995376249,0.4010015196442594,0.3329952780813263,0.04083911496924281,0.04713496220454343,-0.019624698350679766,0.01964746610785833,0.01894739356921622,0.04454001278817895,0.008873055808933614,0.12804054113969976,0.26721966228620736,0.30744171415157323,0.09037196359344216,-0.23196438829776267,-0.23988457632760077,-0.39148268049775486,-0.20463459337108791,0.356880268690211,0.2708611487563927,-0.17323297558011702,-0.10839786804139179,-0.33863078635258315,-0.4234892298064247,-0.12987982343432758,0.11498702332783008,-0.3421711929627227,0.1127300861697462,0.31001628340777343,0.3218958394188229,0.24749533656505904,0.09337957147179493,0.0011028244016248682,-0.01514171455326682,0.014250032058637962,0.0034575495478236804,0.03103573365882963,0.014504022513106531,0.09249519247644418,0.2401458991294907,0.2931599567888183,0.03738533758102792,-0.2160069421756457,-0.20975998673113075,-0.3008890066317606,-0.03264682401516553,-0.6738467485570869,-0.45982681790727353,-0.26549300412745747,-0.05332825237370634,-0.18099705406906103,0.25627296351655626,0.1610427542542023,0.09359689890102982,0.1109740134357879,0.19001857907492434,-0.07516878701602057,-0.06916330268494097,0.06092674587637685,0.013943079945522234,0.02035131574795546,0.04175942369337807,0.017283484061694932,0.0402360385845557,0.021734599607940115,0.010060764592533125,0.022165371429519302,0.13485827464403272,0.18362065671686506,0.17411623749412186,0.15693856148790222,0.2903650280362059,0.03385207026258071,0.044296204135738426,-0.0778395990697395,0.26437584064527203,0.14658237210815198,0.001271252703999955,0.002636233972268266,0.17261244707837708,0.32347297627227173,0.3082319435373685,0.15802834160847856,-0.10011811160995504,-0.014127336702637983,-0.20845622335562888,-0.06271990431780404,-0.03534912522466242,0.008584409811517995,0.014678434430569142,0.01535802364835704,0.0033906241799060233,0.028798127557253528,0.04838728827562877,0.021869662762901792,0.020917779814281202,-0.018231578714536203,0.056673606702540735,0.09390628160697233,0.18892202249145607,0.2722692377309241,0.2679451932397785,0.47429685754378154,0.37489067544820043,0.3615255018772345,0.5503278160907293,0.2211167556628499,0.3449783334100738,0.561789733672004,0.5410179507977911,0.28365254702248893,0.16033894764212234,0.2089964175747248,0.06005479896918378,0.06104699929038843,0.026802550996353976,0.009686110123047683,0.03102880360172479,0.018983541454828532,0.0021477911611785003,0.014684179545897836,0.01695985019901831,0.0397934638417909,0.03334977738472339,0.05006007994037641,0.04057564423684191,0.0041919724568370755,0.0498770898007839,0.014397384984860205,0.03216251568391017,0.043160489178601026,0.0476714979491005,0.04754937360019996,0.0971738817831878,0.08116392408409591,0.14712134425485718,0.06080297742794324,0.14067205213055853,0.20365943747756549,0.04141122469548471,0.07063420477858269,0.03393235465676735,0.033783879295586704,0.007390496025690722,0.020388670033249224,0.03280927378419774,0.005982340971646328],[0.03350750891895381,0.04594805682647875,0.037588317620577336,0.03715236215507882,0.04618569014388177,0.03001420265232801,0.002299408474707541,0.04937085093736364,0.031643470447403524,0.005913433328458,0.0312733297002237,0.018070050953474973,0.027912359308090787,0.0033902292266664432,0.025424715236860927,0.012824826448573495,0.0456617761684828,0.002169844239423565,0.04782077240707193,0.004949658941819221,0.04452461741379842,0.016942218326512316,0.010133195358592697,0.006721442530778058,0.02488564545002202,0.04825740493163545,0.038920075628376426,0.04976024802697687,0.0038578164540409563,0.027038163070519226,0.03715463349102614,0.010389511294597874,0.03593622285441609,0.012809157097803663,0.016712216013285694,0.025427807410113492,0.009504202198367345,0.009207241891798784,0.029797854501649974,0.018596242293561934,0.029237195040631176,-0.003027770042522147,0.03307824395105194,0.026146928030170595,-0.0179076641537215,0.02465921241939216,0.007774903434056713,-0.02876418677188712,-0.023709187062534703,0.008861988179745232,0.02361661643098798,0.0169991001841419,0.03635340531758885,0.005660543347261019,0.04101338981118976,0.02149002025759395,0.03944259468495002,0.009163745550435403,0.012074276310025923,0.006143159393482466,0.02789281037158191,0.009625162361027215,0.01775187832047958,0.005022777150839642,0.003799376714774459,0.02698131221730498,0.035120512099126894,-0.006224043614356993,-0.03335506254269087,-0.0385713931236763,-0.017983437810366855,-0.038507177995993146,-0.033221013852316364,-0.034219761429888175,-0.031237454757320256,-0.0453557410036985,-0.00024911498390241824,0.014125893280457777,-0.006476597142577718,-0.021200595729791105,0.004537492494511066,0.009760610593821864,0.01686972435282617,0.002717191735618152,0.001265744327633532,0.0006344909016287426,0.019277049672617147,0.03677766741007109,0.028682243700593454,0.033700511114177586,0.01943244757164938,0.05840507637812889,0.14001299139202522,0.0011124157763871705,0.026205925854483014,-0.017915535624489023,-0.08033700346648358,-0.13304729391155767,-0.12054118343055634,-0.11922733291181595,-0.07291989857312894,-0.03273783088744404,0.04722907355053962,0.057023721940549624,-0.05563730241792895,-0.030324267929858043,-0.018754527139634884,-0.030922574275978776,0.032025870823130416,0.036818769881165156,0.015822991836299583,0.01627314340719749,0.03897393609568563,0.025277229761592742,0.03373758257467286,0.021319505836969514,0.02563543627713138,-0.020525023743874056,0.04099813264251015,0.1799894714851322,0.05891257212772945,-0.13594800964955933,-0.29803562519194204,-0.2669559129669317,-0.4898283022772913,-0.46460747613985737,-0.4064089777794067,-0.17483346084903595,-0.329187440765208,-0.16608650765384583,0.034797344125170805,-0.0644145739359812,-0.08543417391711867,-0.10059366013317692,0.006833246496946006,0.1163256818226365,0.09712327371506878,0.03340684819889887,0.01297161075999841,0.03548282992574239,0.04861495362205713,0.027472029912396726,0.034415625148787155,0.0493784363516982,0.016515082722934563,0.15602040854999125,0.29325719307532844,0.3889264067836885,0.33500680587473647,-0.016514634018258357,-0.18753597054933144,-0.10489012400906544,0.0228689396438766,0.1258274862468125,0.038883618322127084,-0.4008938564284645,-0.18330044879687135,-0.2692083347579828,-0.19643475175685465,-0.45043786858345297,-0.3420055202318416,-0.26375273834575214,-0.16365266276995216,-0.1329775810767002,0.0014848007635288984,0.04481138375829639,0.01598940960402823,0.017596091522122333,0.03419703636181574,0.0015557663277040092,0.05900571105060197,0.024218790705689927,0.026276111185970393,0.0696576194681556,0.15852702583331904,-0.033746981455266695,0.14025251924033774,0.1667139567931715,0.17355604498113666,0.25721599514012333,0.14752499793754212,-0.12359889875933378,-0.01675382542735603,0.37975314246741504,0.5632992727643368,0.6468143944115624,0.5759826114699957,-0.11722124805935237,0.31646581886808467,0.19354552222271248,-0.09703167308219879,-0.10759802547474394,-0.09881068786798565,0.06544660945351434,0.03711889005505809,0.03878351698072502,0.0031491551370637196,0.0267806999252029,0.08418731068662734,0.13451951393351866,-0.180746799329349,-0.35271608984394576,0.04430410128177409,-0.19984202185027422,0.06703442922738856,0.0736423023013319,0.2701548974964745,-0.1404987413171672,0.13785618376070363,-0.2751368557063594,0.12638687824911837,0.20734326609860515,1.0599371412647,0.7268717480720323,0.46244387099196355,0.3399815417060056,0.33497362809827214,0.04460227026737583,-0.03491740992291158,-0.19849429231660415,-0.08195956549149316,-0.028729768386105064,0.011410187985091073,0.003917942728989428,-0.029930228654670432,0.05686588655235878,0.043095770942530816,-0.00017701399723462892,-0.24511995292617608,-0.37177032767167273,-0.16443232792052534,-0.09442620978479627,-0.05172360169433402,-0.3044545530271311,-0.18222937330020625,0.037016906291575565,-0.28615874539123276,0.5077257018076546,0.648425155771084,0.12251548228279957,0.598675449201204,0.116309616304678,0.25433763739862725,0.4833162231155228,0.1725327528105514,0.41712266074333293,-0.05177793375213705,-0.554964822294761,-0.21362982457047697,-0.0853987588399044,0.009066418890674154,0.006296689211284847,0.04026665315962515,-0.008071612318906352,0.01374081504821341,-0.08299824742256731,-0.22382151041604625,-0.337925122020404,0.11850787425513258,-0.24525680416809928,-0.30200664108944075,0.20068833209778736,0.06981921878961299,-0.09839226791440785,0.37818031342724473,0.8724859958077096,0.34949998640070795,0.31570237112638605,-0.01129945611960815,0.17758387339257903,-0.08097968235769078,0.372146100892361,0.3255670712936349,-0.3211779363105233,0.21813076111989216,-0.4601387460533115,-0.18193683467700453,-0.069620685676923,0.002394608662456335,0.030071493216142726,0.031014920244741794,-0.03343028036478745,0.027621871607119087,-0.002437466365486844,-0.04663337749219549,-0.03281555609280509,0.2823672165578956,-0.09122299854452143,-0.12242151288835341,0.25159378767922613,-0.31016001460975184,-0.0348689427090738,0.5827990546435343,-0.05638094492430689,-0.6074846928020852,-0.5214044969927928,-0.3453786348664184,-0.2545754077850135,0.09629493105889891,0.34001978185645926,0.07490587720020547,-0.25335612952652353,-0.05882899409103214,-0.1795193117019342,-0.15623789470000943,0.08580850314470187,0.01309998681664631,0.009422887328673362,0.01789672967643972,-0.05665840294250642,-0.052232731334434276,0.009268583104508269,-0.002803560270963209,0.13000307941943504,0.39158937246610687,0.25265829141074436,0.5747853479637945,0.3944548068374326,-0.15428218614914907,0.5342727543536795,0.1630115018489523,-0.24523466199529276,-0.22852367417895517,-0.6186686385513718,-0.36465897780854833,0.235852546816786,0.17647246780356868,0.12856303159482205,0.45296063955539523,0.4817283205339931,0.3982497330153236,-0.0072964633296034335,-0.03789066702901835,0.09530414450091743,0.038721418559090254,0.03155596066466837,0.028861156309407086,-0.015572135797817058,-0.07573601327665827,-0.0717979900094304,0.22028366872706898,0.13461605921657582,0.3292134495612273,-0.2408936128744304,-0.1503397452141897,-0.32799498898010543,-0.4243564963514011,-0.5044162520417003,-1.3013718024326382,-0.688076366357703,-0.05587127764838491,0.557710820882447,-0.14401245464253434,0.009209048248739329,0.3883883256089596,0.028368857820056388,-0.021716994655116284,0.24134624080617872,-0.12744392780559033,0.0021721861075568415,-0.3741410892792613,0.041529848811667935,0.023229152720032595,0.011448816280484433,0.04431290937364192,-0.00012446979288947594,-0.03831845303726451,-0.09020395884831517,0.20655022722941396,-0.16894310240472965,-0.17386980566041949,0.03718755195745415,-0.15967545085286758,-0.49688262300979547,-0.08834517139384637,-0.3715766962493535,-0.9442373935023621,-0.16096296530225837,0.19022509767736406,0.05852736223825993,-0.046638062683197555,0.49305565211803143,0.291674697240258,0.07325937831648917,0.03556334560322211,0.13002654172016023,0.06709998566434788,-0.49870041358373474,-0.4709689608358281,-0.050014921486937536,0.025974623905950654,0.006326122282978746,0.004398639691530577,0.03996505723547541,-0.026753889311761973,0.09277185730551298,0.23601091705661414,-0.3947932834966434,-0.0219965307119323,-0.08286733369686641,0.09663428035540526,-0.254627505098411,0.06763405483035367,-0.060215883293961485,-0.720171731302283,0.371605206158695,-0.011814094821559373,0.40702897404497357,0.15189698752077824,0.5678092032877017,0.295620284534752,0.1570282453874546,0.4422264663590214,0.08066685798558332,-0.3566121895950753,-1.0727155264563595,-0.6004018798402663,-0.12109220460662216,0.009071271552359891,0.028510069552978752,0.0040495938050106395,0.015936379874020516,-0.011965339332949545,0.021232590108966793,0.2761668173386523,-0.15575040842622354,0.2807010577718095,0.12807163321996676,0.10011318858270447,-0.40146377158276036,-0.31697241149402205,-0.33134798312976843,-0.17604179361000483,-0.0674825837938023,-0.23366696373476414,0.28799515347971494,0.2530130024012757,0.22273701155808392,-0.20945848249653454,0.33450809106087936,0.06001788161790243,-0.14369307371695433,-0.4802523065116328,-0.8314403876063111,-0.4739097394981359,-0.16972055891694343,-0.09984615921006326,0.0434505579614263,0.004521287077262237,0.02316650324405707,0.040749237082665375,-0.004786272415949334,0.3855776760634528,-0.07508314714413819,-0.23326311421520904,-0.06431156080740408,0.3335936759271738,-0.04360182377047542,0.23667386578934646,-0.05891641387381838,0.20153002903641226,0.11069209313344182,-0.3999578851209256,-0.22365261488875643,-0.09500483665154089,0.06522481695879105,0.39399695319977096,-0.12275729178507609,0.1252635733545047,-0.09079635024336061,0.0450679846051104,-0.7507254565800964,-0.35964991468104646,-0.10316533793966516,0.0033002798388477826,0.024642348823556356,0.035603288471215216,0.020584017402544147,0.021438195297998543,0.005429995145979751,-0.0821440649089556,-0.1379365552598813,-0.3095358999814016,0.2129135424912754,0.41249342019249446,0.12944663164497108,0.35571524175063124,-0.13372815105010957,0.023719601386540518,0.4822788124817298,-0.33113758667825755,0.6487646790300977,0.18327727631805907,0.3898821790930325,0.4519981491009221,0.06927491406775509,0.018437036477349865,-0.1282128766391706,-0.47015014620773854,-0.8533279642072872,-0.5040005034069205,-0.08399305065728402,-0.009578527133640715,-0.010763007342171262,0.02555311001898475,0.023508726983495952,0.002121494997957036,-0.018734124221417948,-0.04959993560386892,-0.20028822275005587,-0.11410881085618312,-0.18148173962608852,-0.3801256144190724,-0.34354148261164263,0.38673024869958345,0.09830041161451498,-0.6046576414225759,-0.07450169431039706,0.4165662084300169,0.40532799432354216,0.2373489993220722,0.12140334923838426,0.03456903559985339,0.049457600142124206,0.003080850272851442,-0.1728254190548438,-0.47294849723381444,-0.7569217258659191,-0.628053157782862,-0.15380094746501458,-0.02596493979519783,0.0033193012011490143,0.04344846587056328,0.016868163682973898,0.060379658369677326,-0.06527485435570568,-0.0034841541969596393,-0.4274771750646397,-0.48736011004320084,-0.03866061462271103,-0.27955056523538524,-0.6004745596031679,0.30025277159374497,-0.4037330283744446,0.1730708192161183,-0.2693319634285216,0.38749957238934263,-0.09044094151773113,-0.06668283421383808,-0.08141433542945566,0.31499127465870386,0.6845873625391687,0.063819131800409,-0.062468551877120936,-0.251512417382097,-0.19400507046130958,-0.27259586712982004,-0.09742932176819834,-0.04620006598098807,0.014516969223178113,0.046010141389204284,-0.004643320439209099,-0.023656638085413986,0.004586138797469495,-0.014287044690859538,-0.13160521555028704,-0.7089342253956177,-0.5253851375353502,-0.5964995700008485,-0.6715970662197583,-0.6605965754716486,-0.4264870945581053,-0.2519407526539757,-0.14836321806440722,-0.006217782832503472,-0.1732277039310622,0.17048487597406312,0.040157024063819644,0.07628401369624832,0.10716785290505608,-0.05023612977403499,-0.4167443009173241,-0.0612828023072608,0.14876100377951948,-0.013095159116867783,-0.014376550195940925,0.02087348433472471,0.023863266999163885,0.037046829110288344,0.015842675046214026,-0.03887447342876384,-0.04767449804572651,0.1162254735892121,-0.15228156847989782,-0.5457209895597728,-0.4010599887036879,-0.6819957298295354,-0.8649915043293116,-0.6909522243414836,-0.7877095724425299,0.07815017943209918,-0.18146980853407954,-0.2156404361385127,-0.3201357465613624,0.0991552567701546,-0.46460394332676447,-0.10975990721957922,0.08637261691137053,0.09183476244866062,-0.41673755141941443,0.10355865026287857,0.05170431054642297,0.035451462853131464,-0.01351345322136357,-0.09332334228651339,0.0040941832513407125,0.021661540361504868,0.049539939984669386,0.007313314227214451,-0.04668855954115416,0.14163329755150728,0.012607293423745542,0.08807352730866524,0.041581658150352196,-0.11694872536577845,-0.12572233784631803,-0.11653531899536397,-0.37259738846883056,-0.045583720587355825,-0.38374692522653886,-0.07480799937668038,-0.3867542267343438,-0.26073380785248274,-0.12936922438587684,-0.29332790815755594,-0.6687036342710303,-0.0782827077139986,-0.42970939341615333,0.11133574849487735,0.17833449352774808,0.08813457744911497,0.09033976608279931,0.01901266243198651,0.02166900490312643,0.0046019822235551025,0.009516987668026515,0.007486066727728666,0.08120438406015378,0.07741973495696387,0.03781506360916421,0.45954009964152026,0.3578892099590556,0.02784057424676294,-0.6172404289992588,-0.3477286449079747,-0.15795744771992148,-0.8239555468483301,-0.5472631070902244,-0.3002733663882085,-0.3581663573019558,-0.5104140117717462,-0.09873868117662887,-0.18598031969800474,-0.3347526050540419,0.04632385398876474,-0.10947733890236389,0.32209733616547276,0.21870229338177502,0.0325523470218241,0.060775577508583305,-0.00719509932410174,0.017296027699513043,0.03707150675661559,0.030687213532465143,0.0537436617589233,0.13890662151169503,0.3767212157354247,0.3471326362896968,0.25488507204463356,0.4921466516251359,0.6212662105102424,-0.04273456744989601,0.16155908657161025,-0.027697649495018125,-0.25370328681178117,-0.06322107710649445,-0.1744516004732155,-0.1587000941349221,-0.3215242000093135,-0.041110747130644415,-0.015446422732728081,-0.29838990130928444,0.3492070365133891,0.030862260274789412,-0.08316769662847172,0.2264553705249848,-0.018980977873961167,-0.006858174801831468,0.018588274482574715,0.03285947191866403,0.04598984674066445,0.04235223370772802,0.05059116828734605,0.09344220583527657,0.1748745044536909,0.29792320785667764,0.1662650770594742,0.34274213341720694,0.8672763165017376,0.5121995398279932,0.15541387358733005,0.522084636734371,0.41582971149921855,0.30987804385017853,0.30593756811260303,0.24857596007353505,0.14051875856432136,-0.15758204541995913,0.27615934622555904,0.520714815558998,0.23400523065339807,0.3637802335090663,0.053509298087628235,0.07867103727756226,-0.0718740580994217,0.0067594169052200125,0.014766463740474028,0.0008110705448554622,0.04969054257741406,0.02849522198146283,0.0182520553047809,0.03126863445382395,0.06707527318509528,-0.05142214753427631,0.08831221965966245,0.4515173967192755,0.6128667861524242,0.8382537437626965,0.93615133536742,0.9517737119281289,0.8316249966076529,1.2029984011595314,1.5536898397126948,1.008300171433685,0.939894170688431,0.897063370943222,0.7948388935167082,0.44596105861643215,0.4000179324016256,0.40535218063074485,0.17362772688260333,0.07065947587598544,0.02357729795454988,0.04353544513277652,0.027052726335650725,0.014504266601815242,0.01775607952161031,0.023437888956655904,0.022042279464222676,0.0023737170343367106,0.04874059767410167,0.03937451419611894,0.04500148810313801,0.14094057158473042,0.13700942982328107,0.04441369432107203,0.20352140959027615,0.12111766711042832,0.18596889775211378,0.1546029371624182,0.2402164395794885,0.11372125777517565,0.12854313670800321,0.0804690826349306,0.14339307369293636,0.22364698781447692,0.08288540864343562,0.06323270165270664,0.07777090859454552,0.04956589345975318,0.013317395360744251,0.04801729811174653,0.049384331169024465,0.0013355256260107818],[0.04323680307260732,0.00437734637487375,0.017218954084625294,0.04574017833816917,0.0031981427691943976,0.045672559220158344,0.00912585147852577,0.030850357153297103,0.026000584689636758,0.029838153624450123,0.015137090887347205,0.0225613926325442,0.03517270441809318,0.009770265327880846,0.0018498284418113889,0.03715160714543598,0.026875782326558396,0.004624286811518165,0.03737902320431793,0.04114158884546809,0.04259848647473119,0.014949205984104368,0.0098999676538902,0.048029781137454826,0.030868323935492117,0.023394825105378846,0.03895629105088312,0.03341556951987145,0.03364661054473068,0.03475757694877587,0.014912749066759651,0.009358905388527168,0.046794733954580094,0.017040823294620065,0.045184620964706976,0.004816877027882655,0.050148502413008826,0.040895702619950076,0.023203241185479423,0.04373667128954303,0.02388355448499523,-0.0021978419064305195,-0.005641570022722144,-0.0007284531615761321,0.031045962214906426,0.019524813931115374,0.03773867490703149,0.036464831453213505,0.03968551348593622,0.03760647438791653,0.0013891266517311084,0.0365267709918821,0.02892637062489726,0.0406401703230163,0.01643145494019165,0.045696585382662115,0.04172662880656542,0.04519945937250504,0.022299887183986625,0.0008612746395308571,0.003291901624854283,0.046216855545274986,0.0032695252219527176,0.012517724113577567,-0.0010463181474460984,-0.017362768393116523,-0.07295847300852618,-0.10946685487939603,-0.12095186769575966,-0.09770484337370258,-0.06310276023902107,-0.06744191282973835,-0.11334421422491847,-0.07228987757464288,-0.06558610466711629,-0.0019005094226745983,-0.008850094892019177,0.01629623630241284,0.0013674350814787217,0.0030680475888492658,0.023740229356110074,0.025782303708816977,0.046326461541691476,0.015961446370877097,0.01876655199802187,0.0020511307036745947,0.012875471332169824,0.0190117113650013,0.02936521798665444,0.002288312736801331,-0.0007727139805420836,-0.007091121328948815,-0.13426721550003598,-0.11729208064111334,-0.19494877843057773,-0.17132037749450482,-0.22868823785525635,0.11321705628280072,0.4710499716708225,0.22677484650669477,0.2902135746700066,0.1518182894994634,0.09851650851595588,-0.023511355860527324,-0.026127060568082783,0.054435950022863534,0.024214327838368396,0.04816553832486901,0.011437445628923975,0.019746813319176087,0.01604890645109508,0.0088196251017209,0.009617129839252432,0.045687147789100734,0.0011127201418647075,0.018287233280166418,0.014831270443472325,-0.04936475529672823,-0.0017151568573852557,0.013391272881960155,-0.09666705411431689,-0.06499381836072252,-0.062380823284992434,0.09038822617927637,0.002960128899218279,0.37869816886631846,0.19165305594305546,-0.14990159688635354,-0.0034114514187992316,0.08210581694381801,0.44211505009025814,0.3958982147072683,0.06726680314905838,-0.15839945874334954,-0.14341794153654688,-0.1422419430567554,-0.04155347609591022,-0.013264682731436224,0.01608091791774014,0.00913550315615157,0.04362505015855081,0.02801474826160181,0.02616732930377722,0.03540201337006075,-0.032574372157150144,-0.01930418976800817,0.0030120611426809824,-0.04561550613832017,0.12510103605960002,-0.07064459726379577,0.010056473329413956,0.4059154530730517,0.31319303497957096,0.39108968877029265,0.2733115677485794,0.06891117029584064,0.3806900035343215,0.26324863206504506,0.27910610117356244,0.1270513490843072,0.19626812822119474,0.12746500841302852,-0.23279995271363832,-0.0978493993749291,-0.11119517431020128,-0.1554916272453362,0.00016921590366982908,0.0497931980638405,0.017478751709127667,0.038544607973891316,0.043367220342677024,-0.00224556847215049,-0.06727426862376919,-0.058378980973839305,0.0726978713124106,0.22764005695475018,-0.14957661843524128,-0.39150739946523083,0.014474843994166278,0.1776166781263669,-0.08997896293571088,0.4004364038423676,0.26534599154629696,0.17186613061250086,-0.029211460515004613,0.2130649962758724,0.3932324077779991,0.38473484432482985,0.07451071597072664,0.29135326428029107,0.2069710697903267,-0.13831395062367804,-0.2238468407600342,-0.14986977185273387,-0.041613705708375644,0.004459920926234227,0.0036624744319849077,0.017649518529254313,0.011540891325725885,-0.035051570244074744,-0.08417749791782068,