{"layers":[{"numNeurons":16,"numInputs":784,"activation":"relu","weights":[[0.03817387833244071,0.01508082888091604,0.029348735791220083,0.003546186378967321,0.031166667825289353,0.04955375051295778,0.017800861383856056,0.042676944320899496,0.0067447940434525195,0.002661482959859187,0.0358820301845281,0.00042848731204085135,0.02206179702072948,0.02553926171924948,0.03269265586906596,0.043343770828168066,0.030058144314589495,0.019986084640645954,0.009215521781898111,0.02265053658851448,0.013813600117114853,0.01978263676710207,0.04937783184478257,0.028359320270026144,0.041423383651881314,0.013974986377308709,0.04544811146709157,0.04378380495146088,0.020618348625832214,0.024662479979907212,0.03163137665023178,0.0358533992651179,0.03705951725929495,0.03163732237711573,0.028881417073754186,0.05030702254925044,0.004343976624090481,0.0176227110628352,0.05944232209461268,0.029005186304781695,0.0141999750682018,0.01679772130354588,0.03599066364394551,0.004025560744290565,0.04655054062158944,0.04265705673454822,0.00647619857261923,0.02978606429125435,0.035862223748926864,0.013703580519686313,0.014539252151689351,0.03159439559136679,0.016299262452831555,0.027360508597840907,0.000013997837098699331,0.006420317730564446,0.015572564689329198,0.025417529629252113,0.005616018321441475,0.033406146929421975,0.04095338817685179,0.02154412183773061,0.027305213973522355,0.06472073057988137,0.04622968009398062,0.07399897133070453,0.03372906157607255,0.056666273167646886,0.08419689696697297,0.10711867691049538,0.11135114595175603,0.097411043481252,0.09340033406194401,0.04124529862569117,0.048632076054482117,0.03353734358207054,0.02066393047746525,0.0049898854125676306,0.03517672827714538,0.021118580477055702,0.019491205691999632,0.013496542638286908,0.0060523730934081916,0.03678098798634916,0.015450558502578057,0.000534921558789926,0.016652918859133087,0.050663902951628176,0.020429415091176996,0.027692146433930857,0.07781807135338292,0.040157067208363845,0.07450413222419064,0.1295203190996405,0.059328282965100135,0.033437040929897084,0.16519958573979385,0.2353521550762362,0.15002731834686414,0.06821136320759416,-0.061203512928592545,-0.0019316379588897748,0.006706474215901027,-0.0047892742873977415,-0.00599711067939485,-0.05223837474336418,-0.0028488286072251806,0.029364148006220413,0.000546508537540361,0.03579809056209398,0.04786009618584871,0.04355806111403124,0.0021483882980338266,0.022853861563824313,0.03893909242809968,0.03648062597845101,0.05227847941414999,0.08081652644379206,0.039395453498092946,-0.0506320772718166,-0.015187020863372489,0.012138364410868484,-0.07070798444195303,-0.1370553041122899,-0.01428997652058752,0.2934135737776231,0.2927379170228692,0.34796963206177295,0.2606873149361067,0.2183438270368607,0.1370055111874792,-0.024067359516187842,-0.08732026712220305,-0.1132698669735505,-0.09471271422591712,-0.03327337665184282,0.007611454588337902,-0.007288966015771067,0.027403211518153312,0.00034804623749936655,0.005810495449426708,0.0035893343379801916,0.014144409195661243,-0.0031520348878487487,0.0760167572080718,0.09650266386030686,0.03393060167986179,0.041222625817746245,0.25561459764597155,0.3495993168118417,0.004250106877896216,-0.19106843388611822,-0.1608209910325458,-0.11727671373286755,-0.15161634004358862,-0.21277140243187417,-0.21991813399716248,-0.24949024910016881,-0.2607545719968958,-0.3705571841758584,-0.30949015177278927,-0.34333514414963096,-0.18678315211129637,-0.15832588295051422,-0.1071446246747304,-0.0009525634164453213,0.03732503200208497,0.04581693106362696,0.04260053505710128,0.03021505558854614,0.08001694386428905,0.1722253889286391,0.18910316727106108,0.2877267507299807,0.37910974663837815,0.10813808666595101,0.3532670256257043,0.0795372440919341,-0.141791389296732,0.049640720385868024,0.014162848135396592,-0.10857249325775314,-0.15822881813080916,-0.535247917187459,-0.5708801879102006,-0.24892732333650328,0.006016925790466172,0.04154529707229447,-0.044567036992496985,-0.0037724905581336737,-0.10707424636781958,-0.10428624813613752,-0.06444956711872096,-0.05045198725629159,0.0034754708916201194,0.04089469493481514,0.028945141347827722,0.05468327029565307,0.11662006729140145,0.3213951492669204,0.20758687668566453,0.09416448853531392,0.23894781582544514,0.19050271357760523,0.12952045925242328,0.13430335990891887,0.09731880858607286,-0.12763884265680658,-0.0432330442775227,-0.28120419873790126,-0.611649895148017,-0.6358907166619141,-0.3406544665062904,-0.3479355119101107,0.10199032100225196,0.19543700323290214,-0.013108295013787503,-0.07635644432699527,0.008343485124916287,-0.042014290328844794,-0.015117563152982136,0.012578627589710603,0.044042494748667636,0.021018303544167467,0.03807574946575304,0.07887420426732247,0.06820179558104128,0.17163617430831266,0.07146677265480929,0.07951317164321878,0.25571731243572354,0.3259363248015526,0.26606422032784127,0.4340246433052087,0.44664325320808085,0.16272001240196662,0.2932387318248235,-0.22266565940229271,-0.4279949917976965,-0.2554315710196676,-0.5144397066408382,-0.11509763103522036,0.09981308016067642,-0.22570943847496808,0.12520901188561923,-0.19991532146235158,0.08806074965748008,0.28191088113280094,0.01973800433777597,0.042594298437411866,-0.0054481704596824046,0.03532355371963361,0.006335804181885205,0.06760442804130014,0.11244542104256643,0.16405818334697436,0.21741315616263307,0.30634917449566046,0.20189950147367705,0.2150633034945026,0.2046410126717617,0.2251265978196309,0.2117453867487337,0.2823631843099725,0.3631891231196265,-0.25426703429544,-0.14061479618485445,-0.4302845253918227,-0.06073153771257384,0.3807434348569735,0.2951762845605734,-0.03624522151593103,0.15479800763447352,0.3930793509218852,0.20008355264057226,0.13465964784326712,0.09264437221476524,-0.038819182175804066,-0.0722714256645339,0.0033724554951127766,0.051764019707978004,0.09452891622358171,0.1918739320031526,0.34610493889469485,0.33077337520173133,0.3084146138738992,0.08418451618544559,-0.05786067842453588,0.12597609062662815,0.0720768040371067,0.20520561033204038,0.32454141889034627,0.45149857328704635,0.4418255328597476,-0.16184382280811094,-0.10809163963774754,0.3731656956711804,0.518857721271921,0.22119216252531904,0.37920465976607437,0.6196905500302443,0.5778091424303539,0.1725892781513255,-0.009549893512185183,0.08454493448816697,0.12221996372289119,-0.006360817077938227,0.017306765942035847,0.011455124949622808,0.06888117627746122,0.35192777726836233,0.4865516072807836,0.47601503073396517,0.1732363243544936,-0.016681414290674063,-0.03252450293926265,-0.1554341998052778,0.03623996806302111,0.11053060046308462,0.5600843844130884,0.41391698936154653,-0.06376556527504276,-0.7601919041372242,-0.1349651255492992,0.4313929546495217,0.4522775962301336,0.5468865992988966,0.4450159838440322,0.4605721321362182,0.5583713497400358,0.3981008998522086,0.2538580805621336,0.20957814519632825,0.25418738122604023,0.09325139605948711,0.04468967745157331,0.023891151201972105,0.07569264500154452,0.31518287088233826,0.3565207810847705,0.3119124886434081,0.15821066285742394,-0.11160330045109143,0.17058038404539688,0.39355501918473,0.19044420967913953,0.19680850449610343,0.49952473159162647,0.07460878144532451,-1.0117370247371487,-1.1695486149046592,-0.16750827634311022,0.5818441301197422,0.6684994426466291,0.32624029029195006,0.0032087073896658745,0.20302015574340385,0.1721986226630457,0.30729900374044217,0.11983039987102352,0.1817346379074669,0.17720367275497617,0.0789643516759866,0.04886100997692023,0.02503032590169397,0.05705511906248487,0.2480884078950369,0.17558070131006565,0.14579836284021455,0.22437466176951387,0.0602878060328627,0.04285777632117805,0.4650460237676479,0.1606932273316259,0.0924635452088154,0.4247249895445009,-0.7462712014188346,-1.4496840241280673,-0.9571904077105713,-0.23720973095837253,0.3168536480507807,0.08949526769314263,-0.006685402878181332,-0.3030356552990768,0.3333619069512729,0.028695947383959204,-0.022984844713053492,0.11977259956011754,0.15965449569770152,0.01274840027092726,0.0428396511189183,0.007251805240036161,0.020189326759280507,0.04561399020360678,0.11838743659328027,0.06873770223959151,-0.007024806043201956,0.16792190949298025,-0.23118564164809638,-0.3847363433313539,0.27985118207072074,0.19237534087422767,0.35779651071711877,0.009305989911333183,-1.1486325666297086,-1.0477554670697264,-0.04168773672003677,-0.05914760287305822,-0.2794672156729623,-0.032804089653224115,0.01094839193690369,-0.016439523984683593,-0.0002056304333279588,-0.09111243574015161,0.29469149569513153,0.5247763613575658,0.08320734690109591,0.05720683159552033,-0.002233697601650523,0.007233890505227637,0.023025003888279584,0.0334162161890483,0.048886344120773015,0.03968696509845154,-0.04067769561936268,-0.21837068781802305,-0.24217470095440818,-0.16658489497609083,-0.2004779384108261,-0.08161101300035092,-0.3720908602502895,-0.8349820336669368,-1.389348731201905,-0.7057798897805203,0.4894602088665323,0.20074637307128604,-0.5402458820882495,0.19331551309828054,0.3203329918161402,0.12413221795622005,0.2905342614060076,0.37697007357217016,0.5010585356618469,0.33281228394420986,0.07938793190245587,0.09304614169887788,0.026166627574132455,0.005666139704680474,0.017423169431461952,0.01322781572915187,0.016933832174936696,-0.020196329829562987,0.02696527561962707,-0.3276069473507117,-0.11598649253125089,0.05518793785732821,0.09981940572335643,-0.19551347432273844,-0.34784544456598454,-1.285905753195535,-0.8725015804855726,-0.4130522903230294,0.12277213970085646,0.16610843206422943,-0.26916504539720354,0.2127956204416102,-0.003663573771752071,0.26768813564230953,0.014104678114652124,0.3875085032586259,0.1574837884547311,0.20627849058762898,0.10816049547275836,0.003468504113676333,0.0650119606001705,0.02895740922133627,0.03477264870109404,0.026520017282811777,0.022573594293515423,-0.021434029852947883,-0.055913401738227425,-0.1761764483251983,-0.30127249623051383,-0.39434032354561505,-0.30764473308746176,-0.6164000878734424,-0.807570666041591,-0.7038647775070448,-0.538365398184792,-0.15533667263299072,0.29802019688775466,0.1954991752955811,0.1477606449229559,0.1076683764952011,0.2736716528712369,-0.04818921510415424,0.11972535186836906,-0.04043435730904645,-0.10197644341800849,0.1340140715759198,0.2033531314909371,0.01346649154166278,0.01404445876313812,0.009461587239751901,0.011919018715389888,0.0315950575903285,0.04733660441039856,-0.06366522233823858,0.02114790355317311,-0.18229375897224903,-0.3677324809250352,-0.23002091246784342,-0.24725465107456002,-0.6638910607742768,-0.7334112714602983,-0.46577052378916345,-0.4550438280664598,-0.08636975307571403,0.32877710474362526,-0.049412940246044895,-0.04892161809925353,0.20210225123919454,0.06528831854786478,-0.3159777305652233,-0.13584389137641592,-0.2158259574816397,-0.2737320861833792,-0.11080699951058641,0.06561912963628874,0.020847052288261708,0.02730191409958217,0.006225707848449515,0.020086610025263688,0.03920760834825066,0.04008477639427883,-0.05659092829176033,0.057693514651502506,-0.2363905560587963,-0.25672751132095045,-0.16934846443011692,-0.11748434691560593,-0.4775275575815961,-0.6190796590128338,-0.3846279884405721,-0.5025511580316064,-0.23101763588503074,0.14067316125372567,-0.2679856417305042,-0.3281426483100503,-0.12217242179190889,-0.5385351033803852,-0.2548998480751745,-0.1914225379797042,-0.47920051377639944,-0.4064865180803309,-0.13859788161813066,0.0357976071134322,0.039179430351407564,0.0024798855025663026,0.03614199007109439,0.011651649987720778,0.005624660427619463,-0.002898002191488972,-0.08616646298456089,-0.18868519137902268,-0.31646910918539034,-0.44124139439890214,-0.23490891266741243,-0.20682436289606154,-0.1422031533200014,-0.045254839245659234,-0.023236547531998292,-0.12927766519682016,-0.21286179985785703,-0.027175340507069202,-0.03607062113809578,-0.43745265278439643,-0.2109670314876042,-0.4247828079074322,-0.06931399753361499,-0.2591144346741784,-0.4812373121827488,-0.37836081280517847,-0.14558167589247492,-0.05812582689600634,0.003155220777868236,0.021068562253896875,0.010293004983167162,0.04486148932127465,0.00632730145044368,0.025166684265224552,-0.1756918758958127,-0.29562885568008973,-0.37473331643806107,-0.47814072274515634,-0.44392597337906525,-0.04292409251639567,0.0211216736416789,0.19168378164623961,0.13858759810426743,-0.22311471159181798,0.20244567989798856,-0.10685012423078573,-0.03077141029431789,0.007315075948029904,-0.024767976550923405,-0.08215481266921804,-0.12983802192009944,-0.19274634437735594,-0.3879713124969082,-0.4223614731627319,-0.11080272775071681,0.013245016795592432,-0.017949938035329266,0.049008837850340214,0.011901758830387271,0.007021302383084843,0.04523915061591365,0.012950038495935132,-0.12225879458229973,-0.328023490248551,-0.3518185777880908,-0.19489040282978404,-0.08892851478460004,0.1691721293973557,0.006131172482998639,0.003748025761545057,-0.19633701515013322,-0.27593777397150193,0.024661125727529223,0.00048392319028380475,0.30489418602145973,0.09485362557268233,-0.04491198610430855,-0.11273597840894387,-0.10240382621917006,-0.3111259533577493,-0.39370955712436123,-0.2731019848419784,-0.11105058815883857,-0.0022972541087664397,0.028348643736955274,0.038108125794349586,0.0007725772838440406,0.025275568262604114,0.023874654212719233,-0.0024442723896898927,-0.057809100097869937,-0.11795657402287539,-0.05261996103677461,0.1936628608787898,0.28972915796360965,-0.15467154114285975,-0.0456520362717948,0.049252484541097846,-0.13021066162143885,-0.29411693019773855,-0.017219097349243193,0.26060266170821883,0.0712873288331099,0.12256505416224399,0.060733493163924346,-0.03658194884563554,-0.10174339824785582,-0.36186476541800694,-0.2635129377286998,-0.2503618120282655,-0.1807366104888169,-0.029560437715685298,0.012165169315413586,0.05206431377531653,0.04976890241579523,0.0017110302311379333,0.018338621566236633,0.004449823527943016,0.026507928978907812,0.09549575362065003,0.25451504768854605,0.31633817849852186,0.12388188271248257,0.05186568088320292,0.05111060271027872,0.08296118497263687,0.2948238270816427,0.015619489653371236,0.1620436012583525,0.05745289501605192,-0.16030339366982324,-0.0432443517028566,0.2361781869225556,0.11551072153713725,0.009747070254651786,-0.10384580275554413,-0.08065671774855054,-0.15154805756838732,-0.13720044001557413,-0.022390189877622396,0.03118035893104423,0.023845956933102045,0.0038865769704653965,0.03699543680255894,0.030828470122167485,0.04212513152177629,0.029642285816019697,0.0981620171574414,0.023173690739874596,0.08098818365862612,0.0729502499306043,0.06785674740835106,0.22216327078010567,-0.024180928068564325,0.27945582421736404,0.5331781092647778,0.18181313095328067,0.2387655972790282,0.2087620982808347,0.35347187474681485,0.20429275765391994,0.34050450238361357,0.09365787010466224,-0.12641550466555046,0.0574180982511931,0.05771263239496736,-0.05071889756530317,0.01594747209325411,0.034261026577933805,0.021436294856064745,0.0029862235740601537,0.022972676211345147,0.019391476583433903,0.03510019441480074,0.03277175446500011,0.0018844023534860337,-0.14448992671204033,-0.17497175373572785,-0.16926063085662868,-0.15229198500272823,-0.2272890138827131,-0.3674966737363005,-0.27889011790208507,-0.2346015625080657,-0.15787818742726578,-0.06518139813248182,0.0842839775968933,-0.08720328521389534,-0.12683309361535375,0.07369969605313156,0.0522972427630908,-0.1374289247901261,-0.015465298623646226,0.022467021011058897,-0.0055704169907018364,0.017048500638207537,0.002597102378976671,0.05042248846810808,0.04173420755652154,0.00903787390225615,0.04862746855144682,0.012089268976019118,0.040800521763939016,0.027444614214373116,0.01862796654099301,0.023909288876502958,0.009941773574645874,0.04554303798613391,0.02464116106025811,0.0719223485372903,0.04135864265995044,0.0023127052723463147,0.06943138021484874,-0.009070928844287077,-0.06808658265965915,0.02423124479161311,0.1046622369838456,0.11062965447425167,0.002384000252376572,0.005037741312033126,0.06041584952845517,0.0630946218128025,0.02354905580021843,0.047147807537043306,0.02715401750020681,0.01750930761895982,0.05018714972959277],[0.007321362258826345,0.03598956980935397,0.03910460067625512,0.013214001556097452,0.005840159942858362,0.046657854003549146,0.04030283502361285,0.026339249385218415,0.03983215262532398,0.022256885104600197,0.03545813185900553,0.04999418373698994,0.02538811468901304,0.015757009790937433,0.012509235660941063,0.03714566578494734,0.0309527004822899,0.03366015030426829,0.016824988133811915,0.04725012780228127,0.0489826594767952,0.014278011841046758,0.013537254380927153,0.010036556937379816,0.001757863736853717,0.04995591159822583,0.03760146921511,0.042509031922542476,0.03972101817268323,0.027887916842088644,0.02664896318174717,0.040353962375851336,0.0363679018864284,0.0257353934845679,0.03416006192384669,0.041507750762092885,0.05739897945673915,0.06567721798106606,0.08128494485372963,0.08778477874891957,0.11797037507829314,0.08827623446782105,0.07318309640430286,0.14162132964138877,0.06586324111192023,0.06514939549599032,0.03311097459245456,0.0632263790838061,0.05995298455403002,0.07351536592689774,0.051673905650013445,0.020751197953320068,0.035407401061337,0.03619436671878932,0.019130770004165642,0.044464733797906185,0.010576912417550221,0.03327812492292387,0.04152129867567679,0.021956506685636694,0.005455469974151241,0.02076297643926246,0.047935738269910565,0.10323582668629765,0.1421923929445418,0.16672227734637834,0.2537301180262112,0.30593261096746127,0.32008280001166106,0.3005313623041472,0.38082703753275093,0.323845276613135,0.2708121596510605,0.25145377518129514,0.23559138192313533,0.12304341499227785,0.1406195067717282,0.17922356336980194,0.1297268650387589,0.05393338841015062,0.03210432613319673,0.02176942992207752,0.003352294181123089,0.014195328490260438,0.04744329035669123,0.048305245242095535,0.05062431251301667,0.01686245673492944,0.0050927378712190665,0.0454452141960652,0.0992742887251602,0.09414201571242074,0.16649246145014635,0.38348362964289506,0.3283480410617265,0.3149963839229181,0.37881381065125824,0.35535157466990597,-0.02390852706904906,-0.006100607920043983,0.02336970304805833,-0.10596575236083877,-0.09526174359132966,0.02771812764052713,-0.12645090663821484,-0.023430400091455552,0.06172527260367018,0.1389804963505473,0.0822111838110762,0.004920829823735067,0.0023159571637230503,0.007009448035595565,0.044817764124747646,0.034048138447700736,0.02596652210854275,0.037017068554334356,-0.02112564840014197,-0.01984540810943684,-0.027981855250315785,-0.0841157962431328,-0.12173626920771426,-0.04724078065864466,0.07848182468384553,-0.13255000579357293,0.004926132479273359,-0.04275710919492338,-0.16860847132412587,-0.21223006205522008,0.23043799455731762,0.22532333800896157,0.027814722510866138,-0.04166407777386997,-0.03985182006327699,0.02629831989003014,0.12447227698261085,0.07968075324683833,-0.07776020415870424,-0.03257169906609183,0.0185598937818335,0.03683414313671334,0.031191786807401534,0.024069170632287088,0.04046371952342038,0.016150747780754038,-0.07779305625127357,-0.1279820792688909,-0.21664541866034986,-0.22106156561807871,-0.2579408666686406,-0.2904035836691256,-0.41040676430878154,-0.44481980818720857,0.07959402191214181,-0.11427502761822654,0.09063658392619744,0.26370731928516394,-0.09300355183783354,-0.5213932824430034,-0.36777346945371653,0.052876868951825286,0.014873626333989804,0.3271298672037742,0.04584731730188481,0.10189573259292958,0.04886669084483162,-0.028887355350509493,0.03847593832198102,0.03037714876092519,0.023497125297292934,0.047411873942509876,0.011837373058808574,-0.06669825150664335,-0.1525295794938324,-0.22582584362355002,-0.20376957748151397,-0.20013499892459863,-0.3174303374458401,-0.3956379250222563,-0.42350602240256796,-0.1171905673390985,-0.17575432800745275,-0.34010982776147797,-0.1414231085368108,-0.34020794993623354,-0.6533996748803775,-0.4659313359858051,-0.46403146369876036,-0.20140521488240878,-0.2124446071324908,-0.1285612568740256,0.01363862707211777,0.2425644005827806,0.02403850809777906,-0.03869511189810495,-0.02338377816857088,0.058095404350074376,0.013139083428792527,0.029776867583032263,-0.01069275016478628,-0.11662665017984196,-0.31095239727204194,-0.30787256783174816,-0.29763317003444817,-0.1880039535850721,-0.41772422657287034,-0.28172256541705165,0.00921903709878127,0.001259034154337813,-0.4004568349674463,-0.421926166681192,-0.26960363359366907,-0.44869878788412443,-0.45148588779934445,-0.19660861352687528,-0.17670377142164798,0.07418548108269309,-0.047433913616885204,0.19006269878679272,0.2739259321078658,0.35170851541535936,0.14183580852320551,-0.0495485337826126,-0.032330020920012095,0.017181772708730843,0.03232886949801657,0.00744926938395443,-0.019547612223460173,-0.08432748480275946,-0.2649168632076129,-0.2570584651654296,0.045290103546003824,0.01962024374699066,-0.1299605457377857,0.07524784620813439,0.001839155493303199,0.05255031461112994,0.1857809044196199,0.29909306353717346,-0.13895017193208845,-0.24386654930321464,-0.4561435761732752,-0.3796735138917009,-0.3480857512943921,-0.17038353311291654,-0.04379799597233995,0.0827841109294036,0.07151185463279133,0.22568094342797243,0.22362918191717607,-0.05095038830075575,0.005848999487576148,0.0254099427111349,0.029770588423798438,0.000001821924860999683,0.037343449940413526,-0.07305470621175575,-0.28491260375186633,-0.4258136972982068,-0.10896347478752727,0.054879811931420906,-0.05480370338833354,-0.16447989316404968,-0.3869907751341027,0.04584580408807022,-0.32652107151260584,-0.018417662051095487,-0.008677798294827848,-0.27378868606645035,-0.1197820741986556,-0.25421870134190216,0.26523988690276734,-0.19154553871452515,-0.0021869014493399843,0.13479997975198313,0.04014152265856224,0.253059002849508,-0.00942515197885085,-0.19685317524465937,-0.022711790997022502,-0.023909834973944714,0.03365712890542057,0.04923671878122042,-0.005316940396284049,-0.1697770026441409,-0.339350121506066,-0.4147774459364833,-0.249312425171256,-0.026183877494214084,-0.20111976475536159,-0.24444565322932343,0.015664547569190574,0.03841515971368148,-0.4280182211162014,-0.04709561709201457,-0.060333719572827016,0.03457896707568515,-0.5282162390295169,-0.20767974920023288,-0.19215294139296765,-0.1440199473378263,-0.09285541983977386,-0.12443770614850838,-0.11651297100172896,0.01653715500570976,-0.21368472515775244,-0.4264128943442231,-0.0648096887741154,0.03910022251799552,0.04013233232320612,0.037083262387631155,0.023370888182935028,-0.1689575515738552,-0.3375060008460689,-0.15992547099295434,0.17205029484670037,0.3682035032173214,-0.14465865399784333,0.2013223783301923,0.015831961236864766,-0.2002446181307111,0.18298938235920262,0.21160861883111462,0.3132280656074266,-0.08604605272037706,-0.30687841840330354,-0.8267201370503359,-0.6072659970247963,-0.31637685782601666,-0.4258535594983666,-0.24648300937523226,0.01207542111973658,0.0956439549360995,0.001373270721511401,-0.23291103785304088,0.022021160278050657,0.007362838899388461,0.01583290747213631,0.04321066758611275,0.017905594546400807,-0.10305631951025541,-0.2759635407666722,-0.010739155964083393,0.12338378533072702,0.3872921027055176,0.17636584738415884,0.37703963039960176,-0.1420378785850493,-0.3580590219404106,0.12283267206518475,0.04801272935497422,0.3458251075741503,0.16574861389490544,0.05880403010495675,-0.3410359246719447,-0.4111402515813563,-0.3614988062102541,0.17073754818763612,0.5919623621717646,0.5417109588896146,0.5802680551178423,0.5268830086529762,-0.0526218896284058,-0.1249645164360243,0.023306816883197492,0.011201571195659746,0.004691962346521703,0.008487208424645143,-0.059510360906385305,-0.25458509025342346,-0.09747738612516432,-0.032349271385514924,-0.07334816056910946,0.06329388103836087,0.31538049109186017,0.36691162557935775,0.025764289778706376,-0.08993865910667002,-0.027055376120814604,0.43859431720955155,0.4205940741201668,0.08473946410670559,-0.19089287958938844,0.05618393629433403,0.280319521873287,0.546983059559553,0.5274443071245636,0.5935283184212272,0.7419312995860339,0.3964058272274112,-0.13529017874330562,-0.06465010794805301,0.03161645364338826,0.0340019402064864,0.03315281160099019,0.04362117830472427,0.000056132712631383236,-0.31511561219206236,-0.2141837565202224,0.1363996226085337,-0.05787081098383166,0.21778971974545727,-0.13346451591771807,0.0054036617343359945,0.2353480990354055,0.1502865938166521,0.2575766366939142,0.5190413689510645,0.2374668405887975,0.24885255361537945,-0.12524800493402244,-0.11868950829386743,0.1459515196171834,-0.07709352389590839,0.09904511086480322,0.34055589710487105,0.25138013901738143,0.09119987411366723,-0.054224193950142885,-0.03591930884965581,0.04564366105202642,0.02942942444986251,0.026169592270298043,0.051948104782992915,-0.01409371712042848,-0.3265038439437578,-0.26914301041621425,0.08305142034099859,0.02421410943433921,0.008171883641534566,-0.33867669254787786,-0.2831059354532212,0.26217796905432134,0.4581676194712275,0.472116290687712,1.0632933092441015,-0.0072049145214246255,0.10328989857106612,-0.2957810804852926,-0.10743240965359654,-0.2178322977141187,-0.41371350010330693,-0.3176855435114878,-0.1848068069683262,0.10547317729849782,-0.027958139055094804,0.07565842979319429,-0.031055033936381614,0.03627559516501628,0.014459908492074689,0.00954852608289424,0.022005784693498003,-0.027755287743793097,-0.2490567399791472,-0.16236694893451656,-0.17597722400358126,-0.0071413032893231435,-0.06543122678791521,0.19529750094465875,0.21815980563890877,0.5205198299550673,0.48856177984208793,0.31517364795831165,0.8821434815995481,0.22469102293537604,0.14909899931587478,-0.5766196258112553,-0.3420395842319075,-0.6501069754630884,-0.6139369318333322,-0.5215865260190207,-0.2768920405396531,0.07707525207786127,0.0005900407195845866,0.013160140819813385,-0.04109109170610928,0.002594244975233377,0.020036812696473505,0.012905377761256193,0.015814398458204065,-0.02386509494115261,-0.2592446256608111,-0.24598974527211304,-0.5003597784645596,-0.5207856289543669,-0.03085464568201378,0.18538404123063235,0.3953014589183153,0.27226367977667504,0.3249884042650121,0.21024567680846837,0.516208463601577,-0.18125416319822182,-0.08200122023755489,-0.4416727538890269,-0.2930227653645893,-0.32847575293462705,-0.18325205019936638,-0.09434655072135804,-0.08367321695730277,-0.10741050492497652,-0.030667920714642697,-0.034044126307996775,0.03826199264753919,0.004735880463766528,0.027954107704213003,0.038031861621038054,0.03606876754580883,-0.06172641001358422,-0.3446585398159603,-0.4305022406704836,-0.5695074202848697,-0.28949591408589553,-0.1760991258905359,0.41782416256598764,0.27089511308978154,0.14103859422185733,0.6231174870764198,0.5743513937561803,0.06042157098786126,-0.13443806918258733,-0.3731801971213672,-0.20229265137592237,-0.021730706249835075,-0.33219261102456143,0.034268661230865353,-0.1486860556701681,-0.2966618125685521,-0.2246071199357776,-0.07669020042861874,0.04418434394960842,0.05189819027759055,0.04626318229440218,0.04745878810828249,0.013792912316712208,0.03855304043425266,-0.10568492184877205,-0.5161009656137157,-0.7760560844951396,-0.5969245707165669,-0.07643007294702311,-0.11271184401941496,0.5455470620002923,0.5533732138807992,0.1381236459475696,0.34474764456231616,0.4997025115680645,0.06457665134388811,0.03351238860141292,0.11478171063256948,-0.3146170498850947,-0.19621824825334763,-0.3373156266259693,0.014043808364008653,-0.28614231371669574,-0.06795878219215447,0.05497411390075628,-0.049861036287505864,0.034946571778067495,0.04196213866435001,0.04679929450457852,0.022267624380490635,0.022386456761610402,0.013738908608747139,-0.16304656536440765,-0.4363994998525875,-0.6060048037483136,-0.27327538233920295,0.36504192504786837,0.10546050144076988,0.13010286885360123,0.5788155829403039,0.5400782313893017,0.6503017171325349,-0.0013809829198058508,0.33978905175617546,0.25284515371076766,0.22266199715318521,0.03827687539773443,0.06251119408977121,-0.06125024740338438,-0.13798745886148067,-0.1712766043997252,-0.02054632885183068,-0.061731549097453126,-0.041555893042081786,-0.0029371178934235426,0.02602703472153583,0.031956496147361325,0.005784020360860436,0.011946345186727842,-0.003134259752378105,-0.03057264058259944,-0.2517602361074342,-0.3887861954177125,0.003612353535271892,0.3392818766854232,-0.014329541105472094,0.1520427159621245,0.12383576876887199,0.23757751750221018,0.2412007565542568,0.27979289121819684,0.49957930472827916,0.17014596539532134,-0.046929239142788695,0.03890563164672994,0.16813814221645848,0.2902169069204019,0.014247019783385634,0.004940234125485756,-0.015368332613951012,-0.06044314254418295,-0.01032207988329762,0.024603949646775612,0.05244533276745806,0.013348044753850282,0.012125075208442292,0.017838402519644487,0.02366020031660721,-0.014834106062755398,-0.13503583909731504,0.22324578527075362,-0.07319311199191769,-0.007744774423329321,-0.10847909955676553,0.10794691164780736,0.19819916468847032,0.21074698908507217,0.20757721649816732,0.09603046572199855,0.09428243770437018,0.12769570678695713,0.3131046321052026,0.16049679854020568,0.27100926708457274,0.2959061395540623,0.16606864822406556,0.08479969104721727,-0.11658476650837146,-0.10359461492131594,-0.005807913272800806,0.029743279519835963,0.03565835805514931,0.0009110739899162571,0.02637225303871271,0.04480949001438329,0.042613539213037,-0.18398628477799717,-0.1289161771122622,-0.11486339088381907,-0.07690662372512444,-0.16434980717108955,0.0063599703727183045,0.2739598243149374,-0.14946579775566468,-0.08237508636635751,0.6013324491541221,0.34550484742880117,0.1966048734432681,0.11817178155566382,0.5349923789538897,0.38485563047226395,0.40197169069010485,0.31152129634090586,-0.037673703219668495,-0.13881147113870945,-0.1300236332756684,-0.1023981221315993,-0.061903604484179926,0.038386197694020456,0.04610021240550035,0.021775729562597462,0.03221188574558283,0.03469941239231752,0.03495452939672278,-0.15109927340582027,-0.2333562414722333,-0.12215641569522584,-0.10392557091207658,-0.441798158250844,-0.40486231013263446,-0.020179949296440028,-0.013168282215105622,0.329576254025796,0.2609896346451385,0.16960843476347298,0.3458040444772056,0.16812009518775883,0.07717102428776797,-0.37359556524843496,-0.018085749936185502,0.11742628391791762,-0.10560099159873283,-0.160446086279941,-0.12290725263344451,-0.09193321979123575,0.008954205762360624,0.03813277487189146,0.015391799251230853,0.03868016252643062,0.04557892931318178,0.012599319362244447,0.03250710853215611,0.026995059538072956,-0.030330196346888834,-0.1150757473804637,-0.09897163350666154,-0.27430408330171574,-0.6972659699102239,-0.5188240003254312,-0.3081544519779151,-0.02372463328400872,-0.19483475782434045,-0.14182841824811684,-0.07171007741197437,-0.19955823667260875,-0.593707318297365,-0.32825148830864603,-0.28517193138741403,-0.30813320678314216,-0.12273230327404386,-0.04492066162259303,-0.043173236589091855,-0.023716842735607244,0.03896076865741944,0.048568011127181766,0.01863275574759124,0.04858343338964375,0.046471262534091604,0.010633988002577015,0.01219989835665643,0.020870096527792044,-0.0026785323527444738,-0.006498372162460554,-0.053808176817858384,-0.04323762088654581,-0.15016397623003463,-0.32092653294737505,-0.413307318676607,-0.28126002558353796,-0.2124178646736335,-0.3150263934230302,-0.3656818321310619,-0.3700426129014641,-0.2523518251606564,-0.18747293210380384,-0.20913069040407897,-0.15006514155715392,-0.07092294090175491,-0.02241503213595111,-0.022915670650555643,0.03311809607000278,0.04467547810974096,0.01709496385456708,0.04184684350255851,0.0412960200125057,0.013519078865041965,0.004649739729279793,0.025661179862583806,0.021551375367512487,0.007664661411722272,0.01735102616775563,0.014117042895380344,0.047425373099024046,0.026943681684021285,0.0054227600137736216,-0.009426676935097782,0.022948302431879095,-0.016907113725146746,0.0010930245652956575,0.010670108719687158,-0.0023000691447437574,0.043113889422569725,0.026032238468218612,-0.004779820072868502,0.012662477432740803,0.017272341124390432,0.04725695504644436,0.04926963734967091,0.010320096199399213,0.04066474865421521,0.04973741178194988,0.005975948503667832,0.011802742341744646],[0.04994028757145425,0.03234771463384048,0.031627410538232564,0.029865055643558402,0.02490262972976881,0.03784817907176726,0.010969806897517732,0.02282633567470597,0.02410588544352068,0.03125964676410842,0.03731392568582203,0.013049106122398102,0.030638462903190986,0.029862532805876692,0.02082032437467427,0.0023157616828910987,0.01544461133131078,0.00992756653976596,0.028969750318015408,0.025109935556626273,0.012591357874795659,0.037380449321085286,0.038199984379218906,0.04893314451321261,0.018492979789351178,0.043559962946584554,0.00897136415736597,0.018351897931541666,0.03015635856727211,0.019638598919684065,0.01578158460445487,0.022610503990449896,0.026638940897613886,0.008979438570233114,0.04890097951630606,0.007732858542717737,0.02851034873542763,0.02587377155018685,0.013200903979378164,0.047555510619207236,0.030939597447623365,0.008106797258706892,0.04253976106378201,0.03959770174566964,0.02719110015106053,0.024936456428939324,0.026753254277879418,0.008949379766661747,-0.01034184982853353,-0.0008330194050383884,0.044849019705692224,0.00525129512745945,0.006455649650684954,0.000585174210475477,0.010508540512082025,0.016639150651832184,0.0218344461853676,0.03294170952207496,0.013439814435943985,0.006831314318349665,0.03649466415917947,0.04142299874180803,0.01589353424951846,0.014531876963145651,0.035804100198475255,0.04597300046835095,0.005183389526328026,0.011376567936161732,0.008059193288223961,0.04545003751251368,0.02414166093329686,0.0331141000778766,0.06969725788139969,-0.03844847862837667,-0.02859088580401563,0.008165167238137245,0.05586391937531495,-0.012715882588176623,-0.04972513174724052,0.010038550701604036,0.03560379132068644,0.016811565157201277,0.04822041567344132,0.013943868808768885,0.0475159973064681,0.04313928893421371,0.009359899295870217,0.0400298026687666,0.005466826609048639,0.010612370061377474,0.014572641289238145,-0.0037167861265706976,0.05382550611076083,0.11943722336739346,0.14456629763028864,0.17283285218208994,0.07290772567361263,0.08209726775312605,0.13833817745238397,0.2342090720909973,0.3295122543447752,0.1771252174638922,0.0031810981731542867,-0.09055775264923102,-0.16374034517668637,-0.14216470655650032,-0.09641837569560645,-0.03385485018084332,-0.00955201264217513,0.03957762439112451,0.00563110800387345,0.04829608120254396,0.03693443524809439,0.016621305332696682,0.049092075402990064,0.016124783160170048,0.032216048638134806,0.01319919208518349,0.002440178312321696,0.015371690776342041,0.03682662933981678,0.13651453943014003,0.11766907015385997,0.2827834336540336,0.22486625787622144,0.31671865868950655,0.4855854762366812,0.45457308913711175,0.5591090167765709,0.538124798650569,0.3613440609746686,0.017577111512251067,-0.17259611409344824,-0.33301997610836986,-0.22117549049775548,-0.24875872155281326,-0.12191889102888176,-0.036741884972798,0.008458188845740252,0.03132599877163729,0.039471050399290046,0.02399443076762713,0.0017829357546188442,0.03348706411468348,-0.06379534685848363,-0.10674957796327937,-0.05054785561407413,-0.00789952805710644,0.04280487516917178,-0.010637418738671094,0.03777838405421469,0.04770122721730336,0.0390430519126214,0.2045252602047724,0.2402532934925627,0.34090358994513986,0.4450395065599943,0.3550104557053071,0.2991891015082179,0.14159634536678217,0.03802306373157701,0.0798686118264549,-0.10484205983860044,-0.388719250877573,-0.232795221126357,-0.009249291237135068,0.005580477482629803,0.04728204963581597,0.04836305893791564,0.032752484482809124,0.01605597641990999,0.02183165943256438,-0.06809227635341154,-0.03935038876683967,-0.18660958480713052,-0.181979625864779,-0.041271948435311255,-0.12271757412796361,-0.09453456888264805,0.024640949622214553,0.09904649321204595,-0.061038709211789936,-0.006117346264201917,-0.04726408526038946,0.014015281604540348,0.36974524002715276,0.37124161746293677,0.21413609587684387,-0.019003235722846318,0.13996551666350943,-0.008857288214404038,-0.33608917927620363,-0.2468785499918382,0.0018672251726946972,-0.031451268582605434,0.03560825748656528,0.008204973154062616,0.01880532074515863,0.041312072066554545,-0.00009061625667104599,-0.003298923687320285,-0.049748929139796776,-0.15239412814972322,-0.17825736410905776,-0.10691648996615072,-0.019720586176151245,0.12117431032108465,0.31196964054217424,0.0850315017784362,-0.09419717860858196,-0.3085651601664519,-0.16060731282900714,0.022392379718226295,0.39232277499153845,0.5231577884595519,0.6608102635148962,0.06903341908849067,0.06075920262040031,0.0597049741898619,-0.04230399219245238,0.1384112863927824,0.06161965611500176,-0.04569892646432521,-0.0007106801469069834,0.011561881352238656,0.03512303789208593,0.005032699938026566,0.029502648024423324,-0.04183297622679827,-0.07636622846894116,-0.0702957183406964,-0.124506774554361,-0.03700580947849072,-0.039259085652458024,0.021469198731770466,0.041278562764674454,-0.16419800219514213,-0.44843964890386173,-0.11284792006007638,-0.0649136936886378,0.024568035028775446,0.3761661832929726,0.36530918601452306,0.42748011582643564,0.021094705104812317,-0.03499382353284668,0.2720419608071478,0.3799850490446878,0.2195092231605965,-0.008260760482889328,-0.03206871715125686,0.0031007059247207423,0.008752927044573625,0.038243716022960436,0.010984600704932283,0.003534916919469757,-0.09385744262766794,-0.1564164029802884,-0.06804489519730719,-0.1965501542886536,-0.2716842295326926,-0.3220207948487733,-0.41876344532412324,-0.3191580233802882,-0.22863461469921037,-0.007950535081783307,-0.029758859439890126,-0.13128511441102947,-0.08683310714211645,-0.2588222860147641,0.06281657017938351,0.49173944327865876,0.5458067227114631,0.17377012342768114,0.4242815051875706,0.5231111914697805,0.233208761902104,0.06045677439048789,0.08197328877454854,0.03660125617536809,0.024088719421228484,0.013929945496945506,-0.0012995414634344826,-0.06500015110435634,-0.1984383055816521,-0.18697153871600497,-0.12555512972008112,-0.3147974965032128,-0.4904775464947306,-0.29235568169825094,-0.6307302026476473,-0.3069924447650997,0.18539158278379117,-0.011995764275380072,0.0575954918367348,-0.19410377457235445,-0.512036688875123,-0.3782261610993881,-0.05365027639690449,0.22764933192678335,0.3267502577332154,0.3022544282805056,0.290007110727208,0.38059326344612854,-0.021102313106269047,0.0010775578504799385,0.0424248641742311,0.0028432317940679875,0.04310033304186322,0.001526002425038395,-0.030119733079592346,-0.0576658497761237,-0.15177829701347717,-0.3666467864782115,-0.31148914790197946,-0.23602929629737276,-0.21730460889832953,-0.2435758970731542,-0.3835437816786308,-0.0016093092340422445,0.03074071563980664,-0.04256336773546953,-0.12014058042283972,-0.4557586014673903,-0.529265948705003,-0.617668105268712,0.01918642958529791,0.3316780841176032,0.19829606605493813,0.085225268412133,0.1314855973931587,0.0303628438879575,0.07421250494066622,0.13853428245829336,0.010443753806624451,0.015254161870890215,0.03644443392991003,0.016256213575158694,-0.005735570392024111,-0.03719849786767352,-0.15956388156414217,-0.4066990874278948,-0.09336680086638134,-0.07440385345363709,-0.09046058250879666,0.26366267004604177,0.20719947048034393,0.09940457823916218,-0.004585072559273462,0.04080823591116801,-0.2990560586544562,-0.412670041895857,-0.3301896732570497,-0.20082650233426785,-0.04022154087239186,0.1995150480845994,0.304772496954995,0.3317299898194957,0.19394410045342841,0.18490968179805142,0.22424622439013245,0.13983342887052283,0.044617551125075476,0.014507370603326535,0.023991634260161484,-0.04094217471340872,-0.033691838496579876,-0.03966756779217819,-0.046362392872956744,-0.16407544412714345,0.08155138866389514,0.12752966110860398,0.254135311114546,0.34863950954105544,0.2764344930204011,0.0655749237814549,0.025129837097512937,-0.0819994907316979,0.0014452775641274518,-0.09619331641292364,-0.053347781542418565,-0.22872668793781253,-0.10794360640715378,0.22780199909669416,0.2878561466804432,0.1288635542135011,0.016701943208135794,-0.003354673196137146,0.03791852361024903,0.08201064782723756,0.03609869756597608,0.025572579536890697,0.00874316008517877,0.0015327920825493435,-0.018239768702859087,-0.0252570309150228,-0.03518337523383095,0.004307352282161249,0.07991799866707816,0.08320428072433232,0.061033272881649586,0.06332592898100893,0.0027553333807455323,0.14598276636565738,-0.03396166843237294,0.07001367304957865,-0.00979840297122243,-0.09297895457228329,-0.18153800598789943,-0.004559990069819053,0.03725237167684352,0.3046703136324664,0.030639069049805828,0.061391270539225704,-0.03474311527046205,-0.22254238000074955,-0.22958966244199674,-0.030203152006613453,0.0222318119883003,0.0036653931009444558,0.04744230201494723,0.04034360940800554,0.00994625042243483,0.037259664871124726,0.02767923605386041,0.16099674113268506,0.1742897776934593,-0.009955908340466425,0.008874280491309255,-0.013211185190400805,0.040198174614363834,-0.0032811233793305365,-0.15526442208799576,-0.0171810190754712,-0.12812150349906623,-0.3159650286344709,-0.12428359170350313,0.016669817024596807,0.018647057820097904,0.14431463713588635,-0.0958261382593009,-0.018453924297285845,0.0016549149045861776,-0.21298155926797457,-0.2589349674029235,-0.06347186111994266,0.04106279702389077,0.039692472257537276,0.04426105831709675,0.03486164018531458,0.02417455072935818,0.09990072673188019,0.09636765105456922,0.1137088870252836,0.15196625243701894,0.11010053092222577,0.05701665386724848,0.2922556666315307,0.29819086123611194,0.07143485972478078,-0.11944033742536439,-0.013525901151721047,-0.09605134389280819,-0.13131916132374485,0.019820236624625925,0.11424208139856608,0.0020745007657781544,-0.02186026349314956,-0.15420774230443057,0.033048190996641705,0.011469624432028216,-0.11642497405984163,-0.2846734968251287,-0.0788105289737425,0.029168928268115568,0.035636367245921105,0.018504288643297336,0.029152078956493296,0.026580839983070172,0.11507891116201022,0.17993470362605551,0.15153146600187786,0.02753526842239889,-0.021007863820858987,0.30093707290249383,0.4331145292499332,-0.06495738105532269,-0.3175626362876484,-0.28304218562902167,-0.06922413033742038,-0.11084320943067316,-0.12420085964104662,0.029654463109123966,-0.2001013055133778,-0.31802768516648106,-0.18477889419367854,-0.4627397547389929,-0.049392962259585275,0.06739162222799366,-0.012903502575744645,-0.15000881009145287,-0.06352056582845929,0.014995680641857675,0.036705969989191435,0.030131740753532452,0.004475042926799904,0.03931861900377189,0.10152178694215735,0.07099438710253327,0.16030904344727342,0.11603054519992682,0.23318607583498097,0.40008618400827844,0.3701105025760768,-0.15564609714300387,-0.46014033831239404,-0.32947290985949895,0.017068532443268617,-0.07058419298327524,-0.22123015433352355,-0.008300266573825626,-0.1860769143000289,-0.20002106055573968,-0.23314248866651333,-0.3296636654897744,-0.08479787150765603,0.2421327052542811,0.13311469255290273,0.011034573770034696,-0.009107635207997984,0.007951560791703713,0.036551302844735796,0.040135097076828934,0.03287923308333278,0.019817335590969522,0.02554910611148951,-0.06932018783328392,0.12722640183481004,0.15423329842905434,0.2828677330020883,0.30639176542858154,0.17986353575211672,-0.4746451571281576,-0.5932239104737682,-0.1372218443809599,0.22736428600141087,-0.048112606931392465,-0.07541271214425066,-0.09570066385354535,0.05853250460149288,-0.0628685292539879,-0.098950258890903,-0.2458941136378858,-0.0699694137877464,0.14691066250897794,0.0985425743233678,0.019703383913508572,-0.030648400458373994,0.036495781992414295,0.007944122823972177,0.007388792244401582,0.03011434625868441,0.021961742472672432,0.10189219442874037,0.04401701245277099,0.08026961138668044,0.09372556151736809,0.32874599571880964,0.2727053409329921,0.002117605368540281,-0.2551632586085736,-0.2080759531901645,0.07742737804429596,0.0522756998660682,-0.12397832170451796,-0.1055374708850124,-0.0616683193900165,0.17995785841857745,-0.022800992358790736,0.07934028323060965,-0.03120148984496346,0.0364571648394072,0.005358553387606686,0.06363098556848971,0.0073798135276515785,-0.017641971913065758,0.009680626326395044,0.028744309763285087,0.03209220610052777,0.025207365211505562,0.0756718050270551,0.13729102131075818,0.164751189691376,-0.04357640779917158,0.13514831811089387,0.19918558582406046,0.2140721743127231,0.20957080845946247,0.07817166239099681,-0.17002122905095451,-0.33022254529395945,-0.1576024216753048,-0.20254813251646803,-0.15596168049483847,-0.04669495059892047,0.10161694620561827,-0.024842999456012368,0.2251969577333614,0.093516217029399,0.04452590567346303,0.04253263835176884,0.09674329463379869,0.06878724805997852,0.018747039585483915,0.005129592525722945,0.022136936944086586,0.0214596460354014,0.009654261204957094,0.033479366739465444,0.12483995472571056,0.12804776922349922,0.16822971472557807,0.036258103581164,0.20383761801637457,0.2898767731823207,0.1693026800511939,0.18851553062031312,0.034824292852731094,-0.09421684541845103,-0.007740314595602911,-0.2653429234742636,-0.45564051976001885,-0.25221527483764705,0.1341723355780671,0.084168728945737,-0.03246185236881591,-0.2369621723888582,-0.1730932559980369,-0.03238196750848245,0.041854392422179004,0.057186468467985196,0.029828773835629197,0.0426348485291516,0.012629101061117193,0.005058943764597741,0.020962163809925573,0.01789740735576787,0.01593324561254821,-0.09240267702632626,-0.1340330474392841,-0.02664471679965222,0.2009562353516673,0.13111594753299305,0.10426237260454899,0.3158278543675904,0.17045034280319082,-0.04921868054059599,-0.11001489878961299,-0.33476056559876805,-0.30062113739429736,-0.17384163535762212,0.01717796189557784,-0.15351001920698343,-0.23921120132277132,-0.351111696769432,-0.13930975116897382,-0.016945961047844096,-0.0018943855992944317,0.056544721055364906,0.019228502688767073,0.007870091598245617,0.009051807833548349,0.030020125493737657,0.024449337352304527,0.0010008458773757987,0.0014144739144420452,-0.03210682439131686,-0.09065379105675479,-0.14694709880589812,-0.0990795681694185,0.1464180507203536,0.164491261484894,0.1312913945297965,0.15222957306929577,0.12880791055057716,-0.034298455598039276,-0.06942491657425914,-0.12021769395188317,-0.22594541183997807,-0.11796046918965444,-0.12470627783567007,-0.2472850327450553,-0.1773899711905856,-0.14937322505673356,-0.05747115030259068,0.0033105598925424725,0.018315833234383246,0.028439230626221293,0.00705606199307548,0.037342788495261105,0.045848566865318505,0.005302942439631492,0.034510059963931645,0.03917025527877694,0.021168399755376113,-0.025552695741162677,-0.04540580269011119,0.011456659720903773,0.17529473049608196,0.24800420097292164,0.13543620754599275,0.014254331909441155,0.010537237622939602,-0.05933773514107728,-0.07222352821451168,-0.10338067783146686,-0.12204219818323887,-0.12470746634946403,-0.06777480989102597,-0.010389993699923487,-0.0589538854859475,-0.05005841119714163,-0.06577047608479315,0.030873866805699247,0.03511561264023386,0.0036318808804399368,0.015745068609608972,0.015934585772234004,0.000055315464072175485,0.0024436463567409565,0.009232135526348396,0.03150500779516288,-0.0038988888246591796,-0.037844506146663646,-0.017437759104330305,0.055489927128345336,0.08310826508495493,0.10377587541805518,0.07986958494855673,0.09590671888413486,0.015592119930294608,0.05679563271545504,0.023739648352937515,0.0026536806739600976,-0.007827680419608383,-0.007044429833215744,0.03162261587570186,0.02694971705312796,0.009030919278133669,0.016250977437735903,0.04452716046421318,0.0004857278383783692,0.043221654557827484,0.0335750144171935,0.0487749252698464,0.037012946315015414,0.03720367307551099,0.006728335810033637,0.002799595774451749,0.02913597035579593,0.042869078868308694,0.00857450148814711,0.00576421284853019,0.04749628985563371,0.030862625978168367,0.04180496493787198,0.04750990075361098,0.015405409992901957,0.04137868161927201,0.012077847311488577,0.04209075820666567,0.01623052632715346,0.04195665506523406,0.026559118788006625,0.028209730946173947,0.019699105138294606,0.02017646636387669,0.009124806637954659,0.009980770493964907,0.006531237178754786,0.046961535768849295,0.04692903545220905,0.04904357806143825,0.017111327065563935],[0.0034644333078421995,0.04193388998124865,0.032631465166962755,0.04860268318161846,0.0037121635058057893,0.03344471825929447,0.04285476735541473,0.0350356922694298,0.044824531394232384,0.011879158083966853,0.03534419917990616,0.014631499854273092,0.015649782586796935,0.043208428362157894,0.009986078668198036,0.008565618298839813,0.049520541676229976,0.00790589124626385,0.0023971253120047492,0.003964809361266507,0.004947034539530669,0.05026738388235389,0.012059777942676762,0.027354311910974788,0.027376697625766413,0.010199773376885553,0.007253825554590618,0.04483844833610827,0.026439050765797854,0.04113535851416228,0.013773999982806635,0.026966319023691624,0.043052909965893095,0.011813830349110809,0.026186390879840628,-0.001642340129697685,0.02976980587747485,-0.002118173963830213,-0.01771908349066533,0.020920613481474344,-0.026223087400176415,-0.010627321244915595,0.025088441297346394,-0.0014043252702802198,0.021152449876783098,-0.009885952150210469,0.035341791532050325,0.03416404962902727,0.046291162328482224,-0.002240535455811349,-0.02623720790628144,0.02349010261286566,0.009459725821212454,0.006342960580279806,0.04046417629148377,0.013644100865433488,0.02702923156203436,0.004862902381413152,0.016882833196271537,0.02701293474813786,0.027409768156024635,0.0036106913214234066,-0.00022139303792624145,0.015187565570706905,0.01792083276714975,-0.04659296247055537,-0.09002592113005624,-0.09822959460397304,-0.11798935512586133,-0.11530966925110996,-0.1357630633154054,-0.06534987325151255,-0.09651776519334582,-0.06076993595010915,-0.013576690007172995,-0.0052294188767717485,-0.00018096998200890758,-0.007613235745925826,-0.03065323019241514,0.003889655399844888,0.04649929469124359,0.04340883265410144,0.03321157571480436,0.03230081386793093,0.0009056398024118001,0.020065179879691242,0.028735585798236388,0.042807874398676865,0.04743481021848274,0.035538081396726026,-0.01893158894220504,-0.011129498110474128,-0.11263801349090365,-0.12861207829488272,-0.19059237323892705,-0.2606890482374878,-0.4081343834525898,-0.5701444729716896,-0.43825268116931076,-0.19104133389137948,-0.013008394659617343,0.12309804739622096,0.02161674903329457,-0.12948774876623756,-0.07595676953669524,0.007862386199527008,0.02034782981415679,0.02685982986883411,0.04010504498213912,0.0179067715850032,0.029348976593758538,0.01683906045021908,0.007681924871685947,0.04951561063485326,0.00910597410080172,0.003150406886388727,0.02110765809199141,-0.010176696207528098,-0.048919495934218654,-0.08486740912945294,-0.19600692318885557,-0.42145586714408134,-0.6085347682143741,-0.5524929097570179,-0.6806736990428757,-0.5795046694584571,-0.42680411170164967,-0.3506014589281206,-0.0355904617210377,0.15806280530780484,0.1674937245671514,-0.035410100181622536,-0.18510056006110784,-0.14287827063544326,-0.08952586212475573,0.036563939318592954,0.0947826109565668,0.06960843051281626,0.01544753661620478,0.04959971844988135,0.01871486061335983,0.02725859581210391,0.013838075516990346,0.008290468263635867,-0.011209018224349962,-0.037628344425436125,0.017205142796809136,0.016957840769658394,-0.016583807309436583,-0.10615967310566805,-0.1315060589255657,0.2778600600106314,0.2811840810336903,0.07970733518832536,-0.19807986295114577,-0.06454967242571727,-0.6340898489839247,-0.48419439804411346,-0.17362646755533964,0.010203382145956534,0.026454571022191595,-0.09659321284020612,-0.08041124712298219,-0.08417998269589116,-0.04137019078160573,0.12074032506451446,0.020265801205608485,0.018779584538631707,0.016720349381917143,0.04584970331630623,0.043061921913684464,-0.014742879139651999,-0.045074138561695974,-0.05594697126627539,-0.11405358555538563,-0.08037924569135,0.12987378440393263,0.21946648619908174,0.13952488660083204,0.42710647721159545,0.3301632532763636,0.2056039688207357,0.13059066945195077,0.20919402895381362,0.057971521266484825,0.2437064876904283,0.1946963467799478,0.27897067746184695,0.4552943534577986,0.2330253799418857,0.07574722153764497,0.2484491314382462,0.003919260185825916,0.172234405387291,0.04577546489872269,0.0218230757768049,0.025516684620970016,0.023175228127045512,0.046075615231942986,0.04334986550089384,-0.05760109455957836,-0.2816052781119149,-0.23870701628312604,-0.14320596479829212,0.05519753854332207,0.07007923235434194,0.2721393891353945,0.007213961340705211,0.1628717327082295,0.24976497691416877,-0.28317181431670413,0.26691991843049345,0.10860898185806155,-0.05958059375246084,-0.08274071741501816,0.08866870296466352,0.08653333681585379,-0.02786064087636699,-0.049655763418066136,-0.005789398806139346,0.08137348317335959,0.030425820980169403,-0.019601064515194475,0.01712108236117047,0.0074557602419707695,0.007447783750930417,0.04242471968137809,0.04932634628450175,-0.04751598704271168,-0.08291151024206025,0.13289702509965878,-0.08243614482794856,0.2992442996060213,0.3749519606808427,0.04720493871384568,0.21868431954507853,-0.1269243776852482,-0.022867676312249705,0.26337055744958443,0.31469025909962317,0.24096263225612907,-0.2126283265564758,0.101110466132543,-0.0038455827011497916,-0.21825078957729085,0.13821078768488568,-0.06182324808268341,-0.08430407305981917,0.1407390937814583,0.17499864497243725,0.07059103039753067,0.011838288294611556,0.048979795028518264,0.025793901372584978,0.05406114304993508,0.03800903812564183,-0.08753808016392099,-0.07990697141958804,0.17031880379646963,0.13998252775566375,-0.04925961139253767,-0.0745310350280866,0.15506246896053608,0.18270353879426418,0.07877610006201725,0.18028511674001405,0.047211317241048774,-0.044034293710455086,-0.109440461972398,0.5208535446722982,-0.016315310728619397,0.011404395083181074,0.18367977995057733,0.021524261378783303,0.29190633141651295,0.13780933637559165,0.1583593075976625,0.07253394030148337,0.15922930748220707,-0.006224529198182235,0.04959027996275683,0.007059242588736491,-0.03506354582052025,0.03850311695804211,0.1739623301694197,0.03471794240845989,0.06892554102717821,0.008266820850279652,0.11480170525794345,0.26780839380694144,0.06087564909689658,0.22557234261963616,0.2661460115420062,-0.6293462743424165,-0.5889527230490902,-0.6378043833683256,-0.44405575074825016,-0.2995254941860004,0.02052711657225521,0.010181278833890374,0.08948676930838192,-0.14908683119354196,0.22087505006963853,0.3177777776014683,0.1550272518604143,0.04930829498619737,-0.0035354582945726783,0.03707377470186595,0.04990927646171707,0.03264396173517051,-0.0005366750386525551,-0.028774133747099896,0.09825981679006936,0.31970619916428655,0.14764133009074915,0.1747166685401138,0.5708880453200815,0.5286144321130638,0.24430384080608805,0.2725907180532561,-0.0945371694353321,-0.24116933786629036,0.20483979268753488,-0.24435903780986548,0.19179489784768472,0.4153737087677728,0.11604903657514058,-0.053068328681652455,0.3815238488340748,0.1365841732345366,0.38798075435867885,0.3634172782344149,0.334497582903659,0.149311565328681,0.08029443755208075,0.03617339545988348,0.05013686114847707,0.023034612606296884,0.01293026534184681,0.03674253856493582,0.30632683389095583,0.45605012611102747,0.15365993294194372,-0.03300141300958891,-0.07294811843346122,-0.3377597315199919,-0.13187772153917535,-0.06726696318320345,-0.6409265574845038,0.09070675367337099,0.24686430873611548,0.05427065283022976,0.012771067654653079,0.05810130835752357,0.22035633654308492,0.23483433276536544,0.3520354691388066,0.5201198149126411,0.7733734739368886,0.6299196587089282,0.2153651990663277,0.15035457907003683,0.20116719833193702,0.02235932451732634,0.023068729789582416,0.0638415677293524,0.04445036802719818,0.05752504958416251,0.14281637030678668,-0.1137612460111493,-0.07842116626389979,0.11434019989443148,0.09623195956513919,0.0949775015026024,0.07321862199359297,0.1763283987206724,0.015359365315541459,0.4187591102054815,0.19114012396420021,0.10320618503385773,0.23846184638728038,0.12888398953219776,0.36856072613654195,0.3042876098821562,0.5023895678104542,0.3367800712353667,0.29297790916051963,-0.23147927936040597,-0.29064617099675366,0.004818973757206279,0.07210838244692146,0.04670314700421666,0.010908490157122586,0.07158334978838801,0.011361031705732393,0.15340908286311622,0.06401284926457347,-0.338361549738148,-0.263393294933599,0.1326351912096045,-0.060656658267273414,0.059890958374742335,-0.040925878999277535,0.42478655747049743,0.4529346596967171,0.47345697549985266,0.2963411141584197,0.22698360810370952,0.12025579387977424,0.3436594714478367,0.38041847648355204,0.07385557672654851,0.2677297077101951,-0.039293139001405075,-0.0757658435170938,-0.4231263960832751,-0.4354813601471863,-0.034944971204538454,0.0073176918866565185,0.0014309438826988624,0.005576258767225129,0.02028170360092986,0.030494585760054867,0.13201579864476795,0.03379115347675193,-0.29297588754042053,-0.4213498233348299,-0.07712552137472732,-0.17194542718991168,-0.30446010018981134,0.12881532472760013,0.2720612034379098,0.2598199838726043,0.2360617576735262,0.3161019506384575,0.49893023359762123,0.24749430740714695,0.4562032042306171,0.08330412634633498,-0.1248402918675515,0.04488509964537327,-0.1698445735638785,0.09597167908768137,-0.1900250471052371,-0.4483566315081812,-0.17821305759583894,-0.00631005287281022,0.03731400717834627,0.014709262103079896,0.01065758273516067,0.05199679692809398,0.06405230346414675,0.18157154680294174,-0.22841884899763787,-0.34671051067420366,-0.3034612170236854,0.04401946665989236,-0.07533586764168038,0.10935491618413623,0.15895982985239043,0.40079427638304416,0.2780717249210675,0.4183379805602696,0.25127604738358655,-0.21840419914519735,0.14762859819383842,-0.1009158668315429,-0.325176960872484,-0.19947947221459822,-0.514004272371897,-0.2682584655358606,-0.20776368679441998,-0.3441169981757196,-0.2198760650638188,-0.06694494202992554,0.04567117137096383,0.010783516169499095,0.009570971062059236,0.04312094747101927,0.07863653270580881,0.031750813904200405,-0.2436191564320581,-0.4521930101553519,-0.09674796043675797,0.051049631209518505,-0.11659197500445534,-0.0447756987074454,0.04458464934853549,0.0572253485242644,0.2642192971635208,0.14310464672930584,0.25005441760532937,-0.22143627135690222,-0.2524427920324355,-0.22511062925923664,-0.5221118993393625,-0.38407530564602227,-0.1398606313534857,-0.34600399165835644,-0.10267474959256283,-0.13466157056239839,-0.07039633892122849,0.0046974595574063496,-0.0008254568752291483,0.011763383077561584,0.028003395875826183,0.06382560750753286,-0.006936675465114644,-0.18583599707630205,-0.05545183874064197,-0.0803630063356942,-0.37295866858680154,-0.5345946574020923,-0.5127101401200879,-0.20995907134957567,0.024791666065852182,-0.47162683280117035,-0.07325175903321236,-0.011818018792104163,-0.07773177741905646,-0.421902365275999,-0.1866964370299288,-0.2815920146111095,-0.7214251889586966,-0.2523127649592339,-0.17784021309338513,-0.4855255187971415,-0.3774575527849381,-0.22197364064487954,-0.008345578168829916,0.06685033974774315,0.00904552522271193,0.008430146848037178,0.002515659110141866,0.04714689974819079,-0.05661889221618281,-0.2416836906081865,-0.020058914568982893,-0.12255322067838247,-0.25397023458875745,-0.5836687003016745,-0.7240060537494066,-0.8165772879225738,-0.7019422756444639,-0.524250394445982,-0.8150327493441707,-0.5124165787162248,-0.18322577047188465,0.07051371950831936,0.06906972397435354,-0.15984042932926595,-0.0457823692713128,-0.34642603911982217,-0.21778069251749857,-0.5348387085082913,-0.39352981580928936,-0.22328944725974065,-0.04451634876438506,-0.014179197713462061,0.03626442411992538,0.04255876923117617,0.027941664489376912,0.017802088861295855,-0.08776600213392431,-0.19768710141292198,-0.1564018753655256,-0.18645437152444927,0.03355511259982224,-0.23074465920405116,-0.6785393004643512,-0.595462722961776,-0.2798813607744685,-0.3415331076058685,-0.19931314243106718,-0.16446771155245762,-0.21569287641344428,-0.09090333815999618,-0.020727976717177694,-0.15913745560871845,0.09962235708122338,-0.1268178573816016,-0.2857428591720854,-0.42511703522926736,-0.411114674139861,-0.10779010930893523,-0.028632281229600313,0.012466805581709614,0.009020421790567614,0.011737647764727112,0.022503625364790246,0.008767365965777955,-0.05032132869556665,-0.010236252709223286,-0.05479314335544088,0.08566396620722574,0.09408864635475354,0.06133823347514887,0.1317455268631008,0.27138937987461537,0.2547242079305149,0.11347499370814912,-0.21143755403475617,-0.3233696406738398,-0.21483222082308756,-0.27171662951461356,-0.2919175808274156,-0.29919787592063735,-0.11460271827684271,0.0662764146461869,-0.3171532116770797,-0.5276428532153739,-0.35464606863797793,-0.09274500738703784,-0.023408608549307867,0.008853209849874122,0.0253530436500496,0.040748928138369674,0.02169972461514106,0.007178692736312607,0.005706011454347524,0.050657772181751014,-0.18440304073701422,0.14030055710187347,0.09430134592676848,-0.05449843447493725,-0.04145991899224331,0.3262401038353857,0.16159770670165274,-0.019271285022163485,0.19236654101913608,0.12322491052396363,-0.10930030328169511,-0.3792956102842202,-0.4797540689554211,-0.2646643892824088,-0.3381282274390522,-0.06879022865948377,-0.3682637914657853,-0.45283886469899964,-0.1734572238579911,-0.003632224719956282,0.08438236942851211,0.021700289300672596,0.009162414695318526,0.03436627552205791,0.045028545303479835,0.010096580245889615,0.10890980684132015,0.04268229019576932,-0.22844407735696112,-0.08726979167810842,-0.08844340224237529,0.07733183780084915,-0.37168107613405055,-0.31295149796344335,-0.0947641702790115,0.07985369150037061,0.42261918859592007,0.16319205185248975,-0.17316738793798467,-0.021334827451776662,-0.1168026663905487,-0.25923235770973985,-0.47300606526073513,-0.21705131492660482,-0.1723843462588091,-0.034808704775360376,0.04736754849168888,0.11162781549673106,0.06379839011258928,0.03231512840031183,0.0490732935278459,0.03038024017307888,0.003788378191121447,0.05175628046732891,0.17579670857923874,0.26416010972015636,0.13518259256491374,0.09002561576450294,0.25080271752490185,0.15522373021612654,-0.21966983791773248,0.2308891039832102,0.2275043381561776,0.16723914898346273,0.08992236009779157,-0.06252031134731448,-0.02402896081684511,0.06517326353349627,-0.17133175502178266,-0.08844651216415024,0.019744984008322974,0.30816329065285875,0.12126744593774097,0.07049345117531527,0.08913916265321249,-0.04520316352489594,-0.056145496756037964,0.030708763863700004,0.028858020402140604,0.020464023217573,0.0008832229961050354,0.02255437002518272,0.031206121843806642,0.039591511481480046,0.10943601957067076,0.18539922928769678,0.2715443800692226,0.4669597488539642,0.2370697472193821,0.4270933707638757,0.4182350617898418,0.04613420304752103,0.06193906541539274,0.2811910887521278,0.019578747835664316,0.18072220876534545,0.2457875806604935,0.1373280031924774,0.2851719124216987,0.38802282397169535,0.2039264977843551,-0.032765022040309365,0.019445389661037635,-0.006948372929909816,-0.0012266511313162368,-0.014990063170810138,0.02352039890097328,0.021985054879767416,0.031130213360548126,0.03241518538075164,0.03237321463490428,0.0626939813994792,0.146942109481298,0.23595828247611114,0.2722265909433243,0.2780310335515675,0.381847360725904,0.41310187236126206,0.3919922552126368,0.40778587234122243,0.48302855856005256,0.8275487355796687,0.536593982699888,0.4497022068174917,0.4752904160378153,0.33472519803276113,0.23712286150644266,0.33520906766157404,0.2336526488551714,0.05493101770963706,0.05147499301283964,0.03170572416247169,0.0261308286211416,0.02304975864020183,0.03976680527809758,0.03660113017193736,0.002063494520707206,0.014864687534252225,0.029320628263515985,0.010718849363273216,0.045929216465123233,0.009342324515816049,0.025561521366582348,0.053667684173116764,0.051650106425125304,0.013481557112318169,0.05549520997549973,0.040868782712190015,0.03807786769365101,0.12440213098006371,0.10809078404730849,0.07235879711169563,0.03417201010817293,0.03562956256767132,0.10084192209343062,0.06854342190530006,0.055776052095298,0.041993598338509325,0.021788785816740645,0.02574279897516912,0.04704167517770034,0.020906787796844396,0.017644042792570945],[0.02644473122938721,0.02266928696535383,0.027617183070097744,0.04874929114290153,0.020084093808420987,0.03561919970375852,0.02136438645999943,0.005077561831381925,0.03451856308817588,0.034823219625501375,0.03306424315469819,0.03945907062211761,0.0014957549464441116,0.0112260028296543,0.025082834639328713,0.01085481901208013,0.021607883305227497,0.02047908890244319,0.046446621102265856,0.03105735077864821,0.029579747421816138,0.025148774446311112,0.05020194264818217,0.03121365569190226,0.03845286169312691,0.0041620933407769565,0.0003784656718394842,0.016751284510675455,0.02134866860591856,0.0075007428933859584,0.02843954247656159,0.025144940997254207,0.006544657807897668,0.04858080973555242,0.035940546725098596,0.0014430102233817972,0.005952263187587403,0.037917713861694465,0.02237604654609462,0.05471271624963254,0.045741645945991075,0.026187784520987564,0.04588047317495755,-0.00008028979928325069,0.0283199870520898,0.05252425485348171,0.04216559200507014,0.02298739281914902,0.023477039875485516,0.018301554697773947,0.018581494567321107,0.027174346420987,0.03850002067889007,0.006832536441041239,0.009979252769132039,0.029848756539947407,0.01733574506485684,0.0023037876453370263,0.02056824733570931,0.03132648200507442,0.03718013120632178,0.02370743247539981,-0.0016027853122960148,0.038659304772512136,0.019592503513422878,0.09797917381362564,0.11503248976686839,0.11820937237985515,0.1840327892854047,0.1321021445536901,0.1314737145954652,0.0013359179095697308,-0.02909408233433412,-0.04230815201520419,-0.0381756038268469,-0.05428053594374067,-0.019897343178426688,0.03412611401550378,0.00948722032380531,0.05023559314987559,0.002747568120289944,0.01773907677286554,0.0017133979700776894,0.038290975288030556,0.03292845020640518,0.021260719186506384,0.027571685789030912,0.04143437482058865,0.04208331706506276,0.007807639605228815,-0.02168068162042728,-0.022085154432199945,0.006205533868016399,0.12519862339900661,0.16943239965300452,0.18453284191513722,0.26502518231118266,0.2759727472463213,0.19887215655649498,0.17555428036391582,0.1832498851497355,-0.07446732339921049,-0.1549237653103118,-0.19448199634971097,-0.24028973271235668,-0.12131400921092526,-0.015942796005772725,0.02185324605080229,-0.0010975495734998097,0.032280042531527296,0.0011245286624331744,0.010723976512812927,0.0449155278203289,0.004773930203521121,0.005085227935459501,0.03582287152474026,-0.031102421393309772,-0.0674536598893483,0.018216581392374923,0.009755985529688187,0.041140556431519544,0.24699397598491837,0.11522073599307273,0.3126370383195181,0.34931484674594565,0.336796830226637,0.2785637766118168,0.029217800403458845,0.15376675576897264,0.29604912527359334,0.13423680429178939,-0.039453710825190544,-0.15814256588139908,-0.2577294205128079,-0.19427768310755997,-0.05328965655156596,-0.002377738090580003,-0.018250767499398524,0.04234880866642852,0.018785746620453812,0.016692264446924985,0.014696890723478875,0.05069678286200491,0.029380208944374528,0.01669125316831177,-0.12073926443627046,-0.08512199645980426,-0.05071584495504462,0.24110016414972474,0.214875719586053,0.19896909260138904,0.5247374050754723,0.46378604743319224,0.25938524622304293,0.2965128202138091,-0.005632033960239373,0.2481195447157977,0.34601146407707006,0.12032076491580282,0.11580095265219512,-0.11286056886160525,0.042795448357352814,-0.011634765526265575,-0.003178857977352448,-0.08450465713277137,-0.011593278131058952,0.012193770901770349,0.01641116431900212,0.028322529723775178,0.02765173623774853,0.01665601100113807,-0.0008874977374703484,-0.036028733761380584,-0.21348840093098448,-0.1882411057596484,-0.04993598688734658,-0.037454275206821555,-0.182246930725597,0.2110167880631491,0.2030523457102972,-0.03602044154700498,0.1975515493812352,0.5705020251328584,0.207336342237351,0.12827608195419735,0.07562932254891065,0.016188874689437614,-0.025347970995150636,-0.2146434252610824,0.03716711672344867,0.1136274506124614,0.19160296942237612,0.1714518081185936,-0.03392126882323743,0.036849857811147205,0.024992210285118457,0.011399140996192318,0.002394391813805361,0.020323485329223224,-0.001382931922782203,-0.0366334165872364,-0.11471368455678291,-0.12166465791072305,-0.03994108783554098,0.012290637391284807,0.021840388021944674,0.13090846774304485,0.43831031692380595,0.07614468728056972,0.5491852213929928,0.6424039280661347,0.37343549076798876,-0.2696763259907792,-0.35486382243844355,0.04800344911156139,0.15075494111187504,0.03235682380746475,0.10329734379501579,0.18036941317409874,0.20900160637967505,0.18337786260396688,0.04785442603831207,0.009363734518271065,0.028041876702326066,0.020198484749611823,0.04468161606323804,-0.0002638491961740739,0.053984690351045535,0.1066545166404037,0.0009807731048903786,-0.1857588875787137,-0.31825791117003477,-0.07604115710155766,-0.16603745772259915,0.006338699586603536,0.09103603337540507,0.13193119962474723,-0.07051719409210847,0.3967971002591135,0.48148010445477774,0.1944875118035035,0.05357644835575309,0.06386006588608449,0.240262292696111,0.05185590168711353,0.032783575151947346,0.14826665509273051,0.24348083820916486,0.011026827163321117,0.05118873266425713,0.012243093884417517,0.01396244173555459,0.04118123863057178,0.027358765585942517,0.03182508504204734,0.02072436880171219,0.08104639854700851,0.1408809154181343,-0.20521328527459512,-0.2174022560591045,-0.35255026947673823,-0.037745921517816666,-0.03278665735628852,-0.0661467408412129,-0.2300825086822203,-0.5607705433033022,-0.30244331707195465,-0.06852537933696501,0.1984945588633157,0.08873244885017127,0.23109331760629656,-0.18818429122406288,-0.09550703791156753,-0.0810304182930247,0.00528665006175153,0.1806768856411767,-0.09590440647304387,0.017310073878843944,0.011815593697484614,0.03876155403704741,0.026937140044462477,0.048440788186138915,0.03132394246759208,0.05944071171731011,0.08773375518460558,0.07281405365859296,-0.07097731099255163,-0.2632743775875322,-0.1825991372990626,-0.0056543922637838275,-0.39717635002891644,-0.42460458087808567,-0.4444539002383298,-0.7903428768801086,-0.7926900698224836,-0.4539409539236475,0.05911999684590544,0.20339857750094367,0.03337004177714353,-0.18944050630737436,-0.3569578606281525,-0.027715780358659545,0.07480358501546883,0.11203362668111082,0.04483773352574993,-0.04993756124117443,-0.002939879901692035,0.010246680256063958,0.010236557134671621,0.03359239377302996,0.03455813038925203,-0.01687654046238221,-0.0075145648487061805,-0.01859874987902561,-0.05718498309263713,-0.305252838980509,-0.1797036256476315,-0.050441351413532454,-0.4477211168953234,-0.2438722799888821,-0.5035565568906005,-0.7863792481675487,-0.8095877951978775,-0.4798265512509766,-0.24418869902833765,-0.18397125029293493,-0.07963343701878432,-0.1808415737556039,-0.4126833353536398,0.024809282100774273,0.10115375851414607,-0.038140771140023955,-0.019737030398474402,-0.015174538369154852,-0.009988146318526025,0.005177144940615917,0.0027861066279737954,0.026486405263274986,0.01608874082810206,0.012683211931067062,-0.04709355114679529,-0.14853710758482866,-0.3199050770323238,-0.3885698073360041,0.06046894599300622,0.1641002756842947,-0.5875065026538059,-0.517658505410838,-0.6520091550064517,-0.7355545773831127,-0.6309572954277013,-0.6874194596982115,-0.5420602921427773,-0.22310611066131217,-0.40409363378626967,-0.5998477669785166,-0.3661144892598249,-0.0713067465296779,-0.13992927282524836,-0.1510733579081454,-0.06969400746587183,-0.013935956062935559,0.005768229040295308,0.014532553981689317,0.019496327944283038,0.040475279255878426,0.03721951147074926,-0.003437551188295704,-0.08343972447307688,-0.11097317469912818,-0.3922204894991442,-0.40722604225308523,-0.31381003743817837,-0.17417269020755774,-0.4190075960050917,-0.7558770528927549,-0.666833518288507,-0.31806664834627424,-0.43303065067116614,-0.5862958559429834,-0.5023063986578253,-0.3111973218794794,-0.558551331911242,-0.6920342753009773,-0.40295925017008005,-0.11397564572791782,-0.1165498500785595,-0.22346880432136343,-0.06756270231880895,0.06587359331270091,0.005247163949572906,0.013980838714818207,0.0476735699282848,0.014053446931794321,0.005337277722472937,-0.01999172655702505,-0.16355202398953056,-0.23761319386244012,-0.4146688798550549,-0.3641252651343156,-0.3598024555069933,-0.37760911661540886,-0.3446412822320605,-0.31649022295313495,-0.6227833331427378,-0.24390828039854948,-0.3673305295054643,-0.4191876207169418,-0.48653324782117435,-0.6231042618198771,-0.58554248851724,-0.6516740406258525,-0.3035900520533648,-0.2607360380882744,-0.35128495085094524,-0.30743507118617613,-0.0512765113389099,0.013938494021623685,0.0945362366548051,0.014084900924467337,0.044324751596334123,0.0035616647524037903,0.006992772251542957,0.013980174837974039,-0.2674390902257299,-0.348435370753653,-0.3867937952715034,-0.206781701033343,0.13958852528802085,0.20811759668955004,0.003928388423741472,-0.3996613637982894,-0.37200420811441287,-0.052507013022969805,-0.2532867155625459,-0.31620043224588373,-0.07192581592009774,-0.2531731095775502,-0.5593175015156235,-0.491535599428775,-0.2071801037051317,-0.2015729117332861,-0.5873080070014285,-0.32066284116819443,-0.04755319966833474,0.02943202375331541,0.09420134774202929,0.03141314981319693,0.0006165005407762807,0.025854034637145903,0.03604281511039118,-0.09703191773627176,-0.29134101720917127,-0.22681148647374605,-0.16979448226147034,0.09207211246149101,0.13287053501614685,0.2472536381081453,0.2130208760501478,-0.04452660240024981,0.035734406633637444,0.11486839321680668,-0.3097081709596164,-0.3528975841156541,0.041967623786902976,-0.3322598035816657,-0.8282702382927661,-0.4968906017067135,-0.22805771200257782,-0.18437984948682598,-0.5035434709724238,-0.31568700352978585,-0.060152653923526186,0.16530551697130239,0.12358088353229933,0.0693082304471488,0.039475771481157655,0.006330293846862914,0.02841315766621299,-0.05387340683550565,-0.22891245709186497,-0.08479640470231567,-0.18803918402612652,0.23783750389286665,0.05831874025123119,0.20767889656567234,0.3314937981183721,0.2580273687791074,0.26730077901854626,-0.019999943654249876,-0.23163051363054638,-0.3296423604676476,-0.369564906829508,-0.7924513059992045,-0.8920628444191421,-0.39599316123571304,-0.21534239204674327,-0.365373966231515,-0.1888410006412251,-0.04940594820044916,0.15754053222688258,0.38409775646526245,0.0708685110617274,0.023209827361054508,0.040142862009131204,0.0058262081347554935,0.03420160666744535,-0.046389653946696065,-0.1529418426814173,-0.3742405347268449,-0.1301845061788604,0.3704926772750755,0.24790055194773444,0.3592819195938094,0.3664317229385211,0.006852805352347311,0.5721933893117012,0.14000960484863675,-0.24710858471932773,-0.5755454867505031,-0.5427657571812762,-0.574932831238241,-0.25863718825743054,-0.01906174482874955,0.23361024750103015,0.052224122791090066,0.06696978200012732,0.1507943635277475,0.18022522363728874,0.2647448184877055,0.06261538698668198,0.06330008502666976,0.033213606186491496,0.024965159816596513,0.0400963233935343,-0.03953888811178449,-0.18935890439887812,-0.3266089169990044,-0.03538862061213475,0.22918685508400957,0.051802606520935414,0.4459998472701265,0.2549845214206119,0.3282154008713497,0.5475165570469718,0.620869718395106,0.1290876663454957,-0.15453143266995442,0.032439081918943645,0.24218999296066077,-0.006904879206114664,0.11751935609194579,0.30474722537757243,0.24081954696462965,0.11592953796388152,0.04957017758217362,0.0887432509809054,0.21300710158229863,0.06875287315317972,0.051031058742252514,0.005020655146667726,0.04798721824691911,0.03252152959925053,0.18242834098891184,0.04213189343968289,0.1624188692746745,0.22643862103397272,0.11963218086892868,0.03519530096873382,0.3504415591471327,0.1372602740294593,0.34364858806427717,0.4533361580209016,0.6010181366435461,0.13683619672016853,0.18566881049143716,0.6639083017510783,0.45941334763934016,0.07510475260698427,0.06833274190410228,0.3051794651391716,0.351487472492447,0.2652514522124389,0.30920530122163653,0.14947163273641284,0.10608345227992434,0.05736470483724314,0.03521833538378094,0.020272233385027493,0.043109903713675596,0.07512030987206368,0.13096318437059024,0.00811156055860481,0.1071292582020251,0.12800855964649194,0.05632100969307554,0.04215556857772233,0.41457880147712367,0.3766663336223886,0.3257428257781204,0.4081552427502651,0.3061940906764378,0.413292386506392,0.3883514381863499,0.44059971940672793,0.4429937671635223,0.21297348448567668,0.32994645895513747,0.29434739173327845,0.4702786600962402,0.5432331244652022,0.4897403239121459,0.20615167041978255,0.09395795755985233,0.027042198975523877,0.03657607052557062,0.01995656207035946,0.019333248392076646,0.10522156753096402,0.07222520753144154,0.042515117296704166,0.2399636474132139,0.2384650785605788,0.15027311171832647,0.5077724496673793,0.38213713799014254,0.1983529388558767,0.15937344619409427,0.08343138475151414,0.1348031293439635,0.1852909214062837,-0.02361939518752634,0.3024736567061761,0.26343556331112983,0.22248321671688936,0.23542887588446673,0.30222868466307,0.4319904523321531,0.41572066352442344,0.21776131158729767,0.06911996707528474,-0.017738350086907263,-0.01679426646868712,0.03701190880750723,0.01409349550188653,0.0014796432846691152,0.03540444196740619,0.01745067976138982,-0.10828137537447616,0.030279883345815096,0.11019736684554604,0.11925665586349354,0.0034189672815358187,0.02457534040253565,-0.06454812611244114,0.1602060694932161,0.1601319905856871,-0.017965697383271313,0.22671127760135915,0.3095082672777627,0.2365241018637707,0.13830125854942038,0.23696547164735335,0.42764971269249746,0.24847504275983245,0.32750579937014995,0.2743064607884271,0.17194958943587652,0.0722202385577067,-0.0009966114762261558,0.028672631320734134,0.013791150104245106,0.028209452672698622,0.04438173435426157,0.048937974394648476,-0.014926641679420918,-0.07011166900476001,-0.11440648881545279,-0.18184122741919478,-0.15346460164536174,-0.11884563741452178,-0.15256598800275686,-0.3159067890693069,-0.17619395512561856,-0.02934292940427589,-0.004232173704444805,0.16063726647476537,0.0914479773939351,0.18382128186483265,0.20153159984972926,0.19460385905276187,0.08203176439894447,-0.04732379591697511,0.06113330231473186,0.05875572073733865,0.09511994292376874,0.11273249854059486,0.07110748717015496,0.04251779619008401,0.002495339875661704,0.008321821282467121,0.02689945346878522,0.03406390819015431,0.0008145338399618978,0.005141040023751301,0.02353937665306028,-0.003852826029397979,-0.008381962720329593,-0.06051605320446061,-0.1659980543213704,-0.21739594486652994,-0.16946088223577402,-0.0996710463640506,-0.047636938004092744,-0.032816303882339505,0.09113759358987485,0.07991932581812945,0.13898820692904343,-0.09252887302976151,-0.03710617424984084,-0.008770643354347348,-0.040300974648969284,0.012464196872289123,0.03301850686920863,0.02145515879304534,0.013509251748384923,0.04092157497616996,0.018455375599946575,0.03228582550275298,0.026989724680549724,0.0356324306536661,0.03125557080438287,0.04038093825797113,0.03941645926220114,-0.005147710336217017,-0.005514952976034303,-0.0011314079632837497,0.021052734394546503,0.011535176285223334,-0.002403736072097627,0.044709376751978024,0.04598403271473994,0.04008900270132687,-0.00835606436216854,-0.003030278870539801,0.060442790507672525,0.006640871864464944,0.014762153739453504,-0.01087863026881909,-0.005146351230604057,0.005152094177535348,0.03938222380996322,0.031287016293673045,0.03825752883532009,0.01170841493457417,0.016279549326197094,0.04569468324964498,0.02735905621602669,0.03249928910221655,0.04146979542449231,0.04929355450112891,0.013177937177067101,0.002226340151135095,0.038954916379955726,0.009416339283774625,0.0040285973475108925,0.04725075444002501,0.0017296880813785726,0.03927481220103506,0.010309625613393629,0.010584421969683174,0.010360503141334644,0.03612609851271107,0.02725509245601392,0.034021384054315,0.0015332730312585274,0.014847153888175065,0.0496811378601536,0.02635670757340663,0.03447432672243631,0.030408347245765372,0.03173932598190838,0.015414321486869005,0.045163142150661195],[0.01683816571116416,0.01595834953724935,0.0264735344624308,0.02747261257933671,0.0404845692825942,0.02983000894775092,0.03590799455920834,0.03264317079308201,0.041089623491346074,0.04939670590455543,0.020076460495382687,0.010351842030641973,0.038245342224962085,0.0486239823019328,0.04218133597879889,0.011281772698608344,0.023891751416889307,0.022718904653127692,0.019570626653971385,0.028645247110578177,0.010359350815890301,0.02009551953899375,0.026168640077101925,0.025200501584471104,0.03457044870758338,0.028417712818788802,0.03945621159564677,0.032429013233827124,0.03325466904399733,0.02174726437480059,0.029295806710913662,0.0198350452035972,0.01545538027308103,0.021011716768312715,0.044446023950512545,0.015345296489500915,0.04147578715694456,0.04965532967655178,0.03194769392867438,0.0021269118677021345,0.013595126543524221,0.015073448458906616,0.033871314114995554,0.017908204838581444,0.020136980010640564,0.03961434955995739,0.010127493751757333,0.04379415310749641,0.020634211621913354,0.030033549724795324,0.04217124028089174,0.01099878296495571,0.0036604052620512035,0.018753977679247125,0.04347309284448245,0.038654231012137164,0.05016205245850735,0.010351278262920446,0.0414720358951872,0.005343654774246856,0.017722973834209958,0.02531765867561519,0.005052081594800604,0.04177392585080999,0.00974388966422129,0.006902905321868267,-0.014582083619062663,-0.015510486858690109,-0.04207167580963035,-0.07321034299022296,-0.037770568780040724,-0.03357402867299504,-0.02337384897882837,-0.001507589594136573,0.007400839035312736,0.02918726778233105,-0.05191474191588128,-0.022514694993559202,0.013600865829557655,0.03509246284767103,0.03522563645646885,0.0408343691111295,0.02841884117259823,0.007032577304259594,0.011690310717961172,0.033148891877559594,0.003306122310035116,0.014983280317907726,0.03281114130743492,0.004854080284636979,0.011868100742665212,0.02360608686024849,0.009862032203936447,-0.045119412528552255,-0.049709632209654124,-0.06293097106720716,-0.0399293898932832,-0.13532722533435582,-0.26704546891796344,-0.15464383228986384,-0.14450056613676546,0.018054020493453754,-0.06943612303812315,-0.1176055779170505,-0.10801986378395252,-0.05397801602774682,-0.005948988069240997,-0.24266694989094287,-0.2178716324749808,0.07459742443674545,0.024134596849319817,0.019845270868914383,0.0007015853067487739,0.03486596419301364,0.011385685376003348,0.04004281850662859,0.02199881574711009,-0.015478761136450882,-0.021642332988510725,-0.04534509248093867,-0.13271744983482664,-0.1975838785456451,-0.254860395192497,-0.17157108264384338,-0.18552544223035175,-0.2775390124167526,-0.21575240591798378,-0.014385100717409996,-0.1476285221499768,-0.0688493659600189,-0.2676377832613616,-0.4665868128476932,-0.5170179782519332,-0.33278015167967795,-0.2671879992496135,-0.1335419283294297,-0.1066079272453353,0.10399359785068801,0.030004252896064797,0.034487070937041585,0.02202880862673144,0.002381830491071169,0.03947321833987614,0.030629829016133182,0.0022089292814126515,-0.04034609218944661,-0.1485340814529936,-0.26691071957933177,-0.3895597234985769,-0.4103399350768095,-0.2719187964130049,0.06700486404680087,0.0436543676377422,-0.1531941729244158,-0.21235890235109353,-0.3628638446719704,-0.309366295846452,-0.5439384909677828,-0.8437297214145015,-0.5948429426608715,-0.40929463088433105,-0.24753678508814062,-0.03494441995868509,-0.14491099652020203,-0.20296744954694723,0.11267590417176122,0.052226480531314484,0.01599885894482269,0.023275004752577953,0.031654119625762374,0.02814694658340612,-0.02861869703010531,-0.017738358965654618,-0.08946447306890097,-0.24501590541409515,-0.2723117344609971,-0.29106808514830473,-0.19971980750202575,-0.024228296520599015,-0.3023360388103542,-0.49561226954260673,-0.2858715939757763,-0.31645826379859976,-0.5666365976491289,-0.5956586832448458,-0.4054771060206677,-0.34001856684364734,-0.15854007826493172,-0.05120808683259952,-0.037982108113015514,-0.02216919822329014,0.02080542171975535,0.374853939006888,0.29887153296089736,0.20945969694018807,0.017336377890651854,0.021625272247740253,0.007121660413163943,0.0617999484379822,0.012002787604376498,-0.07037681091153364,-0.2084798873385079,-0.15994634978444222,-0.18767853124171072,-0.0852256580927988,-0.07538909991478661,0.10565457596466934,0.01450819510306189,0.1791509081417176,-0.021869479865622383,-0.16595160462039543,-0.13720154992447775,-0.07168682141783038,0.16263184437659273,0.4095328049274953,-0.12642372686746464,0.06359568405226328,0.4104742737122503,0.24063791382775562,0.3491442064349924,0.1901834853493524,0.13792458125416937,0.2019922791965125,0.06663694290154591,0.023212354174993025,0.0460630199927031,0.027359616511959138,0.019041238010226603,-0.08525049065184576,-0.16823265759868275,-0.3154284574963425,-0.32644474075664365,0.045289624224269846,-0.003373866129498519,-0.2574519323041273,-0.19488555114509257,0.11436683027791068,0.0070967638936591465,0.2579815006257741,0.659741098719611,0.9130933113332211,0.3460259826150197,0.5410407296637678,0.40746295522463255,0.6213912517515239,0.5730840291410392,0.1779872297758483,0.4942897833401453,0.7154257114546354,0.41155876414766035,0.1376976633758689,0.03626783302301947,0.030085913725205738,0.012985315292676911,0.018334425849904034,-0.04572444661965006,0.014851877010677587,-0.10620403352363605,-0.19873774812409378,-0.0645203482859553,0.13428623203460674,0.13453397549971283,-0.24015006323118102,0.06102898095908621,0.025372601601627937,0.1043419673949425,0.37038434146566396,0.5480564389027499,0.4851011812229204,0.786247763539922,0.9880152313895145,0.635087821731697,0.3313795663268975,0.4934248726051436,0.387965164254045,0.3787790730614724,1.1375897383360323,0.9277832111735587,0.12715203076464893,0.033370474367912795,0.04617969314147143,0.04127635791554651,0.033558313173706465,0.002682665925756424,0.01880828134694549,-0.06737683418455614,0.1057974918625541,0.18052821287605328,-0.045733527755897015,-0.18917249848102052,0.38789446965838287,-0.10832730081795026,-0.20542788451673816,-0.039086002857270624,-0.1229742461363926,-0.020535082869294292,0.1453908058306689,-0.09644343425113647,0.3904004810394198,0.5858259553778913,0.5541704769022436,0.7790518823868225,0.8579400877133206,0.5819852732863859,1.2140249603890587,1.0700563087023864,0.3082573384416184,0.024981660330095842,0.003562976867110029,0.048127136888907664,0.0725435486530648,0.01321231133646834,-0.02406524369984679,-0.15308277923690727,-0.0805243998719271,-0.0637103779339415,-0.19985808307880376,-0.09798012027731631,-0.07167509742269444,-0.03483605383153432,-0.18127799879235704,-0.22889698607536227,-0.11183509418542105,-0.5762668465186482,-0.4653870969809248,-1.0063998217421486,-0.6872315524570372,-0.5772698485632745,-0.5562818774758146,-0.1850415837998105,-0.2893169078341224,-0.05874051051077337,0.1720102293101556,0.41053910227601426,0.18609470309107923,0.03721814606313338,0.024851175477072596,0.03120365073766079,0.03906664085358229,0.010337927170199364,0.010558956611620688,-0.14141085556015257,-0.0408733647683219,-0.04279779047230588,0.40914368176473453,0.2025653105175341,0.318847260275845,0.1438403453124457,0.242572102272007,0.33460125095838666,0.023185320992264065,-0.31687235069664293,-0.7525546574803612,-1.0512882554929408,-1.1960334557643717,-1.4131929598265076,-1.262187182744613,-1.381104237915152,-1.0525053878726556,-0.8002879623975637,-0.4940475268282451,-0.053404292457806285,0.08552990975993967,0.02737043926228043,0.03709434030802126,0.03486556304397965,0.01900148846142358,-0.029113374442406983,-0.10314387507550525,-0.029868011632914908,0.015210269259079222,0.1539192993578427,0.06134901390269198,0.3589357808179887,0.3136502422404523,0.2735779664525144,0.35936037433060497,-0.017725400339582646,0.10470019702979237,-0.25314692231318586,-0.22893329023581557,-0.03812466743193911,-0.12200048973831487,-0.16844270793989738,-0.4082237212582262,-0.7351037169567154,-0.7384468089756143,-0.748257444344431,-0.5260759281394612,-0.07594561099030472,0.027661087095167007,0.026279656725106036,0.022568171520844137,0.025914214489483146,0.04748486525321982,-0.02069449690852602,-0.046205232498326594,0.0075615154402586815,0.2002340157350126,0.1414782830068074,0.058958113187491897,0.033120930080943196,0.28905846266051693,-0.02022191178023899,-0.0158135129393648,-0.22487536598322352,0.07386431479839761,0.038158915834324736,-0.34602073084329193,-0.25072422712232567,-0.043728389068787364,-0.1330092249679909,-0.10171662653646261,-0.36060445209681763,-0.45916806300505764,-0.401415872960733,-0.3120248731294772,-0.035853790815032316,-0.008007561705454944,0.03697062766403495,0.04672101718619297,0.022587172563537806,0.007081731569941461,0.01049506444611082,-0.011719624451513064,-0.07032550958567287,0.29343266773408594,0.22213676919127492,-0.010938286475868999,0.2639677662967209,0.017014833842906637,-0.1488249838470263,0.2332341888046214,-0.17537777319156242,-0.04403264777211631,-0.22639958478357206,-0.4319617685818017,-0.2352062573503515,-0.2952381557523029,-0.15404559054957828,0.08905603661618684,-0.20151794318054075,-0.44269599442278446,-0.3862278074167473,-0.26776034458146697,-0.0803333586958553,-0.02971141261178788,0.005119056199444068,0.05043152882532289,0.029317550296295954,0.012322125102829751,0.04622266210020026,0.019214544401170312,-0.16175683555388276,0.042424042502368794,0.04408782766154714,0.038463676596235924,-0.27988721631011165,0.05783825856354474,-0.11900955868405338,0.0730736116510977,-0.1441628893420111,-0.25318559817757313,-0.2867609368892543,-0.22054043271465862,-0.09382008409986363,-0.2729627166287049,-0.05681412463668464,-0.06744338864206394,-0.18022743854503798,-0.3035334907541421,-0.39867595028501407,-0.22823068874024624,-0.08134498961969379,0.0008705442711393644,0.018991261327025957,0.03237019745579623,0.0363852087954886,0.01257788239999669,-0.012859817570104133,-0.004435943912609031,0.24999742147410248,0.10716905474089627,0.18927806586465326,-0.10916462615435168,-0.21819721744018228,0.20705955022713513,0.023851642943681722,-0.19582255196399814,-0.2867888104854629,-0.15726475850548202,0.2891747019816042,0.1343128059426085,0.24055363817887215,0.09199430757375443,-0.2515623377122702,-0.016277760658899014,-0.2818605172110926,-0.23695361877231713,-0.18772105074164502,-0.13225379009653962,-0.07504887312853593,0.00997543953635828,0.016781332659979522,0.00788890354899607,0.0017302540932180898,0.031597752343205075,-0.17993880389902475,-0.023141265768955838,0.08612698492538186,0.04736287535431065,0.1059361547341423,-0.08225100031211272,-0.25204452127379234,-0.2751503819808318,-0.07976782618956285,-0.1693075138765743,-0.18227424912018514,0.2525956606501577,0.0005117425247798557,-0.07166528755099719,0.0974385431205145,-0.3737226876714171,-0.15053940489536669,-0.11678421525169676,-0.4690163324311395,-0.20552809027312113,-0.13663358631739925,-0.2254823237514689,-0.12642064607033887,0.002291530017281985,0.007129524807771032,0.0011015327691809246,0.038409266987831495,0.026529213752526003,-0.251925065856835,-0.08041817604531079,0.15551635453583923,0.13220330870000274,0.30411049138163604,0.1716542300682022,-0.2185366563806445,-0.3051512601772991,-0.11212305471190141,0.2477757131625392,0.15159060959822282,-0.22933224150232723,-0.07359953793762064,0.025908396698264977,0.04390951315271341,-0.06955984476900169,0.040611780406537554,-0.11326118506980166,-0.31771881644956335,-0.04156311150129749,-0.012238057372533327,-0.19910431567013032,-0.11675176873354465,-0.04010470986762199,0.0004957620389153324,0.005249132368822953,0.0302990578055598,0.0004233867719661225,-0.3096756127214753,-0.424376750952529,-0.06321980841627096,0.09724767106052935,-0.16323959465940796,-0.11060388500026583,-0.26135887277109104,-0.08116714386015113,0.12954635152939745,-0.04862673843091798,0.1328819650855321,-0.046506263692035144,-0.22591955518701431,0.05325085724106154,-0.11245869571425963,-0.15909880060253298,0.2819461435513911,0.08065994235743594,-0.2345185713923088,0.040635983189214804,-0.005388719916969141,-0.16055414125603132,-0.07608083034861961,0.031742211245223716,0.007620110541016399,0.008217166094210025,0.025939214092824313,0.001470009651240364,-0.1979855332651532,-0.22519571994859067,-0.09043302040559369,-0.24642977626191195,-0.25570099949238073,-0.2230972852662114,-0.14819496391573403,-0.10878125583783835,-0.0480371136418149,-0.08922612754173372,-0.023320143790524252,-0.21102858803860264,-0.15531795211291385,-0.2039247997777207,-0.20729408682686015,-0.07628266558117114,0.13039976816164556,0.15812019707726802,-0.09289251348913521,-0.09465469436928306,-0.12884406656343209,-0.08550361837374086,0.006959969998003993,0.03232879841912414,0.01475555457924669,0.020315946201586457,0.01611264221108091,-0.0030757394373285884,-0.12957692697733786,-0.26597720525489316,-0.2682302658135095,0.05565051552010637,-0.10068280974219336,0.01386687179940005,0.1765739512991625,0.12134480334232069,-0.06385619307619728,0.34200277558653125,-0.16853909908947587,0.2184450585857399,-0.0092232287329923,-0.11741857081854445,-0.031296482564084106,0.06028437199014419,-0.00971866452959024,0.1521244198149648,0.05405335829314031,0.0006756806928530536,0.00704883966260125,0.07515474227371823,-0.0021420214245392224,0.025437100236825105,0.030386819942738494,0.02899931094798016,0.04700144234837662,0.004419869330277544,0.00008531652508253142,-0.038072744044092756,-0.1344663641058583,-0.1771222447657387,-0.2390665647434457,-0.10999099719811008,-0.017573013999562053,0.13644987598945216,0.14999198050853557,0.20984001323480744,-0.05552416696487835,0.11280842498842585,-0.15984612416543728,0.16106837149002207,-0.031390355385139714,-0.07032831023235561,-0.014432602943080767,0.12127955761101923,-0.08002107301956883,-0.06057603012215709,0.042889519377386255,0.10488169404444465,0.008040687774538957,0.03320274639363757,0.043243072076753736,0.039511271980425415,0.0042119514731231,0.03848941024061085,0.045324491210999414,-0.05565857258269049,-0.18892294062636528,-0.36470203821238645,-0.20494141352043854,-0.1879727134055546,-0.16034659579541635,0.06881738933152419,-0.009965817949042098,0.17406450001037244,0.11634755308790792,0.1183024025578613,0.24617561437997706,0.1673009268122565,0.0894408830729529,0.07580432937330212,-0.062307372932041055,0.0009559860645161704,-0.07058290678155456,0.00971110979225953,0.07802272673089661,0.12386716454157977,0.029269892697854686,0.04207296075573002,0.039917043866491864,0.009065204511325533,0.03981165529292777,0.027155257166958522,0.049780305397683015,-0.053846276439351554,-0.18723419015901985,-0.22585508509972324,-0.24100430479071436,-0.313407653767997,-0.031988871748380596,0.009602180403488128,0.03352541496613977,0.36745157697146846,0.45319523376642146,-0.02485582957275783,0.3190302486839563,0.3202439149155822,0.41492688632968344,0.23473450963843373,0.12944719489514156,-0.03314538261166437,0.11093915146117417,0.11185093956936053,0.1196622990580627,0.1113425464712122,0.04738305512432518,0.012182631396743972,0.008104114192573113,0.046668148843871826,0.04250712021699319,0.003416003075111285,0.009469790957398689,0.03624279194892073,-0.0368016845232021,-0.09712795874510606,-0.04035035063411688,0.02792180187512289,0.1468080982118477,0.09438379569939327,0.1759049705662019,0.34647884468745127,0.4137263476340571,0.2546518269337715,0.2741262990379379,0.27198439626348964,0.2720913754125104,0.24424972700017072,0.1500340196763251,0.03409368626045279,0.13963060079182982,0.06879216402285761,0.025355653398374627,0.02275163465859804,0.03315156530634025,0.028303465399555194,0.03224387172950567,0.02088373497287148,0.030816103834097344,0.038136251980249294,0.007281557331126202,0.0030038292727789335,0.036569592778424836,0.030950697561861383,0.06480315403136845,0.07381258041586855,0.04859807601102354,0.09213651857489227,0.05168391679269351,0.08502124850019505,0.05877979326996503,0.09548457072197995,0.07856425444560614,0.027742751016391228,0.07253587108980672,0.09060055170267024,-0.005779185094523235,-0.035068069538368454,-0.002486923059292721,0.01697701259426074,0.044695783895833556,0.039143495458611254,0.0321237480695186,0.04475338739171072,0.04538662045156145],[0.021013999794682874,0.004336878194935455,0.020115246383965897,0.0031669525810558608,0.01601525539142842,0.028384317801966867,0.003074924593589133,0.022918107247766616,0.0011469993507856446,0.023298392700892828,0.0014598371138969956,0.04834077054627579,0.003599214056912689,0.014828929297596117,0.04553765343239099,0.03603984640589461,0.04509061746314516,0.00042861124810803777,0.04010800783632855,0.03082871173068826,0.02951912742747988,0.018219699280216585,0.008629807377496369,0.018680315126305864,0.04169645313526221,0.029940676246452032,0.00537298485512688,0.04730991203807988,0.019497900316474547,0.03098478590719348,0.021383941626135397,0.028233749302137668,0.037167356066741486,0.0018209541773207476,0.004875286603338579,0.026518378657815804,0.02126752600398837,0.0067941653491090685,-0.0035940392362963946,0.05663093073518556,0.06290068395253344,0.05599141522659259,0.03766148380888805,0.03248877575730197,0.0059979594111944055,0.03128373490113424,0.02417781123273914,0.03177228171327493,0.00241102488990206,0.048874468870559344,0.003948401052128978,0.042913085619138897,0.005477969425039329,0.04841247255907213,0.017560831946871552,0.02613007162052146,0.014562811393041816,0.03384965974992155,0.018198875182383088,0.038615660043835584,0.03770608568149013,0.04059412850345217,0.0001621357218230249,-0.040135139347979486,-0.009170597299541283,0.014236043553092053,0.0033554891497727607,-0.05221228995100404,-0.037005908603714985,-0.03341923749033154,-0.1070655443330286,-0.1468571198662052,-0.17736763881561776,-0.1833412094766003,-0.07636382472982466,-0.030469405014724806,-0.03239949472953194,-0.011339854030002745,0.026207423493845385,0.03356426027145923,0.04564455174687749,0.00903951975631815,0.020586927547753403,0.020687462546148998,0.00047016622574900916,0.038375028637590534,0.024996656083286557,0.04544345952533247,0.0062686977492359885,-0.05726651441031075,-0.12374932431118617,-0.09936154161584602,-0.0034184866969282444,-0.13858482975811784,-0.1143111244063851,-0.09824209782477751,-0.11796578918127153,0.06561660392324116,0.031414058815925856,0.06363833648505172,0.0165893768193751,-0.08547857164283384,-0.39140199710229967,-0.3334126277764892,-0.3055208041112088,-0.3449808879547684,-0.14682654896762862,0.035865683735497464,0.06269710510159297,0.009657290045887116,0.03029796807540222,0.012377558690662267,0.027062642015605112,0.015582767494933496,0.029117620448523913,0.03344928333620341,-0.005559727502651568,-0.10032399080019147,-0.12701960280636143,-0.06896170468680164,0.012574411589419623,0.1201548287031943,-0.08635555147454925,0.03516813270645423,-0.12312856422609471,-0.08608475708082831,-0.25265952475658277,0.11521407817963894,-0.15741791908997155,-0.07489541417679228,-0.24062636925626632,-0.329900281667754,-0.13155521718165175,-0.39281204292618227,0.0465021752193551,0.09598929866957284,-0.007905616325800429,-0.030217525279067358,-0.005520848698242376,0.048240039685882904,0.014362330823201166,0.039280593923538686,0.009960226361320764,0.011604323526433178,-0.051263622910247754,-0.14985252242530553,0.04187566592204535,0.041656982714795635,0.17590429615157635,0.20752322544721355,0.12593791797659662,-0.02395836994047193,-0.2429519081534435,0.058245120578405515,0.3492129419173535,0.25954695066114414,0.11292486330894626,0.02386301492147622,-0.027391255324901224,-0.007732433485995279,-0.15032127781134175,-0.08308703081729016,-0.1336787487652535,-0.07654534687532966,-0.021788409268500633,-0.11383485228767827,-0.02240028203027972,0.02550463233977692,0.04757042357686058,0.01907460921459123,0.02628178662652478,0.030040629015414183,-0.05772299230044254,0.07643208826678854,0.0897243031083174,0.05225248535467294,-0.07165675102023104,-0.26358830911458275,-0.017445343842036967,-0.06784519377214272,-0.2828532149066677,-0.077391167416551,-0.22957403068920088,