{"layers":[{"numNeurons":6,"numInputs":4,"activation":"relu","weights":[[-0.29169993704030117,-0.23124654257969757,0.22975486255032723,0.3654190213295145],[-1.4838119147841937,0.03518190059444523,-1.2340383541983662,10.467601077340419],[-5.994068930755915,-4.28507275871729,9.82325501177139,13.494450109172229],[-1.9983305428972817,-0.7090482268377998,0.36474210118469463,11.038692451957145],[0.6999756459350774,1.2540452556363055,-1.9268326407032395,-1.1063468803143668],[-2.288646352366104,-0.8976516669076169,0.9269220406589316,18.085800064638434]],"biases":[-0.1725422000342936,-7.851703937253324,-18.80762035192629,-10.314155072333422,0.29213120028014095,-17.54629778228784]},{"numNeurons":4,"numInputs":6,"activation":"relu","weights":[[-0.17649383101024493,1.2712513664680174,-0.4939799566361157,0.3225295096394595,-0.2451210722552768,0.10818058239605502],[0.8638385683348033,-0.6720667920395592,-1.895117146645208,-0.8526888206643386,-1.9193833158160947,-1.2276531310154417],[0.39097999755961943,1.4379400638942035,0.8958326152075982,1.1741158924615178,-0.5704917550296456,1.8831658751011424],[0.4528338137155595,0.4464137747879093,0.04885024231171516,-0.41379815555112714,-0.4587494039295584,1.015312143713333]],"biases":[-3.433641311896224,6.604726900146953,-9.361722456680354,1.1011913876961266]},{"numNeurons":3,"numInputs":4,"activation":"softmax","weights":[[-0.17532910514712763,-3.36256462537039,-1.3210331108847473,-6.894226797791244],[0.3582163132588127,3.0329519314690545,-0.15782459323149223,3.8866516290806974],[1.0087409271639944,1.256756016327182,1.7148691665871174,4.252508258750415]],"biases":[6.101044724922472,-3.679702128073949,-2.4213425968448115]}]}