{
    "layers": [
        {
            "numNeurons": 3,
            "numInputs": 4,
            "activation": "relu",
            "weights": [
                [
                    1.9407239938481886,
                    1.819077616976356,
                    -3.158619645536904,
                    -2.0728834429147027
                ],
                [
                    3.795502216380559,
                    2.67271001091557,
                    -5.785182167669377,
                    -4.413931826881818
                ],
                [
                    -1.1893659743806781,
                    -0.9553942378702115,
                    2.833353120891882,
                    5.342790128866296
                ]
            ],
            "biases": [
                2.727040268957251,
                5.915986288807218,
                -4.916274316138921
            ],
            "input": [
                "5.1",
                "3.3",
                "1.7",
                "0.5"
            ],
            "z": [
                12.221576084918974,
                22.0512211400561,
                -6.646746400502729
            ],
            "output": [
                12.221576084918974,
                22.0512211400561,
                0
            ],
            "error": [
                -0.000052396116910241834,
                0.00001822153102111822,
                0.0002827081955506063
            ],
            "delta": [
                -0.000052396116910241834,
                0.00001822153102111822,
                0
            ]
        },
        {
            "numNeurons": 3,
            "numInputs": 3,
            "activation": "relu",
            "weights": [
                [
                    1.2515747478256807,
                    2.4386853389165224,
                    -1.3430210721907574
                ],
                [
                    1.5799266986513152,
                    1.3990889860630618,
                    -2.6487244108543657
                ],
                [
                    0.5622559712383138,
                    0.8798023371750298,
                    0.743233559729165
                ]
            ],
            "biases": [
                4.177654355356853,
                -0.4054704555125073,
                -1.3462460662521236
            ],
            "input": [
                12.221576084918974,
                22.0512211400561,
                0
            ],
            "z": [
                73.24995193411291,
                49.754899911818335,
                24.92668405579429
            ],
            "output": [
                73.24995193411291,
                49.754899911818335,
                24.92668405579429
            ],
            "error": [
                0.00001766215084993701,
                -0.00008547536463700939,
                0.00010767564305185726
            ],
            "delta": [
                0.00001766215084993701,
                -0.00008547536463700939,
                0.00010767564305185726
            ]
        },
        {
            "numNeurons": 3,
            "numInputs": 3,
            "activation": "sigmoid",
            "weights": [
                [
                    -0.3503228168070083,
                    1.6955796714118665,
                    -2.1359556240854474
                ],
                [
                    2.06814236231347,
                    -2.903075495739839,
                    -0.7933332219173255
                ],
                [
                    -2.0411206600234197,
                    0.4634093037475235,
                    0.7756201104668194
                ]
            ],
            "biases": [
                -0.5195647558330172,
                1.7100855226866982,
                -1.635562796071881
            ],
            "input": [
                73.24995193411291,
                49.754899911818335,
                24.92668405579429
            ],
            "z": [
                4.936925559696505,
                -11.015983126953408,
                -108.75703206742207
            ],
            "output": [
                0.9928745084009687,
                0.00001643660721043052,
                5.853573891272112e-48
            ],
            "error": [
                -0.007125491599031308,
                0.00001643660721043052,
                5.853573891272112e-48
            ],
            "delta": [
                -0.00005041085057557872,
                2.7015761604236927e-10,
                3.426432730058254e-95
            ]
        }
    ]
}